Q16850	-0.7139845,0.16267581,-0.7038692,-1.0796595,-0.013475062,-0.66449577,-0.11813223,0.47477603,-0.3758324,0.37409997,-0.65066737,0.5476741,1.476844,-0.24791236,0.045900483,0.03617446,-0.72644955,-0.85248065,-0.09090325,-0.56960624,0.45331588,-0.07684279,0.9166011,0.22063066,-1.4946316,-0.08642714,0.47076482,0.03145824,0.39592203,-0.20635006,0.7670647,0.71254647,0.13415651,0.40315306,0.6609815,0.13750792,0.07945901,-0.82416177,-0.59415895,0.4018508,-0.010117776,-1.0695997,-0.23749898,-0.33747557,-0.213159,-1.1707163,-0.4769333,0.3613892,-0.2070784,0.83257747,0.5227951,0.49400368,-0.78104717,0.6637158,-0.42596674,-0.30771387,-1.1587311,0.35438555,-1.2837932,-0.036031604,0.73068684,0.40216646,0.07356486,0.76615804,-0.0014268324,0.6966274,1.1650437,0.06556006,0.91604185,0.29224524,0.52695847,-0.44963336,0.48609048,-0.10930104,-0.59431386,0.21151833,0.17479853,-0.26256335,-0.63506615,-0.53288746,0.85208446,0.6929589,-0.23855402,-0.40735486,-0.5877215,0.44975945,-0.29082006,-0.97661215,-0.62223136,-0.4571328,0.66170734,-0.028911337,0.3744247,0.8909871,0.53880256,0.35793775,0.42268944,-0.83957374,0.76678866,0.07956958,0.045462262,0.80161977,-0.0524983,-1.4080558,0.2773821,-0.4102536,-1.1149226,-0.5194988,-0.12904471,1.2125788,-0.58473533,-0.9190752,-0.4800191,0.2587171,0.17466496,0.95908266,0.046598386,-1.081065,0.17119059,0.38193887,0.32444468,0.024943879,-1.009752,0.3463627,-0.07025337,0.27217436,-0.21165496,1.3236635,0.23601213,0.79931825,0.37937975,0.86658734,-0.20662777,0.5542579,0.60234034,-0.597757,-0.23479882,-0.009786943,-0.55779284,0.615287,0.4204343,-0.20135868,-0.15946332,1.144448,-1.1080784,0.15142162,0.09083451,0.9368305,0.25443754,0.32686213,-0.17916414,0.7986157,0.48936218,-0.58095646,0.55737275,0.6727491,-0.70083123,0.4826781,-1.0942758,-1.1607261,-1.242965,0.44927227,0.9538565,-0.90443546,0.9767071,-0.077629186,-0.6735618,0.08921206,-0.517626,0.1190919,-0.24911703,-0.14590016,0.22060217,0.43788958,0.6352412,0.321274,-0.32263058,0.4479296,-0.58813894,0.08150458,0.6181298,1.1083419,0.7508587,-0.123871945,-0.57624227,-0.013005178,-0.6653931,-0.15580285,-0.05090497,-0.14647332,0.064790495,-0.40751916,0.52143633,-0.26704714,0.283196,-0.973251,-0.4418151,1.1894174,0.05340959,0.6152491
O75865	0.08741813,-0.39131463,0.33995837,0.11675719,1.1884214,0.4826291,0.24610329,0.02360787,0.23212236,0.42337993,0.5012552,0.006423404,0.5351838,-0.74068725,0.09411074,0.52596176,0.7015612,-0.53174114,-0.28616464,0.50676584,-0.54464537,0.22007723,-0.54203844,0.8912035,-0.5808396,-0.21372794,-0.022348102,-0.9028097,0.2944142,-0.23621084,-0.25068948,0.39994097,-0.41889447,0.77508354,0.24795955,0.15560809,-0.47050187,0.13338147,0.49180058,-0.9289101,0.5200541,-0.3297127,0.18128681,0.18296665,-0.24374832,-0.111129716,-0.43300512,0.3576414,-0.86752146,0.9844328,-0.018789701,0.20428817,0.0070393155,0.5591236,-0.27717617,0.0030315588,-0.051539037,0.23115833,-0.8277294,-0.5775948,0.8402741,-0.43243563,-0.33714718,0.17229342,-0.35566935,0.24956873,0.8279937,0.38184714,-0.21989709,-0.69543344,-0.15626091,-0.13323016,-0.1269522,1.2825613,-0.9291358,0.17508468,0.49962226,-0.29581818,-0.28740212,-1.314373,0.026253983,0.29626873,-0.13995685,0.87836844,-0.19406627,0.21420269,0.34780797,-1.0263103,0.37877017,-1.1185313,0.5155356,0.04935919,-0.39582798,0.86424905,-0.9125301,-0.253152,0.2614696,0.40568373,-0.24243434,-0.68373615,-0.5577582,0.49304786,-0.5540226,-0.364054,0.90246445,0.96180457,-0.48894873,-0.04868914,0.29189473,-0.087151274,0.19036381,-0.14951393,0.33532864,0.48630264,-0.44864547,0.45991418,-0.4683814,-1.0012105,0.35924438,0.12396994,0.6770649,0.027778491,-0.1885198,0.3149631,0.25119916,0.64938694,0.43911073,0.048758294,-0.94830674,-0.14390472,-0.5174091,-0.10921005,0.21759604,0.6305792,1.5172635,-1.06997,0.36044613,-0.3636333,-0.32623425,0.77305746,0.8720694,-0.49536732,-0.7772255,0.35535157,-1.2502998,0.5367585,-0.45599276,0.77966774,0.33438888,0.76095706,0.5226747,0.6694095,0.26978037,0.25766575,-0.55215716,-0.2868885,-1.4397172,0.297769,-0.517077,0.25124657,-0.5539084,-0.40213838,0.58301884,-0.25405326,-0.16239566,-0.66477686,-0.9636678,0.29107308,-0.3063117,-0.9827843,0.80531484,-0.3628738,0.69125694,-0.15826659,0.039982144,-0.39157218,0.10998844,0.66891927,-1.3632001,0.084056325,1.0863127,-0.3104465,0.6764089,-0.29793638,0.252515,-0.91961104,0.9584857,0.037276093,1.5178964,0.1986854,-0.9764513,0.25560784,0.21508339,0.45114338,0.3871944,-0.62923753,0.08072927,-0.46331096,-0.63113666,0.25106215
Q16526	-0.6554387,-0.9176015,-0.8723803,-0.8299484,0.076389425,-0.19516392,-0.5371827,0.6030261,0.14372624,-0.276745,-0.20991403,-0.53279877,0.6531233,-0.6026822,-0.6403036,-0.679317,-0.6002445,-0.18541212,0.22222152,-0.88403976,-0.5079542,-0.4766893,1.0981044,-0.17114007,-1.3403175,-0.40649182,0.4010377,0.91404694,-0.9591735,0.1168872,0.15571505,0.6882115,-0.79299116,-0.41034612,0.097492196,-0.7482876,0.28404546,-0.5986119,-0.79849404,0.68163353,0.062883854,0.44311786,-1.9941678,0.3493534,1.252291,-0.68657947,-0.32955906,0.68630743,-0.60343003,-0.3237906,1.1638399,0.78872377,-0.37949866,1.0267115,0.20685434,0.97826606,0.024281183,0.555541,-0.4118491,1.0702827,-0.095621765,0.716567,-0.2096029,0.2556451,0.89950943,-0.36345175,0.033633433,0.27130306,0.055179358,0.12920488,1.233422,1.5768416,0.11851876,0.10695502,-0.8858865,0.08512364,-0.11372618,0.20805183,-0.6054242,0.5992758,-0.14838527,-0.002760831,0.53661543,0.42590135,0.85726863,1.256468,-0.3208475,-0.88271904,-0.7019372,0.012551492,-0.6865318,0.20001811,0.47247916,0.8135608,0.85385734,0.6639868,-0.6193064,0.5684585,0.046891022,0.15442824,0.32089883,0.5277688,-0.26157853,-0.15078436,1.0099279,0.95239866,-1.0094218,-0.9715164,0.6665778,0.9516042,-0.23340952,0.49541175,0.025469141,-0.11555874,0.11959551,0.33901572,0.7465676,-0.5896076,0.23907305,0.69517547,-0.45111206,-0.3038591,-1.3821633,-0.5709926,-0.0930462,0.1603363,-0.44252294,-0.085870445,-0.886252,-0.9684392,-0.58843696,-0.63876176,0.21090995,1.1813405,0.03933193,-0.17337397,1.340906,0.44652718,-0.7679824,1.0615205,1.006907,0.21990342,0.09277441,-0.34813088,-0.3922228,0.29985788,-0.33565846,-0.5705131,0.2949334,-0.029748945,-0.6803367,-0.08995706,0.6328788,-0.26277888,0.27424255,0.4435976,-0.22471601,0.35809174,0.7197107,-0.17315862,-1.5089751,-0.19498448,1.1905062,-0.32615894,-0.0670452,0.0918136,-0.13158086,-0.296336,-0.030699598,-0.20190108,-0.50175405,0.18262345,-0.58433026,0.19298755,0.4473048,0.29785156,-0.21554798,1.3277429,-0.43701378,0.32369608,0.06399263,0.48199558,0.117703885,-0.1999962,0.2061772,-0.8215017,-0.014876913,0.23804629,0.05744989,-0.20379384,-0.38421577,0.21200134,0.043456104,0.3056086,1.0007975,-1.7142023,0.26910338,0.52834576,-1.5382906,-0.2598998
P07992	0.28947106,-0.30890986,-0.9648897,-0.030295704,0.32191646,-0.03846841,-0.6355908,-0.042654496,0.21105166,-0.09657598,0.27478105,1.1635507,0.59026957,0.29277542,0.005168386,0.63105017,-0.18115997,-0.45617366,-0.12013519,-0.21542741,-0.34384078,-0.1136123,1.6631142,-0.707671,-1.0744716,0.45598027,0.27112988,0.22959954,-0.4638838,-0.12932986,-0.9655727,-0.8719212,-0.9121787,0.7340326,0.3522282,-0.3612796,-0.1356283,-0.6401811,-0.3559385,-0.22498626,-0.22190017,0.08774084,-0.60502326,-0.17570882,-0.1903485,0.1651791,-0.5693781,0.09551454,-0.7125173,-0.15196459,0.7220093,0.80112785,0.07481347,0.055813145,0.6029201,0.12292661,-0.71066654,0.24126936,-1.1150568,0.82246935,-0.40006492,0.78302115,0.41399854,-0.07463723,0.5925748,0.7698479,-0.18329903,0.019512022,0.5718237,-0.46709776,-0.53526604,-0.028155781,-0.30569276,0.29824612,-1.1927985,-0.98019534,0.14474358,0.6051471,-0.15566798,0.59387666,-0.24085924,0.5449075,-0.9647814,-0.7119146,0.37737617,-0.79040533,0.27954078,-0.087491654,-0.945363,0.5191775,1.0011177,0.54007155,-0.13652223,1.3380781,-0.71517223,0.37491903,-1.1051413,0.8084331,0.82501656,0.15407287,-0.63459635,0.3183727,-0.6636454,-0.700975,0.52201545,0.30056468,-0.04767662,-0.22190914,-0.23821275,0.26308995,-0.5587526,0.46906486,0.07340137,0.22630748,0.06305192,0.8849292,-0.34869418,-0.438887,-0.34030235,-0.28003222,-0.79336196,0.79017836,-1.542213,0.06691916,-0.4995534,-0.26179847,0.8978585,-0.08187337,-0.66613907,-1.3993013,-1.5431753,-0.77234536,0.26545832,-0.41793013,0.5228524,1.0358427,1.2215092,0.63116455,-0.1196218,0.46386215,0.9379943,0.33589533,-0.7121441,-0.10595589,0.14766395,1.1718799,-0.029411418,-0.03836868,-0.5440834,-0.19445299,-0.89925224,0.17694461,-0.82024693,-0.13530605,-0.9697063,-0.052836634,0.9681745,0.8715642,-0.42703938,0.272796,-1.1430672,0.26090252,-0.6582594,0.27144873,-0.121453434,0.2680603,-0.8318757,0.03135856,0.1860935,-0.1202728,1.080749,-0.34526122,-0.18245296,1.2240576,0.30770296,1.3011324,-0.2953639,-0.14325699,-0.30904272,-0.22444648,0.6605855,1.0642226,0.10739684,-0.06500996,-0.81724185,-1.1355201,-0.6852227,-1.1560314,1.0589786,0.5217736,0.15451819,-0.20662701,0.045565642,1.001352,-0.49827293,-0.7630521,1.2040288,0.26908967,-0.93671066,0.5401765
P00480	0.32652053,-0.21444778,-0.3928755,0.06542572,0.29075414,-0.5860655,-0.48168194,0.63708675,0.54451644,0.32714504,0.49694547,0.28055918,0.7126466,-0.14097916,-0.38636458,0.33533734,0.61111015,-0.7331968,0.17609763,-0.8032225,0.790456,-0.9517625,1.341707,0.32659814,-1.2349119,-0.6045816,0.31825447,-0.25741085,-0.04070428,0.31936985,-0.016675796,0.05295776,-0.8169257,0.22580856,0.48706737,-0.6780148,-0.6589706,0.14725326,-1.2223092,0.34414592,-0.21314733,-0.31819242,-0.96057767,-0.49444905,0.27096385,-0.78853995,-0.4348544,-0.09911912,-0.5649884,-0.22433504,0.19961856,0.5130182,-0.18288897,0.45263118,-0.2307288,-0.045944966,-0.6152827,0.8902174,-0.49316257,0.7009446,1.0128453,-0.9862243,-0.75956017,-0.25780538,0.9309452,0.5068229,0.42945877,0.45533204,-0.008737872,0.4487952,0.38145947,-0.18042997,0.19525185,0.058091827,-1.2901567,-0.5982214,0.4193872,0.3679258,0.9578523,0.2455326,0.06817208,0.38904825,-0.6308701,-0.25734103,-0.45661545,-0.010142727,0.12141926,-0.39024615,-1.0050955,0.3524209,0.8520464,0.97310024,-0.14374943,0.28798142,0.83289665,0.37593293,-0.36971977,0.222654,0.018871723,0.23417355,-1.0992509,-0.12454288,-1.4249914,0.12908606,0.22499096,0.4101711,0.02258475,-0.5892572,0.2510435,0.12543166,-0.6953244,-0.11708491,-0.44902846,0.2995317,0.28601792,-0.18555275,-0.6716428,-0.39834124,-0.16242507,-0.12520906,0.24796389,0.21670336,-1.0264431,-1.5248877,-1.2673503,0.9220974,-0.74660194,-0.39908242,-0.40106574,0.11749491,0.22969723,-1.093692,0.37902382,1.1437008,0.21419388,-0.13303055,0.6686594,-0.34519395,0.7840647,1.0382038,1.0497808,0.10907935,-0.4252933,0.04413933,-0.5392089,0.8910409,-0.2641206,0.02527057,0.19866344,0.54159075,-0.5080434,0.8247614,0.14042704,-0.26196158,0.35307577,0.34631023,-0.6788206,9.846609e-05,0.49760696,0.04167575,-2.1936076,-0.07866838,0.8998992,-0.07579006,0.13315839,-0.25436366,-1.1810187,0.46503928,0.6069742,-0.8317664,0.11614837,-0.26996952,-0.02610952,0.18299116,0.6190434,0.041469626,-0.39954406,0.17297976,-1.4080766,0.5249049,-0.6280743,-0.25398192,-0.24661185,-1.4256628,0.06087025,-0.6971018,-0.099553056,-0.8257243,-0.40815988,-0.26887578,-0.22539158,-0.056405418,0.5278089,0.26515508,0.7505408,-1.932662,-0.8401694,-1.0408833,-0.53707415,0.4393373
P25789	0.48362154,-1.0591354,-0.01714451,-0.4242868,0.4365821,0.20038739,-0.15086156,0.47381756,0.1803156,0.18944816,0.065156646,0.05477469,0.41830158,-0.28697994,-0.6838171,0.036867186,-0.371912,-0.9085392,0.85195386,-0.95127773,-0.037514776,0.34686884,1.379179,0.26960957,-0.06544781,0.011986516,-0.37458187,-1.1118165,1.0160177,0.74417114,-1.2302145,0.651671,-1.452637,0.28350267,0.083057396,0.44653526,0.15419957,-0.34015587,0.14043087,-1.599268,0.22870603,-0.69419473,-0.27042452,0.18070832,-0.11934488,-0.164838,-0.48676652,0.6294456,-0.5493088,0.054729007,0.43222967,-0.018318504,-0.9409435,0.30705187,-0.6176798,0.041882318,0.22500809,-0.27988762,0.03953669,-0.59283423,0.008296363,0.8282291,-0.5090937,0.37592316,0.6742207,0.4695462,0.3658595,-0.010275751,-0.34577918,0.2373001,-0.3737588,0.32810846,0.914422,-0.38554746,-0.517849,0.14725395,0.244918,-0.90425533,-0.28660494,0.49889177,0.09869231,0.34957466,0.08863092,0.27408856,-0.22131348,0.4317424,0.55125314,-0.109229095,-0.59837604,-0.19468507,0.6086461,-0.08438656,0.09976494,0.7517641,-0.05705378,0.5030615,0.65631056,0.41834545,0.32990947,0.1498683,-1.4626184,0.03897343,-0.8546377,-0.38129112,0.45518935,0.22033074,-0.20864923,0.7265457,0.41123444,0.11397108,0.9992727,0.3103434,-0.49626282,-0.6421955,0.87295836,0.66702557,-0.53194577,-0.5925685,-0.60660267,0.16837789,1.050556,0.4671924,0.007521505,0.6671059,-0.21085888,0.86349106,-0.4439811,-0.02623759,-0.033620734,-0.1575263,-0.14586838,0.097110406,0.2749653,0.92431587,0.1583584,-0.63919145,1.3302665,-0.07637952,-0.21158138,1.2661387,0.7514207,-0.007713565,-0.6504234,0.6697729,0.05279894,0.15818885,0.36754164,-0.3663112,-0.35629982,0.032101765,0.4790182,0.21696484,-0.25005496,-0.1933064,-0.3055389,0.55831254,-0.4152622,0.3567373,-0.22228768,-0.84536886,-0.7398061,-0.83376014,0.2255811,-0.36430678,0.76966804,0.01863763,-0.7542429,0.03340709,-0.17964102,0.35218358,0.6689372,-0.39850453,0.13423406,-0.50298154,0.45667934,-0.4098901,-0.8290798,0.51637584,-0.93280077,0.029734002,1.0847117,1.1666325,1.0914934,1.0365062,-0.24592726,-0.86497176,0.1438203,-0.39766747,0.01117103,0.606345,0.55360675,0.34661695,0.006178232,0.58256054,-0.29933912,-1.2965732,-0.94391143,0.16979687,-0.94672215,0.17807277
P35250	0.81282586,-0.5295209,-0.8825816,0.8013614,0.778367,0.11179168,-0.13997442,0.90184915,-0.117460534,-0.10045223,0.042349923,0.22092023,0.04866398,-0.25825396,-0.34552565,-0.30985618,0.06705908,-0.44405606,0.3122365,-1.6080098,-0.30596015,0.27145034,0.5631228,0.48542017,0.1369943,0.093082055,-0.36038232,-0.8471705,0.5861576,0.45009622,-0.091625355,-0.43737674,-0.23619485,0.7184784,0.17104131,-0.52871233,0.27955025,0.18676057,-0.38486746,-1.0661591,-0.7794403,0.5579229,-0.77149135,0.08213337,-0.81631094,0.382035,0.57054824,0.56373304,0.22630742,1.1283327,0.32935363,0.5305625,-0.54091924,-0.050524786,0.3500964,-0.41466033,-0.29326174,-0.6876114,0.5731517,-0.49699327,-0.38654548,0.6922743,-0.40579242,-0.51814926,0.7908233,0.111741506,-0.58921695,0.060918603,-0.5619591,-0.14905798,0.2380619,0.1940297,0.18304294,-0.3663901,-0.37281975,-0.6372572,0.3352782,-0.48964608,0.1983935,0.023621054,-0.47097665,0.77241546,-0.5574909,-0.5280005,0.20081806,-0.3408505,-0.14096425,-0.17696296,-1.3947606,0.60328996,-0.23112108,0.10307836,0.01199252,0.58369166,0.09417879,0.6515114,-0.31715614,0.06374238,-0.22454607,0.13414037,0.07791098,0.29608914,-0.45927846,0.15566666,0.6288436,0.43413237,-0.46189648,0.2221502,0.32799572,0.32107368,-0.7626707,0.44866484,-0.08166159,0.44055817,1.0908991,-0.44540522,-0.17512688,-0.48262402,-0.0044577518,-0.08721102,0.041665558,0.7957243,-0.88914865,0.12893395,-1.4091792,0.70880806,0.19372809,0.3314078,0.8229229,-0.5724285,-0.55603117,-0.038323894,-0.39769188,-0.0895728,0.17508872,0.5124371,1.2845231,0.18090086,0.12515752,1.2646862,0.67687744,0.24038754,-0.45770496,0.8770287,0.2229778,0.8213818,-0.58620876,0.27330318,-0.7775086,1.4296601,-0.019846864,0.13093914,-1.0186886,-0.495234,-0.16512094,-0.44884875,0.385666,0.5233016,0.23156624,-0.5724228,-0.68684393,-0.05641696,0.31503502,-0.6099754,0.19834547,0.9450298,0.26944828,-0.027321447,0.3358734,-0.7355513,0.6687185,-0.50599545,-0.13591565,0.6168452,0.8418709,-0.19473733,-0.36735374,0.35792142,-0.7684099,0.08514305,0.99560654,-0.03410123,0.43441844,-0.34756157,0.2751544,-1.3843434,-0.40644917,0.6767019,-0.11297432,-0.19028744,-0.78916615,0.3407518,-1.0940982,1.1888063,-0.22970285,-1.8145047,0.12860377,0.22946313,-0.03191168,0.881461
P82673	0.65033805,0.18212895,-0.7676236,-0.31597963,0.7697582,0.009590609,0.30212787,0.11066076,0.007194175,0.77086395,-0.021475187,-0.0046221158,0.35903293,-0.013643169,-0.028326934,0.19295157,0.12971939,-0.44691458,0.97478664,-0.753846,-0.17425737,0.2758164,1.0607824,0.51695454,-0.15144259,-0.47205147,0.16273944,-0.7107883,0.350666,-0.9592431,-0.8788996,-0.15520047,0.25361538,1.0574325,0.20378551,-0.87344676,-0.09630919,0.4052993,-0.48361865,0.3030791,0.22849172,0.5234998,-0.64698845,-0.30052528,-0.14223902,-0.42685208,-0.10274994,-0.32635853,-0.5570155,0.23660095,0.45270145,0.40125078,-0.48893496,0.19152857,-0.19003887,0.15282984,0.32112795,-0.30294418,-0.86064094,0.5324964,0.21474415,-0.010961931,0.008813478,-0.10058588,0.22014005,0.8205928,0.69525194,0.37483805,-0.29435027,0.29491308,0.3541346,0.3121227,-0.07974819,0.25984022,-0.06855164,-0.030943917,0.6108586,-0.30843443,-0.21696898,-0.014140037,0.63403046,-0.118161015,0.09041954,0.013924602,-0.22318119,0.1193954,-0.23197079,-0.21281703,-0.13382138,0.19790955,0.0058525507,0.39036658,-0.4600546,0.49982068,-0.074218795,0.27233452,-0.09117522,0.21493259,0.26881173,-1.0736612,-0.409625,0.16530667,-0.20577992,0.79121196,0.58569956,0.512962,-0.9304541,-0.84003705,-0.32888758,0.49971846,-0.38751715,0.56328154,-0.23751637,0.9229702,0.05146192,0.6891961,-0.6126942,-0.8288122,-0.16536304,0.46864903,-0.084761426,-0.13268332,-1.2222502,-0.73384196,-0.5958434,0.3985608,-0.1480906,0.48971993,-0.5912017,-0.021755246,-0.10653667,0.11251422,0.18180911,0.69214666,0.19472966,-0.6154419,0.77264434,-0.03460812,0.7768807,0.94578743,-0.17639133,-0.69745517,-0.4494681,0.8573975,0.5201801,1.5853602,-0.5137981,0.5699447,0.6577489,0.8453645,0.5659839,0.06296072,-0.21810792,-0.5563565,1.0364305,1.0125383,-0.2859727,-0.3218108,-0.04553434,-0.3276524,-1.0441347,-1.1647593,0.5305836,-0.25302544,-0.70391667,-0.18566051,0.035393845,0.61362135,0.24508192,-1.1543752,0.6285919,-0.9283518,0.09628638,-0.088772595,-0.02527301,-0.33675024,-0.8273324,1.1167239,-0.87752837,-0.07913458,0.56092703,0.0049920594,-0.26192063,-0.67453235,-0.46809924,-0.79147214,-7.664499e-05,0.3141859,0.057618555,0.5303653,-0.6390961,0.07324416,-0.021132397,0.38683677,0.2695584,-1.161567,0.03320141,-0.23269425,0.13295008,0.68349016
P43686	0.39228275,-0.6660531,-0.41556525,-0.16551657,0.28191766,0.50093096,0.18080918,0.3828042,0.11876167,-0.035320636,-0.37915078,0.09355879,-0.09928654,-0.022059055,-0.028948756,0.4673728,-0.042205516,-0.85926807,0.72770506,-0.8425574,-0.06515779,0.29213014,1.168151,0.86794466,-0.16718113,-0.23456103,-0.62890023,-1.2483147,1.0711613,1.0589089,-0.8588961,0.86132425,-1.0951306,0.34838465,0.20406856,0.43105152,-0.116524026,-0.1959011,0.12657887,-1.593008,-0.4109107,-0.16952544,-0.30652907,0.38620335,-0.45309952,-0.12912449,0.25358844,0.58413374,0.39296728,0.15876798,-0.035931896,0.3341042,-1.571307,0.454467,-0.8819775,-0.093468405,0.110895924,-0.04168417,-0.21474603,-0.62899196,-0.16909689,1.080388,-0.375152,0.095225915,0.98305297,0.36592308,-0.010856637,0.008308358,-0.2245792,0.48930678,-0.1986632,0.18716544,1.2671341,-1.0607388,-0.44748458,0.06421508,0.49958587,-1.1855433,-0.20807052,0.85326123,0.23707883,-0.37148213,0.047982696,0.19664285,0.3842591,0.5005613,0.36252457,-0.45110726,-0.5293545,-0.10335857,0.33037192,0.26620308,0.06682607,0.6649362,-0.07715005,0.36792105,0.40406764,0.1696688,0.11723956,-0.04511345,-0.56080323,-0.26371703,-0.7896507,-0.74792707,0.11101587,-0.60365474,0.34103113,0.6334061,0.28499004,0.02722719,0.6874395,0.38131112,0.15927337,-0.23552822,0.80363077,0.62439066,-1.0412692,-0.46280253,-0.3273063,0.717186,0.99896765,0.61251265,0.17173107,0.8528623,-0.66937536,0.6951922,-0.2873049,0.59769714,0.4730654,-0.40373853,-0.42421022,-0.072150566,-0.15816423,0.9807614,0.09745293,-0.48108488,1.1373683,-0.5125721,0.017691536,1.2676904,0.88319474,-0.09709268,-0.19664939,0.9213865,-0.044368092,0.15770222,0.04673597,-0.6012166,-0.3172915,0.06427462,0.07650561,-0.24132243,-0.2515447,0.2652633,-0.39189005,0.7626435,-0.22259563,0.8584373,-0.31169444,-0.22408113,-0.6703399,-0.27678815,0.70786726,-0.54158396,0.91133577,0.46011156,-0.73704726,-0.6000184,-0.049465943,0.4161924,0.23952323,-0.50672746,0.38871625,-0.48465222,0.37555605,-0.4354303,-0.3429641,0.90594155,-0.73816174,-0.23818809,0.34866053,0.9872234,0.97505623,0.6036909,-0.20290007,-1.0732341,0.2836187,-0.12627603,-0.39712563,0.4756138,-0.010920614,0.22533834,-0.008684946,0.39417702,-0.5831622,-1.1470299,-0.89128,0.82237923,0.15804671,-0.085203305
O95168	0.20789118,-1.2859899,-0.9606747,-0.7479664,0.80123657,0.20717369,0.52227354,0.00019157515,-0.00023966352,1.1973844,0.049867906,0.03641425,0.41669554,-0.49411058,-0.78947085,-0.1947669,-0.23932067,-1.1297284,0.33158875,-1.2755861,-0.7788463,0.3867261,1.2912974,-0.041882474,0.043473944,0.079970434,-0.09537707,-0.72790575,0.19580032,-0.24610989,-0.016707597,0.1913089,0.055083167,0.2940582,-0.18216786,-0.04050847,-0.19541334,0.09896817,-0.11694362,0.23561342,0.084389105,-0.5559743,-1.4180676,-0.34290853,0.46879962,-0.09067221,-0.61470854,-0.31444004,-0.49432078,0.122721665,0.6881268,0.48182547,0.07428513,0.105848126,0.09068988,0.088217005,-0.035047695,0.3511311,-0.55399734,0.9381568,0.8242244,0.10980105,0.23096284,-0.56914043,0.0040507745,-0.17997016,0.45320404,0.8044014,-0.6048296,-0.052868284,-0.36288828,-0.21383633,-0.117394,0.35588747,-1.0116653,-0.7232671,0.16014309,-0.085484795,-0.5651137,-0.23511216,-0.050460942,0.018116916,-0.07940154,0.012255771,-0.81385136,0.6512755,0.28414115,-0.88122386,0.046418548,-0.286287,0.39988723,-0.12711827,-0.12718712,0.6649931,0.56711406,0.20188491,0.06523385,0.51858485,-0.38384148,-0.4357254,-0.56936306,-0.20533948,0.5284823,-0.3588557,0.7555541,1.2463082,-0.73828053,0.22414368,-0.026715776,0.72867936,0.029821616,0.7251218,-0.019071274,-0.34738442,-0.109069265,0.94213134,-0.7695584,-1.1470731,-1.002922,0.32079613,-0.0286772,0.35165,-0.8427096,-0.360605,-0.4873056,0.45682725,-0.5782954,0.53306335,-0.4837469,0.43773103,-0.8163317,-0.86465526,0.1368319,0.6307538,0.27489164,-0.5552068,0.5887111,0.4622392,0.016679313,0.81268066,-0.05041883,-0.24634236,-0.5171488,0.12840441,0.22228156,0.65837705,-0.13903874,0.023541788,0.35468382,0.05799751,-0.1540006,0.23307025,-0.29353005,-1.2090315,-0.09980995,0.87722284,-1.0833299,0.33042416,0.25968242,0.37263793,-1.392521,-0.5304725,-0.20146354,-0.31347013,-0.5842412,-0.7985596,-0.6646547,0.87359416,0.65922076,-0.16994236,0.4118603,-0.5178258,0.042275425,-0.44287997,-0.28662375,0.19094484,-1.0545158,0.4296473,-0.9096496,-0.46943313,-0.033236615,0.2963502,-0.16714892,0.044508442,-0.57283175,-0.9537229,0.85713047,0.3858481,0.1319735,-0.009927338,0.28826165,0.2442667,0.5527295,0.9961242,0.67426074,-1.456296,0.012952886,-0.22079362,-0.043447625,0.33058643
Q9NW64	-0.8926241,-0.009307565,-0.010278252,-0.50075245,0.7321629,-0.34031135,0.19833118,-0.37263635,-0.29269093,0.018268028,-0.00880304,0.3264664,1.0294508,0.34917507,0.011903063,-0.32611036,-0.016405368,-0.6702526,-0.14066032,-0.20697787,0.1223552,0.09415523,1.2830794,0.35280457,-1.2558558,0.60905343,1.0236167,-0.23074946,-0.5591454,0.032240745,-0.30566427,0.33331352,0.08244244,0.33924007,0.16037372,0.16982175,0.4677194,-1.0627421,-0.32700256,-0.82423604,-0.40163153,-0.4743666,-1.609826,0.16636798,-0.92037416,0.0734743,-0.21048124,0.11096819,0.03279693,0.06223703,0.78887635,0.25411007,-0.11589118,0.7781971,0.9494432,0.5488241,-0.48938438,0.18537514,-0.020909647,0.5728085,-0.07166839,0.10423036,0.652819,0.24083908,0.11209323,-0.07130586,0.54940134,-0.48318946,0.93446636,0.089213215,-0.12696731,0.29555723,0.31662127,0.15460944,-1.0200269,0.4539444,0.11364763,-1.1374886,-0.08818792,-0.738677,-0.132263,0.71630776,-1.0611496,0.12769179,0.41628706,0.4046159,0.34457785,-0.7607512,-0.76892763,0.25863463,0.5962467,0.51990485,0.09257271,1.1347458,-0.20355603,-0.16001959,-0.71492106,-0.25512394,0.18946955,-0.2118267,-1.2124093,0.14122921,-1.2045625,-0.35347825,0.6835974,0.62636286,-0.7839739,0.21706541,0.63163716,1.1924852,-0.11807367,-0.1349637,0.31798345,-0.0011642321,-0.34901035,0.504035,0.17571385,0.13997486,0.080556884,-0.025348416,-0.10156021,0.5561628,-1.0796322,-0.29192987,-0.5445614,-0.21936084,-0.062170096,0.409773,-0.7096595,-0.7706108,-0.95672923,0.6358669,-0.2546836,0.6252164,-0.34049743,-0.03763825,0.96611077,0.5539804,0.009902924,1.1597015,1.0988804,-0.2715624,-1.0933044,0.18644159,0.043530148,0.8683593,0.3175053,0.76481825,0.09007312,0.55554754,0.1594661,0.09799782,0.2561884,-1.0203879,-0.44038454,0.40353355,-0.6283611,0.56305456,0.12812304,-0.40240964,-1.486724,-0.10626567,0.15778242,0.15813881,-0.5397065,-0.3331245,-0.9037306,-0.13355246,0.6870601,0.15269254,-0.054149162,-0.7262649,0.11126955,0.27048492,0.751881,0.3370292,-0.3426556,-0.2504901,0.008505318,0.19609648,-0.17666458,0.23034249,0.10684758,-0.21462037,0.08246851,-0.7907509,0.20484942,0.44697252,-0.4997698,0.22064027,0.28034157,-0.07393994,0.3922377,0.46548527,-0.18980235,-0.6317244,0.79305804,0.11665189,-0.2902763,0.69823116
P31930	0.7167229,-0.69157207,0.29150233,-0.7777298,0.6170479,-0.3035717,0.14864738,0.6835867,-0.23399836,0.8027503,-0.43494576,0.24887082,1.0032315,-0.3087957,-0.20971046,0.058479078,-0.08233468,-1.5476708,0.22318202,-1.2000993,0.37167895,-0.21818918,1.1327355,0.042793907,-0.73762494,-0.5960198,0.399073,-1.1153173,-0.16394453,-0.41910845,0.44128928,0.4831201,-0.3678335,0.59724057,-0.1133145,-0.6755973,0.4331704,0.44489756,-1.5062063,-0.6362013,0.043823678,0.5607732,0.05010269,0.1444737,0.94622165,-0.81388015,-0.26350668,0.7858321,-0.43605566,0.35758454,0.2806894,-0.28640065,-0.21090285,-0.05329499,0.4034938,0.25038096,-0.35123786,0.47208083,-1.4850025,-0.07422795,0.41752067,-0.15169445,0.33082667,-0.10900626,0.8549951,0.7513748,-0.15620936,-0.5310164,-0.09514433,-0.09605802,0.03253918,0.051146794,1.0599304,0.62153834,-0.46680012,-0.38889578,-0.06512745,0.1230163,0.76469713,-0.39349,-0.3941477,0.1736343,-0.43987542,-0.6633212,-0.56667626,0.440765,-0.2044753,-1.1739998,-0.8982925,0.3813942,-0.18010816,-0.5633974,-0.16125995,0.12282613,0.37859657,0.05139873,0.4317299,0.55975986,0.040458675,-0.54336107,-0.9705763,0.14103086,-0.49223036,0.08290222,0.72494346,0.52965415,0.46581265,-0.045283485,-0.1155588,-0.53187615,0.38009858,0.0059727267,0.14209339,-0.025758002,0.31677833,0.4166883,-0.9029987,-0.96962965,0.033632312,-0.018944582,0.5612865,-0.114848316,-1.4500637,-0.48296055,-0.5340579,0.1316563,-0.65174025,-0.14937757,-0.7424749,0.83578277,0.23304753,-0.39018303,0.044221647,0.43510377,1.048744,-0.62133014,1.0750365,0.32296142,-0.35709643,1.4350388,0.3139983,-0.59417504,-0.22112824,0.261691,-0.8169916,1.0710428,-0.411414,-0.44490367,0.0871296,-0.3598905,-0.27661335,-0.12739545,0.10724271,0.111279085,-0.24462374,0.65104246,-1.2973394,-0.002634108,0.060032044,0.57793033,-1.3301847,-0.3562706,0.05853023,0.11034048,-0.06207957,-0.8600857,-0.40239832,1.0184057,0.2867976,-0.43084264,0.86287236,-0.5149594,0.43919238,-0.49762854,-0.569945,0.1280137,-0.32952383,0.26658335,-0.9019449,-0.55072665,0.071252815,0.34158748,-0.23880321,-0.28116336,-0.3692998,-0.7697655,0.32668066,-0.11699897,0.31100097,0.005494408,0.110678524,0.17602564,0.35460076,0.55520535,1.1019413,-1.3886428,-0.9263096,0.44498655,0.2640522,0.6644476
Q99741	0.6771839,-1.2265438,-0.8184811,0.10287802,0.9420684,0.83851284,-0.57008964,0.20418726,0.43293628,-0.80834126,-0.45857581,0.026991481,0.43953666,-0.7490754,-0.48965418,-0.7415593,-0.14825913,-0.2259281,0.20868532,-0.5484978,-0.37614787,1.0001869,0.75355273,0.11485664,-1.0849854,-0.07631073,0.20826262,-0.09517067,-0.73338604,1.5637872,-0.45218045,-0.018120077,-0.26712152,0.23805183,0.47631103,-0.2557748,0.31724158,-0.31764805,-1.0698634,0.19896033,-0.5127272,0.2362547,-1.6546288,0.6485489,0.075040706,-0.9377934,-0.23315358,0.6672782,-0.32160097,0.45716,0.29075512,1.069292,-0.37282217,0.45945415,0.12624505,-0.10524914,-0.67225045,-0.32034242,0.050698813,-0.5376138,-0.030556228,0.695567,-1.4469541,-0.01741317,0.78982514,0.21931745,0.273987,-0.4862014,0.91852117,-0.9732755,0.45569023,1.4446588,-0.75000274,-0.8082215,-0.26757365,-1.2209378,0.8073944,0.023916906,-0.032755874,0.51665837,-0.37617782,0.21227568,-0.7191026,-0.65360016,0.12710382,-0.37323537,0.13292031,-0.46183595,-0.32588267,0.37803328,-0.59909016,0.55252767,0.34831464,0.62284374,-0.2060831,-0.49648833,-0.6949642,0.22741313,0.033379443,0.2609561,-0.28479472,0.50006723,-0.23280714,0.19397943,0.4630655,-0.13972102,-0.1985884,0.7209958,0.6793974,0.23012534,-0.7272905,0.06713023,0.8642067,-0.8326426,0.36280575,0.13587683,0.53421444,0.33752114,0.60070777,0.9054155,-0.54317784,0.5962176,-0.66130185,-0.019589903,-0.35219026,0.18277723,0.039927106,-0.010631978,-0.7169971,0.13287896,-0.37918139,-0.30507883,-0.52491087,0.87478334,-0.23047064,-0.28367215,0.48128396,0.09358505,-0.17859429,1.112639,1.2101214,0.28820083,-0.8404977,0.82848144,0.27663067,0.88644683,-0.5979215,0.045577068,-0.7422327,0.6563754,-0.13625242,0.22568391,0.3299028,-0.13549006,0.32767516,0.9347393,0.53889614,0.44598502,-0.5269888,-0.32206336,-1.2461339,0.067824356,0.51936173,-0.11778961,0.18319733,-0.17151608,0.30997154,-0.66429186,-0.035543382,-0.22491716,0.39345247,-0.15212636,0.59602153,0.5349483,0.7317476,0.64991546,0.12828375,-0.3990821,-0.5778402,1.0995774,0.6603585,0.7228384,-0.50808614,-0.6976899,0.040666495,-0.8011312,-0.39013952,-0.4526622,-0.26935202,-0.10634931,-0.71993846,0.04935,0.18621139,0.30351725,-0.8576018,-0.82742816,-0.3955451,-0.07899074,0.046558417,0.30946535
P18206	0.15047735,0.17868076,-0.0936904,0.5518267,0.59453064,0.60024977,0.252715,0.24329059,-0.2988416,0.073587224,0.21700771,0.27125102,0.5765344,0.7978728,0.22020231,0.45425767,0.47862026,-0.75134623,-0.9571556,0.28813875,0.12402444,0.8474913,1.6987296,1.1331867,-0.0660429,-0.48718932,0.22371593,-0.5407705,0.7897993,-0.3077046,-1.2786207,0.5399698,-0.37364516,0.795569,1.0520794,0.27760482,-0.10253514,-0.096693814,-1.7983023,-1.0050807,0.22307365,0.05213344,0.14770345,-0.19185533,-0.8454036,-1.4215144,0.7084338,0.50619423,-1.0317703,-0.48965645,1.1029316,0.44022682,-0.9999771,-0.1359116,-0.03796582,-0.26958314,-0.07800898,-0.5363802,0.14984436,-0.78164434,0.073081255,0.70704573,-1.225129,-0.03490461,0.5524488,0.24243738,-0.20275223,0.17714062,0.2199889,-0.5389248,-0.925685,-0.7096258,-0.085596934,0.21371652,-0.34446004,0.52624506,0.6213392,-1.193694,-0.6181089,-0.11493701,0.4958336,0.21201257,-0.3598408,-0.3719903,-0.4249625,-0.12002973,-0.2336473,-0.7857628,-1.4256399,0.8897086,0.14387867,-0.35126743,0.44638878,0.21324079,-0.70936733,0.43984318,0.28624207,-0.19231078,-0.2375787,-0.08944827,-0.73902833,-0.3373719,-1.7168288,-0.2891709,-0.3716634,-0.25033963,-0.37243664,-1.0089552,0.31681114,0.112508036,0.034591008,0.31675157,-0.23676163,-0.18096066,-0.7726137,0.54730415,-1.26885,-0.38793108,0.051321927,0.09085585,-0.059189357,-0.39541224,-0.38931102,0.25211555,-0.09629517,0.13765258,-0.25020754,-0.21227649,-0.16168687,-0.11961111,0.019304613,0.5915118,0.19466478,0.27350697,1.0370268,-0.24516803,0.72082263,-0.41633725,-0.5107936,0.3134025,0.4170653,0.158049,-0.37910053,0.4970495,-1.3730339,-0.17583041,-0.9981819,0.7027531,0.46986574,-0.8272374,0.67978776,0.5100167,0.07900186,0.04672058,1.5319173,0.7439946,-0.66295344,0.21003784,-0.44171324,-0.43387407,0.123548724,0.16929883,0.23833966,0.22851036,0.7898119,-0.37287605,-0.37239432,-0.34049428,-0.89616007,0.06666292,0.27478227,-0.14342836,-0.26893902,-0.7117915,-0.73537,0.19347076,-0.124911994,0.59347373,-0.79469043,-0.23443593,1.1794255,1.3178867,0.24828865,0.27451837,-0.3768734,0.31844303,-1.1240089,0.057786554,0.37601778,-0.53016204,-0.6663187,-0.0035117462,-0.47938722,-0.44181108,0.21827544,0.44926,-0.5007607,-0.09557341,-0.1509711,0.5183866
Q96EB6	0.70624334,-0.5681365,-1.001146,-0.71810323,-0.27818063,-0.18084785,-1.6316137,0.33622926,-0.058057882,0.012822579,-0.24174051,-0.44770455,0.5337727,-0.53097975,-0.7124575,0.04359134,0.50770223,0.6682748,0.6179533,-0.27676445,-0.29014888,-0.3300678,1.3463659,-0.04561418,-1.1004536,0.6900178,0.09856327,-0.69052166,0.52711904,0.07725389,-0.3453603,0.35943872,-0.87160194,0.047053657,0.24095027,0.32809213,-0.33637297,-0.6116417,-0.3086869,-0.0984701,0.3393693,0.19475442,-0.6506856,0.19296901,-0.008318476,-0.5445715,-0.8900324,0.9136826,-0.086890735,-0.5881414,0.052948553,0.40022027,-0.21117105,1.1949856,-0.2461721,0.46166116,0.12395037,0.18217227,-0.79286426,0.24939227,0.02178261,0.48954853,0.15743054,0.6196997,-0.06318622,0.39359742,0.05358791,-0.21887068,0.41709256,0.15029426,0.5724796,0.3968502,-0.5773858,0.25949618,-0.6284452,-0.9301115,0.219412,-0.11607098,-0.31639445,0.42644823,-0.5489102,-0.044830628,-0.14113851,-0.61492896,-0.07174233,-0.34727412,0.60258406,-0.8169309,-0.25140744,0.033307727,0.62784237,0.60748744,0.288368,0.70741147,-0.019730484,0.061451077,-1.3596113,1.4160671,-0.06886647,1.1739867,-0.8115356,0.45071268,0.033369478,-0.091857515,0.5858974,-0.24690033,-0.29333878,-0.04686386,0.116889745,-0.1051901,0.12157321,-0.65381444,-0.13228826,0.1881787,0.57850033,0.31594253,0.55778986,0.020917177,0.41761136,-0.62175924,-0.19207129,0.12403577,-0.9347425,0.6020609,-0.6394917,-0.2933347,-0.15960936,0.26345646,0.13733721,-0.8268195,0.06555728,-0.62058073,-0.20278259,0.14491966,0.3571584,0.5585175,1.0259557,-0.731638,0.20913063,-0.26238558,0.04164757,0.61600524,-0.027874587,-0.11458005,-0.41341895,0.55508476,-0.6118647,-0.027598685,0.02739753,0.29599208,-0.0014311442,0.3132918,0.14415596,-0.45429996,0.13527064,0.29907578,-0.44111478,0.22828795,0.14352335,0.05105893,-2.014427,0.04636031,-0.17099126,0.38623208,0.24066769,0.3270623,-0.4434934,-0.12822719,0.32831112,-0.35802978,0.44455543,0.34965816,0.024109615,0.3312716,-0.42093092,1.0676417,-0.5629192,0.1219229,-0.6542835,0.53148407,-0.14983103,1.0250497,0.20870966,-0.06635107,-0.367161,-0.477777,0.15670216,-1.126082,0.025875928,0.43472028,-0.057299,-0.26333445,0.5010086,-0.2416604,0.38740262,-0.2021337,0.033071894,-0.5456141,-0.45414057,0.5906433
P48556	0.54165673,-0.974938,-0.24137111,-0.19652198,0.52653545,0.62670016,0.036232095,0.19190624,0.26299146,0.08391581,-0.014890013,-0.118086904,0.2674174,-0.24508452,-0.4337332,0.32672748,-0.3953327,-0.71826255,0.4277211,-1.231928,-0.086698584,0.49462205,0.92973894,0.48158243,-0.3790036,0.040194977,-0.56445134,-1.3408722,1.1252748,1.2685487,-1.0493319,0.7694528,-0.93635553,0.7313285,0.038271267,0.25668207,0.6819369,-0.059613597,-0.20890588,-1.8181971,0.2670102,-0.34639052,-0.37406233,0.54717237,-0.003875969,-0.3586332,-0.11395936,0.35874915,-0.03452944,-0.010304111,0.62582254,0.017182266,-1.2155561,0.34499115,-0.6722795,0.2503767,0.20516743,-0.1007188,0.11832821,-0.8147342,-0.500749,0.9261689,-0.4793743,-0.34878984,0.80331624,-0.09642747,-0.34919226,-0.14452174,-0.73791933,0.30322015,-0.08123537,0.42398778,0.81909573,-0.7201913,-0.58225006,0.04376503,0.4237795,-1.4258124,-0.6689661,0.3301369,-0.07505414,0.5438822,-0.037565067,-0.076765604,-0.115881026,0.7625456,0.6026376,-0.5132082,-0.33156064,-0.1667697,-0.04695556,-0.081281066,0.43483877,1.052827,0.061639097,-0.0047183484,0.5829426,0.7219824,-0.12047428,-0.08417268,-0.9823437,-0.42251587,-0.9142223,-0.3267806,0.4190648,-0.09323566,-0.09778255,0.49494332,0.22484489,0.10520067,0.44474852,0.18266036,0.062023938,-0.48873043,0.9799271,0.22066844,-0.40997678,-0.7003805,-0.46228886,0.24688782,1.1161414,0.47118142,0.07331478,0.8146005,-0.41941187,0.7711144,-0.20459513,0.24016269,-0.051337015,-0.0053052995,-0.43425804,0.23293515,0.049290203,0.82243013,0.18833283,-0.8614443,1.2459111,-0.2686825,-0.19587666,1.3632698,0.769308,0.20503625,-0.78566223,0.7873909,-0.17642474,0.4289107,0.32766947,-0.03407635,0.025072861,0.1890008,0.59987634,0.058454454,-0.09653871,0.1526771,-0.15884258,0.7439895,-0.5114647,0.5057263,-0.35348937,-0.7811637,-0.29722887,-0.5269423,0.69316435,-0.81751573,0.9613205,-0.11404051,-0.56817037,0.16724415,-0.23144758,0.009119574,0.67307174,-0.13625015,0.16917013,-0.54722244,0.18244001,0.045973387,-0.26635846,0.48715284,-0.40764195,0.37736687,0.7514161,1.0814167,0.9732805,0.71824193,-0.0911793,-1.3101993,0.3364127,0.22722779,-0.13231641,0.35201976,0.32357794,0.45158184,0.26508975,0.38335767,-0.42677397,-1.2397488,-0.65022564,0.24181825,-0.28719285,0.33399358
P30049	0.50055754,-0.68425417,-0.07056035,-0.32122925,0.101197004,0.41235155,0.18780749,1.1960204,-0.58596414,1.149746,-0.015899785,-0.2270528,0.17434373,0.52290523,-0.79115546,0.15835463,-0.026200261,-1.7498405,0.58903474,-0.9069156,-0.09817722,0.2845512,0.51044136,0.3500018,-0.6360412,-0.7683656,0.0627902,-1.2828312,-0.0091920085,-0.14966331,-0.09472073,0.18397498,0.57032657,0.77196836,-0.076822266,-0.48233116,-0.51743436,-0.61735487,-1.0395502,-0.3951394,-0.48212036,-0.31460214,-0.0040673483,-0.21915731,-0.68128824,-0.43178782,-0.14294969,0.03180504,0.32737273,0.3029746,-0.20032372,0.69006467,-0.03941908,0.39556524,-0.013778823,-0.11877144,0.6241006,0.14698854,-0.13838279,0.47616562,0.60750914,0.47248453,-0.3985408,-0.09262309,1.3778197,0.9766347,-0.010295681,0.2523994,-0.67326903,0.45768556,0.68852663,0.022557136,0.17458363,0.42715517,-0.3983234,-0.8560459,0.16776599,-0.94559366,0.23525023,-0.24843712,-0.11463228,0.008845974,-0.27606013,-0.5545003,-0.22173068,0.38763443,-1.1509345,-0.76658964,-0.3753384,0.17646936,-0.7918817,0.19069795,-0.666514,0.08984878,0.83958554,0.4491346,0.9089159,0.15793522,-0.2324382,0.16883492,-0.30018216,-0.03149223,0.1978261,-0.15067661,0.7082199,0.62662554,-0.25585327,-0.20820336,-0.19951046,-0.07566554,-0.18042354,0.1878304,-0.25345054,0.00029323166,0.15742622,0.4594885,-1.264889,-1.4894012,-0.5794236,0.64346015,0.44128162,-0.20104495,-0.4708509,0.13052987,-0.80000937,1.3140358,-0.3862374,-0.009984152,-0.20586215,0.34679097,-0.21182601,0.4163216,0.86256206,0.959343,-0.2245087,0.028734574,1.2064781,-0.30511373,0.08497447,1.6270537,0.8661061,-0.6556093,-0.7204021,0.6202011,-0.23265532,1.5902388,-0.14466117,-0.09076785,0.17941944,0.8641276,0.6848974,0.5093274,0.22564256,-0.010772468,1.000824,0.93568367,-0.009429716,-0.54505235,0.27611738,-0.11867934,-0.97317386,-0.3688744,0.7585165,-0.4965982,-0.02095298,0.34492153,-0.4563425,0.3926458,-0.15822537,-0.21672894,0.36917415,-0.08814053,0.56615573,-0.015210058,0.7259363,-0.052220687,-0.60328346,0.8197483,-1.5829861,0.07616912,0.6890543,0.5014501,0.09968293,-0.9211405,-0.0863864,-1.1588873,-0.32099107,-0.5694838,-0.22532968,-0.2798412,0.09906299,-0.1555164,0.23231238,0.32032713,0.72026026,-1.4599538,-0.75046617,0.459234,-0.012299668,0.13715114
P17568	0.17327236,-1.1128316,-0.66251767,-0.59746915,0.787521,0.2700387,0.46042454,-0.39313993,-0.097703025,1.1992202,0.29065168,0.07250065,0.34479216,-0.2578507,-0.4931997,-0.51979333,-0.24596822,-0.8549275,-0.026448691,-0.65559584,-0.6068007,0.0005726543,1.2562943,-0.040223576,-0.84123266,-0.060426325,0.26915392,-0.80702,0.55794847,0.11653209,-0.1595508,-0.14359622,0.41354138,0.15039636,-0.06575332,-0.2745891,0.111489184,0.021124039,-0.50335354,-0.22537391,0.070905365,-0.44584644,-0.54447657,-0.24407022,0.36036545,-0.3159893,-0.46272904,-0.2963658,-0.39713868,-0.054071914,1.0142878,0.39289948,0.12904644,-0.15756059,0.44395947,0.1504684,-0.090609364,0.45958537,-0.72339064,0.8183471,0.3055753,0.33320886,-0.009540961,-0.19268997,0.28112215,0.24843492,0.33726963,0.9231546,-0.77016777,-0.08193553,0.12484043,-0.39416772,0.15310915,0.6599002,-0.92584115,-0.14811823,0.2270941,-0.48733947,-0.2977657,-0.88720727,0.09964322,0.043057557,-0.12246916,-0.039293062,-0.52998865,0.5070292,-0.055143658,-0.94769496,-0.25352886,-0.5307041,-0.11414499,-0.26865092,-0.22452886,1.0358922,-0.035827577,-0.20056495,0.55492944,-0.12467613,-0.44615594,-0.4634433,-0.4302646,-0.18188874,-0.2518879,-0.41990027,0.23922856,1.4367323,-0.6306816,-0.33643752,-0.20355691,0.23821953,0.07056192,0.4019159,0.24536486,-0.030590367,0.034982424,1.0531871,-0.74912584,-1.2114997,-0.79569024,0.57284564,-0.04983258,0.1380428,-0.8088924,-0.27185553,-0.24876358,0.9140055,0.024286347,0.30110705,-0.8901024,0.46323258,-0.46372265,-0.11931982,0.29496816,0.7126995,0.3791002,-0.83122814,0.6525786,0.47864443,0.015277558,1.3060082,0.057146672,-0.22923744,-0.52626544,-0.02498302,0.039549988,1.0930535,-0.36830214,0.21780145,0.32617173,0.13229276,0.59849757,0.30501097,0.08670491,-0.69594836,0.120864324,0.6210823,-0.92149836,-0.047115553,0.18744555,0.45804393,-0.9009601,-0.743569,0.039567113,-0.44221628,-0.40182883,-0.7126688,-0.9102734,0.5349593,0.14972098,-0.026373664,0.5582609,-0.33942488,0.22914463,-0.7578991,0.21691552,0.28256902,-0.78997093,0.51586777,-1.2537829,-0.17566584,0.37292558,0.44827995,-0.0025037455,0.0016100621,-0.17430033,-0.7319196,0.8533153,0.37462214,0.3080809,0.27925438,0.072235234,0.31856877,0.55580455,0.41195863,0.61333066,-1.1600742,-0.0004580518,0.22736424,-0.26355022,-0.07815965
P62318	0.15441929,-0.44170243,-0.17196445,-0.4634074,0.34397185,-0.52994746,-0.43105504,-0.023416374,-0.04319561,-0.6847798,-0.7939747,-0.08991196,0.53388745,-0.54879785,-0.28559294,0.14724185,0.12905407,-0.15125638,0.11197262,-0.45520225,0.29350525,0.45068398,0.29170927,0.14092055,-1.2301624,0.024774501,0.37322798,-0.50144374,0.18746962,0.43521348,-0.79234934,0.10252748,-0.37178567,0.43101344,-0.054248918,-0.09946325,0.575822,0.17336413,-0.39114082,-1.738574,0.5734965,0.42349884,-0.58117294,0.73988926,-0.5653893,-0.83946574,-0.47840527,0.5765721,0.11221893,0.7207849,0.58343375,0.32559595,0.06898043,0.29070264,0.77455175,0.62401044,-0.29783028,-0.79708815,-0.57199395,-0.47951302,-0.15704802,-0.48113677,-0.29908136,-0.15502489,-0.4297351,-0.24535035,0.41120827,-0.06960546,0.1549874,0.1294774,-0.3118812,-0.16432752,-0.3121653,0.7739742,-0.8552079,0.6013547,-0.0005062795,-0.54775614,-0.038446877,-1.2056096,-0.69843554,0.8118052,-1.2152487,0.78453803,0.39683405,0.37562916,-0.04007527,-1.1787843,-1.1175748,0.0519915,-0.06488284,0.49530217,-0.2709687,1.0437332,-0.46745417,-0.2855146,-0.7047413,-0.21069802,-0.040811528,-0.47337347,-0.6169984,0.40884453,-1.4473597,0.23663393,0.83304787,0.5174077,-1.0398045,-0.04694876,0.7426203,0.3090126,-0.55409294,-0.41449818,0.49586466,-0.78481334,0.057640843,0.29625624,0.21295935,0.42669797,0.5795579,0.12747455,0.36383206,0.18708268,-1.3112593,0.20172292,-0.31938878,-0.11620691,-0.24116336,0.24926758,-0.87335867,0.09448522,0.39538318,0.3292173,-0.17050561,0.79770947,0.40077645,-0.76790196,0.87764484,0.560303,0.14825475,1.7404988,1.0000838,-0.5136209,-0.36751306,0.44500715,-0.16739559,1.5829078,0.09546453,0.5763356,0.38984784,0.5413065,0.49213678,0.2862775,0.063135915,-0.7742048,0.3736835,-0.29083154,-0.2865511,0.022936733,-0.1222872,-0.6744496,-0.35850006,-0.3949002,0.4740655,-0.40942162,0.17696722,0.25943,-0.43987066,0.3981817,0.6205009,-0.514703,-0.5803354,-0.80224067,-0.047577634,0.5409493,0.8565307,0.6375144,-0.39892128,-0.47871917,-0.17255041,0.70709544,0.1999501,0.43482518,0.33510327,-0.031557158,0.5501627,-0.8784817,0.29906762,-0.510262,0.36506724,-0.4260102,0.29861337,0.32376298,0.73009306,0.21956892,0.3682823,-1.0134845,0.4111135,0.3881029,-0.09471144,0.8981591
P33992	0.6967553,-0.58496505,-0.31953493,0.58615905,0.91317123,0.18340276,0.28704885,0.34454998,-0.0582378,-0.521287,-0.031392675,0.9548031,0.6874625,-0.24376969,0.24559006,-0.14024794,0.09834639,-0.48922032,-0.07840005,-0.89004165,-1.2989341,0.4785895,0.4074999,0.47922972,0.14230356,-0.58423626,-0.08332601,-0.76979613,-0.27232182,0.47594348,-0.583359,0.053292673,-0.34444115,1.0772061,0.3965398,0.059435327,0.15708525,0.5222538,-0.31850252,-0.8954419,-0.5237168,0.22586948,-1.4977742,0.14846793,-0.24968256,0.32098237,0.21972644,0.07065565,0.05586912,1.161984,0.0048610177,0.8463788,-0.7371735,-0.07100053,0.38449773,-0.17786634,-0.8313168,-0.014160942,0.30231693,-1.5300053,0.21881877,0.35350442,-0.5626186,-0.35724604,-0.01613365,0.18055148,-0.0016421922,-0.49411777,0.21086901,-0.322077,-0.7075678,0.55503243,0.013801609,-0.09454537,-0.4490036,-0.43084815,1.0895234,-0.63587004,0.28827098,0.038814913,-0.7010921,0.1887495,-0.7950256,0.080760285,-0.35661295,0.20592512,0.13763176,-0.25539744,-0.27229327,0.24749237,0.027561562,0.8579253,-0.01577202,0.6094764,-0.06355292,0.20850627,-0.30477735,-0.26862887,-0.2265002,0.20816238,0.14431772,0.09781805,-0.06109398,-0.25310177,0.4022992,0.4278144,0.2722392,0.5975951,0.007999051,0.31597543,-0.5841331,0.5197834,0.00399665,0.0014552354,0.45561874,-0.18140562,-0.4759266,-0.2060173,-0.23332068,0.34165606,0.82193923,0.42947513,-1.0428339,0.0946673,-1.2052562,0.12715547,0.3305454,0.8994665,0.3641636,-0.060948677,-0.730583,0.5064987,-1.0704918,0.8235017,0.37971696,-0.799025,0.33939114,0.43226013,0.23273003,0.27845958,1.2891395,-0.029325908,-0.40002957,1.4774233,0.85922045,0.8472532,-0.5545491,0.35276338,-0.7881406,0.8436727,-0.2840425,0.23973319,-0.2620434,-0.36348894,0.29764602,0.48369986,0.18026076,0.9805984,-0.7594001,-0.44526717,-0.92435247,0.3023305,0.94309956,-0.1782391,0.4702341,0.5760627,-0.21658508,-0.19702552,0.19149199,-0.34443378,0.2904915,-0.6887191,0.017075013,0.78009003,0.87824225,-0.076957785,0.2738465,-0.25739813,-0.44663647,0.5873055,0.32355696,-0.20760205,0.0073728985,-1.1388811,0.5653517,-1.2553926,-0.10992543,0.6141114,0.08083592,-0.1858599,-0.66829777,0.3817962,-0.580056,0.7963871,-0.6917967,-0.42653817,-0.46723577,0.04171097,0.36643732,0.2744597
O15371	0.11765541,-0.17122489,-0.43529335,-1.2417979,1.086575,-0.76783717,-0.18945919,-0.117791146,0.00992168,0.4951061,-0.14048067,0.59314036,0.42659384,-0.12328375,-0.08519659,-0.60521567,0.026041461,-0.31764328,0.2824062,-0.30156294,0.47145262,1.2387452,0.6692808,0.8299128,-0.19757056,-0.10853734,-0.52931935,-0.21041311,0.35195807,-0.9793589,-0.85219145,0.29848036,-0.37332898,0.48987228,0.1977925,0.35112417,-0.4013028,0.054391928,0.18977384,-1.0300918,-0.36991075,-0.070052676,-0.4699482,-0.4744617,-0.47358024,-0.32270357,-0.4828787,0.052719355,-0.16214405,-0.06864668,0.43009043,0.03446369,-0.8934748,0.65728223,-0.793275,0.5299093,0.1791308,-0.65369785,-0.94348925,-0.6410013,-0.19859016,-0.09089174,0.22904608,0.3525735,-0.419497,0.47715285,0.35858732,0.5533828,-0.67184526,0.20814815,-0.36189786,0.06965516,0.03399233,0.6841608,-0.7220366,0.79409295,0.20704521,-0.8523141,-0.21677206,-0.7158305,0.31273854,0.22766756,0.20986913,0.85349697,0.08634241,0.603208,0.6298856,-1.343583,-0.13044736,-0.31323692,7.131138e-05,0.25884056,-0.13043119,1.1337955,-0.2122493,-0.053927515,0.1176845,0.18038611,-0.122030824,-0.33054805,-1.0569508,1.2831227,-0.47677562,-0.21243717,0.5848819,0.5044121,-0.7296326,0.13022049,-0.13208386,0.5531841,0.6857155,-0.07638534,0.37507194,0.8350785,0.5840642,1.3363923,0.65407604,-0.351962,0.53633153,0.11231157,-0.25068337,-0.15995571,-0.7782433,0.7217683,0.5823388,-0.5864466,0.0944616,0.22533964,-0.6675738,0.09129065,-0.2888954,0.70252687,-0.4681497,0.98508376,1.2498167,-0.42501202,0.20859133,0.15450086,-0.22543585,0.28180107,-0.32243675,0.32940114,0.17342575,1.0880319,-0.12528381,0.6100705,-0.1840158,0.27058136,0.4338689,1.0268111,0.2139016,0.14734371,-0.16493544,-0.12931599,1.0088022,0.65909433,-0.3099868,0.119699836,-0.27627274,-0.39697525,-0.691966,-0.09891164,0.27884668,-0.8324502,0.12936558,-0.08453999,-0.0062474324,0.7451169,0.69633883,0.0088604195,0.18107602,-1.1388618,0.15647994,-0.31139797,0.3747271,-0.40828004,-0.9856149,0.3586681,-0.0039180643,0.013011079,0.61032856,0.42350295,0.59100276,0.0718165,-0.08273966,-0.42954296,0.34122506,-0.718041,0.2634231,0.90907776,-0.24653012,0.3471872,1.3978837,0.4629383,0.090226635,-0.41534755,0.3687404,0.17031464,0.25592127,0.7745173
P62877	0.5657719,-0.45255685,-0.83934045,0.23308527,0.5623712,0.09722989,-1.5259488,0.8601031,0.23724633,0.12178725,0.18867746,0.2850603,0.5845197,0.51777214,-0.12417168,0.5124964,0.48902982,-0.087989114,1.3179724,-0.9334042,0.03681851,-0.40659472,1.406174,0.24967329,-0.39161023,0.04765519,0.18328479,-1.061467,1.4195775,0.31897366,-0.39197809,-0.44847608,-0.6803691,0.3968177,0.18755952,-0.06104097,0.08843468,0.41368678,-0.8874094,-1.7729658,0.8674569,0.05003743,-0.011726256,-0.2703206,-0.23464948,-0.13326669,-0.89302266,1.0397394,-0.37702927,0.7765238,0.73127955,0.5315238,-0.7527861,-0.06899132,0.6099705,0.22190586,-0.23723972,0.10249109,0.12126863,-0.573999,-0.1121135,0.33030236,0.48482117,0.15226941,0.23815234,-0.36788756,-0.06910372,-0.023379957,-0.35355473,0.25647965,-0.3148725,-0.002553824,1.1792243,0.17442496,-0.41441518,-0.41175205,-1.123064,-0.0232833,0.8410269,0.31677356,-0.3469417,-0.0075501665,-0.16139087,-0.9214981,0.44786468,-0.00018654167,0.19854306,-1.0362147,-1.3156672,-0.68197036,0.13404143,-0.00636067,-0.019316271,1.4430465,-0.52705526,0.42240053,-0.2853949,1.1089976,-0.5696678,-0.26391917,-0.6248076,-0.08375329,-1.2044141,0.35647634,0.43033546,-0.13739651,-0.3596869,-0.14039917,0.97927773,-0.6536796,-0.41408363,-0.3597355,0.31007054,-0.060429953,1.184573,0.33403668,-0.16566092,-0.6827422,0.5577401,-0.213539,0.07169206,0.35977688,-0.78686213,0.41433957,-1.1806042,0.11708229,-0.91030884,0.14612472,-0.27207142,-0.55876064,-0.3752422,0.06624174,0.34689218,-0.33876842,0.63500154,0.2672133,1.2126247,0.19679752,-0.50759774,1.13406,0.08129504,0.2405013,-0.22398709,0.5577188,-0.28311607,0.59392774,0.6065313,-0.11800602,-0.41834846,0.013919605,0.4376878,0.21361473,-0.35852867,-0.75756687,-0.44478244,-0.22008546,-0.10236272,0.33654281,-0.28520527,-0.3305471,-0.3350978,-0.21932888,-0.2061757,-0.8885424,0.3129499,0.78024054,-0.5512478,0.026373789,0.08336561,-0.8166486,1.1170362,-0.18079887,0.38458234,0.62276113,-0.15174074,0.3454923,-0.9061312,-0.19982478,-0.5217464,0.02234034,0.67035115,1.3229985,0.93160117,0.59187293,0.0007985779,-0.13758908,-0.6783137,-0.5337307,0.5528897,0.37327865,0.6843236,0.8382131,-1.0289979,0.7949539,-0.54066336,-1.0839888,-0.7229165,0.17664422,-0.10455541,0.9543807
P10144	-0.14342958,-0.40664184,0.24364537,-0.5782399,0.6257034,-0.16693033,-0.17122239,0.07982839,-0.29641083,0.35822505,0.10910587,-0.37025848,0.836906,-0.98370904,0.24527754,-0.48056415,-0.29854175,-0.19217655,0.34212512,0.35093266,-0.49910164,0.75298554,0.6579497,0.59124595,-0.37501362,-0.33973625,0.061182946,-0.033625364,0.23941797,-0.41757625,-0.27854985,0.4785458,-0.9373034,0.14080843,0.60912967,-0.074563555,-0.36230323,-0.30101225,0.13129057,-0.7961092,-0.9156682,0.45844334,-0.6801306,-0.16418797,-0.56647015,0.09457759,-0.94711924,-0.41709113,-0.57958007,1.3903857,-0.0696623,0.19050993,-0.13586846,0.9468048,-0.41359362,-0.5627727,0.23099513,-0.36889336,-0.19666824,0.2722992,0.86385065,-0.5824971,-0.24603043,1.2140567,0.13076916,-0.20479384,1.0654987,0.18379214,0.59662914,-0.65598065,0.05311032,0.009146864,0.69280547,0.1302665,-0.38956115,-0.30570886,0.22816019,-0.22139859,-0.50547314,-0.26190647,0.91245115,0.35151142,0.36285922,0.3385852,-0.8230764,0.40914816,0.7516578,-0.9448403,0.07739698,-0.235943,1.1515667,-0.019168882,0.7049893,0.5514046,0.35588688,0.4019964,0.28585032,-0.27966633,0.12424137,-0.2341269,0.15388404,0.17700802,-0.4790112,-0.915781,0.2605166,0.5846972,-1.1217208,0.1881105,0.47701028,-0.10163953,0.283575,0.06770335,0.22980934,0.3995295,0.31748497,0.73574114,0.800632,-0.48124894,0.5176617,0.5135671,-0.5719111,0.019956978,0.098717034,0.5646096,-0.1494733,0.14501424,-0.38306308,0.5175655,0.17401353,0.06904441,0.17244448,-0.5809754,-0.014114398,0.5058071,0.8697619,-0.44273266,0.28538194,-0.13660087,-0.18207344,1.4766983,0.25369102,0.16297016,0.18439534,0.456027,-0.06545043,-0.370875,-0.19760735,-0.4744526,0.57947946,0.8696036,0.0925063,0.31602183,0.06145715,-0.11043636,-0.3233633,1.0986861,-0.64153475,0.6286484,0.4260583,-0.124937385,-1.1616423,0.022892263,0.45598835,-0.45319146,0.5239375,-0.17614378,-0.48784566,-0.26245084,0.88094825,-0.07383591,-0.1516721,-1.1983166,0.43340418,0.37427878,0.49573857,-1.2600796,-1.1581554,0.4780476,-1.4345527,-0.6266168,0.4262973,0.32377246,0.713187,0.519378,-0.05357484,-0.2885862,-0.4136677,0.77065736,-0.6072596,-0.3104609,-0.5319476,0.106938265,-0.29195058,0.10815797,-0.102690324,-0.50789183,-0.8990975,-0.5819084,0.015894914,0.6230845
P25788	0.8804945,-1.1236454,-0.3096199,-0.028811753,0.55498916,0.23792727,0.13702315,0.28746846,-0.08911036,-0.2741433,-0.4028565,0.55080026,0.27909684,-0.2927848,-0.53400993,0.58914137,-0.4723891,-0.57347846,0.84252125,-1.3024546,0.38389042,0.40350583,1.2458587,0.54513586,-0.3433953,-0.042351037,-0.12693402,-1.0197105,1.176136,0.8551443,-0.9496507,0.6580914,-1.3737968,0.227946,0.060547095,0.5456587,-0.06600782,-0.4161201,-0.27726626,-1.5320228,0.24923354,-0.35537818,-0.30880743,0.8944387,-0.24295367,-0.52929956,0.092333995,0.6190639,-0.110196546,-0.21168844,0.25027314,0.3468341,-1.1398546,0.15411453,-0.39001405,0.36708096,0.36748326,-0.2143341,0.0596989,-0.42682317,-0.10006824,0.9037704,-0.5489296,0.36378855,0.5839249,0.195261,-0.35763615,-0.4404069,-0.70791894,-0.042215493,-0.51744217,0.22372298,0.7728054,-0.416057,-0.530584,0.37733203,0.4351608,-0.4687581,-0.18499683,0.55001014,-0.09081307,0.8375488,-0.13934298,0.3172824,0.28822497,0.4740202,0.52219653,-0.15542242,-0.9562524,-0.2982342,-0.115114115,-0.23209581,0.09399898,0.3282253,0.030652253,0.610433,0.353516,0.46528053,0.1734839,0.26885182,-0.9491826,-0.42452103,-1.3154052,-0.28437957,0.74583924,-0.24984865,0.23208708,0.7131151,0.12669139,-0.07167939,0.70440173,0.019144759,-0.39588094,-0.26785854,0.5511801,0.3061189,-0.4447759,-1.0619687,-0.07870139,0.26562262,0.9217968,0.78260744,-0.0063944343,0.8429258,-0.62078685,0.53211176,-0.6483466,0.025569968,0.10240006,-0.21243644,-0.25811794,-0.1271762,0.07862329,0.5068587,0.2765409,-0.5393928,1.0455788,-0.37877655,-0.6776893,1.0384997,0.5115869,0.0434485,-0.852999,0.7593394,-0.49164128,0.1506447,-0.14661174,-0.4728737,0.006595022,0.096406534,0.46139845,0.10377416,-0.35837466,0.08449238,-0.43301415,0.6623502,-0.18930013,0.50009334,-0.34853628,-0.52283573,-0.629493,-0.6014437,0.23845711,-0.5576949,0.7297165,-0.3436807,-0.66077656,-0.063118815,-0.17820407,0.30420172,0.92064935,-0.48332375,0.14079414,-0.581453,0.3113085,-0.34405148,-0.42501187,0.076924734,-0.8700253,-0.04347688,1.1075534,1.2887788,1.067659,1.31682,-0.1069246,-1.0630776,0.09246042,-0.28581363,-0.15086812,0.23200871,0.23863235,0.33646196,-0.051029395,0.42454723,-0.2959219,-1.1158872,-0.55152965,0.5027966,-0.19485597,0.51439166
O14965	0.3891615,-0.69267666,-0.6846221,-0.2719984,0.29479584,0.8227673,0.10230855,0.44221753,-0.12278035,-0.38089597,-0.073298566,0.34597918,0.40244007,-0.30489293,0.1507136,0.0035271056,0.57406235,-0.41838583,-0.10375159,-0.8198717,-1.3930546,0.46507776,0.8576828,-0.07135549,-0.9126336,-0.38569173,-0.07287816,-0.64601856,-0.1873705,0.94577646,-0.95839494,0.48530734,0.14995989,0.8182205,0.9645979,-0.3724813,-0.6811196,0.5744534,-0.9057778,-0.8461582,-1.2061902,-0.19629565,-0.5848525,-0.43139958,-0.5966276,-0.6049498,-0.28607538,0.027858496,-0.9457057,0.38192534,0.7375768,-0.5175412,-0.5996984,0.8831729,-0.086180344,0.04032638,-0.022329105,0.12600735,0.14668393,-0.34879047,-0.13553184,0.9680496,-1.253916,-0.29765534,0.7101289,-0.4528717,-0.13854453,-0.251277,-0.37599903,-0.30700245,-0.29572955,0.0916859,-0.24970224,-0.6912098,0.07077203,0.23740968,0.16699839,-0.82399696,-0.8525171,-0.04748403,-0.39353326,-0.16696437,0.058310933,-0.115430936,0.5865582,-0.44027925,0.31080532,-0.2087912,-0.63892853,0.4276367,0.11226214,0.3124927,0.7136622,0.41948006,0.23579977,0.5918942,-0.82188976,0.60745955,-0.14673676,0.41752115,-0.65305156,0.12666869,-1.3368795,-0.29687813,0.9633318,0.20051315,0.07199425,0.7978131,1.138638,-0.5393245,0.5472806,0.026181629,-0.16699074,0.0431105,0.7232378,0.2572563,-0.2029293,-0.46764952,-0.035482448,0.3190221,-1.1988238,0.94652444,-0.060788147,0.4952288,-0.5193929,0.11388104,-0.6189926,1.0838878,-0.3869057,-0.73962533,0.10978389,-0.4391294,-0.7457654,0.8515366,0.1133812,0.62612915,1.3479528,-0.2666323,-0.5411759,0.26443112,0.42797583,-0.067418486,-1.4898762,0.3883351,-0.0052642515,-0.23142876,-0.24203889,-0.17687894,-0.5921263,0.14058545,-0.6414207,-0.0050034286,0.011208784,-0.61051965,-0.71222305,0.10957922,0.4993334,-0.14730096,-1.1209012,-0.27243033,-0.6843465,0.50203604,-0.5725665,0.7510374,0.53463,0.4515359,-0.6299664,-0.80977076,-0.35280934,-1.0255746,0.009165134,0.33288622,-0.22741814,0.18319988,-0.30681735,0.087044664,-1.2301341,0.011119941,-0.5858917,0.035955515,0.9541845,0.4027908,0.40684032,0.43217427,-0.021747332,0.012960385,1.0540268,-0.5970878,-0.10105126,-0.38877082,-0.7838976,0.3154571,-0.8689044,-0.34127566,-0.30227163,-0.75953454,-0.8427318,0.29457873,-0.6169024,0.31953475
P68400	0.507743,-0.94641674,-0.07448346,-0.07066902,0.5450836,0.39083064,-0.5557705,0.9192288,0.2752516,0.12479297,1.1684048,-0.1001667,0.40154463,-0.6578929,-1.0271523,-0.30426294,-0.16325504,0.5191967,0.49074528,-0.62828946,-1.0108979,0.68663573,0.49402663,-0.235846,-0.16683078,-0.2593125,-1.0853769,-0.77802724,0.94367707,0.8797671,-0.49903393,-0.31824812,0.2936685,0.7759887,0.23522943,-0.15314804,-0.4880968,0.73924905,-0.04769367,-0.52410305,-0.38667136,0.03681978,-0.56566226,1.0179274,-1.5314025,-0.06553352,0.22745304,-0.11349959,-0.09649076,0.47024933,-0.62100065,0.5357658,-0.14344439,0.76654595,-0.906101,-0.37792483,0.07305726,-0.29793528,-0.054748017,-0.35968533,0.9954139,0.8933481,-0.5935234,0.22126894,0.41815415,-0.7789835,-0.2442052,0.17226368,-0.7340305,-0.2460742,-0.20775637,0.08547414,-0.13811237,-0.14572448,-0.610456,-0.1168935,0.47988328,-0.34295747,-2.1765077,1.3024747,0.07861485,0.5468279,-0.5311723,-0.63149124,0.43277085,0.4920648,0.9267831,-0.40313566,0.20062625,-0.18993704,0.65635085,-0.52206063,0.62393016,0.3691692,0.6809295,0.07643557,-0.85258496,0.23247159,0.032923404,0.57339907,0.0939772,0.4666944,0.22839373,-0.06925994,0.6064424,0.37344483,-0.30482122,0.32944784,0.35227963,-0.83256835,0.095239714,0.52539283,-0.37490332,-0.11738021,0.54229957,0.34876645,0.64381045,-1.0486417,-0.3065147,0.16663857,0.16860226,-0.35988888,0.36355227,1.4100401,-0.6512986,0.36426052,-0.23232555,0.7152608,0.087213606,-0.34400964,-0.7267821,0.5719657,0.014277309,0.11425724,0.72479486,-0.040792458,0.84359634,-0.671092,0.5105623,0.19328772,1.4539634,0.6499613,-0.7675746,0.370093,0.23124819,0.62412477,-0.6030916,-0.32811788,0.381079,0.7218297,0.53211015,0.68851835,0.40660608,-0.48540828,-0.2957787,0.3885902,0.2903878,0.38386086,0.18049507,-0.44878522,-0.882534,0.31661013,-0.17616682,-0.84420997,1.0006092,1.0644219,-0.17317525,-0.37535438,-0.26637924,0.00031738667,-0.3151734,-0.9700747,0.0565283,0.4024139,-0.12051324,0.124628074,-1.2750494,-0.010812695,-0.5432024,-0.051751968,0.9380836,1.3082166,1.0867338,0.8221933,-0.4165343,-0.9005049,0.060197357,0.36795405,-0.25185478,0.62790096,-0.23330182,0.27443203,0.3562857,0.53458786,-0.47029132,-0.49605533,-0.267734,-0.59067506,0.42721227,0.53651124
Q9H444	-0.47441587,0.04786633,-0.22899738,-0.07414755,1.1390445,0.40617865,0.13595442,0.93074137,0.9551705,0.13623734,1.5814205,1.1308621,0.72457594,0.06452361,-0.8139646,0.22156361,-0.30292794,-0.15990326,-0.71672815,-0.92320806,-0.033090092,0.75394225,1.2720938,0.46736524,-0.7106443,0.07255978,-0.081889324,-0.19022931,0.78818464,-0.14081132,-0.507529,0.25300294,-0.5157536,0.54825145,0.17516993,-0.5578577,-0.83785874,0.015318526,-0.39862874,-0.42410195,0.45789945,0.48773792,-0.18317416,-0.61825716,-0.57775193,-0.79640853,-0.35257044,0.9924986,-0.94705695,-0.11756437,0.22438404,0.87207055,-0.102256745,0.32776785,-0.3353076,0.051535748,0.050082542,0.08435072,0.09978271,-0.035765883,1.2012963,-0.14828235,-0.465475,-0.36354843,0.589551,-0.91989744,0.20258258,0.4473032,0.08088481,-0.4361307,0.11805662,0.5115929,0.113264784,0.39841324,-0.67018104,-0.51003563,1.0775821,-1.0367386,-0.2526667,-0.2817924,-0.90979916,0.2108095,-0.8079747,0.10795149,0.004987657,0.6995704,0.13036749,-0.53398716,-1.6875451,0.022755697,0.50010747,-0.048952993,0.47851098,0.39707315,0.9837579,0.82193404,-0.4194131,1.450698,-0.18640561,0.67866087,-0.6276999,-0.70154035,-0.6078783,0.6221148,0.80667573,0.0068165823,-0.27123144,0.58687323,0.009991735,-0.37090623,0.6490065,0.34496763,-0.10950895,0.40584835,-0.7729677,0.1123076,0.28309166,-1.5323864,0.4727218,0.72535217,0.58786416,-0.64823246,0.28742626,0.019312164,-0.20873468,0.12863837,-1.3525151,-0.31470293,-0.0030618994,0.24709482,-1.4289244,-0.11526563,-0.7785391,0.82339776,0.6991574,-0.13849173,-0.050826564,-0.10161866,-0.9744556,0.2578754,0.9581833,0.4607666,-1.0380493,0.82158697,-0.13139923,0.32917047,-0.74522805,0.52418935,-0.44544357,0.4743358,0.637676,0.1888041,0.6139265,-0.5234026,-0.05830107,-0.334553,-0.29915774,0.1087425,-0.6676754,0.09931006,-1.1373662,0.048810624,0.29134995,-0.88713294,0.12117502,-0.33537993,-0.31628397,-0.31961653,0.10722373,-0.57267123,0.24846639,-0.05990648,-0.014737409,0.03789907,-0.0068063885,-0.01828132,-1.7465887,-0.27184537,-0.97680885,0.9090202,0.5591422,0.07696527,0.964057,0.1400407,0.32590923,0.10283505,0.27847937,-0.13140255,0.4359413,-0.28983784,-0.37565157,-0.113733456,0.46799403,0.39035589,-0.13160644,-0.39535573,0.20090723,-1.1944276,-0.93627137,0.100871265
O75832	-0.072506875,-0.9355975,-0.25155696,-0.71248424,0.4141336,0.6309644,-0.22439879,0.20523664,-0.09036215,0.1541515,0.042742707,-0.30655426,0.7054566,-0.58972704,-0.58685565,0.3034781,-0.67731965,-0.13459904,0.79072464,-0.62494165,-0.5426768,0.4478858,1.0201578,0.3738108,-1.2409899,0.13119362,-0.46515268,-1.0720696,0.53712,1.284747,-0.9702995,0.46061245,-0.79135257,0.32406753,0.22345975,0.19315276,0.3106459,-0.6884175,-0.2831847,-1.4583547,0.3872851,-0.28772414,-0.44890976,0.63927335,-0.21612869,-0.42151722,-0.28290313,0.5394088,-0.33390138,0.4205887,0.5697541,-0.08044744,-0.66000336,0.5070755,-0.46449086,0.63277256,0.3863859,0.08069939,-0.22157244,-0.35643032,-0.19610909,1.0143687,-0.01603093,0.23394111,0.44834608,0.48478168,0.006794406,-0.38523355,-0.14937241,-0.067736514,0.13761261,1.2058612,0.876279,-0.4847859,-0.43247688,-0.31106174,0.23786698,-0.731521,-0.88387066,0.6051827,-0.084159754,0.32593784,0.44507095,0.13311423,0.13931036,0.46908328,0.9266526,-0.14064302,-0.1402431,-0.18368083,0.40100586,-0.09368841,0.539741,0.74911004,0.06516249,-0.014846941,-0.1549805,0.39438358,0.4490182,0.4228112,-0.538098,-0.23027913,-0.64661425,-0.104880236,0.26758975,-0.3401573,-0.46845275,0.49594158,0.63856095,-0.17635809,0.10393931,0.55116963,-0.116182774,-0.33193234,0.7816228,0.69715285,0.040545225,-0.75420773,0.14879234,0.4106124,0.7198025,0.51222044,-0.31841037,1.0699996,-0.3581447,0.47963634,0.0013394288,0.048034556,-0.19587976,-0.5415134,0.008459187,0.08643274,0.36559108,0.43729657,-0.056666262,-0.8221702,1.3940743,-0.4172646,-0.31294835,1.2883301,0.6558354,0.24713211,-0.6006049,0.2753174,0.018572174,0.12739156,0.01213093,-0.52419543,0.048551545,-0.14836481,0.46457535,0.009146436,0.036761533,0.35988465,-0.85297406,1.2552464,-0.49085358,0.6715206,0.047526658,-0.6998737,-0.6787363,-0.033256013,0.634812,-0.4196973,0.71184236,-0.013396892,-0.61688125,0.09317681,-0.45389676,0.16067144,0.86120844,-0.055143103,-0.010367957,-0.4331449,0.0126076415,-0.20497149,-0.27425826,0.3813931,-0.8701377,0.03017074,0.828427,1.8617427,0.8078191,0.5858469,-0.47142053,-1.1048262,-0.28905323,0.2829824,-0.0970042,0.5655707,0.20369379,0.43941885,-0.037313346,0.30984947,-0.6975818,-0.8600667,-0.41840678,0.4569955,-0.46846947,0.06709243
Q9Y5N6	1.2743095,-0.467057,-0.6941778,0.6856768,0.8964335,0.27493945,0.30914524,-0.49236196,-0.49867368,-0.5060458,-1.131356,0.6679277,0.5072543,-0.5360896,-0.3771962,-0.370528,-0.09742754,-0.60653025,0.30520502,-0.036951825,-1.3527886,0.58976483,0.44634455,0.3524748,0.044012554,-0.62418455,-0.117347196,-0.32139385,0.36429596,0.4273435,-0.92110187,0.22818282,0.26704696,0.62120587,0.3305915,0.07123278,0.41701883,0.5068614,-0.75175405,-0.6760634,-0.66473323,0.22481853,-1.755111,0.8056894,-0.3384239,0.049658548,0.3765846,-0.07960399,-0.18088202,0.7897076,0.69553196,0.93758667,-0.917692,0.09870181,0.17102471,-0.22914933,-0.67827344,-0.8094285,0.25403604,-0.6235785,0.38282195,0.70366985,-0.54584813,0.23138152,0.1357403,0.2753198,0.13938501,-0.31105265,-0.11621579,0.04565057,-0.6245712,0.03903456,-0.81079817,-0.4510193,-0.24430467,-0.6649743,1.3097035,-0.47283244,-0.35586274,0.1330329,0.2037291,0.05837729,-0.1826918,-0.21857582,-0.0034793788,0.112604,0.16694018,-0.3624115,0.05512858,0.52247125,-0.18438938,1.0704122,0.12944457,0.8461167,-0.14989616,0.13023081,0.06775218,-0.14852953,0.06951324,-0.29317528,0.68696505,0.23915824,-0.094482355,-0.4832688,-0.18431042,0.22638828,-0.30124837,0.39343277,-0.34507567,0.22807992,-0.21794124,0.257573,-0.0056903632,0.403276,0.48631325,-0.5319626,-0.307243,-0.039652836,-0.31400523,0.15708077,-0.41069892,0.47748584,-0.6517675,0.65873736,-0.80806094,0.06084047,0.46092728,0.86011195,-0.47176844,-0.26990187,-0.64756495,0.7446229,0.07703493,0.71865,0.022938183,-0.4021832,0.4535559,0.0687853,0.34652776,0.4799253,0.69696844,0.45199743,-0.11124418,1.8173397,0.8226137,0.86006004,-0.35638282,0.7805411,-0.14775826,0.8301153,0.03522729,0.12077968,-0.43098617,-0.22805484,0.8177054,0.43039304,0.54104817,0.20414126,-1.1703811,-0.24566692,-0.644569,0.020390894,0.5542931,-0.5193938,-0.11382548,-0.17550288,0.23779346,-0.60613704,0.14060044,-0.10344059,0.29812622,-0.7752576,0.05727943,0.31458336,0.93121314,0.1558804,0.33723757,0.45006692,-0.2844449,-0.4432703,0.5216955,0.21707423,0.13964185,-1.0385277,-0.026063796,-0.92964643,0.07499932,0.16669862,-0.051866047,-0.13898075,-0.622611,-0.2519307,0.028850742,0.2905887,0.10922078,-0.47150952,0.14214659,-0.12721814,0.75953335,0.90232044
P61970	0.99790704,-0.32767615,-0.21261896,0.29386017,0.48072132,-0.09703369,0.31441498,0.007196503,-0.25680044,0.43914944,0.16573451,0.4777868,0.6693844,0.29477367,-0.43050987,0.73264027,-0.26719323,-0.55199033,0.29989186,-0.71921194,-0.41865084,0.2223977,0.778765,-0.6996437,-0.7089899,-0.40917358,0.44653034,-1.0543437,0.2662075,0.47395274,-0.84053236,-0.049210552,-0.1576335,1.1054544,-0.38945094,-0.0018107047,0.14083965,-0.25112894,-0.20911433,-0.64188635,0.30316558,-0.30395338,-0.8618394,0.29718223,-0.528902,-0.8015309,-0.24352004,0.06156486,-0.5460688,-0.28755015,0.5710448,0.08719803,-0.53317076,0.39927882,0.468698,0.63303185,0.36210537,0.6052464,-0.15120594,-0.26357824,0.054837275,-0.56086075,0.4019499,-0.22513925,-0.4253018,0.23928307,0.58812606,0.5979829,-0.52170503,0.8374904,-0.6352176,0.09813516,-0.5754522,1.0892607,-0.8052935,0.23701143,1.1165189,-0.6735596,-0.1623483,-0.77115744,-0.5558429,0.9124339,-0.9425249,0.09280116,-0.429709,0.32563952,0.8399282,-0.18250528,-0.6779101,0.553077,0.5666171,0.83705837,-0.55016243,0.62406164,0.5115533,-0.13594979,-0.2639357,1.0613315,-0.11981144,-0.11945854,-1.011986,-0.42314297,-0.78915733,0.253196,0.9942792,0.8013697,-0.21231021,-0.07783105,0.10829587,0.20580792,-0.53413314,0.33121333,-0.36172974,-0.16099785,-0.22085586,-0.18688315,-0.87393856,-1.0500052,-0.19379555,0.13590041,0.86575687,0.31660077,-0.44958308,-0.75270486,-0.16452831,0.13386877,-0.7577773,-0.046063274,-0.7443979,-0.05971877,-0.09909226,0.5920571,-0.2604189,0.67331755,0.106903434,-0.41080675,0.5870054,0.29571703,-0.11426881,0.37191755,0.8211239,-0.42558357,-1.0258334,0.4686629,0.20973745,0.98218423,0.02870252,0.55478114,-0.023691557,0.33872172,-0.033050876,1.2066307,0.25317836,-0.889784,0.3640787,0.33217737,-0.70969456,-0.083192416,-0.97610843,-0.35021734,-0.6110656,-0.58232117,0.10871885,-0.04615881,-0.33432192,-0.8060755,-0.73635024,0.47753742,0.111614205,-0.6643348,-0.60954607,-0.6595984,-0.0043711415,0.07662214,0.1816134,1.325988,-0.7399696,-0.24224955,-0.71384937,0.57102865,0.36826545,-0.20631245,0.046578147,-0.5803219,-0.04034746,-0.78659594,1.3377955,-0.5424481,0.98144764,0.0028038188,0.46185428,-0.4827115,0.97169167,-0.63832617,0.8129954,-0.7718509,0.29927275,-1.1837413,0.47310436,0.60045165
P19387	-0.16125527,0.06444561,0.46884406,-0.70974004,0.7246042,-0.10215723,-0.49773356,0.28285703,0.70385253,0.3961769,-0.010491762,0.857318,0.6126467,-0.070506215,-0.14600566,-0.87150216,0.22556531,-1.0297878,-0.56699,-0.50666,-0.66040504,0.5915717,1.5364225,0.8066252,0.39415297,-0.13261767,-0.14356919,-0.16542652,-0.018747771,-0.6643738,-1.241126,0.37614217,-0.8033362,0.9942365,-0.1328659,-0.21047215,0.30544382,-0.66322255,-0.50706065,-1.4768374,-0.25470898,1.0672714,-0.15088521,-0.0043295743,-0.5148459,0.103130564,0.22104199,0.76641065,0.15900621,1.0669893,0.3114733,-0.042295657,-0.36197305,0.6360756,0.6764729,0.26068556,-0.13871805,-0.3233202,-0.4293706,-0.6149665,-0.3515562,0.7560345,-0.42726547,-0.3253018,-0.22963943,-0.20564367,0.05508691,-0.42611226,-0.075365156,-0.4790375,-0.67682195,0.58229345,0.40722513,0.772095,-0.5418187,-0.4419586,-0.368424,-0.71538585,-0.20031665,-0.7543415,-0.010516947,-0.4488164,-1.0363767,0.061189678,0.6772683,0.0624316,-0.03655382,-0.3486325,-0.6024807,0.5412323,0.91277707,-0.67371273,0.7778957,1.1474509,-0.5822862,0.4498845,-0.36129668,1.0007025,-0.5053599,-1.1248441,-0.28033766,0.6721285,-0.36890388,0.27473262,0.60551035,1.1148206,0.10350442,-0.27969578,0.24725096,-0.31672698,0.6027793,-0.04665268,0.62682724,0.41210908,0.39626175,0.4983723,0.18006013,-0.30013895,-0.46088904,-0.065426506,0.18386474,0.10773623,-0.97899735,-0.089779176,-0.5865215,-0.24533726,-0.24184778,0.3369119,-0.036753837,-0.29320568,-1.0237597,0.07848852,-0.08842189,0.4790102,0.3643508,0.34514022,0.8757822,0.4152084,-0.009876608,0.46601233,1.0612075,0.2790908,-1.3145276,0.8338644,0.73039615,1.0142896,0.20295088,0.031664424,0.12063028,0.7399205,-0.3696256,-0.6108909,-0.020839827,-0.25604662,0.048419897,-0.07794118,0.3986317,0.3522548,-0.34388894,0.41196632,-0.37905726,-0.033789035,0.39370325,-0.417776,0.1121292,0.39536178,-0.76637816,-0.19380459,0.9167974,0.046526324,0.76566947,-1.2316184,-0.24929592,0.3697317,0.3071867,-0.8396202,-0.67510843,-0.063095346,-0.32493952,-1.1670636,0.9146983,-0.058084216,-0.3107838,0.32729286,-0.19281228,-0.7505873,0.34836102,0.6674834,0.17182933,0.59830713,-1.3259695,0.45585647,-0.4367332,0.951536,0.05278432,-0.16744685,0.2157086,0.35742325,0.21285374,0.16261852
P51665	-0.42852,-0.78736556,-0.1937924,-0.37076274,0.3904186,0.66280234,0.4151853,0.057228647,0.34236878,0.31161264,0.24786726,0.2444817,0.28458095,-0.14796758,-0.6016407,0.62308365,0.44562885,-0.8945771,0.27685145,-0.73831636,-0.18464008,0.40414277,1.541046,0.7041489,-0.22035423,-0.48044783,-0.379695,-1.1531639,1.109302,0.81875145,-0.7701316,0.9253735,-0.7283815,0.6865393,0.10329353,0.62044275,0.17641701,-0.121464714,-0.32292625,-1.9636053,-0.0910735,-0.29503098,-0.33014062,0.26251826,-0.09446424,-0.38552168,-0.16002342,0.64771366,-0.35264856,0.15350346,0.69490474,0.30690005,-1.0783111,0.4708891,-0.4586861,0.21195044,0.30225405,-0.19893442,0.097514324,-0.8886155,-0.24409364,0.8115659,-0.91285783,-0.0061270543,0.60483825,-0.14317964,-0.14950885,-0.68937963,-0.25768918,0.1554522,-0.5410721,0.2244792,0.7732161,-0.67749393,-0.21024832,0.35750544,0.27547592,-1.3386422,-0.3799856,0.59927964,-0.21193726,-0.13775963,-0.16056569,-0.06132821,0.096257456,0.88103306,0.47086468,-0.11084309,-0.89746606,0.31198782,-0.049475957,0.14685646,0.2020371,0.72671133,0.22177032,0.51267326,0.6106701,0.19967791,-0.22985819,0.0837948,-0.7603332,-0.4417336,-0.84915614,-0.45988294,0.3312257,-0.18681724,0.44313705,0.72222763,-0.06504571,0.051368058,0.20528367,0.31332794,-0.77881384,-0.4593747,0.41058013,0.68322086,-0.89414674,-0.51387364,-0.67150533,-0.13447784,1.1780225,0.54299456,0.178503,0.80913615,-0.75931215,0.56247276,-0.5990246,0.6549183,-0.059167635,-0.05025073,-0.38078055,0.2995299,0.1361916,0.45713753,-0.1677769,-0.7186232,1.2197509,-0.34320784,-0.23667449,0.7425309,0.39500484,0.073853396,-1.1265163,0.41808328,-0.04948131,0.5637492,-0.040350124,-0.063494585,-0.16395764,0.3672947,1.2217793,-0.08800759,-0.20222963,-0.009115701,0.21651019,0.7208811,-0.3050416,0.11312135,-0.40651825,-0.7691293,-0.7506898,-0.43249694,-0.033914417,-0.44921616,0.76685154,0.0077722277,-0.82495546,-0.039759506,-0.21961656,0.37978375,0.41374433,-0.5802615,-0.28804597,-0.40595815,0.1495946,-0.37232962,-0.6361994,0.57900745,-0.5819302,-0.094884135,0.51318777,1.2245114,1.1711135,0.94277734,0.08589945,-0.8285675,0.29027262,0.3078297,-0.017868426,0.3692837,0.66221404,0.2618686,0.04931864,1.011524,-0.15444039,-0.9636612,-1.1013978,0.582125,-0.14682902,-0.0047386494
Q9P253	0.0042056376,0.5540317,-0.016451566,0.36273983,1.8066105,0.60438704,0.41164455,0.077059135,0.09422791,-0.10102631,-0.17556055,1.1178685,0.4869909,0.16829361,-0.32193932,-0.33146325,0.47646865,-0.93464607,-1.6013008,0.4050219,-0.5627128,0.794643,0.029033188,0.19590035,0.11006079,-0.050213505,0.19553474,0.26322946,0.13056219,-1.1058282,-0.16145839,-0.6342048,1.236817,0.40240294,-0.26801088,-0.89784133,0.023387197,1.0250229,-0.83796185,0.106101006,-0.23513447,0.06324526,-0.6297674,0.3359037,-1.480062,0.6724127,0.91444135,0.27499217,-0.46256217,0.97878337,-0.3893314,0.6494771,-0.7989107,0.18034545,1.1484295,0.27214408,-1.0019681,-0.76288724,-0.087122016,0.082486056,0.2843168,0.3831272,0.8175358,0.52158487,0.2761052,-0.21958907,-0.3326357,0.6261241,0.17319341,-0.5238927,-0.44354126,-0.38759658,-0.35995033,0.55651796,-0.97858304,-0.59037995,0.8425673,-0.17483756,0.76530904,-0.24383506,-0.41012672,-0.0077137314,-1.0732796,0.3796745,0.29817557,-0.68289846,-0.7651246,-0.25213012,-1.0077796,-0.5892925,0.93165797,-0.6422375,-0.89595294,0.9428151,-1.0804062,-0.7506564,-0.26788568,-0.2303312,-0.57603896,-0.3459606,-0.068250574,0.008473438,-0.5217384,0.21881104,0.51025325,0.1717593,-0.061840106,0.05367231,0.419864,-0.18587138,-0.019109301,0.20353611,0.20411523,0.7262305,-0.7999232,-0.17128503,-0.5692199,-1.0924157,1.088753,0.18424688,-0.104750134,-0.29000264,-0.60784173,0.3948319,-0.42116398,1.1055335,-1.1999618,0.17514558,-0.32842064,-0.29585347,-1.1428607,0.5070487,-0.5770573,-0.07198235,1.2651033,0.69150245,0.2780906,-0.09653644,-0.4128102,1.053036,0.3351815,0.46217895,-0.9403178,0.15047295,-0.3974208,0.32943282,-0.67853606,0.3715599,-0.87478375,0.47823176,0.3938496,0.42128372,0.17158629,-0.45797372,-0.2005881,-0.5541125,-0.6972221,0.092508055,0.3155394,0.11936555,-1.0727229,0.274831,0.56365275,-0.45296845,0.29772288,-0.534256,-0.73360634,-1.0048776,-0.5485452,-0.44734135,-0.20229082,-0.7906567,-0.2907663,-0.07927984,0.65843487,0.3831471,0.1036934,0.20451033,-0.4884361,0.07953979,0.81289566,0.27004626,0.42990944,-0.42899206,-0.08189557,0.049986627,-0.5691471,0.22671306,0.94943887,0.848027,-0.8531339,-0.069363095,-0.063397884,0.04277002,-0.5349319,-0.59552103,0.20376962,-0.24773613,-0.9559451,0.71474165
Q9UKV8	-0.30006844,0.462526,-0.37743074,0.0066373507,0.1010209,-1.0963416,-0.04587433,0.75279963,-0.14453928,-0.09858634,0.85547507,1.5274875,0.797728,1.0535504,-0.22429767,-0.21021514,-0.3576812,-0.7729409,0.37061793,-0.25962454,0.8664321,0.6392968,0.6668141,0.98855925,-1.0983366,0.89739275,0.7968108,-0.23088297,0.57417506,-0.79186887,-0.33199784,0.3950649,-0.84467036,0.28849462,1.3651984,-0.049336523,-0.76446533,-0.832538,-0.2669236,-0.6430513,-0.16768295,-0.50144047,-0.41811088,-0.42933148,-1.4829948,-0.47661632,-0.1659649,0.69339746,0.2635448,-0.19396195,0.37346628,0.45631287,-1.0074611,0.8520553,-0.45443308,0.1428199,-0.016553212,-0.55070066,-0.574043,-0.3604589,-0.16898479,0.5142873,-0.00021129829,0.52736217,-0.30527806,0.77237386,0.76362795,-0.40068552,0.12935732,-0.15215535,-0.30509818,1.1790954,0.020972803,0.35558975,-0.38267213,0.26812598,0.28554416,-1.2395949,-0.2768119,-0.36321035,0.10714227,0.109991744,-0.24389158,0.2061967,0.5179931,0.06086437,-0.03317485,-0.9814386,-0.63957036,-0.46138123,-0.41353995,0.46927106,-0.0660578,0.64339226,-0.5259031,0.68797386,-0.2205262,0.13340896,0.8009108,0.2376997,-0.56952214,0.94528425,-0.0967302,0.27860734,0.96258396,-0.6104224,-0.63531494,-0.19004165,-0.18906744,0.68633884,0.67339605,-0.116388276,0.33276463,0.58391035,-0.090918325,1.5089874,0.14556907,-0.014256391,0.46585983,0.66402394,-0.8361697,0.21769823,-0.49583077,0.5481362,0.73929757,-0.8768563,-0.59023917,0.18080638,-0.031197019,-0.45270452,-0.54491085,0.91008353,-0.50345504,0.93973744,0.96235377,0.5068546,1.0504359,-0.24757709,-0.10236336,0.9723346,0.5406352,-0.119089715,-0.77536654,0.031313196,0.43618536,0.69711864,-0.23853296,0.5738556,-0.12776816,1.2059406,0.47292945,-0.52498996,-0.23735413,-0.47027946,0.5130268,0.25955316,0.2147791,0.6709681,-0.43133816,-0.15643395,-1.0379447,0.17353444,0.106178015,0.007225966,0.04906912,0.9936661,-0.5965391,0.07155243,0.17869718,0.085568085,0.9369584,-0.8641093,0.42315626,0.4876868,0.16868342,-0.062701695,-0.95936304,-0.478028,-0.5082797,0.0003866165,0.7318904,1.6091797,-0.2951792,0.11246145,-0.19605751,-0.29841626,-0.27891406,-1.1480637,-0.31007758,0.03812301,-0.20216937,0.115250245,0.8257566,-0.117949,-0.19489934,-0.3391565,0.46868002,0.20731774,-0.30793878,1.2553272
P60228	0.47661585,-0.47545573,-0.4714414,-0.33247536,0.5764374,-0.7714064,-0.15617396,0.30044946,-0.0014777976,-0.18887937,-0.24958074,0.726138,0.5203553,-0.011754002,-0.29286528,-0.6645916,-0.6360607,0.6126287,0.37018782,-0.67328554,0.10811158,1.052414,0.4003449,0.5168318,-0.6287973,-0.05052217,-0.5392864,-0.20521353,0.8575035,-0.5982112,-1.0782106,0.15394643,-0.043106675,0.32003886,0.4662577,1.1537788,-0.01646411,0.14083758,0.4004689,-0.67141014,0.032574724,-0.2500186,-1.1285645,-0.13891463,-0.40092632,-0.5785687,-0.32603705,0.0570043,0.0022650415,-0.6534877,0.192171,0.4944424,-1.3270309,0.4305104,-1.0035235,0.08435185,-0.1896215,-0.69656813,-0.07019858,-0.46745557,-0.073259115,0.3438706,-0.31639263,0.16596305,-0.48499498,0.6109575,1.0319706,0.52008307,-0.86059195,-0.10538996,-0.30041277,0.27446127,-0.605921,0.49226508,-0.88393766,1.3342155,0.5439495,-0.49976367,-0.9944489,-0.4398179,0.013987525,0.84610265,0.014402545,0.62516576,-0.07418414,0.3137996,1.2907882,-0.9336633,-0.084136456,-1.0117874,-0.1607753,0.16389266,0.41274834,0.79383916,0.3660531,0.4648042,-0.05435015,0.21041876,-0.010317654,0.24523446,-0.50306433,0.7864528,-0.83338034,0.48298874,0.5072167,0.52125055,-0.8465791,0.13779087,0.2214009,0.895736,0.57622236,0.439462,0.6418888,0.27029958,0.60170496,0.65991104,0.62456137,-0.5427143,0.020550372,0.34297746,-0.38361228,-0.3784544,-0.69898325,0.17469534,0.27929097,-0.30311647,0.047227092,-0.1176356,-0.30346596,-0.36144093,-0.406571,0.8796502,-1.0224379,0.43568295,0.7862983,-0.35918012,-0.22775096,0.4529595,-0.13002653,-0.04885913,0.25034332,0.61304665,-0.29235268,1.5816299,0.46593216,0.90172416,0.24577512,0.25521258,0.38670948,0.95218545,0.27472624,0.06145508,0.31372276,-0.6988784,0.36885217,0.4923195,-0.008110193,0.4635861,-0.91704565,-1.0769539,-0.2129243,0.06782953,0.3393516,-1.4134581,0.49029252,0.37526345,-0.053935196,0.014120824,0.23325084,0.108926184,-0.013413991,-1.1605581,0.22253616,-0.06403775,0.71136385,-0.32027245,-1.214073,0.021068463,-0.22320004,0.3942443,0.5718706,0.48939374,0.42098004,0.08067635,-0.013533383,-0.39003542,0.13701046,0.094875105,-0.28136548,0.62576604,-0.5041976,0.3794871,1.0233922,0.25333545,-0.23419283,-0.11786018,0.45461625,0.30067444,-0.07626604,1.0825279
Q15006	-0.064707525,-0.9640752,-0.21916465,-0.072664306,0.8282927,0.13994282,0.33080527,-0.20761828,0.23750788,0.1462646,-0.17045036,0.2772041,0.89043087,-0.43923643,-0.08240621,-0.13333227,-0.055816755,-0.68857527,-0.027129091,-0.059227478,-0.4237559,0.7910736,0.64253354,0.2958655,-0.7111707,-0.32817808,0.124027595,-0.26796868,0.61316925,-0.35595202,-0.27443087,0.38378716,-0.33991,-0.08735446,0.39037,-0.011283127,0.06003882,-0.097893484,0.14941436,0.06985422,0.08492883,-0.060289554,-0.55978686,-0.38262466,0.14310044,0.022663182,0.3848766,0.045802336,-0.49534214,0.6152415,0.49028403,0.18770796,-0.27245238,0.22083284,0.052534338,-1.102216,-0.8224363,0.27963275,-0.50150436,0.10751953,0.7670549,0.658014,0.041560948,-0.056040972,0.1793817,0.48294774,0.395972,0.4635581,0.23511489,-0.39028996,-0.5773373,-0.5975644,-0.2281043,0.10221935,-0.80209225,0.8044918,0.7532637,-0.93674314,-0.7673126,-1.0254147,0.3308339,0.52938277,0.11363754,0.17574371,-0.2202845,0.483233,0.2473161,-1.0413991,-0.051758245,-0.119224586,0.49795184,-0.64556044,0.26783907,0.94098604,0.39825296,0.032523505,0.4417638,-0.05414132,0.5910182,-0.35505208,0.039485347,-0.028680192,-0.32187936,-0.7362695,-0.26707748,1.0741656,-0.6139269,0.13275407,-0.1454375,0.72478974,-0.2808453,0.288179,-0.08838572,0.9747028,-0.31311417,-0.058817066,-0.19973867,-1.247006,-0.3661065,0.78874934,0.23248309,0.11295354,-1.0438743,0.2416828,-0.058843862,0.08272121,0.0805636,0.15728383,0.04679955,0.19139315,-0.5022203,0.1664519,-0.10815243,0.5299672,0.23086916,-0.5330119,0.23997746,-0.24223804,-0.3500433,0.92730534,0.4719971,0.110040046,-0.9158207,0.77519387,-0.4927241,0.8585633,-0.38565835,0.50410867,0.1438284,0.77401125,0.37472752,0.3493259,0.020788908,-0.55267745,-0.42816603,-0.1182386,-1.0795735,0.5866426,-0.29113707,0.028241832,-0.5912503,0.071138404,0.09157511,-0.42837855,0.65288174,-0.99355,-0.52776694,0.16146928,-0.25043204,-0.06877429,0.37114373,-0.18612331,0.29357877,0.1873423,0.3242037,-0.47715253,-0.37588665,0.82149655,-0.74914837,0.1433051,0.32303634,0.049145263,0.8802704,-0.20674595,0.057285808,-0.042274028,0.312692,0.7884855,-0.21050774,0.3932687,-0.74015206,-0.021904413,-0.1214558,-0.36968353,-0.017322471,0.16829096,0.72053605,-0.025973404,-0.8772556,0.31937754
Q9NRG0	0.25400588,-0.9763168,-0.34468767,0.6036234,0.7218879,-0.8991293,-0.3551034,-0.057974063,-0.3130372,-0.69680595,-1.0006772,-0.3674069,0.31543085,-0.08837274,-0.34414765,-0.66183144,0.33665788,-0.44549063,0.53299266,-0.018746162,-1.3036308,0.02919579,0.16332498,0.3550698,-0.5594797,0.08732021,0.17570363,-0.42847037,0.006178415,-0.62834466,-1.0577601,0.40291584,-0.2575681,-0.0033344086,0.33551642,0.48872438,-0.011727673,-0.14687131,0.08114329,-0.3408737,-0.5153411,0.33542368,-1.2536414,0.32470927,-0.7172166,0.3259541,-0.26491484,-0.6723379,-1.1439333,1.1274761,0.39336288,0.086563416,-0.11791174,0.47863984,0.27182442,-0.09860212,-0.20903084,-0.4012969,0.16459946,0.5654184,0.46420375,-0.31541923,-0.92652434,0.33189467,-0.36207256,-0.39235306,0.4772222,-0.086817354,0.04807736,-0.22209471,-0.037015997,0.49454,-0.02189103,-0.57490206,-0.72997725,-0.38479546,0.4200567,-0.62329257,-0.30950844,-0.13398948,0.22093539,0.3415698,-0.12102892,-0.10770051,0.06314652,-0.3806931,-0.2789068,-0.59751767,-0.54778343,0.114557296,0.4089005,0.1540153,0.12067532,0.2990992,-0.52893347,0.932401,-0.35684228,0.20290852,0.45832554,0.3584942,0.64561075,-0.035568796,-0.78966135,-0.3362795,-0.60768783,1.3001642,-0.36707565,-0.45565218,0.0073378393,0.038073733,-0.027438968,0.119000606,-0.3609517,0.29808086,0.8519036,-0.35190752,0.25402188,-0.9872947,-0.98430955,-0.5845448,-0.23338929,0.18675917,-0.66226816,0.8162659,-1.0808315,-0.2729573,0.7141064,0.61096597,-0.38433227,-0.23394874,-0.2828298,-0.34016117,0.9215994,0.66377854,0.35493538,0.2302495,1.2118689,0.0385698,0.17998222,0.63848335,0.71276355,0.04355941,-0.25554776,0.83159524,0.06330523,0.5459215,-0.010267299,-0.09093141,0.19467351,0.84863925,0.29536793,-0.13564502,-0.2797947,-0.026772128,-0.031755947,-0.26434714,0.16518164,0.6338696,-0.24921443,0.34254318,-0.94723743,-0.80717134,-0.16054606,-0.80482346,0.74476993,0.11566745,-0.46302554,-0.03729297,0.6997026,-0.53978425,0.3137463,-0.23556556,-0.46468443,0.5402646,1.1639035,-1.2254986,0.34580168,1.1470968,-0.74145466,-0.14620595,0.78686655,-0.5697431,0.66983175,-0.4796341,0.08358047,-1.0509069,-0.08786547,0.56549126,-0.030014042,-0.039542682,-0.91866493,-0.16641861,-0.5129517,0.566507,1.1029943,-1.1579256,0.46492425,-0.36136037,-0.51872617,0.1609901
P14866	-0.4792556,-0.22417405,0.057494752,-0.52046776,0.66808856,-0.17964949,0.5721395,-0.07449619,0.107729115,0.09510915,0.17837523,0.683023,0.5475213,-0.17799476,0.033825986,-1.1664928,-0.7841926,-1.0032123,0.31569532,0.24068055,-0.55850536,0.89519775,0.76473343,0.68723434,-0.22108482,0.050344203,0.23685192,-0.34570727,-0.3065393,-0.29692882,-1.3205706,0.3179565,-0.33490035,0.6740012,0.43913877,0.566829,-0.25228283,-0.68449605,0.028293889,-0.22594857,-0.26587662,-0.9301409,-1.2299168,-0.7298513,-0.87936807,-0.24043484,-0.03323257,0.14765237,0.10021533,-0.20705542,0.93262565,0.95704424,-0.6581434,0.20823644,-0.03912144,0.29879835,0.30807158,-0.5105157,-0.16316761,-0.083115734,-0.0704413,0.38524672,-1.0706084,0.24434565,-0.3378489,0.6014843,0.7313826,-0.21543571,0.1546406,-0.17345923,-0.10141604,0.25066543,0.10965214,0.5922638,-0.89106107,0.49373114,0.5009985,-1.0053245,-0.4649889,-0.772028,0.3960664,0.39467403,-0.22231509,0.5849235,0.54048425,0.5499007,0.21040113,-0.53188676,-0.49983886,-0.4468705,0.042644266,0.09492165,-0.19750305,0.56719965,-0.3821706,0.83044046,-0.14153835,0.07018449,0.12669961,-0.22211659,-0.18245292,0.4780755,-0.61742735,0.18828508,0.49907655,0.9151076,-0.76128644,0.49476248,0.4294862,1.1060659,-0.068380766,0.18044713,0.30346775,0.4107849,0.14523314,0.67784333,0.43631214,-0.2810028,-0.34161797,0.9487172,-0.44971463,0.38343138,-0.44901907,0.009507839,0.543529,-0.62771094,-0.3094494,0.58899176,0.1818419,0.16599017,-0.73333347,0.16251752,-0.64491785,0.810482,-0.57663417,0.20112565,0.1909312,0.7808511,0.6428603,0.66999125,0.87003905,0.09035578,-1.0345352,1.0482782,1.7755982,1.043028,0.2957998,0.69405735,0.31251082,1.0337011,0.19677824,-0.072718464,0.42333132,-1.2944381,0.1483102,0.35676485,0.12465587,-0.2902503,-0.41048422,-0.40052664,-0.55568,-0.72187257,0.64982235,-0.17978935,-0.14343864,0.14457645,-0.45191303,-0.16665377,0.511059,0.2988912,0.17748067,-0.7819879,-0.3522463,0.5983599,1.3224744,-0.3794902,-0.67422605,0.1735655,-0.6871637,-0.08329726,0.72986597,0.4020289,-0.31273252,-0.3759308,0.24145831,-0.44354495,-0.20110068,-0.3010289,-0.5603015,0.49073157,-0.7565127,0.32575735,0.538777,0.22926769,-0.055651795,-0.48377752,0.13514122,-0.069861665,-0.22370325,1.0633699
Q15428	-0.35801035,-0.21213397,-0.49242425,-0.45209345,0.46166426,-0.16340765,-0.57030076,-0.23941551,-0.13680384,-0.22258906,-0.60072666,0.35585716,0.36122292,0.04616307,-0.05477916,-0.3418341,0.08474083,-0.7732313,0.018352756,-0.07934603,-0.20402305,0.2196224,0.6195997,0.49160033,-1.0052258,0.24791075,0.4789641,-0.34702632,0.36141217,0.35991547,-0.62002516,0.07563567,0.15937074,0.46826896,0.092526235,0.49946293,0.2618382,-1.0049059,-0.3796296,-0.896317,-0.39308283,-0.13385911,-0.3063571,0.039543085,-0.91454,-0.2920984,-0.4536431,0.39247555,0.9580908,0.6011246,0.2790803,0.68124723,-0.5700652,0.52528393,0.76029366,-0.06065739,-0.73225796,-0.2896409,-0.40851048,0.055020716,-0.08336123,0.036082786,0.017262904,0.5594965,0.019451844,-0.2484828,0.6420454,0.036529973,0.17918253,-0.010475304,0.23611452,-0.3927323,-0.040563043,-0.022824068,-0.5867339,0.73548174,-0.56605124,-1.1351807,0.4095101,-1.4253197,-0.09426626,0.15333797,-0.60642785,0.29920033,0.36779267,-0.0133862225,0.6604583,-0.7804872,-0.49069536,-0.22417757,-0.042287797,-0.03968617,-0.14889994,1.3266705,-0.7847536,-0.40752974,0.35284126,-0.7026928,-0.014845019,-0.82814854,-0.28944644,0.8415323,-1.2811085,-0.40959007,0.7338764,1.1147455,-1.1885738,-0.34195736,0.40075952,0.5579479,-0.30722037,-0.25673714,0.67693275,-0.4082362,-0.06129989,0.9788113,0.15182507,-0.17274192,0.17503387,0.114775084,0.13403474,0.19514987,-1.0024446,0.40791148,-0.16102535,0.7879758,-0.09796407,0.71076185,-0.5453115,0.121511415,-0.010004394,0.9194827,-0.08140321,0.44234914,-0.05617636,-0.049871974,0.54264885,0.8245311,0.26521197,1.4268723,0.56779283,-0.37726173,-0.8077837,0.43142846,-0.16225943,0.708361,0.117843375,0.95956653,0.15604885,1.0191425,1.0771275,0.16054691,-0.15882708,-0.34914398,0.1504284,0.0068155834,-0.7143363,0.11146046,-0.22081366,-0.18486445,-0.16570602,0.17341363,0.7256744,-0.5740585,0.084077455,0.022090536,-0.98632747,-0.4619522,0.4353968,-0.030421859,-0.46881157,-0.63229454,-0.2865064,0.2431558,1.2217225,0.38933772,-0.46273085,-0.06239701,-0.33237886,-0.14761087,0.5391672,0.059691068,-0.01378015,-0.023114186,0.14678012,-0.38636696,0.2843248,0.632139,0.340928,-0.13844477,-0.22177313,0.55495054,0.039867066,0.23485522,0.26218545,-0.5893223,0.39942625,0.7768241,0.26288128,1.2374178
P22087	0.49091396,-0.32795972,-0.61291105,-0.09611359,0.83277273,0.06295291,0.08530218,-0.24955021,-0.079735994,-0.67932796,-0.6901714,0.8139337,-0.32341954,-0.20797414,-0.22280747,0.5308166,-0.06134885,-0.43203837,-0.10274306,-0.13417499,-0.062077153,0.9932297,0.6880425,0.9774112,-0.8491524,-0.33903423,-0.5061982,-0.15398356,0.097391546,-0.34255105,-1.1091715,0.28445384,0.36425078,-0.33468294,0.3167543,0.28456694,-0.19587688,0.74671316,-0.9059579,-1.0062413,-0.3919372,0.22827238,-1.388366,-0.24465814,-0.48113334,-0.68659,-0.5926912,0.7028289,-0.37053645,0.79903966,0.4794651,1.1498731,-0.17580108,0.32281083,-0.12450882,-0.3204256,-0.5896165,-0.61856675,-0.7295645,0.5302314,0.48366547,-0.54904675,-1.256858,0.086678624,-0.1849325,0.5939518,1.1200116,0.12306598,0.11136484,-0.027741404,-0.928642,-0.79571974,-0.55874634,1.0729388,-0.7322516,0.536734,0.13581787,-0.09547403,-0.22858442,-0.26188466,-0.34246182,0.93359774,-0.39286244,-0.13781476,0.70170724,0.4574884,-0.51121366,-0.34814733,-0.7887916,0.71742964,-0.07003449,0.12399007,0.036111414,0.53872156,1.0364674,0.8471886,0.055993285,-0.27024984,0.03729665,-0.2697648,-0.2584298,0.21111974,-0.7139728,-0.13797112,1.0471524,0.102146,-0.7394045,0.5332847,-0.049120165,0.6986656,-0.34044522,0.54787624,-0.4744994,0.2991248,-0.5650795,0.5207381,-0.23724855,-0.35551652,-0.63430744,0.22859962,-0.4232119,0.43474814,-1.1390147,0.34635448,-0.17120816,-0.6520994,-0.073841184,0.13235074,0.44052857,-0.20212981,-0.060177915,-0.24792686,0.26688114,-0.18175747,0.052453056,0.60441643,0.15846437,0.2701795,0.854604,0.47870496,0.039300844,0.20819522,-0.18668538,0.6888118,0.9179465,0.8575031,-0.18788248,0.23987047,-0.19943686,1.273103,0.18757915,0.032649335,0.59010893,-0.61985457,0.21410327,0.25624382,0.80044955,-0.74810004,-1.2156683,0.14793831,-0.7471548,-0.33308065,-0.17784932,0.21278119,0.14499612,-0.14156626,0.009498353,-0.2707634,0.46468973,0.20356229,-0.27305433,-0.5027727,-0.25018036,0.2897261,0.5747277,0.74620825,-0.9418795,-0.5701903,-1.0080951,-0.6680742,0.4302919,0.27845603,0.54796433,-0.12598518,-0.017373584,-0.41623813,0.04502429,-0.67701954,-0.33288872,-0.2689165,-0.43805873,-0.45856634,1.0196503,0.44436377,0.63604337,-0.5764742,-0.49042806,0.058422994,0.070034795,1.8995233
P36954	0.43434286,0.0375018,-0.2679119,-0.929319,0.7927877,0.06484163,-0.9134791,0.35221806,0.613401,0.55569166,-0.48516902,0.51539135,0.43565175,-0.020449338,-0.09761092,-1.0858073,-0.34872216,-0.9395954,0.37285244,-0.61672205,-0.06826912,0.6873526,1.3751009,0.96352005,0.14662278,0.17894056,-0.039707024,-0.8426402,0.40848303,-0.3817044,-1.0061803,-0.07476165,-0.3293354,0.687046,-0.47319826,-0.21797974,0.49354196,-0.44111317,-0.4281697,-1.0378587,-0.3307318,0.8516749,-0.17421047,0.06492941,-0.24094895,-0.10447028,0.18766996,0.9167059,0.22493276,1.4011383,0.14748387,0.26558915,-0.5610202,0.44657698,0.21907856,-0.34838095,-0.56014603,-0.33248398,-0.6175366,-0.2408064,-0.3459857,0.6129913,-0.20088224,-0.22116731,0.24429324,0.49262854,0.46662694,-0.084967256,-0.042031296,-0.10814056,-0.26478592,0.30687046,0.22163711,0.32159188,-0.3221926,-0.7829093,-0.69865966,-0.5177652,0.353142,-0.77140784,-0.035029545,-0.32711774,-1.2552654,-0.37100014,0.6531128,-0.2550973,-0.2630595,-0.30998123,-0.47820067,0.9094242,0.32522807,-0.86469376,0.82109195,1.8146212,-0.67451525,-0.0044874544,-0.18124698,0.62936413,-0.12947355,-0.8071959,-0.30746016,0.4223599,0.15171915,0.45057195,0.83055335,0.7475672,-0.32131895,-0.7612501,0.19511698,0.38420212,0.31010818,-0.14845276,0.46515557,0.25981382,0.3921445,0.6168643,-0.050775055,-0.5001632,-0.3823725,-0.11955327,0.28893402,-0.0043577948,-1.0354906,-0.2009578,-0.808408,0.31273714,-0.53462434,0.4849276,0.63347375,0.2465128,-0.9966602,0.30278385,0.15030116,0.30646008,-0.1871877,0.5298446,0.62028253,0.649895,0.5477422,0.9025939,0.9133583,0.09328325,-0.606262,1.0317183,0.57087463,1.2403207,0.48903397,0.2739486,-0.03528387,1.0839459,-0.44984135,-0.2726499,-0.086414196,-0.43607616,0.16566232,-0.17183006,0.27077213,0.1453862,-0.18715496,-0.04455435,-0.2539858,-0.18159232,0.7872755,-0.7244003,0.031998314,0.60528934,-0.3661851,-0.3500044,0.96842307,0.060816653,1.1291337,-0.99267113,-0.16345805,0.4355538,0.054777283,-0.44917592,-0.4793003,-0.35211498,-0.46403965,-1.0143881,0.8063659,0.22516574,-0.12654783,0.4937109,-0.8814494,-1.0840348,-0.30716237,0.7358077,0.3134152,0.7856348,-0.7572992,0.19393472,-0.5442749,0.64749503,-0.08374524,-0.44893652,-0.29328892,0.38702458,0.5529032,1.0337253
Q02543	0.74452585,-0.43279275,-0.4181897,-0.5620382,0.96295065,0.20387192,-0.022169292,-0.29736587,0.07134785,0.22366346,-0.40577862,0.4923768,0.609496,-0.61317396,0.26814878,-0.05602857,-0.7767173,-0.29257974,0.792211,-0.3027871,0.08979895,0.4539283,1.1011333,0.16979535,0.10383148,-0.21207632,-0.16894646,-0.87353545,0.42974386,-0.77574,-0.6809456,0.49068,-0.5699923,0.8361655,0.008623025,0.12623332,0.20652395,0.25440502,-0.3737571,-0.5031807,-0.13611086,0.89990014,-0.5731627,-0.29277444,0.08569714,-0.4228008,-0.46528062,-0.04525029,-0.6616467,0.6633113,0.21640186,-0.31934083,-0.57005376,0.18453258,-0.31215096,0.0978628,-0.3397323,-0.16465127,-0.8148662,-0.89613765,0.34547332,0.16203377,-0.4876553,-0.30771378,-0.19735035,0.707839,0.75482875,0.62004894,-0.2251107,-0.47679788,-0.10175533,0.19368854,0.60935026,0.5197301,-0.36896646,0.30972308,0.877564,-0.3367616,0.11721473,-0.8001864,0.3867347,0.0482594,-0.41221228,0.483981,-0.28960332,0.28641587,0.4427245,-0.73153657,0.12304209,0.46248412,0.055642948,-0.19864464,0.060803633,0.30242607,-0.39333692,0.009050322,0.4836251,0.49100015,0.04127277,-0.3091793,-0.69996136,0.08813597,-0.3604726,-0.025308141,0.62449783,0.63792706,-0.13639581,-0.014075833,-0.33033904,0.44003168,0.52368665,0.56222665,-0.040156323,0.49159834,0.50206655,0.2998549,-0.290824,-0.80424213,-0.7165447,0.46683553,0.30373272,0.2723341,-0.76188326,-0.13687728,-0.17326717,-0.030649818,-0.20116201,0.26258218,-0.14429225,0.262005,-0.5464635,0.30331868,-0.3385121,1.1300637,0.34326795,-1.1257621,0.31366187,0.062774844,0.00024759368,0.5965036,0.27002746,-0.37294614,-0.030164685,1.1997939,0.15171593,0.9649612,0.12947747,0.2042271,0.5219338,0.72734386,0.24369758,-0.3112845,-0.17585708,-0.45735124,0.39043024,0.73136216,-0.20135745,0.8484025,-0.57559806,0.004047563,-0.78656197,-0.8267394,0.5992495,-0.79713196,-0.066319816,-0.36791947,0.3088633,0.5538221,0.65459865,-0.1591036,0.44169348,-1.3410827,0.07186017,-0.0071343705,-0.16316596,-1.1633106,-0.7432342,0.40943265,-0.69270664,-0.08033783,0.9227233,-0.02594657,0.19199213,-0.028656285,-0.57982767,-0.79284996,-0.024777543,0.49765116,-0.09921021,0.008268303,-0.2903289,0.06161408,0.5305985,0.0564859,-0.06651761,-0.5746434,-0.14699338,0.0016870785,0.6198081,-0.009170153
Q3B726	0.804167,-0.34829637,-0.3238852,-0.7744906,0.4299344,0.08091304,-0.31046584,-0.40552348,-0.1999613,-0.27726012,-0.78710884,-0.14410883,-0.2908667,-0.099211596,-0.08874505,0.69051915,0.26306608,-1.9642162,0.57210153,0.17541137,-0.3928496,0.30394527,0.19555049,1.6776017,0.6563115,0.24596857,-0.019459164,-0.4780515,0.082133114,-0.16055006,-0.38363463,0.07673496,-0.89091843,0.97068775,0.16671373,0.39592728,0.8368625,-0.12521538,-0.7072531,-0.853856,-1.0034415,0.119091794,-0.24160098,0.9288771,-0.09803727,0.12626958,-0.45010045,0.6079076,-0.1804174,1.8907481,0.07608666,0.3959897,0.2962173,1.0303452,0.23985215,-0.4547762,-0.007868264,-0.50405663,-0.67948574,0.12840964,0.052778274,-0.06279303,0.21882826,0.4824236,0.3092421,0.51688325,0.624979,-0.36861116,-0.2317145,-0.028173415,-0.1640213,0.24428959,-0.2600555,1.112711,-0.38888857,-0.9164269,-0.040279176,-0.7778798,-0.3023583,0.03794756,-0.39270496,0.4756945,-0.4339181,-0.67527044,-0.42618346,-0.42044687,-0.43279576,-0.9852745,0.02276098,0.31667936,0.49893734,-0.12683186,0.15115172,1.2241523,0.007884299,0.081510805,-0.08483086,0.6631964,0.16657469,-0.4721873,-0.83916646,0.33196688,0.24638928,-0.17112023,0.028633576,1.1706079,0.14895055,0.18892738,-0.87078995,0.48923084,0.27191663,-0.17043991,0.18685044,0.07389059,0.8884563,0.5340343,0.24592468,-0.44786188,-0.6451432,-0.19633906,1.031252,1.2646953,-0.42917705,0.50566024,-0.39225727,-0.40232986,0.44875506,0.4617974,0.44171384,0.16787948,-0.5305359,-0.19581623,0.41072765,-0.026604014,0.5119912,0.1026974,1.139684,-0.22572012,1.150149,0.7237602,0.47758383,0.09986869,-1.1640165,0.8154989,0.7530607,1.0386074,-0.609148,-0.3153374,0.59196436,1.4747593,-1.0390489,0.54445785,-0.8973933,0.40567473,0.13639444,0.68653005,-0.20897007,-0.10359778,-0.13568836,-0.017702414,0.06929728,-0.41833484,-0.036553968,-0.16980208,-0.61189264,-0.47325286,-0.22596726,0.3064642,0.6349111,0.4630259,1.7249179,-0.4144002,0.516412,0.5987176,0.64597523,0.4548562,-0.24469681,0.13013117,-0.12650537,-1.2900765,0.5073369,0.46137705,0.17231588,0.19369878,-0.8826437,-1.8192284,-0.365559,0.020364756,0.25389904,0.30503225,-0.44714624,0.12371058,-0.2044633,0.7567288,0.859652,-0.6528092,0.029560834,0.08825679,1.3503286,1.1219102
O00401	0.12498496,-0.98314476,0.44709182,0.23869516,0.657099,0.13158953,-0.32011628,0.90037555,0.87626106,-0.6434575,0.47864112,0.6360007,-0.027964648,-0.39043617,-0.577108,-1.0273571,0.36517644,-0.10964299,-1.0755825,-0.2164877,-1.344904,0.80548286,0.5555486,0.39268646,-0.32181704,-0.3457195,-0.33393925,0.046662834,0.5522024,0.42654127,-0.83058023,0.2222453,-0.5500416,0.51746327,0.43175754,-0.4891065,-0.3500507,-0.39609373,-0.86272174,-0.04858178,0.5015458,-0.27863073,-0.37892568,-0.28106856,-0.74584925,-0.0865291,-0.83411986,0.7010463,-0.78289735,-0.011746237,0.60571045,0.6605512,-0.9412134,0.07896844,-0.17028762,0.36377975,0.12316767,-0.7324141,0.52903503,-0.008202673,0.16176207,-0.13951227,-1.5420284,0.0060849823,-0.14796239,-1.8128554,-0.24064936,-0.5252816,-0.5617011,-0.8242626,-0.7731255,0.4107896,-1.4892997,0.18161564,-0.6385703,-0.21728691,0.8543264,0.19983254,-0.640238,-0.10640228,-0.05483538,-0.52042663,-0.44628143,0.49324462,-0.22770427,0.049804993,0.72544414,-0.45608112,-0.74724346,-0.86274326,-0.6063671,-0.047114797,0.41137972,0.8800671,-0.4789399,0.36283073,0.3298023,0.586383,-0.91168684,0.03933986,0.60188043,0.0343099,-0.8370891,0.77326095,0.77279085,0.9660097,-0.20513047,-0.95882976,0.09750019,-0.73552203,0.41042677,-0.1970657,0.5390176,0.03645266,-0.73728585,1.2403582,-0.6162039,-0.6448614,0.30251303,1.0175676,-0.12648666,-0.49845427,0.4519862,0.15344511,0.499999,0.5357196,-0.6541454,0.26887053,-0.2058045,0.5808711,-0.644401,0.29006448,-0.07498431,0.7356811,0.6651046,-0.7160373,-0.4952229,0.73200923,-0.40718657,0.28339586,0.5685758,0.06714108,-0.47135118,0.07205132,-0.047115445,0.5275551,-0.12554751,0.033085734,0.069974296,-0.32678357,0.59667856,-0.007986539,0.13445349,-0.103539154,1.2935866,-0.07652016,-0.4405983,0.17098288,-0.12070307,0.3241451,-0.102188885,-0.060461964,0.47083786,-0.912762,0.6360431,0.31642568,-0.51710397,-0.18544288,-0.038332485,-0.59409064,-0.16949268,-0.2416054,-0.44270027,-0.057774,1.0733358,0.59742576,-0.107341714,0.3501126,-1.1999809,0.50425667,1.6306453,0.8114637,-0.38226703,0.051569637,0.010001262,0.6460794,-0.05424235,-0.036110535,0.7673924,-0.5204366,-2.0120904,0.34961513,0.33442158,0.46596134,0.26234305,-0.49544927,-0.15887444,-0.12421223,-0.87464154,0.5835865
