Q16850	0.35692823,-0.7173279,-0.05110032,-0.44851482,-0.5146133,-0.10553332,-0.044933803,0.60604024,-0.10064243,-0.1769875,-0.12568988,0.11030159,0.14101975,-0.4284829,0.25121376,0.32712665,-0.907537,-0.51395494,-0.40244317,-0.27254122,0.13008283,-0.41934395,0.19123647,0.13769098,0.49467713,-0.33039573,-0.5633253,-1.1779383,-0.18610884,-0.6989924,-0.2772891,-0.23556261,0.52590626,0.09783524,-0.1700358,0.21490622,0.34437823,-0.02380373,-0.06465087,0.23034981,0.6792629,0.0905845,-0.30754456,-0.24246494,0.10067849,-0.36135456,0.6762581,0.33282226,0.47735405,0.33965018,0.1915176,0.28544667,-0.06462123,0.17877844,0.21537304,-0.19454621,-0.24090078,0.067287415,0.24031845,-0.44062522,0.26885474,-0.12732218,-0.16632412,0.026131526,0.20219044,0.49301416,0.7397563,0.011616491,0.5240543,-0.3080229,0.23425928,-0.30839363,-0.19254945,0.37950513,0.28095728,0.061868254,0.5879815,-0.34589237,0.04453478,0.5896319,0.040072173,0.2500953,-0.08625202,-0.15296565,-0.35060757,0.43609455,-0.56239605,-0.47395155,0.76393616,0.27146018,-0.27218133,-0.56915236,0.7169914,0.028767364,0.36935893,0.28749123,-0.005382203,0.3225388,-0.41411686,0.30986354,-0.6208629,0.43819454,0.20469931,-0.031911943,0.26696083,0.5883987,0.4440414,0.22418658,0.30299172,0.5718539,0.35159656,0.7669018,0.07203635,0.05550333,0.060290538,0.16099787,-0.24854764,-0.08165642,-0.53814805,0.0809487,-0.31509838,0.40463838,-0.7339524,0.19303584,0.020503663,0.8152327,0.31598142,0.27309573,-0.041364938,-0.91154826,-0.2642221,0.36004066,0.17450751,0.040895622,0.5387332,-0.14130177,-0.013889191,-0.1461722,-0.17344502,0.7094681,0.26129907,0.103299186,-0.3546618,0.73449713,-0.29875195,0.09934508,-0.5990801,-0.32744697,0.50217825,0.08282955,-0.04435457,0.07959861,0.33160707,-0.42724803,-0.06019929,0.24506535,-0.63876224,0.47577345,0.2916964,-0.3757657,-0.37607038,0.023224404,0.5821904,0.27503565,0.12743182,0.14105536,-0.33986643,0.026690183,0.42393422,0.4566301,0.46951196,-0.5212919,-0.22710747,0.1213952,0.25978324,-0.31255215,-0.65651006,0.33859038,-0.55970216,0.10408826,0.29871956,0.32428464,0.47459954,-0.11353673,0.40591124,0.24153963,-0.86959237,0.25935397,-0.19447699,0.81449443,-0.33532795,-0.13046157,0.29337624,-0.10509289,-0.057565197,-0.5168288,0.000671844,0.067886576,0.20387751,0.37778163
O75865	0.22192466,-0.6378998,-0.18159519,-0.40169168,0.1452336,0.7378464,0.12262887,0.0013854392,-0.49182552,-0.00836101,-0.36348403,0.32785916,0.045715116,0.089491785,-0.2265677,0.43644524,0.38232127,-0.6082298,-0.1665741,0.13811946,-0.40728077,0.105601884,0.30037785,0.63098097,-0.008696144,-0.5778829,0.13732092,-0.98732215,0.20734058,-0.71621895,-0.12740691,-0.74504346,0.21518254,-0.1303099,0.75577193,0.4951426,0.358193,-0.108445525,-0.15216969,-0.6019498,0.34427583,0.759618,-1.1472358,0.82763267,-0.17708418,0.48201016,0.17099647,-0.021572905,-0.019197695,0.69807994,0.25692412,0.14860098,0.057066258,-0.0691443,0.31128585,0.928973,0.21965411,0.2772991,0.58611953,-0.5673975,0.11735217,-0.2548644,-0.25661832,0.13315256,0.010567808,0.7428433,0.087219566,-0.37292844,-0.41216418,-0.5881257,0.1809959,-0.4065339,0.16902687,0.25551865,-0.6009115,0.3384282,0.84500927,-0.24534652,-0.035910662,-0.30857748,0.42005968,-0.2978974,-0.116690785,-0.08312998,-0.45463192,-0.20452029,-0.10311265,-0.10137186,-0.010267741,-0.15729284,-0.13243234,-0.66585946,0.5140364,0.11428739,-0.116016746,0.0089350445,-0.15394036,0.38701078,-0.13744515,-0.64014643,0.1489332,0.02836871,-0.14043707,-0.21764538,0.10433248,0.48840183,-0.19998339,0.012237405,-0.3151589,-0.039703462,-0.20107052,0.029517109,0.457295,0.8170786,-0.08925734,-0.2724745,0.21308814,-0.09220542,0.17587598,-0.14299825,-0.48940498,0.20627743,-0.022915203,0.283005,0.33777136,0.63824314,0.6216615,0.2873186,-0.18493922,-0.6394032,-0.1772511,0.01854906,0.28096983,0.37383646,-0.10359298,0.31862345,-0.2136132,-0.36496437,-0.45074412,0.7226354,0.088727996,0.09167414,-0.8612959,0.24223343,0.25408682,0.69353956,-0.67264575,-0.43339097,0.94707566,-0.22010475,-0.40594953,-0.0036207996,0.04407238,0.04102587,0.06871663,-0.02439974,-0.94085723,-0.3416008,0.18745007,-0.09574994,-0.18058085,-0.1863544,0.18713644,-0.4521654,-0.20349337,0.279309,-0.6018431,-0.6476062,0.29093012,0.79678184,0.6250689,-0.1676852,-0.40905043,0.34750512,0.5737786,-0.022540644,0.119286925,0.4637973,-0.8237085,-0.22158486,0.36593354,-0.33214128,0.5476403,0.37882435,-0.020185884,-0.5015288,-0.6815901,0.16715364,0.47086602,0.42984587,0.011131308,-0.1743658,0.46003392,0.06633567,-0.002475375,-0.19789778,0.43392068,0.6128772,0.17591746,-0.2174969
Q16526	0.4423042,-0.2942747,-0.12991384,-0.30860385,-0.2203566,-0.27628,-0.12652937,0.2543535,0.60646933,0.31060326,0.5783856,-0.046064183,-0.22137928,-0.12504047,-0.23820437,-0.31988254,-0.36594138,-0.3438496,0.13847362,0.14999077,0.069344364,-0.32393202,-0.3765424,-0.45042992,0.18273552,-0.14154096,-0.22282436,-0.61808836,0.34015307,-0.30633688,-0.16795401,0.12763141,0.11164341,0.20024401,-0.07842111,0.0057886005,0.4052622,0.12261933,-0.14559071,0.45697895,0.83083606,0.32368803,-1.3199131,0.2688467,0.29645443,-0.022297038,0.6479359,0.02597129,0.15514949,0.034833897,0.15744977,0.017498624,0.06953829,-0.3470586,0.22311306,0.20935948,-0.085679375,0.37517205,0.33715072,-0.5481807,-0.1394459,0.12122251,-0.08144267,-0.010662746,0.3219512,0.23933439,-0.21503945,0.093845084,0.02358551,0.24965124,0.25729665,-0.22326219,0.26037014,-0.3711533,-0.15494747,-0.34706718,-0.16784401,-0.12308051,0.0574041,0.15336749,-0.22615497,0.17501238,0.3765102,0.44665635,-0.2680983,0.18576662,-0.28214124,-0.35432118,-0.21716954,0.06561519,-0.3766616,-0.64753914,0.37800503,0.003970548,0.963851,0.12452992,0.1619526,0.8356556,-0.15078905,-0.14668965,-0.34475085,-0.24326447,0.12798326,-0.10208016,0.4252744,0.23474704,0.09801787,0.08506503,0.6145932,0.05790462,0.04921061,0.08614711,-0.105092734,-0.18896747,0.59548825,-0.3973966,-0.029696807,0.21150762,-0.010728783,0.14325689,-0.49141237,0.62411,-0.4070425,-0.35060778,0.37203676,0.259718,-0.4195134,0.48588866,-0.53632313,-0.66052115,0.1700523,0.3680196,0.41095698,0.31591365,-0.017180193,-0.02730853,0.09738221,-0.17530003,-0.5897309,0.7444825,-0.14266418,0.22856027,-0.3088576,0.550914,-0.22609083,-0.54864377,-0.7857969,-0.38298842,0.4846067,-0.14060648,-0.6206612,0.11577431,0.030484898,-0.6444794,0.06341789,0.46503997,-0.38595515,0.2767523,-0.33705163,-0.22710463,-0.29869604,-0.59499323,0.4010325,0.44968325,0.09537069,-0.0027941787,-0.29156503,-0.39857054,0.75287706,-0.020786013,-0.07732604,-0.19655287,0.16022067,0.62607455,-0.1350287,-0.5101985,0.13515599,-0.1561752,-0.14666659,0.26522285,-0.2382054,-0.34107766,-0.3338098,-0.26392964,0.14826249,0.19167197,-1.0214802,0.8488348,-0.05098999,-0.16008319,-0.63276076,0.08045808,0.275806,0.4174645,0.71756375,-0.08751783,-0.012933897,-0.1440854,0.4061323,0.08677798
P07992	0.7592811,-0.27636135,-0.21428716,-0.01533275,-0.32870945,-0.2607532,-0.40000913,-0.32477188,0.5191268,0.5377035,0.4691949,-0.2987254,0.094454154,-0.35993272,-0.21575113,-0.46953493,-0.35591844,0.11477001,0.6642499,0.091540575,-0.23218097,-0.44048604,-0.22463016,0.21239886,0.049763635,-0.05737829,0.13715135,0.053991783,0.20891057,0.22893128,0.1613067,-0.4947035,0.2643678,0.7229697,-0.08386623,0.055644188,0.6088082,0.27178663,-0.13442184,0.3180367,0.16551517,1.1779883,-0.8499515,0.6187093,0.43351352,-0.22071153,0.3585554,0.35958552,0.08346109,-0.19268888,0.18304834,-0.061892815,-0.2691376,-0.07385835,-0.075971186,-0.29878604,0.016452182,-0.21934934,0.26685226,0.055811796,-0.067715354,0.06817222,-0.48605755,0.2557264,-0.45302385,0.38699836,-0.20763597,-0.030027483,-0.5147314,0.3380415,-0.02810719,-0.29553178,0.050416745,0.09067115,-0.31754798,-0.44388795,-0.45491242,-0.28840742,-0.013959054,0.4046382,0.22275008,0.15118653,0.023534803,0.27434972,0.10970936,0.039815802,0.29186037,-0.04317628,0.24311835,-0.06357634,0.50541896,-0.68720925,0.46728075,-0.14927112,0.7701565,-0.24572454,-0.71645063,0.8460856,0.113220856,-0.45726243,-0.5743677,-0.15230384,0.0064297454,-0.13457799,0.038256228,-0.163826,0.41994593,0.1372554,-0.037139125,-0.2872869,-0.033238795,0.76836497,-0.12427694,-0.19380514,0.24618123,-0.51817805,0.10326755,0.16911799,-0.32038692,0.32172796,-0.9333072,0.1477255,-0.30615836,-0.3097335,0.38656244,0.30702698,-0.20344271,0.6655608,-0.3728964,0.1385308,0.10461883,-0.16625585,0.8101284,0.57806486,-0.036708783,0.0857607,0.10194185,-0.27004877,-0.4200939,0.34098816,-0.38210258,0.5221522,0.07255329,0.44122377,-0.14814094,-0.44795436,-0.12740621,0.1909374,0.25691083,-0.10111254,-0.017775737,0.36574396,-0.25331193,0.13558452,0.17581289,0.05641449,-0.11359046,0.6678103,-0.08905014,0.086023144,0.13144353,-0.31473958,0.24027073,0.52244484,-0.32778412,0.11074432,-0.11417812,-0.30265674,0.06807577,-0.22325908,0.21040535,0.17307284,-0.43559754,0.58896464,0.41546735,-0.21574861,0.5877614,0.077987365,-0.6706253,0.4312267,0.07666405,-0.21653561,-0.014866431,-0.26143134,-0.05662564,0.093426056,-0.22856498,0.3291333,-0.08578006,0.10358809,-0.5276628,0.3175778,0.12225208,0.33850807,-0.30707315,-0.57006073,0.6430493,0.14993748,0.12849315,0.52748066
P00480	0.26954,-0.5949242,0.26454145,-0.25245428,-0.95992476,-0.018950012,0.35877207,-0.020377645,0.65092784,0.5630574,0.39356276,-0.25698566,-0.14342816,-0.6049948,-0.27981228,0.10654904,-0.42633533,-0.05192515,-0.053250115,0.043470763,-0.10466776,-0.60474527,-0.29712242,0.09900014,-0.07789459,-0.023742814,-0.5917948,-0.7269509,0.38181505,-0.35067454,0.088185444,0.20819736,0.14193933,0.2589484,-0.5016068,-0.007642452,0.80187213,-0.1999446,-0.09437917,0.30155557,0.58346903,-0.03040753,-0.6877414,0.46222338,-0.034309063,-0.78899395,0.35543838,0.30127716,0.75859,0.2580532,0.41839385,0.0045242864,0.2140966,-0.07293293,0.3625877,0.17888151,-0.30964175,0.4589649,0.030619105,-0.5225255,0.10836608,-0.1503016,-0.3943548,-0.23068182,0.16112019,0.705457,0.09319512,-0.33165312,0.18395054,0.021749772,0.96417576,-0.19865303,0.3686753,0.8209773,-0.45842105,0.3443208,-0.16049457,-0.3729991,0.3751926,0.070774764,-0.1546825,-0.61464745,0.03501949,-0.117650405,0.23793127,0.041341227,-0.3410987,-0.54735327,0.3144382,0.32220042,-0.06886346,-0.12514685,0.81633884,-0.019603245,0.5308887,-0.100727424,0.02090414,1.3948159,-0.08482158,-0.31430203,-0.59683543,-0.29969913,-0.029742166,0.14561923,-0.46598288,0.28540975,0.38696304,0.27382305,0.3760977,-0.26029846,0.54239565,0.81186056,0.041304138,-0.33032688,-0.012172317,-0.5170244,-0.33749261,-0.103984505,-0.10634669,0.26711315,-0.6540308,0.3013327,-0.12191219,-0.8610452,-0.19588982,0.32416767,0.17539304,-0.3329717,-0.43832424,-0.36908913,-0.10083668,0.21728358,0.56164646,0.16556944,-0.07714286,0.09847908,0.5835392,-0.19324812,0.3333607,0.43321252,0.23430333,0.22089215,-0.07168439,0.24524882,-0.20612392,0.43875572,-0.23948325,-0.9542772,0.2996633,-0.38854113,-0.27855793,-0.22928455,-0.18617265,-0.6830679,0.5096142,0.16163613,-0.38789046,0.28260002,-0.21620831,-0.20688288,-0.548537,-0.20493728,0.21281525,0.53454113,-0.12609836,0.21744652,-0.2578235,-0.34358832,0.58299047,0.25965086,0.5999991,-0.6361706,0.21239752,0.60706335,-0.061244242,-0.12044511,-0.392708,-0.00073097623,-1.0592755,0.30697766,-0.3155555,-0.2410001,0.050455283,-0.1634637,0.23371932,-0.20097654,-0.7441293,0.85928285,0.06281853,0.79564404,-1.099044,-0.0614113,0.7978411,0.21491857,-0.012007964,-0.08261976,0.07621803,-0.00039727183,0.39396563,-0.3014868
P25789	-0.051687185,-0.11006232,-0.49986947,0.05548461,-0.4182266,0.09832765,-0.63385504,-0.1548266,-0.23974888,0.12215011,-0.18577686,-0.6929811,0.11037269,-0.27812898,-0.4758192,-0.20937629,0.35792142,0.2231766,0.3691732,-0.057981357,-0.2774624,-0.2893735,-0.056447286,-0.15455087,0.023287514,-0.2784055,0.32207033,-1.0111268,0.5033544,-0.38032308,-0.0023103708,-0.592711,0.28171316,0.41206157,0.49346673,0.025203642,0.41975367,-0.04021714,-0.46727547,0.06251133,0.46114922,0.54424286,-0.9490324,0.3258337,0.42864856,0.09597485,0.29572448,0.30623817,-0.22462134,0.6735865,0.30328798,-0.25066212,-0.02964629,-0.22407359,0.13117094,0.70396423,-0.12624227,0.14018862,0.49827164,-0.5044495,0.71467876,0.22118126,0.044401906,0.24218512,-0.017372608,0.6157727,-0.5122877,-0.026952684,-0.19296423,0.28479856,-0.55138445,-0.39936537,0.34721902,-0.28728074,-0.3824527,-0.30687854,0.47438225,-0.4529287,0.26684558,0.08110836,0.24092968,0.022584299,-0.359703,0.28093898,-0.49163386,0.24012363,-0.40384287,-0.18002921,-0.7506729,-0.14731248,-0.42819002,-0.7607517,-0.08112965,0.2367012,0.5517276,0.566162,0.32541612,0.45374388,0.034757353,-0.66679466,0.15487134,-0.3110151,-0.13376033,-0.2138643,-0.2629085,0.43384323,-0.3011119,-0.29839817,-0.12210199,0.23129562,-0.20265618,0.13035184,-0.11714443,0.24031785,0.46689337,-0.05728633,-0.01873826,-0.56264865,-0.82301044,-0.34585148,-0.357224,-0.03853787,-0.48655295,0.22476089,0.7212331,0.6326293,0.35766515,0.16331588,-0.47202915,-0.30513072,-0.21677476,0.127379,0.68485546,0.5174862,-0.057528887,0.35863042,0.11758351,-0.6512568,-0.22795613,1.1487069,-0.4273437,0.67083544,-0.42616755,0.07942171,0.35630378,0.5388324,-0.1718581,-0.094437495,0.44873396,-0.11196243,0.07583101,-0.05737028,-0.27759787,-0.24908413,0.24238634,0.15581454,-0.53437644,-0.16317686,0.6095142,0.20213497,-0.2413821,-0.5558118,0.37183186,-0.024797205,0.15879159,0.09701601,-0.3802388,-0.1061145,-0.18180293,0.31284326,0.10565517,0.39820433,0.07595498,0.08135307,0.2436967,-0.3660267,0.27338,0.097148605,-0.34242302,0.86638033,0.30135623,-0.06855696,0.29677337,0.012363694,-0.32285434,-0.06060063,-1.1987829,0.11217069,0.38673615,0.43011808,-0.17790446,-0.07052821,-0.4253551,0.24629335,0.433438,-0.50302535,0.4534322,0.27028638,-0.11389833,0.12831238
P35250	0.5236059,-0.0004004872,-0.30253804,-0.34610882,-0.05245095,-0.03713247,-0.09208449,0.013910984,0.95541936,0.6413622,-0.46384972,-0.15028854,-0.39324766,-0.116346925,-0.6910731,-0.02982558,-0.101505265,-0.024033438,0.45318314,-0.5032555,-0.40788504,-0.43672204,0.34681064,0.18450147,-0.48005205,-0.1905775,0.48448068,-0.7172023,0.57498056,0.3549958,0.09025144,-0.41242626,0.1918813,0.52574,-0.3962589,0.13438627,0.6783498,0.50584006,-0.5462458,0.08535747,0.4994184,0.55667114,-1.25491,0.6792307,0.41016877,-0.42048225,0.0855092,0.4817467,0.50146157,-0.09786511,0.15485483,0.24693692,0.06612769,-0.45225897,-0.29340136,-0.040680338,-0.3236091,-0.16573724,0.055783942,-1.0154203,0.3947068,0.27964723,-0.28339118,0.15026672,-0.082691,0.3986453,-0.12213042,0.29557556,-0.06854913,0.22884752,0.517059,-0.51418597,-0.09690516,-0.14678855,-0.44593096,-0.42995164,-0.42459205,-0.3174655,0.11370989,0.24477799,0.46510726,-0.16374357,-0.0626102,0.29146156,-0.10497637,-0.17417327,-0.07913114,0.2354137,-0.15717791,-0.17956766,0.05996178,-0.70759386,0.58692825,0.4097646,0.7823082,0.055767495,-0.49730703,0.8665762,0.14754122,-0.53854144,-0.016496347,-0.036555577,-0.5968157,-0.6487451,0.08865716,0.5441373,0.03343285,0.18008332,0.2769199,-0.07039834,0.5309554,0.7790934,0.24021068,0.21841908,0.3769431,0.13758415,-0.5940193,0.001286955,-0.1699714,-0.14027776,-0.6037505,0.35600963,-0.38787773,-0.19132377,0.7557788,0.33741793,-0.2031583,0.20794062,-0.09446301,0.026768956,0.07728022,-0.21920693,0.16466825,0.5553602,-0.09350241,-0.1781763,-0.010869409,-0.24762888,-0.045822456,0.7544021,-0.3869396,0.19293244,-0.22667176,0.76347584,0.3857004,-0.10752573,0.14862731,-0.35661954,0.7698863,-0.20331311,-0.19531053,-0.11003865,-0.060065195,-0.4905152,0.062358797,0.45397532,-0.30875582,1.0895245,0.36179292,0.33311275,-0.5131908,-0.506093,0.34679407,0.37335098,0.37272266,-0.12572727,0.16011731,-0.015830752,0.25126565,-0.5735719,0.14163072,0.04679683,0.13682933,0.42229035,0.07494121,-0.22697917,0.20144391,-0.07198449,-0.7556621,0.723963,0.29485235,-0.3305648,0.4429969,-0.3692552,-0.1657181,-0.13296367,-0.28684598,0.46410167,-0.2860325,-0.24203834,-0.66034096,0.34763563,0.06389288,0.1440679,0.17849202,-0.1471136,-0.010885789,0.22157604,0.38701782,-0.22658645
P82673	-0.22134735,-0.31807232,-0.258319,-0.14263558,-0.86548495,0.31250426,1.0426182,-0.0843164,0.6020572,0.4400151,-0.29345074,-0.126075,-0.058464434,-0.10233849,-0.91755015,0.28926063,0.052902043,-0.6745776,0.29105425,0.05914667,-0.29996383,0.5901955,0.47301996,0.06991029,-0.2347254,-0.53344345,-0.16837822,-0.5014445,0.3882006,-0.03154543,-0.14085199,-0.3479629,0.19141038,0.034205493,-0.20673838,-0.6627615,0.8921077,0.1555592,-0.14275295,0.34220722,0.7347955,0.62724173,-0.66329145,0.11708808,0.10481912,-0.47364378,-0.19356732,0.4151709,0.12747191,0.1528702,0.3007403,0.22659229,0.13320592,0.3407283,0.1145375,-0.09567641,-0.2059163,0.45812333,0.21586409,-0.5796192,0.8073862,-0.43172437,0.12766814,0.17993307,0.2339775,0.69981384,0.19638312,0.24993424,-0.20774175,-0.20405613,0.46165183,-0.033401683,0.09201451,0.24921647,-0.05196248,0.20796257,0.21926218,-0.3399246,-0.533322,-0.46299332,0.18951301,-0.24652666,-0.4128531,-0.7180975,-0.069269516,0.16544573,0.098584086,0.006220711,-0.15572855,0.33511108,0.03238136,0.09167908,0.6901822,0.1844642,0.509118,-0.19822396,-0.19256526,0.65208656,-0.086787,-0.20493758,-0.72432196,0.07642315,-0.37919447,-0.3031274,0.47700122,0.40704957,-0.072256446,0.1392846,0.17563128,0.17304404,0.4369487,0.628897,-0.13971993,0.11522399,0.43706968,0.3802552,-0.3494226,-0.7870884,-0.15652417,-0.4675237,-0.4083537,0.014505939,0.04039655,-0.21555689,-0.26480183,0.4522266,0.16719638,0.1777438,-0.23635517,-0.65733284,-0.0784669,-0.029842502,-0.36029038,0.074411236,0.3647207,-0.17864634,0.22137354,-0.7976479,0.82438874,0.72041106,0.54994905,0.16149251,-0.47885638,0.58751345,-0.0012247456,0.64897394,-0.3377217,-0.25162226,0.6209726,-0.017286433,-0.05259269,0.34265062,-0.4844999,-0.76405853,0.24418342,0.46438858,-0.7902443,0.39856473,0.08783246,-0.1997378,-0.61258686,-0.3621441,-0.21179096,0.06278019,-0.025698237,-0.29384854,0.29183406,0.11612578,0.58152974,0.39787626,0.36423233,-0.39871705,-0.4459443,-0.047746975,0.2162512,-0.6996628,-0.56464267,0.21884032,-1.0673747,0.24199477,-0.08533903,-0.20366381,-0.04752512,-0.63412666,0.17631653,-0.3265136,-0.46153438,0.72375584,-0.3197503,0.59596455,-0.3796796,-0.31462178,0.703773,0.1778632,0.32339785,0.042608686,-0.058883663,-0.028529728,-0.20981365,0.02724841
P43686	0.03555653,0.1629075,-0.23912725,-0.046020467,-0.7100014,-0.011083537,-0.38179436,-0.16835539,0.07097177,0.15501039,-0.1911475,-0.5396459,0.09100097,-0.257784,-0.3530819,-0.1490808,0.20192334,0.45116267,0.34488526,-0.10605411,-0.215368,-0.10959404,-0.18328577,0.0079252245,-0.33018437,0.041838363,0.3591501,-0.95868474,0.30018288,-0.24568993,-0.110702194,-0.5210824,0.08678264,0.40383625,0.4308823,0.19263974,0.2976351,-0.08998196,-0.67642266,-0.058707844,0.41371372,0.3968346,-0.8526764,0.39053938,0.22512943,-0.27978578,0.36081484,0.32837233,-0.039331753,0.32497275,0.19118465,-0.14272316,-0.11653676,-0.46237913,-0.18568128,0.5257966,0.037235104,-0.23974584,0.34014553,-0.1467873,0.5512024,0.17265363,-0.14590982,0.18758602,0.20433156,0.79211426,-0.3479825,-0.21309479,0.07542076,-0.03332689,-0.46708766,-0.43199268,0.15456772,-0.17806062,0.011873222,-0.06696725,0.21600208,-0.29177836,0.25579095,0.03258587,0.37946275,0.11453013,-0.39766395,0.47847596,-0.29010135,0.18745628,-0.12716852,0.14514002,-0.62103975,0.18539965,-0.37656856,-0.73808855,0.026504518,0.15198915,0.45617625,0.63793695,0.07627349,0.45234874,0.05594797,-0.45024356,0.4188627,-0.29755956,-0.27206457,0.06641142,-0.19522744,0.1211512,-0.29851812,-0.03787612,-0.45097044,0.16761708,-0.14950067,0.24291576,0.012964773,0.28158563,0.5257873,0.22082382,0.23875989,-0.319362,-0.956087,-0.12924755,-0.37678447,-0.074055165,-0.45622602,0.3144734,0.6712613,0.887302,0.5025846,0.20036359,-0.25991154,-0.060443673,-0.52645016,-0.060212605,0.6571307,0.3383844,-0.1142978,0.5166892,0.4883259,-0.5772938,0.1145218,0.96406233,-0.4380155,0.44061127,-0.5169444,0.27598256,0.38232338,0.56777835,-0.050250836,-0.33556908,0.3885906,-0.0070298687,0.24536106,0.0936421,-0.30661702,-0.17896086,0.066510916,0.2504324,-0.4593266,-0.14755487,0.6582066,0.39733955,-0.5793762,-0.1782559,0.2903336,0.266453,0.23727828,-0.12514833,-0.19295917,0.036263794,-0.14236313,0.090935305,0.022347577,0.13325132,-0.09795591,0.22833942,0.2033377,-0.22619395,0.22885095,-0.034513436,-0.37674636,1.1042693,0.6604687,-0.39570534,0.63244784,0.028134542,-0.29370078,0.05594709,-0.99914175,-0.0016595382,0.10167831,0.29673028,-0.29915717,-0.4334105,-0.2833782,-0.06300765,0.356665,-0.2804579,0.19976528,0.22781385,-0.24092378,-0.07813905
O95168	0.32133228,-0.34007382,-0.17661561,-0.23435163,-0.71195716,0.4265728,0.18092375,-0.35200328,0.33047554,0.43193308,-0.18892092,-0.67559546,-0.5318762,0.09148054,-1.2285889,0.4515624,0.21638273,-0.9764714,-0.15362911,-0.061889548,-0.42201257,0.23242001,0.36608416,0.24361365,0.23364791,-0.45093775,0.22593063,-0.17695062,0.0103342505,-0.18182625,0.20150933,-0.27447358,-0.28678727,0.20476167,-0.27091795,-0.11920296,0.67545384,-0.1174872,-0.47306862,0.14894454,0.67458564,0.08417048,-0.8228873,0.43213806,0.41689792,-0.024842624,-0.0020758358,0.468255,-0.26124644,0.06172656,-0.27075675,0.15140212,0.32479513,0.17619185,-0.00045536977,0.50007576,-0.32872823,0.56863517,0.37444758,-0.558091,0.6429654,0.3671728,-0.24524686,-0.10283873,0.07466772,0.71755546,0.0052359654,-0.052289113,-0.1350143,0.036434215,-0.05357563,-0.5914528,0.20809542,-0.099100396,-0.47374701,-0.55109483,0.23603506,-0.5644812,-0.24259499,-0.07237723,-0.19730414,-0.36165106,-0.6361802,-0.10783703,-0.17939948,-0.47198388,-0.09361794,-0.5885283,-0.38744292,-0.099668644,-0.21417713,-0.7659437,0.13389371,-0.059311032,0.7417933,0.31038034,0.13724706,0.6874038,-0.09122643,-0.30512455,-0.09337709,-0.22138682,-0.20957689,-0.5459301,-0.30755213,0.59455144,0.1371139,0.01761484,-0.06659921,-0.25106815,0.7895219,0.29918462,0.013064755,0.19901477,0.48230138,-0.9595863,-0.21245432,-0.023789573,-0.22133183,0.0063799648,-0.3171736,0.05408292,-0.16579638,-0.35000706,0.05479591,0.23134644,-0.059007604,0.5848104,-0.41054878,-0.7910311,-0.3554748,0.38048047,0.22086175,0.97256136,0.15142837,0.11515401,0.21918343,-0.35841036,0.19809434,0.922766,0.4926831,0.14751464,-0.41572475,0.27494672,-0.0409275,0.19692057,-0.6083929,-0.49971688,0.7580604,-0.035354838,-0.13635398,-0.22046778,-0.14671934,-0.75517654,0.1543673,0.6956602,-0.86074805,0.4861726,-0.14750272,-0.5304839,-0.44864637,-0.49220702,0.3450607,0.12274956,-0.2595346,-0.033880446,-0.4661761,-0.42838365,0.4690822,0.084333576,0.6192666,-0.9376577,-0.37510055,0.292746,0.10344031,0.10246127,-0.22144456,-0.12696493,-1.1340523,0.013270139,-0.27983743,-0.5526756,-0.041357372,-0.23421998,-0.055263482,-0.5451906,-0.47725964,0.77195793,0.2886701,0.058356587,-0.60195863,0.19118027,0.26365623,0.5891561,0.6525349,-0.35747418,0.21061523,-0.2714591,-0.21448793,-0.31990555
Q9NW64	0.34655648,-0.18693873,-0.52888393,-0.5555749,-0.12835827,-0.11917355,0.116261594,-0.43483755,0.30125955,-0.20711517,-0.6997465,-0.34879905,-0.041042704,-0.05334898,-0.64203644,-0.13713114,-0.09076977,-0.63356054,0.17459016,-0.26973107,-0.21467564,-0.10446045,0.21428652,-0.13793978,-0.1288823,-0.41695443,-0.1029277,-0.9094166,-0.21268775,0.34087247,-0.025736874,-0.6740137,0.24578622,0.33108962,-0.16547014,0.6851993,0.71980137,0.318095,-0.36065394,0.17580238,0.46705168,0.79401606,-0.87374616,0.30172136,0.13687323,-0.4469456,-0.013187981,0.7770783,-0.041911904,0.25359184,0.60984135,0.17112547,-0.26310277,-0.104448564,0.3009383,0.30233687,-0.5489995,0.30451855,0.0307142,-0.14147563,0.24395742,0.012064006,-0.062463082,0.054745413,-0.11593035,0.29141918,0.120794795,-0.21014103,0.2196442,0.41920155,-0.13272062,0.10301906,-0.120345905,-0.061007477,-0.61854273,-0.5103472,0.3877857,-0.40673485,0.48007387,0.23323447,0.37015125,0.39779416,-0.29441282,0.35850978,0.004535907,-0.27917746,-0.17358549,0.061369874,0.3498613,-0.1702785,-0.10276725,0.057011455,0.08666518,-0.13167426,0.7695702,0.031701542,-0.27356187,0.15330352,0.10648123,-0.2512573,-0.2942934,-0.21174528,-0.09114959,-0.11890308,-0.11309196,0.12702666,0.09183273,0.08587126,0.42726964,0.10874961,0.05871849,0.4484153,0.13248476,-0.0035099278,0.3564342,-0.100280754,-0.52258474,0.08279425,-0.5357833,0.04389256,-0.53695244,0.39999118,-0.31310898,-0.06401493,0.43900958,0.30392677,-0.10326817,0.8169217,-0.53882855,-0.4211862,0.2561355,0.50473624,0.51345277,0.04219085,0.22441502,0.37449315,-0.2703298,-0.32616904,0.28998652,0.086184695,0.09287928,0.59686863,-0.14251687,0.15416299,0.20876221,-0.18159539,-0.35904118,-0.055332914,0.9149708,0.3881984,0.18362756,0.10770021,-0.28040764,-0.051454797,0.5049032,0.39376378,-0.22563188,0.4525458,0.2150475,-0.18179566,-0.4285021,-1.043987,-0.036806032,0.14015812,-0.41927683,-0.09176657,-0.07525789,-0.32722986,0.087921046,0.17782345,0.11037226,-0.7751042,-0.34812915,-0.6713003,0.44677305,-0.40366834,0.5960723,0.14952236,-0.3576479,-0.27066278,0.22719721,-0.16479647,-0.072129466,-1.0506221,0.5574775,-0.044345062,-0.68402594,0.6956802,0.0533415,0.031756435,-0.16981356,-0.04050612,-0.1484728,-0.27846655,0.55208695,-0.26538205,0.4673638,0.16323207,-0.34842306,0.4646061
P31930	-0.22586587,-0.36358607,0.14164618,-0.3038334,-1.0480744,-0.016123345,0.2083774,-0.24228506,0.86789745,0.55767834,-0.51626724,-0.29094863,-0.20693502,0.13790847,-0.53637844,0.19358027,0.3879228,-0.06526083,-0.11710574,0.3790715,-0.041280977,-0.27282378,-0.19898087,0.14556639,-0.04864758,-0.325286,-0.14897072,-0.56026596,-0.0142568415,-0.6919077,-0.41860038,-0.37694994,-0.69706947,0.021909947,-0.16251794,0.07975955,0.6718013,0.09733128,-0.57440364,0.50720716,0.52614105,-0.327141,-0.7997144,0.67271876,0.0672266,-0.27288067,-0.2451239,0.57354176,0.48120806,0.56735367,0.094364166,-0.07048727,-0.139682,-0.13443334,0.6663475,0.45820728,-0.38164634,0.57041734,0.552711,-0.72933483,0.7467202,-0.06799447,-0.69544095,-0.45176432,0.06534259,0.5246147,-0.10210971,-0.35273626,0.37706468,0.0807867,-0.29763147,-0.37442297,0.010076822,0.31924683,0.034675248,0.022707226,0.009342786,-0.54971915,0.22084834,0.29872793,0.04985579,-0.39641774,-0.10226181,0.32131574,-0.117114015,-0.15470503,0.22606659,-1.0278617,-0.59608305,0.23045301,-0.38119742,-0.4242062,0.26706386,0.18517493,0.81504494,0.45875525,-0.5440988,0.57189053,0.17689537,-0.41548425,0.067499064,-0.2023806,0.1010684,-0.32032144,-0.81792396,0.60646915,0.13417414,0.19896525,0.24915701,-0.31349134,0.3997481,0.43484128,-0.38964683,0.065724865,0.53862524,-0.22956195,0.06761231,-0.5407642,-0.37974942,0.10308351,-0.22229144,0.46308723,0.12308728,0.021886911,-0.2890094,0.5142195,0.29276934,-0.068232425,-0.29465738,-0.50761473,0.60057926,0.1450445,-0.04193174,0.35379907,0.20258074,0.083221994,0.64366585,-0.11558913,-0.08297748,0.7991808,0.02646518,-0.15926889,-0.36381552,0.06123047,0.002853016,0.76489365,-0.9990045,-0.50838685,0.5860839,-0.1199866,0.18243085,0.09941724,-0.22597003,-0.5396515,-0.23689492,-0.052854683,-0.46033755,0.5510936,0.10392229,0.13004541,-0.5064402,-0.61913526,0.0146088395,0.23561671,0.21390073,-0.47637394,-0.595984,-0.5332294,0.70521086,0.28848833,0.0697509,-0.6904102,-0.22178754,0.5617678,0.09594207,0.2568899,-0.44488275,-0.07311149,-0.91534734,0.2785205,-0.09314392,0.085319154,0.06787799,-0.4871331,-0.07368193,-0.19914843,-0.20392115,0.7164741,0.2416604,0.45654184,-0.6808418,-0.1458596,-0.23092982,0.33146054,0.29235324,-0.38685906,0.3561182,0.047768053,-0.08188072,-0.4279568
Q99741	0.47380242,-0.1429285,0.005288395,-0.4775932,-0.4691391,0.41550502,-0.1365527,-0.23456864,0.9183268,0.38690573,0.07593606,-0.05776122,0.0011779069,-0.2785059,-0.40212953,-0.47543898,-0.18521528,0.027703032,0.69121295,-0.25001958,-0.0054625534,-0.21699132,0.24459262,-0.1955188,-0.11384204,-0.023101198,0.029174691,-0.43331435,0.34677288,0.15918805,-0.2936431,-0.35314393,-0.15481974,0.77002954,-0.4274554,0.15038773,0.51506,0.2627201,-0.3149688,-0.018842055,0.16772045,0.1860287,-1.2790496,0.4989786,0.5770111,-0.55793417,0.14041863,0.18473817,0.7274329,-0.22342901,-0.016790416,0.031601142,-0.06968919,-0.33250046,-0.25540712,-0.011085193,0.050288282,-0.40948024,0.16945474,-0.6174252,0.020512393,0.17555045,-0.6983888,0.34543255,-0.048059266,0.23044582,-0.28631002,0.3969171,0.18921347,0.34822083,-0.11270916,-0.22465043,-0.3615018,-0.5161306,-0.10562319,0.056645323,-0.18768395,-0.5419086,0.3867495,0.23584886,0.44586653,0.43072438,0.43681377,0.6082665,-0.1628272,0.036447734,0.109790504,-0.28373724,-0.23141249,0.3653029,-0.1515524,-0.6986602,0.8217459,0.24271458,0.535332,-0.16714236,-0.5766941,0.67392474,-0.2399608,-0.6674114,-0.061353352,0.051012017,-0.07685669,-0.37564752,0.40717903,0.4449939,0.23821248,0.14176676,0.19045925,0.09846406,-0.3097307,0.68717235,0.106050506,-0.02266556,0.3878354,-0.55944777,-0.4010074,0.07595021,-0.81199706,-0.15231706,-0.6514535,0.34904858,-0.7102853,-0.16520242,0.3387001,0.35722712,0.12895319,0.14009766,-0.38595152,-0.12479004,-0.10885498,0.20955682,0.48293716,0.46550462,-0.25920784,0.06693071,0.39627707,-0.10352781,-0.1470581,0.4147248,-0.38272035,-0.2350911,-0.104688644,0.7753187,0.3609062,-0.02719083,-0.21910001,-0.05760806,0.29467455,-0.20048963,-0.23516464,0.17340025,-0.16499092,-0.12741968,0.37680236,0.03360312,-0.14477693,0.37146515,0.29962945,0.33218414,-0.38172287,-0.351569,0.2876803,0.2113606,0.048310462,0.34050304,-0.13297045,-0.175476,0.0556338,-0.18488576,0.055741873,-0.008275066,-0.13133058,0.5614012,0.060292542,-0.25232163,0.2163814,0.07165627,-0.6343926,0.8455082,0.7427018,-0.10654442,0.10815562,-0.5384206,-0.13962439,0.23212546,-0.34255219,0.64304036,-0.0529166,-0.30145964,-0.462081,0.007170931,0.18280771,0.3934317,0.31951046,0.071974695,0.39898157,0.11934382,-0.05751752,0.13492826
P18206	-0.01589957,0.09087449,-0.39623383,-0.16305554,-0.5867329,0.33754966,0.4637866,-0.5582967,0.04874298,-0.06198726,-0.08276957,-0.6573946,0.15531582,-0.31775913,-0.24423328,-0.40522397,0.11174027,0.33976868,-0.14349982,0.47356874,0.21619275,-0.25634417,-0.16320744,-0.002067028,-0.18103564,-0.6777351,-0.23652709,-0.5629884,0.30427128,-0.27792698,-0.36867717,-0.63465345,0.1460591,0.330147,0.22317033,0.10873255,0.6816651,0.4306399,-0.9525589,0.12819766,-0.12678254,0.294407,-0.25709608,0.43987578,-0.09734973,-0.6509219,-0.13415095,0.4255439,0.6645647,0.3678939,0.52053905,-0.77498215,0.007714224,0.2263476,0.024045127,0.054577876,-0.6521198,-0.19944826,-0.052673016,-0.12046698,0.3384714,-0.3515164,-0.42647928,0.32026923,-0.3188186,0.5252647,0.0321912,0.21347523,-0.266149,0.3288385,-0.58460855,-0.35422724,0.0020617482,0.6869095,-0.1473097,0.26037455,0.12246506,-0.5649387,-0.1481087,0.15476236,0.5951966,-0.06633016,-0.031464897,-0.1051122,-0.22144938,0.27254906,-0.22800358,-0.33329448,-0.3693126,0.3839771,-0.2432229,0.31056473,0.11409406,-0.14704834,0.2156655,-0.0018366494,-0.42604896,0.13003913,-0.104981564,-0.5394126,-0.051724926,0.06507527,0.06352964,0.29557866,-0.29216483,0.37937644,0.20745547,-0.18008135,0.22458835,-0.43417844,-0.1020869,0.7911956,0.075562276,0.27534136,0.045126498,-0.48208663,-0.4579919,-0.40329722,-0.888256,-0.13201413,-0.61722976,-0.42892107,-0.14603788,-0.13179615,-0.09556817,0.3199594,0.5007915,-0.52558714,-0.0409439,-0.17121294,0.63076603,0.20587596,0.46781942,0.0665264,0.24727386,0.046928637,0.543084,-0.5500984,-0.01906925,0.34321153,-0.2853163,-0.1390015,0.17234515,-0.08332733,0.63837713,0.4211345,-0.21135032,-0.11819235,0.27739927,-0.16363664,-0.15485074,0.65763986,-0.20258333,0.3849013,0.20059825,-0.138104,0.07076194,-0.18386886,0.11560436,0.018904662,-0.16094813,0.2288289,-0.37341714,-0.18019271,0.36497542,0.24374385,-0.077060334,-1.118934,-0.0018522531,-0.067269124,0.16277605,0.25812787,-0.23590726,-0.0990372,0.18602683,-0.08659197,-0.20243669,-0.23193769,-0.60089487,-0.22008662,0.3049169,-0.14719829,-0.2623655,-0.40256932,0.11636815,0.36365327,-0.16248181,0.03537736,0.62335885,0.26266322,-0.5379938,-0.09714557,-0.19797927,0.004598408,-0.20496936,-0.52408314,0.6393869,0.50431556,0.036002442,-0.26374745
Q96EB6	0.32121557,-0.020829337,-0.17635162,0.05719419,-0.3615218,-0.06825312,-0.20621118,0.25770974,0.5027143,0.06917238,0.48689917,-0.5047839,-0.0319996,-0.06451514,-0.14720416,-0.47280198,0.23287533,0.13164346,0.43351904,0.08712806,0.017893203,-0.22700131,-0.38498163,-0.1302521,-0.037913743,-0.22816947,-0.007571133,-0.5788593,0.36878932,-0.1322842,-0.07517396,-0.36447102,0.1836814,0.3398371,-0.06360533,-0.021180391,0.355526,0.40216216,-0.27569765,0.13000023,0.20869628,0.3871735,-0.8473037,0.46482557,0.16451813,-0.35543716,0.24504969,-0.06512437,0.0045094527,0.21960798,0.032775473,-0.0031814761,0.058100693,-0.23456152,0.012378883,0.035565656,-0.100649916,0.026631057,0.19462085,-0.2032673,-0.0057532624,0.1363787,0.01100348,0.3000122,0.035521876,0.14041795,-0.06888544,0.30025902,0.054106776,0.463614,-0.23276347,-0.12256557,0.023569515,-0.04607944,-0.33434245,-0.19353414,-0.29727575,-0.11581089,0.14296298,0.546885,0.034773227,-0.12201603,0.21223773,0.06825424,0.15605138,-0.022901393,-0.14951241,-0.36043394,-0.0017457145,0.12112307,-0.03879325,-0.42136383,0.19823083,-0.29345497,0.69192463,0.41928217,-0.3780757,0.5300084,0.04876268,-0.34330747,-0.08714265,-0.3005228,-0.064129084,-0.10719187,-0.046869915,-0.090191245,0.24565747,0.25864664,0.4399448,-0.040288005,0.08225548,0.16311513,-0.08488022,0.28220955,0.35072333,-0.32791322,0.03817609,0.04020822,-0.30825675,0.04866947,-0.76135844,-0.17302091,-0.33345374,-0.0030619844,0.23362678,0.40370557,-0.07854715,0.44807023,-0.16720857,-0.29857624,0.31810546,0.11346103,0.32920033,0.2660556,0.08113985,0.23865734,-0.29242727,-0.02744414,-0.50578916,0.48976883,-0.15827624,0.46439543,-0.18361689,0.2917379,0.012221959,-0.46635777,0.056760274,-0.038814787,0.109386556,0.07794435,-0.46716374,0.22570264,-0.0965762,0.17757066,-0.19701529,0.0786213,-0.15599732,0.118236385,0.09632754,0.37361068,-0.15361051,-0.20865177,0.13523783,0.5630737,-0.14963585,0.10967619,-0.056617636,-0.3409285,0.044394962,-0.18316767,0.073732875,0.04674142,-0.02026778,0.31954968,0.18939367,-0.28094465,0.19331421,0.0041487226,-0.065137886,0.20584846,0.071346216,-0.19153143,0.1805494,0.1386686,0.0362726,0.29017803,-0.47593606,0.38243455,-0.107486725,0.004453114,-0.37412962,-0.18031102,0.26768774,0.011315367,0.24524835,-0.030355379,0.28285754,-0.056561314,0.23195101,0.2057536
P48556	-0.014279824,-0.082227856,-0.42562515,-0.041750655,-0.3321212,0.2142637,-0.40425038,-0.0064969314,-0.15737914,0.2439781,-0.24534261,-0.37407064,0.23737654,0.057443634,-0.6135473,-0.15868469,0.43137807,0.121486396,0.34434846,-0.29412007,-0.13182023,-0.15484637,0.023519158,-0.1605446,-0.3681206,-0.27773285,0.37941405,-0.94971824,0.5342995,-0.26770017,-0.081479706,-0.49655312,0.3348742,0.30659568,0.8466601,-0.01966669,0.3810535,-0.10168442,-0.63420975,0.011658752,0.37731302,0.48570856,-1.0570623,0.5029501,0.4831326,0.008899222,0.3618508,0.3228999,-0.13182244,0.40988642,0.28335282,0.005952141,-0.23751296,-0.25175893,-0.0092457775,0.5830689,-0.038188037,-0.03918836,0.49307862,-0.6454577,0.51908755,0.15757975,-0.12794302,0.15778689,0.09491015,0.6112933,-0.52470195,0.13654469,-0.15165544,0.16403884,-0.359672,-0.51908976,0.19542556,-0.43951097,-0.318286,-0.19835305,0.39830056,-0.38001359,0.01243065,0.017717142,0.5722655,-0.010411883,-0.19894235,0.50934017,-0.59206265,0.09701237,-0.026939062,-0.039248567,-0.7984124,-0.18281509,-0.5700406,-0.71296185,-0.16581216,0.32910055,0.6610798,0.3204568,0.074414685,0.38053507,0.024273496,-0.5745453,0.4447143,-0.18037547,-0.18423131,-0.38959798,-0.079758346,0.4429709,-0.5868675,-0.09855556,-0.16594039,0.046806566,-0.302121,0.11134934,-0.101566106,0.59184533,0.5384433,0.038245395,-0.09652608,-0.7027591,-0.67844754,-0.27812666,-0.27164105,0.17055362,-0.4359903,0.2616023,0.8102337,0.8299955,0.20903674,0.34636667,-0.43882486,-0.30763316,-0.011811742,-0.04078987,0.271496,0.52669907,-0.020366475,0.37308225,-0.04825469,-0.6379384,-0.13282286,1.1860448,-0.39477882,0.44558668,-0.6095015,0.36783108,0.40790358,0.48828834,-0.2532002,-0.11178939,0.55915993,-0.01579359,0.017943295,0.21389398,-0.21300332,-0.14691679,0.108107254,0.27603003,-0.61672753,0.1573488,0.5426032,0.13527572,-0.1771938,-0.89209837,0.27454925,0.028224843,0.17090851,-0.24141034,-0.20882414,0.078035705,-0.053565558,0.21840508,-0.026503867,0.45962316,0.07487427,0.014467716,0.14854553,-0.2664868,0.27930763,0.08636467,-0.2737966,0.8634089,0.5035417,-0.13155293,0.24220659,-0.12268603,-0.48389456,-0.06322416,-1.0507725,0.1894341,0.19098128,0.0662736,-0.2511654,-0.17036779,-0.52178776,0.331387,0.28995866,-0.4229689,0.31511518,0.27628392,-0.01752052,0.05327271
P30049	-0.0058647078,-0.08952177,-0.07934153,-0.43625838,-0.5936139,-0.29000783,0.27395752,-0.2782044,0.6745606,0.4678798,-0.654826,-0.0024897333,-0.5374841,-0.27406657,-0.45200446,0.21417701,-0.14226986,-0.37909368,-0.1269922,0.27331635,0.0795702,-0.080811806,0.2698474,0.027289744,-0.279375,-0.5783908,-0.09466837,-0.58722806,-0.04530476,0.04063463,-0.27895364,-0.5315456,-0.34481692,0.013505489,-0.37040192,0.1830232,0.9795605,0.0022165447,-0.06762148,0.2190104,0.28338268,0.040589754,-0.78389484,0.6326533,0.16870277,-0.54573745,-0.43829483,0.25776693,0.74636894,0.3409027,-0.052884307,0.008751189,-0.06610809,-0.52019393,-0.12892619,0.47076508,-0.54065454,0.49519968,-0.072166644,-0.31790212,0.93735653,-0.23706481,-0.28012374,0.18765937,0.50712496,0.7246972,0.19740334,-0.39185423,0.45579246,-0.29778993,0.31003502,-0.10870295,-0.23095848,0.5929505,-0.27424636,-0.25907594,-0.22997308,-0.51385045,0.22490452,-0.13790198,-0.007900403,-0.6971345,-0.33114105,0.12053674,-0.1840896,-0.22880033,-0.5572828,-0.11092569,-0.18780348,-0.06432354,-0.2969705,-0.0914063,0.6591984,0.3546123,0.9193679,0.4579173,-0.13707519,0.68753517,0.4168628,-0.34380248,-0.127105,-0.23946717,-0.17993507,-0.49171552,-0.226868,0.8188432,-0.15590198,-0.24843119,0.5468127,0.08487891,0.5789349,0.45537204,0.44301668,0.33083484,0.13949187,0.027601982,-0.34663302,-0.3002445,-0.56235826,0.049802188,-0.63590646,0.03604476,0.041027106,-0.33182663,0.10535796,0.30320132,0.21641539,-0.32554054,0.164913,-0.29778418,0.30926195,0.005077337,0.2162787,0.107766815,-0.06575693,0.2950637,0.3625435,-0.2782883,0.54223025,0.636087,-0.083928056,0.07292721,-0.31918976,0.24681804,-0.14746772,0.45017773,-0.47749522,-0.6649082,0.4953897,-0.37902635,-0.16299187,-0.2955036,-0.16157232,-0.43111742,0.11290036,0.27474356,-0.67340845,0.50140953,0.058653202,-0.07038639,-0.44557026,-0.2593019,0.039130412,0.34893435,0.45165017,0.23683372,-0.62118804,-0.7498953,0.2367571,-0.2560379,0.29403326,-0.6585899,0.057527136,0.26631665,0.21891305,-0.36675084,0.04274296,0.06833068,-1.1946656,0.5533727,-0.08664155,-0.20452641,0.19480373,-0.45144024,-0.08742794,-0.3237655,-0.4355408,0.23650523,0.41116792,0.74149734,-0.5728159,0.18330596,0.37308422,-0.015955668,0.56027067,-0.035306517,-0.08743596,0.3385034,-0.14959273,-0.5403012
P17568	0.060517136,-0.20619214,-0.2790313,-0.53931487,-0.3576103,0.21221441,0.29767424,-0.29087704,0.058762413,0.44212767,-0.23710531,-0.35147977,-0.4960237,0.04972308,-0.809544,0.3815071,0.17923094,-0.87349415,-0.036474004,0.08372026,-0.41148797,0.11735686,0.54446584,0.10421005,-0.2615165,-0.5008748,-0.20278005,-0.34337565,0.35787845,-0.382891,0.08480398,-0.4668597,-0.40862697,-0.24693187,-0.20965011,-0.11214006,0.6703474,0.20122713,-0.4949994,0.06185194,0.5368989,-0.045769744,-1.1442544,0.56101495,0.44484866,0.1462343,-0.3235717,0.6185506,-0.058328222,0.11245286,0.06749379,0.06646826,0.45374724,-0.102394186,0.24371207,0.47898933,-0.37533346,0.62344646,0.2970264,-0.773036,0.900132,0.010236991,-0.15940215,-0.17226817,0.2941105,0.7428245,0.15010828,-0.030216215,-0.30609378,-0.2319837,-0.029747635,-0.25836802,0.015101525,0.16230874,-0.64372665,-0.5023298,0.6560507,-0.4912829,0.011454281,-0.13196416,-0.052825626,-0.6239967,-0.28742355,-0.14293638,-0.06014439,-0.6622579,-0.020661864,-0.2922607,-0.2867146,-0.021619475,-0.2998809,-0.4246629,0.23606378,0.32193333,0.8019236,0.11226276,0.08248202,0.8345332,0.06062478,-0.44001785,0.1294356,-0.13441074,-0.3189117,-0.92663425,-0.31304085,0.61182725,-0.030254802,-0.10554956,0.10209279,-0.0041450565,0.54522204,0.22092399,0.33264884,0.013766271,0.29392076,-0.15757857,-0.30431646,-0.42261118,-0.15188219,0.11737146,-0.6215856,0.1621898,-0.04329521,-0.16940272,0.053426202,0.54025966,-0.22837883,0.5890488,-0.1331266,-0.5503944,0.034609094,0.1463884,0.14131013,0.3377828,-0.08933519,0.1516759,0.35770214,-0.34006533,0.4559083,0.7640106,0.17904744,0.080688335,-0.89204115,0.13889575,0.2926683,0.16148768,-0.5243255,-0.5155377,0.6899991,-0.06685016,-0.3376075,-0.19852889,-0.0016833877,-0.55978763,0.306636,0.48504636,-1.0460014,0.433561,0.026446154,-0.21483228,-0.637742,-0.3148042,-0.031860933,-0.018841518,0.22624779,-0.058818415,-0.4436079,-0.16453755,0.43494543,-0.017199947,0.34011272,-0.8116655,-0.31278685,0.3214609,-0.09535178,-0.10915927,0.03966468,0.24424207,-1.3049612,-0.024375612,-0.14422593,-0.3225882,0.16083176,-0.46929428,-0.074434154,-0.5428305,-0.40036133,0.72636884,0.35946828,0.37676728,-0.41250142,0.0669431,0.6798508,0.38569716,0.4186442,-0.3464409,-0.13802986,0.015381865,0.016172662,-0.46731803
P62318	0.18207835,0.033896253,-1.0372369,-0.057631366,-0.028475985,-0.38372937,0.0967064,-0.49679762,0.4111269,0.1832326,-0.7800297,-0.4274292,-0.2441497,-0.13335627,-0.5088025,-0.30619612,0.33246475,-0.608499,0.0036438208,-0.17298928,-0.17889471,-0.108692884,0.5785524,-0.05559209,0.18537179,-0.51231587,0.09511058,-0.62627333,-0.016939232,0.0062237703,-0.1606554,-0.68994933,0.25819606,0.22291254,-0.18532342,0.19661881,0.9971404,0.2010457,-0.3622215,-0.046591625,0.56664973,0.92532116,-0.59305537,0.475072,0.119598046,-0.057649177,-0.24861266,0.62710553,-0.06577164,0.61663574,0.73604757,0.25269434,-0.37776315,-0.12925583,0.33067974,0.15412429,-0.5915949,0.11671478,0.50007516,-0.5472703,0.4213255,-0.3681501,-0.18609545,0.3194751,-0.21737212,0.51617855,0.25971746,-0.17770752,-0.15639608,0.42296427,0.39367545,-0.1378298,-0.04701626,0.01423154,-0.25024316,-0.5952109,-0.056367673,-0.45078892,0.5725564,0.19491221,0.40162954,0.17973866,-0.37229705,0.37573132,0.06768797,-0.12227994,-0.46619081,0.29913,-0.18331051,-0.1439432,-0.14921728,-0.15060928,0.017891131,0.011142837,0.800234,0.23268177,-0.4637694,-0.15423173,-0.18801133,-0.2496105,-0.6738787,-0.29917154,-0.30485314,-0.15500653,-0.20800804,0.17300977,-0.3350883,-0.04644446,0.34831887,0.1561609,0.18410423,0.035961162,0.14422499,-0.05879355,0.60648507,0.10176041,-0.1756619,-0.14440505,-0.30715352,-0.007831195,-0.6672437,-0.07710563,-0.58316845,0.08984805,0.49438274,0.30195206,0.0732997,0.21841314,-0.5587083,0.028124793,0.5538909,-0.16891474,-0.001460979,0.23167618,0.1951603,0.19166169,-0.11813032,-0.27616933,0.112492196,0.8715474,-0.056609366,0.4289626,-0.28598222,0.48740378,0.35102654,0.32219657,-0.31727806,-0.07020087,0.80003947,0.13013422,0.08752044,0.3202554,-0.352288,-0.099237576,0.015444008,0.10443086,-0.42476544,0.13989356,0.32084894,-0.24361667,-0.038451593,-0.7017487,0.05540501,0.20554303,-0.49384558,-0.12109706,-0.120902084,-0.63198304,-0.3387191,-0.018886408,-0.054126795,-0.28407928,-0.30889395,-0.8308264,0.4108023,-0.4958385,0.5907694,0.17491129,-0.33468238,-0.1725023,0.36785734,-0.22587217,-0.045474652,-0.5085291,0.19855447,-0.47033072,-0.5836652,0.5075241,-0.09443128,0.26277503,-0.12778616,0.11991758,-0.010117578,-0.3299683,0.5684538,-0.39752662,0.53498274,0.2944964,-0.49991992,0.27013075
P33992	0.3830096,-0.19347954,0.06642647,-0.4135648,-0.49612048,0.32181746,-0.057078715,-0.039864328,0.6360382,0.1791924,-0.4854306,-0.1704525,0.018664919,-0.059191573,-0.9427947,-0.22436349,-0.27027458,-0.15213951,0.28761262,-0.47475216,-0.35252377,-0.21596995,0.4094398,0.3347033,-0.214722,-0.041910715,0.41247872,-0.32787746,0.03462622,0.2765439,-0.21995708,-0.30150256,0.06772281,0.80776757,-0.69534975,0.03639858,0.56971115,0.21461618,-0.7299916,-0.020360615,0.21495129,0.3882648,-1.2168578,0.5085983,0.22407074,-0.08718913,0.069649406,0.5182979,0.6905859,-0.17417027,0.21110635,0.2674569,-0.17586729,-0.34189886,-0.32399783,-0.5783931,-0.23638721,-0.1691772,0.17409486,-0.61655664,0.23631851,-0.027061766,-0.6630191,0.22029012,-0.2676633,0.7435183,-0.11129513,-0.043707993,-0.10590867,0.23309408,0.124751054,-0.18166786,-0.3844159,-0.4506345,-0.0069383075,0.031737685,-0.5008558,-0.43216288,0.22969522,0.40303427,0.70833844,0.05036393,-0.14131889,0.4743186,-0.12735182,-0.15398048,0.2791459,0.15529077,-0.050473608,0.06382994,-0.07128777,-1.0097476,0.766107,-0.20731378,0.43510777,0.14806497,-1.0010087,0.6637982,-0.38772425,-0.92667955,-0.11111405,0.080557846,-0.7570189,-0.39127398,0.22387655,0.3139695,0.23650396,0.33893615,-0.07201914,0.0933546,0.54343176,0.5863598,0.29749382,0.28407192,0.35947472,-0.23432359,-0.42250577,0.46647143,-0.58069104,0.034259308,-0.5911332,0.24347913,-0.8728535,-0.3933845,0.4966873,0.48781893,0.16820332,0.39736032,-0.28486183,-0.35485393,-0.2033455,-0.2576678,0.10979813,0.60544306,0.026517374,-0.26100004,0.08803943,-0.008596077,0.16001388,0.4831839,-0.1523281,0.060937684,-0.1172631,1.1301743,0.3743821,-0.05635108,-0.1358068,-0.35933006,0.5375126,-0.08087103,-0.016277216,0.10833482,-0.25843078,-0.31699234,0.16951784,0.13610071,-0.41403607,0.5998844,0.31935883,-0.0055451873,-0.2503167,-0.25016612,0.62907714,0.033103388,-0.096775934,-0.06364851,-0.0071687126,-0.2327358,-0.147067,-0.13084868,0.21167897,-0.12422466,-0.5541744,0.6454928,0.29156506,-0.39446324,0.010876179,-0.09725738,-0.81556857,0.94459015,0.59311074,0.11242683,0.58032805,-0.25430545,-0.057217106,-0.08713086,-0.13436548,0.45875192,-0.43580458,-0.02661539,-0.7597569,0.27017954,0.18065484,0.268899,0.049683318,-0.016210517,0.50039697,0.017218083,-0.024190402,0.17534061
O15371	0.07277661,-0.23077239,-0.69394624,0.07201692,-0.4405419,0.0658295,0.34791234,-0.2420467,-0.27189413,-0.20921834,-0.2257808,-0.21971601,0.27642736,-0.1469418,-0.53967494,-0.16756277,0.4536665,-0.6952839,0.34459198,0.14919223,-0.36479548,0.5431534,0.21370006,0.36601824,0.021721048,-0.74530226,-0.44645005,-0.37731466,0.3096732,-0.12516388,-0.551353,-1.0776782,0.5201276,0.4929766,0.19020274,-0.2093382,0.81733245,0.56636155,-0.1816042,-0.04699873,-0.023725938,0.82182705,-0.18166403,-0.24192134,-0.30756244,0.019618165,0.12713327,0.324334,-0.1649459,0.36393854,0.11954089,0.04935098,-0.0014271222,0.27287865,0.10423986,-0.59733135,-0.38055402,-0.27694502,0.48103684,0.20116174,0.36969036,-0.65595996,-0.17438321,0.29519483,-0.10288054,0.4603656,-0.04321314,-0.12468168,-0.38867614,0.16870964,-0.60554475,-0.12681729,-0.16817747,0.036695912,-0.19224018,0.044872355,0.42370155,-0.4364974,-0.5555713,-0.07069002,0.5806743,0.65590495,-0.409989,0.12708636,-0.6284623,0.12816162,0.054021176,-0.07214127,0.18967342,0.08483893,-0.042278424,-0.46781215,0.3161363,0.031534486,0.3886175,0.07049986,-0.28656828,-0.3735571,0.177858,0.034749363,-0.64537233,0.41438287,-0.01972834,0.04851693,0.19574925,0.17581016,0.101069346,0.34872192,0.06753439,0.5803923,-0.24440797,0.23109446,0.19320694,0.30521533,0.5785341,0.059885476,0.27672246,-0.37189242,-0.34666052,-0.13727391,-0.6990209,-0.26900977,0.040239766,0.61073935,0.17847806,0.7626018,0.46177006,0.4353686,-0.42417628,-0.27777022,0.24317141,0.17210245,0.37973472,0.3584237,1.009676,0.59173536,0.045074522,-0.9685437,0.42676744,0.8834419,0.23415965,0.2715794,-0.32091513,0.3382096,0.4437288,0.4376492,-0.28766125,-0.2117912,0.7132107,0.6749169,-0.018085012,0.89495724,-0.6660777,-0.18198706,0.13034898,0.22712463,-0.6865139,0.17001334,0.33449143,-0.3303428,-0.07545703,0.10336102,0.023382057,-0.16612992,-0.31524193,-0.09383685,-0.17314632,-0.53462386,0.05864597,0.51208985,0.031361435,-0.22497436,-0.6896542,-0.1516699,0.6937046,-0.73070025,-0.23383649,0.15224661,-0.804236,-0.35013968,0.4725666,0.07102901,-0.057610605,-0.3682895,0.2085218,-0.22111088,-0.21522805,0.44234097,0.071168475,0.94617534,0.26169673,-0.40295616,0.059760317,-0.17188552,0.18113679,-0.43369856,0.6700961,0.322714,-0.3720504,0.46337086
P62877	0.1146476,-0.121153235,-0.46072847,-0.061572418,-0.48132002,-0.36341524,-0.62138796,-0.04703765,0.17841625,0.052863,-0.0016923032,-0.9826428,-0.26448214,-0.21600379,-0.36891544,-0.042387616,0.082847714,0.30515498,0.4246486,0.008767636,-0.14428465,-0.4957944,0.082832865,-0.22642174,-0.40115422,-0.20518517,0.35613665,-0.72675055,0.42543796,-0.2649949,0.13434924,-0.42643875,0.003401141,0.17709458,0.37081087,0.1215162,0.7258036,0.21470122,-0.55921644,0.09861824,0.061049346,0.4020778,-0.6451717,0.70706326,0.36551678,0.033549204,0.2978528,0.5159441,-0.36036885,0.49452865,0.34081846,-0.08651612,-0.4205284,-0.23971096,0.27013722,0.29248625,-0.10261292,0.43322763,0.6986595,-0.59577596,0.6322324,0.1687451,-0.23049097,0.049834613,-0.17678452,0.5068791,-0.5024147,0.11426709,-0.40955672,0.7719193,-0.15917766,-0.48401487,0.065767616,0.2345409,-0.44322148,-0.681032,0.057059303,-0.39521927,0.2685001,0.5043304,0.16745651,-0.24327967,-0.16242124,0.15262903,-0.0056548305,0.22472069,-0.4696248,-0.45407757,-0.6271903,-0.4381082,-0.6500506,-0.5809997,0.117956236,-0.028981024,0.8769476,0.390409,-0.37626085,0.33250555,0.17454919,-0.5309161,0.10926524,-0.30189514,-0.2077341,-0.49776858,-0.36627433,0.2021395,0.054270938,-0.013959099,0.46540952,-0.11416028,-0.17362587,0.2247722,-0.37391374,0.085936174,0.6341461,-0.17646112,0.0035040695,-0.22390416,-0.57551074,-0.19862452,-0.5459049,-0.08717801,-0.49607846,0.181531,0.4672059,0.38370505,0.025554266,0.4003221,-0.17178127,-0.00895965,0.6169267,-0.051610123,0.5210259,0.38015416,-0.12561314,0.068855956,0.06983017,-0.2608943,-0.8014967,0.7412195,-0.39287302,0.7309508,-0.1589507,0.28205797,0.46011725,0.1176646,-0.5149029,-0.17162499,0.41406214,-0.20731038,-0.15474269,0.015549099,0.033516917,0.03651352,-0.3062351,-0.18900919,-0.41611326,0.5338173,0.6215888,0.05639345,-0.13993318,-0.68844634,0.24457145,0.4283626,0.087196745,0.023521867,-0.10462114,-0.09906408,-0.10478442,0.0072525274,-0.20249514,0.057165258,-0.122637935,0.03354058,0.094246544,-0.05019652,0.36054617,-0.23463193,-0.1620273,0.54181206,-0.021457687,-0.12644695,0.40167806,-0.11312981,-0.27828857,-0.15157884,-0.37454185,0.11400978,0.13525616,0.05118609,-0.28283605,0.2745419,-0.21344662,0.38187814,0.09056201,-0.73946196,0.40719447,0.24659318,0.04196041,-0.14983507
P10144	0.1711829,-0.64388347,0.064140216,0.11061082,-0.016923947,0.22409771,-0.2570195,0.5642092,-0.45256108,-0.5010922,0.1893324,-0.14357725,0.24894536,-0.06831023,0.1616249,0.10762675,-0.15666534,-0.86348194,0.23254359,0.37539628,-0.41205347,0.34562418,-0.27029935,-0.35141176,0.21411607,-0.049595732,-0.12471934,-0.45249256,0.33795878,-0.34223515,-0.014175699,-0.06356808,-0.17481542,0.7706518,0.01863995,0.19339459,0.57480764,-0.112924345,-0.31671953,-0.31730223,0.03081746,-0.16411804,-0.8074006,0.16897681,-0.4126047,0.18391617,0.39082077,-0.034544803,0.0062081306,0.30214423,-0.093649454,-0.24892138,0.4962104,0.34405437,0.26518974,0.34548834,0.2900278,-0.112091705,0.60975665,-0.029978374,0.13403718,0.064748935,0.029395392,0.35961214,-0.13829403,0.14694466,-0.29074958,0.022562299,-0.020749696,0.21581155,0.014218914,-0.48085713,0.12628514,-0.050423987,-0.30972195,0.2635127,0.45024598,-0.3221517,-0.23704621,0.07755158,0.41028437,0.12809782,-0.09658524,0.20252882,-0.033855073,0.67139184,0.060730185,-0.47767317,0.29037923,-0.19433796,-0.547225,-0.7180783,0.7518487,-0.009376334,0.5790486,0.22598097,-0.19376212,0.26925102,-0.2779179,-0.11250667,-0.11033744,0.08217897,0.05602982,-0.14102677,0.4858103,0.17717774,0.15721811,0.48233134,0.30126897,0.41039434,-0.14554602,0.6091411,0.015328979,0.19342493,-0.03132528,-0.32714957,0.15807503,-0.15631585,-0.2483194,0.04351701,-0.66218054,0.16973846,-0.2310154,0.25383657,0.14461167,0.32008746,0.33888137,0.3974727,-0.45290765,-0.66543025,-0.30880222,0.23084673,0.18467337,0.34520495,-0.23373397,0.5897015,0.15491937,-0.6708119,-0.122704,0.7445327,0.38355374,0.20464745,-0.43621257,0.23601179,0.74259007,0.10852347,-0.6708632,-0.97470397,0.35850942,0.46552336,-0.021279057,0.020390555,-0.15565917,-0.5647385,0.058871493,0.28563544,-0.3054398,0.18543659,0.031854946,-0.5521733,-0.2298381,-0.61918205,0.29674822,0.19596168,0.14037502,0.11425964,-0.16367655,-0.14493701,0.26850632,0.64629924,-0.06981925,-0.7697073,-0.29844296,0.40445802,0.59169614,-0.5045241,0.15371679,-0.061161138,-0.17501657,-0.115508504,0.15298541,0.26818138,-0.0023046222,-0.25069392,0.24298619,0.036781833,-0.53474593,0.6194524,0.119552284,0.028345771,-0.40693915,-0.34001702,0.50521547,0.17076844,0.2581273,0.031112341,0.35345054,-0.16809477,-0.06957512,0.22472279
P25788	0.02342867,-0.075392626,-0.55284655,-0.2832826,-0.47629893,-0.16465017,-0.34543648,-0.28022328,0.12229414,0.01392826,-0.48584265,-0.64845777,0.21056348,-0.13258968,-0.49051514,-0.23210125,0.3184021,0.5482834,0.37562802,-0.06433797,0.03839528,-0.24918053,-0.394691,-0.09094214,-0.1502489,-0.18464309,0.51894885,-0.96833986,0.42520553,-0.46977058,-0.0836549,-0.6631927,0.33735368,0.38547775,0.65901047,0.20430276,0.1757271,-0.017334688,-0.6004365,0.1799253,0.29179257,0.5858888,-0.98737645,0.40943727,0.20800963,-0.15301043,0.39060107,0.4257151,-0.014101748,0.77003753,0.44580406,-0.34019125,-0.16922088,-0.25948048,0.12296095,0.70060796,-0.1824174,-0.13304465,0.32545865,-0.28104928,0.7124189,0.19149981,-0.08454142,0.31494415,-0.0702816,0.5884611,-0.17755722,-0.102160424,-0.14190182,0.2831338,-0.71233284,-0.2692075,0.31559697,-0.20728487,0.0026581208,-0.15521842,0.36425236,-0.48379397,0.259753,0.113352865,0.2930784,0.21727647,-0.32599822,0.5091768,-0.5118533,0.20705405,-0.20914172,-0.038220648,-0.85696,-0.19205007,-0.26495674,-0.49896288,-0.30363074,0.25900152,0.39537504,0.58353484,0.101979055,0.31508896,0.14426537,-0.53803265,0.18848377,-0.37996668,-0.07168224,0.028257241,-0.4912028,0.43947777,-0.4577511,-0.11915347,-0.20914915,0.06374349,-0.27211848,0.33344388,-0.056490254,0.28613472,0.3704457,-0.19154228,0.16824949,-0.39710185,-0.9892149,-0.099499345,-0.40942848,-0.098842144,-0.4429176,0.29780608,0.7323473,0.8365807,0.5472047,0.11398631,-0.27685374,-0.13461997,0.09689906,0.14204817,0.5688525,0.46410078,-0.07854142,0.47769728,0.16010517,-0.6174281,-0.14073789,1.1356905,-0.5933151,0.5910232,-0.29053354,0.14684981,0.4406403,0.6854846,-0.25627774,-0.087446384,0.4799718,-0.103745654,0.16359644,0.1522644,-0.29362506,-0.23162554,0.117928475,0.06659177,-0.32298443,-0.31716076,0.4473857,0.2539618,-0.2979139,-0.49390227,0.34010273,0.008770806,0.21338753,0.0013837873,-0.177066,-0.43904546,-0.15423505,0.2147576,0.29560387,0.5273923,-0.010668473,0.04043416,0.51537865,-0.52104264,0.21159615,-0.07719031,-0.20411143,0.6975454,0.40499344,-0.17957443,0.23954737,-0.05682149,-0.27968857,0.054071195,-1.2415842,0.037462786,0.34240666,0.38167906,-0.0640631,-0.2989832,-0.62296355,0.19668649,0.49632943,-0.6822862,0.5426536,0.2921742,-0.12571834,0.16539763
O14965	0.5527913,0.39080033,-0.5371615,0.061569955,-0.25555617,0.20329317,-0.32320145,0.3223187,0.2810956,0.42230892,0.39770404,-0.26712367,-0.049811497,-0.23718853,-0.010799023,-0.3866121,0.08579027,0.44512743,0.5511326,0.06763652,-0.32162765,-0.38126367,-0.33533165,-0.18310277,0.12265249,-0.18038753,0.02742142,-0.94195884,0.524335,-0.27861488,0.19807121,-0.53858006,0.10387041,0.6939795,-0.07814292,0.022372145,0.28419185,0.34977618,-0.35097393,-0.2566153,0.16248083,0.1710294,-1.0674735,0.2006553,0.1999965,0.0098224245,0.2741039,-0.19429758,0.2981868,0.1452505,0.34750897,-0.22116208,0.22767667,-0.18797341,-0.110864185,0.29434156,0.15736055,-0.44562045,0.55674833,-0.7894653,0.066867575,0.30001026,-0.056012392,0.10136267,0.02437135,0.4637737,0.043178678,0.4240149,0.033670496,0.24910484,-0.15350148,-0.88971853,0.151241,-0.5887015,-0.15602797,-0.21409264,-0.09039016,-0.23143625,0.114475325,0.1840716,0.026753545,0.5222495,0.042950116,0.3520756,-0.32540354,0.1961786,-0.60277283,-0.4906715,-0.21375617,0.1083373,-0.12368495,-0.54619706,0.5314333,0.2233856,0.40337846,0.10175216,-0.06932008,0.5507709,-0.16725248,-0.49659005,0.22798395,0.15618083,-0.11095056,-0.24144611,0.14355117,0.28173208,0.33124846,0.12525867,-0.12878154,0.123854294,-0.030310756,0.6938943,-0.030432735,0.5459244,0.2563294,-0.5270873,-0.2595395,-0.23445624,-0.28711677,-0.090237394,-0.6099567,0.09542031,-0.4135587,0.08528153,0.39901227,0.39143077,0.13491188,0.10677549,-0.071456075,-0.25798994,0.08297856,0.11558368,0.40543896,0.64298034,-0.11606348,0.075912245,0.5372403,-0.20370255,-0.7048145,0.8261807,-0.17386019,-0.20131397,-0.24938162,0.46022043,0.54821724,-0.19883333,0.033015553,-0.015309751,0.11737901,-0.009324114,-0.18003413,0.27377707,0.31234765,-0.07834714,0.094026774,-0.011609255,0.027106006,0.015916046,0.49529743,-0.017703433,-0.45816734,0.18965115,0.13037473,0.49776846,0.15622272,0.60726875,-0.2575816,-0.36508417,-0.14545055,-0.44547772,-0.14430876,0.26838878,0.3979601,0.81967634,-0.08923276,-0.17988877,0.06733994,-0.14707,-0.2531227,0.44320998,0.6543987,-0.3490168,0.08639893,0.06741077,-0.015998889,0.23467971,-0.48082808,-0.017520122,0.24747315,-0.21748172,-0.34942523,-0.099415936,0.03644587,0.24495645,0.172148,-0.15233807,0.30264112,0.2921875,-0.0939365,0.061176516
P68400	0.39226937,-0.2920737,-0.27845117,0.2440786,-0.13840494,-0.19789326,-0.32322735,0.79603654,0.17885327,-0.4542657,-0.13854855,0.124995366,-0.03550708,-0.3454575,-0.3733341,-0.046249785,0.23933208,0.061944116,0.4946473,0.4068422,-0.1355386,0.13127941,0.009440298,-0.28749764,-0.15331401,-0.09565155,0.25311986,-0.8413514,0.38305324,0.111643076,-0.23319636,-0.63174903,0.103368826,0.7674645,0.28797856,0.30444402,0.72907364,0.83166397,-0.48834836,-0.4784822,0.07417855,0.21959463,-0.795836,0.20310107,-0.2994232,-0.19751571,0.7335226,-0.00916825,-0.2481108,-0.2264948,-0.44979942,-0.34802598,0.07805748,-0.3972073,-0.077140175,0.24362093,0.022939922,-0.4531994,0.23638003,-0.011079372,-0.07533154,0.3447943,0.1776258,-0.02249855,-0.007229102,0.24490233,-0.28643078,0.4759118,-0.29662162,0.23799965,-0.52972406,-0.6014665,-0.005004602,-0.3420666,-0.3696663,-0.088913634,0.17224334,-0.087593324,-0.47351146,0.21414925,0.39265728,0.21935178,-0.1599588,0.0819944,-0.5946429,0.16366902,-0.1824421,0.100422986,0.097663924,-0.42627314,-0.46561512,-0.7424932,0.74158716,0.1928362,0.58993256,0.24150656,-0.18254364,0.5702233,0.29035375,-0.48882443,0.17713013,0.076540835,-0.13799946,-0.19390135,0.10908813,0.25663644,0.3458489,0.24890754,0.08169866,0.2832797,0.26274028,0.6110594,0.31831756,0.63034415,0.31204283,-0.3365674,-0.19937746,-0.17928329,-0.7276356,0.0028868315,-0.57306683,-0.20518476,-0.17978783,0.40637997,0.44510257,0.11329091,0.09992496,0.4845888,-0.15519445,-0.08330937,0.31803983,0.348783,0.4356821,0.5943359,0.0597128,0.095642686,0.107652314,-0.53452176,-0.58299303,0.6024517,0.048904277,0.4769403,0.012966789,0.4188339,0.44008878,-0.1893623,-0.03477059,-0.31924444,0.47169173,0.11575823,-0.20149449,-0.07248561,0.28775498,-0.40360588,-0.07358464,-0.2518417,-0.22199199,0.71614707,0.71561044,-0.021544958,-0.48129353,-0.3685259,0.57535,0.1538024,-0.050233234,0.659372,0.18078688,-0.65553916,-0.38898894,0.053555742,-0.31979007,-0.25274068,0.47719362,0.588354,0.7735701,-0.2221268,-0.010075885,0.0958331,-0.07450365,0.30629236,0.01853108,0.13164626,-0.07097346,0.084094234,0.32147384,-0.0952881,0.3706525,0.007248409,-0.10286349,0.35846713,-0.3821949,0.02530116,-0.106282845,0.10185535,0.59454054,0.2158853,0.36015493,0.097322695,-0.09544369,0.17674191
Q9H444	-0.15112692,-0.042675015,-0.35127023,0.04125227,-0.49325636,0.13148683,-0.08226895,-0.20167227,-0.20818006,-0.050040573,0.3298258,-0.24184538,0.116713546,0.006812696,-0.57586503,-0.39034367,0.26475346,-0.15825906,-0.07377886,0.55619764,-0.26443774,0.060622774,-0.090909116,0.12315152,0.47986475,-0.4663148,-0.06704184,-0.124282405,0.44128713,-0.58437693,-0.11907202,-0.6940124,0.067210056,0.1352345,0.073664755,0.057249807,0.5013899,0.33875534,-0.035360575,-0.45854938,-0.09753541,0.2619974,-0.8096776,0.36950755,0.05685761,0.059945468,0.12246386,-0.07158275,0.45424056,0.44431373,-0.06636933,-0.46294996,0.16588148,0.02282686,0.23472211,0.4143388,-0.16568418,0.57943946,0.50702524,0.09162595,0.3451026,0.097027,-0.065595604,0.26402622,-0.13424921,0.8607842,0.017639939,0.0034822063,-0.33587646,0.1967672,-0.4472354,-0.27563667,0.10550623,0.23521928,-0.5124527,-0.316085,0.28969067,-0.43877113,-0.20579281,0.0677522,0.014922508,-0.36197782,-0.21780825,0.035682634,-0.12705307,-0.39843813,-0.5485048,-0.2013416,-0.5173185,-0.28095588,-0.3652424,-0.20102286,0.45871502,-0.4890377,0.42305416,0.3075489,0.23369654,0.54759985,0.25351343,-0.5197046,-0.09442512,-0.17426859,0.0021221838,0.13705677,0.11016657,0.3154403,0.3955018,-0.22324939,0.11698949,0.080997884,0.06996882,0.386385,0.54416925,0.5581729,-0.36392134,-0.9905834,0.1340015,0.011635716,-0.588512,0.09843178,-0.6833007,-0.676954,-0.2675447,-0.35543123,0.053630956,0.17698759,0.45752823,0.2773783,-0.077681236,-0.47974834,-0.022558227,0.3506221,0.54680264,0.6166576,-0.2379114,0.17518233,0.38984248,-0.21201627,-0.60581076,0.5279826,-0.35626945,0.69017327,-0.12061796,0.2435819,0.41067722,-0.031592503,-0.5398991,-0.30614313,0.32208177,-0.052260164,-0.40487647,0.09673031,0.33644414,0.19722927,0.47543192,-0.18551345,-0.47553083,-0.29969493,0.159249,-0.17214768,-0.21466942,0.08063689,0.23040664,0.008927302,-0.21133782,0.59607434,-0.6228521,-0.77720624,-0.42201978,0.15127324,0.37093404,0.26979095,-0.100388184,0.54691625,-0.08531814,-0.5877642,0.18592037,-0.24049096,-0.8851643,0.19753869,0.09440983,-0.5045794,-0.008646876,0.2722105,-0.085276574,-0.017476736,-0.13877687,0.072503306,0.7028643,0.52769876,-0.4980316,-0.028378436,0.3784469,0.4915603,0.374334,-0.14598402,0.73346275,0.71413475,0.16517775,-0.22547102
O75832	0.25267234,-0.13743709,-0.3614185,-0.0572522,-0.2690242,0.14334884,-0.55403,0.20378092,-0.2671762,-0.055750746,0.42045426,-0.38872418,0.24767253,-0.037050255,-0.2913153,-0.34598994,0.17603187,0.115508616,0.5453042,-0.045241196,-0.011477026,-0.18290713,-0.41566035,-0.20191887,-0.45363143,-0.22131686,0.34602067,-0.86893296,0.57016957,-0.32822505,-0.13104554,-0.5044395,0.28463513,0.38332668,0.72764105,0.1769938,0.29821813,0.05125982,-0.5633638,0.032158293,0.0918392,0.4155772,-1.2366444,0.44911152,0.3096637,0.084203675,0.7044417,0.23945966,-0.5084877,0.2977321,0.23128349,-0.22185454,0.10779237,-0.27575758,-0.064854465,0.4960078,0.4361663,-0.09019454,0.4440642,-0.22851607,0.34894833,0.15598306,0.035031687,0.27472225,0.099892884,0.4947194,-0.49767542,0.14926668,-0.18334877,0.2859534,-0.39845383,-0.31258598,0.2814265,-0.52502936,-0.19207107,-0.12124497,0.267343,-0.10609394,0.0021642474,0.22972858,0.54686165,0.023845218,0.09082781,0.6276509,-0.6152423,0.29691142,0.050390147,-0.0132035315,-0.5086912,-0.12314958,-0.5519053,-0.6538584,0.0018821673,0.23302567,0.6865902,0.25280213,-0.030557834,0.512232,0.09442172,-0.455121,0.36904883,-0.20597558,-0.17918792,-0.021951716,0.11665612,0.07537609,-0.37221202,-0.02393301,-0.09773886,0.15791789,-0.6267816,0.15925002,-0.13768917,0.28968257,0.43697578,-0.19002886,0.25746474,-0.32889956,-0.86422884,-0.1660647,-0.5672686,0.20746866,-0.54853487,0.36566734,0.7866037,0.5704867,0.13509928,0.5557461,-0.25722346,-0.25392762,0.25462985,0.21250129,0.64215374,0.37141433,-0.29369983,0.36964318,0.028717723,-0.58762044,-0.32556206,0.8600208,-0.49248958,0.6004589,-0.4586336,0.21545611,0.33719236,-0.10474483,-0.3380333,-0.26688704,0.45343864,-0.108979076,-0.070801154,0.24271697,-0.19680797,-0.08029779,0.111111596,0.30455256,-0.38034493,-0.00783933,0.40918374,0.13323225,-0.3676293,-0.74412453,0.11865163,0.10954797,0.17921539,0.073426604,0.04721156,-0.23192684,0.10462116,0.26817927,-0.07120071,0.36700785,-0.043298617,0.28610367,0.31297746,-0.4136815,0.35610586,0.1746101,-0.0849939,0.568917,0.19559972,-0.17375676,0.04644927,-0.261567,-0.25258857,0.16781951,-0.96984935,0.23896264,-0.01717173,0.06594682,-0.32771525,-0.22813153,-0.14423174,0.43928978,0.26231903,-0.4096749,0.279582,0.28220284,0.13465148,0.11457265
Q9Y5N6	0.2812651,-0.5149831,0.004367503,-0.42325774,-0.25515714,0.46096972,0.24831352,0.16394879,0.5516455,0.18318506,-0.6984175,-0.21761736,0.3309104,-0.037819773,-0.7243041,-0.36222664,-0.3020445,-0.20445968,0.8109522,-0.3458373,-0.42723674,-0.14202347,0.5056404,0.2896828,-0.45437747,-0.16625737,0.18034032,-0.34672603,0.30767718,0.4215085,-0.30448875,-0.5396491,0.29640386,1.0116111,-0.43610725,-0.2147032,0.7932379,0.49276486,-0.66604745,0.19999273,0.18001567,0.6326365,-0.76847565,0.40640962,0.24936594,-0.08639555,-0.29006514,0.7430084,0.6361527,-0.00033423424,0.12608998,0.06839556,0.1142243,0.08585839,-0.32585666,-0.64694244,-0.25929052,-0.44466755,0.15904173,-0.4486656,0.045984402,-0.032676667,-0.42055082,0.12919275,0.06170374,0.3874605,-0.31137353,0.2566005,-0.33721614,0.22319382,-0.3008066,-0.35322264,-0.5153715,-0.35654303,-0.08466605,0.1387771,-0.40722397,-0.32613844,-0.36368713,0.2889204,0.8209598,0.20179754,-0.23152213,0.25167644,-0.24255571,-0.19755402,0.65995336,-0.081096426,0.38080302,0.1072443,-0.018636258,-0.6683065,0.64618164,0.10829703,0.48994896,-0.3020291,-0.69631016,0.6137414,0.09798704,-0.6639853,-0.38681898,0.4865767,-0.37764385,-0.25354528,0.2177895,0.18225527,0.34502098,0.23763998,-0.29283977,0.35641876,0.38217142,1.0131083,-0.25871596,0.2309831,0.24415596,-0.14939849,-0.8411736,-0.061708413,-0.63244146,0.072354734,-0.7464292,0.2286901,-0.37343237,-0.022298597,0.20369847,0.39123666,-0.18209289,0.61905414,-0.6227484,-0.25897983,-0.2535823,-0.19974749,0.21836592,0.47886795,0.0666831,-0.095657855,0.41478252,-0.5981558,0.62538725,0.21209879,0.19180782,-0.1194212,0.10806909,0.7892632,0.8792139,0.0005264712,-0.13383369,-0.09659581,0.6091417,0.21327123,0.042211343,0.25914273,-0.17215072,-0.29358262,0.17280497,0.24585442,-0.39913556,0.6029517,0.36622366,0.21107677,-0.589229,-0.10289837,0.17325771,-0.15866451,0.047942642,-0.32276207,0.33528236,0.3609021,0.011684537,-0.13680412,0.22365686,-0.33117342,-0.49816254,0.15763399,0.017677814,0.017594539,0.0757698,-0.09029992,-0.78162813,0.4776173,0.79751337,0.34453604,0.34052512,-0.81548107,-0.061565645,0.014851834,0.2825274,0.60464495,-0.26629177,-0.06371623,-0.42225006,0.08544893,0.08578511,0.07132259,-0.26061118,0.16636789,0.30898,0.059017744,0.027766595,0.36260188
P61970	-0.40837196,0.38672274,-0.05681424,-0.29775134,-0.97473377,0.22328259,0.0327871,-0.5458356,0.20020191,0.17359342,-0.42314357,-0.32637832,-0.19192265,-0.1696062,-1.6602558,-0.18135072,0.5782542,0.048927456,-0.20576242,-0.019444654,-0.46430674,-0.050883465,0.06452086,0.3626664,0.18759003,-0.54070514,-0.1679547,-0.689758,0.21232682,-0.17993632,0.15213148,-0.5152839,0.4434157,0.008682147,0.00024037175,-0.11236632,0.28505364,0.09210724,-0.62477344,-0.047980074,0.10086756,0.74193454,-0.40896302,0.41183555,0.1450541,-0.24372928,-0.61486566,0.62218946,0.29862767,0.5406169,0.65394443,0.32964426,-0.27168444,0.14186545,0.50901043,0.41420972,-0.6828251,0.5362397,0.40863428,-0.44880366,0.50022453,0.05076989,0.049581666,0.1839869,-0.059825003,1.0022391,0.14630274,0.4837967,-0.42928585,0.30411077,-0.2620975,0.2661302,-0.093493424,0.10275843,-0.91574466,-0.3055806,0.3046334,-0.50260586,0.05131191,0.084678285,0.41387433,-0.28669024,-0.35220793,-0.4400464,0.22124481,-0.6979785,-0.2519165,0.29133964,-0.5488542,0.332911,0.31938788,-0.05182694,0.04223666,-0.3749662,0.3015296,0.11978261,-0.253711,0.630293,0.041847065,-1.0135255,0.025297044,-0.206688,-0.6271348,-0.1481509,-0.6135495,0.11785025,0.10552736,-0.06571249,-0.11698024,-0.4905579,0.5631745,0.30141896,0.26559913,0.2087845,0.07504,-0.6175815,-0.23825558,-0.35403267,-0.31504354,0.02282168,-0.29729015,-0.39508215,-0.45180446,-0.2515627,0.13448107,0.522219,0.35234624,0.3095418,-0.051725086,-0.55993146,0.36024827,0.012932217,-0.005197292,0.17439987,0.34295782,-0.19587375,-0.2394678,-0.3094134,0.20469832,0.72649926,0.2223229,0.6952151,-0.1620953,0.41815177,0.16924848,0.12099252,-0.22828183,0.29829144,0.28229263,0.06785407,-0.24399579,0.43358442,-0.0744128,0.42033458,0.26922062,-0.026612867,-0.41450527,0.010710276,0.37824336,0.21887988,-0.30421734,-0.18349937,0.119721085,-0.09016589,-0.387199,-0.05640065,-0.32206178,-0.59885293,-0.28439313,0.22467102,0.21449646,0.21637064,0.106766395,-0.051569868,0.21998207,-0.2898932,0.07224808,-0.19970722,-0.63867235,0.19068338,0.010384239,-0.4133567,0.4344916,-0.45079365,0.14746645,-0.18812919,-0.06831406,0.42881817,0.16491823,0.47868064,0.00010006978,-0.13061713,0.014149281,0.069242835,0.13607994,-0.15780596,0.686337,0.18877962,-0.10459751,-0.0025579704
P19387	0.64725655,-0.50126,-0.64067763,-0.09542268,0.28737146,0.027272686,-0.48767763,-0.27294734,0.05312089,0.23573804,-0.14177966,-0.626752,-0.16342653,-0.649753,-0.035614867,-0.15884516,0.16512142,0.0055897245,0.37811798,0.06278044,-0.6962212,-0.098168485,0.39267176,0.09711831,0.08638107,-0.461148,0.15501268,-0.3451639,0.42758894,-0.27279165,0.044639684,-0.3218457,0.02071516,0.3655415,-0.34490308,-0.08933778,1.101523,0.72318065,-0.39660323,-0.12753409,0.18746975,0.94449687,-0.68751633,0.15944165,0.3871702,-0.02966081,-0.2044958,0.44980082,0.3626124,0.1483605,0.43169436,0.2520923,0.078204766,0.21612167,0.27394274,0.12582205,-0.21830188,-0.45646992,0.23271473,-0.51969075,0.36204785,-0.21106064,-0.1730025,0.21566221,-0.19863808,-0.07963341,0.016325805,0.39147827,-0.43729633,0.5688069,0.35975814,-0.8630019,-0.2842029,0.013969082,-0.5178171,-0.60665613,-0.27185246,-0.15678503,-0.12980919,0.08955329,0.39880452,0.116772205,0.08980312,0.15281264,-0.2175183,0.32278165,-0.24177463,-0.33312646,0.4211902,-0.38792604,0.10225663,-0.828938,0.46822184,0.3142588,0.6056227,-0.226801,-0.2669659,0.43063977,0.24783243,-0.019753922,-0.5169159,0.019117791,0.02226932,-0.25389495,0.2833538,0.51106316,-0.10395218,0.03872835,0.20708874,0.3337635,-0.010779102,0.19532058,-0.05013662,-0.16328579,0.2793616,0.32062522,-0.2900068,-0.319609,0.12300822,0.08123815,-0.76692617,0.49677423,-0.57240206,-0.20219432,0.7437951,-0.19499063,-0.34895638,0.12256715,-0.58797634,-0.01890023,0.14393178,0.07390851,0.681238,0.94763714,-0.06571222,-0.18625706,0.20122753,-0.62790394,-0.33510312,0.26490983,-0.13167007,0.12337191,-0.503404,0.52070725,0.6162171,0.13167566,-0.65835327,-0.72133267,0.77990323,-0.024599077,-0.18685576,0.28349838,-0.21497864,-0.36060047,0.2961972,0.057592127,-0.4321017,0.6378666,0.7942754,-0.053107742,-0.7729004,-0.7439036,-0.38710564,-0.055141106,-0.06771864,0.043739926,-0.24209304,-0.28918612,0.41247466,-0.11650019,-0.24820212,-0.3855519,-0.21173318,-0.0470327,-0.7233545,-0.477995,0.4432568,-0.14968786,-0.7023409,0.34030804,-0.08951824,-0.29163423,-0.1004359,-0.43937272,0.30293515,-0.12315213,-0.5360425,0.88910896,-0.3663856,-0.21053186,-0.31949368,0.3748104,-0.17085774,-0.1003421,-0.005272205,-0.2733002,0.32744825,0.6608399,0.17385796,0.11401189
P51665	-0.2158616,-0.016590217,-0.22272056,-0.17945743,-0.692296,0.14876503,-0.45021817,-0.15922801,-0.20794515,-0.039636567,-0.33732098,-0.6950597,0.2950727,-0.11516937,-0.68360674,-0.2090331,0.2843674,0.30152124,0.18541653,-0.14000425,-0.1174056,-0.20720497,-0.27637362,-0.3580128,-0.36077946,-0.098062426,0.5465452,-0.6687579,0.66418976,-0.3716561,-0.10803077,-0.3066264,0.53561515,0.35080987,0.6690781,-0.23157254,0.1880434,0.086774185,-0.80319494,0.20804963,0.37015262,0.39185402,-0.8817239,0.47512925,0.5198216,-0.13152908,0.22283922,0.51648873,0.03355122,0.49335924,0.22996505,-0.2115706,-0.16182902,-0.26398492,-0.07072399,0.74020857,-0.1040792,-0.0148487,0.44084144,-0.41992515,0.72168237,0.26135164,-0.19101818,0.34115016,0.10443911,0.7713465,-0.24274015,0.08056844,-0.08965558,0.3304214,-0.45060787,-0.50465906,0.01017402,-0.06101806,-0.24259625,-0.013871568,0.20794454,-0.49637422,0.030260695,-0.14147748,0.5335946,-0.14566344,-0.34943312,0.19894081,-0.34675023,0.20758228,-0.22300456,0.060766034,-0.783472,0.031165056,-0.49968278,-0.3145808,-0.36025062,0.07569782,0.5930886,0.6415871,0.20641917,0.28498587,0.031988677,-0.6347912,0.6428945,-0.32953838,-0.66035974,0.05992263,-0.19714022,0.35486647,-0.43434402,0.0402999,-0.10464424,0.08392153,-0.14600746,0.29253224,0.009167499,0.4163713,0.32625854,0.042356618,-0.19760449,-0.4769907,-1.0685174,-0.29367977,-0.20758125,-0.27681908,-0.5669461,0.06666183,0.6978986,0.87287897,0.40909463,0.37139228,-0.33945426,-0.42407432,-0.043492813,0.11902325,0.56327444,0.5087929,0.048699923,0.39280683,-0.099579975,-0.61185235,0.12714253,1.0124615,-0.47252825,0.5492339,-0.4084461,0.367946,0.5656801,0.6808515,-0.1561596,-0.26542756,0.24373637,-0.02091072,0.04801391,0.10451202,-0.09693673,-0.19244018,0.119853824,0.31613344,-0.53750646,0.07193657,0.42497134,0.11326183,-0.359432,-0.48194835,0.4055016,0.035254575,0.35476965,-0.07885373,-0.19181624,-0.10969334,-0.1440813,0.22090963,0.06291722,0.532373,0.26446173,0.05534953,-0.022969304,-0.2928085,0.1108252,-0.03351127,-0.17366973,0.8436064,0.3236081,0.012046492,0.44319457,-0.18242821,-0.37981504,0.12147287,-0.98616624,0.09151669,0.19419385,0.30658337,-0.32568774,-0.07085498,-0.47903118,0.5184483,0.31836775,-0.29753736,0.54633003,0.09920353,0.06821495,-0.16349058
Q9P253	0.40149814,-0.41060644,-0.08014032,-0.49712336,-0.015722137,0.15963095,0.5034095,-0.15166086,0.23205553,0.4337107,-0.21824941,0.45118845,0.038969416,0.06654459,0.20408584,0.48211035,0.032059975,-0.34188536,-0.41359657,0.38456196,0.26625353,-0.5411114,-0.117932685,0.6888745,-0.19104981,-0.6995501,0.034914788,-0.55621207,-0.061812084,-0.67667174,-0.2701913,-0.57302517,0.40473506,-0.03962561,0.3002979,0.5505828,0.28157473,0.63960737,-0.22273219,-0.15045339,0.027675003,0.4266335,-0.7444487,0.79749674,-0.6288122,-0.022786075,-0.19327861,0.27956653,0.37955937,0.44801006,0.33169922,-0.2557353,-0.1592864,-0.43560737,0.24467386,0.47050482,-0.25644094,-0.00071841374,0.14719087,-0.033580635,-0.02118678,-0.39732406,-0.44409668,0.06058573,0.039710063,0.57907456,0.40851024,-0.42198437,0.32513487,-0.17400508,0.09434982,-0.17358847,0.15916531,0.8058686,-0.47833675,0.37602505,0.51400226,-0.37269872,-0.012259787,0.33055538,0.88155204,-0.38443357,0.20514418,0.049550597,-0.32753065,-0.36194366,-0.41740817,-0.1069636,0.2457863,0.30874732,0.2599619,0.018363364,0.51355445,-0.12937023,0.40122217,-0.17300095,-0.79029393,0.4751887,0.15071027,-0.58035225,0.25327381,0.22743915,-0.14042717,0.47690907,-0.24119224,0.4915567,0.30616447,0.29050058,-0.26025915,-0.45626724,0.23921102,0.5896636,0.384915,0.60314506,-0.32275245,-0.6954009,-0.33339587,-0.11280642,-0.32182828,0.5400907,-0.9152834,0.22325177,-0.23744732,-0.37380785,0.2588792,0.41426256,0.19717255,0.28339094,0.27221203,-0.05844324,0.5607651,-0.16801901,0.498056,-0.1776525,0.06265397,0.36629084,0.29722494,0.040696245,-0.112528525,0.064031266,-0.14606111,0.0073175523,0.22015272,0.21901375,0.32345912,-0.36395904,-0.71951765,-0.30022517,0.56411564,-0.16546689,0.0013421956,0.22514945,-0.123224296,0.59402597,0.09415987,0.19601041,-0.363224,-0.46707904,-0.03942719,0.2969311,-0.43023586,-0.106457666,-0.065156035,-0.015227763,0.08448579,0.3814236,-0.6380968,-1.1157846,0.6241757,0.256883,0.8148381,0.11553752,-0.6811807,0.44849378,0.2146408,-0.3024159,-0.1259073,0.38695058,-1.255979,0.039498247,0.44888067,-0.55571556,-0.1432144,-0.36893597,0.6605831,0.115919806,-0.437763,0.09163909,0.15334551,0.39331305,-0.4242352,0.022298902,0.6357729,-0.17055489,-0.19443536,-0.012034341,0.2264684,0.5608961,0.5365986,-0.46862298
Q9UKV8	0.23439568,-0.025828855,-0.5620181,-0.11873814,-0.62672246,-0.30679062,0.06458097,-0.29533222,-0.020452544,-0.46011335,-0.14126274,-0.29232672,-0.23098077,-0.31706396,-0.58070797,-0.21577215,-0.24629754,-0.39209336,-0.042775642,-0.011378909,0.14777584,-0.015416235,0.24708393,-0.01768782,0.08058133,-0.0050309505,-0.34183627,-0.5366837,-0.10364246,0.07688514,-0.050008588,-0.49858207,0.06276509,0.15719585,-0.009493295,0.2128339,0.73792285,0.34729975,-0.22207887,0.16839023,0.04614178,0.65473807,-0.24848785,-0.0056200614,0.17131147,-0.720596,0.41986522,0.22190207,0.19399647,0.2932561,0.2776758,-0.0238339,-0.21356213,0.10681347,0.23034562,-0.14079878,-0.4291159,-0.17026766,-0.007081875,-0.031021997,0.14894414,-0.13342005,0.030843513,0.49110484,-0.344204,0.3862244,0.21715009,0.18542027,0.107224606,0.6498937,-0.09887383,-0.14291969,-0.089124866,0.2949695,-0.41727358,-0.7577822,0.39709118,-0.6680864,0.47625682,0.40767798,0.4185057,0.6079513,0.10972825,0.10169547,0.13468279,0.41002408,-0.5077314,-0.039906044,0.13440171,-0.102644876,0.16029486,-0.28823775,0.35627675,-0.6724136,0.56227165,0.5314442,-0.48643082,0.10588658,0.031529397,-0.09585679,-0.5966746,-0.009254537,-0.04144962,0.120018065,0.11697152,0.27934277,0.13560218,0.41099972,0.2898477,0.45234403,0.0052298685,0.18600678,0.385313,-0.24622488,0.4487717,-0.30538142,-0.0060296776,0.028549539,-0.7486565,-0.07307341,-0.74759805,-0.355835,-0.66947,0.46788964,0.4751227,0.48068103,0.083593465,0.25383848,-0.019871833,-0.18476926,0.21952441,0.05830016,0.50902086,0.072656,0.5896509,0.0778747,-0.3593597,-0.5447522,-0.050029866,0.54455006,0.08516106,0.71117777,0.0633152,0.7045341,0.4923999,-0.31108055,-0.34527737,-0.42317826,0.5864549,0.4491436,0.17269562,0.57014275,-0.40622512,0.32429054,0.12346373,0.14969686,-0.0784296,-0.03674752,0.3378633,-0.3449538,0.00035061757,-0.43350336,0.17986043,0.497866,0.05798687,0.45978382,-0.05325441,-0.30189696,-0.27366173,0.16937178,0.25003725,-0.36823887,-0.6757543,-0.36467028,0.56692743,-0.85942525,0.2558123,-0.05300391,-0.44822577,-0.0030848782,0.38639185,0.108081855,0.29577023,-0.17180221,0.2380995,0.32171416,-0.93736506,0.27691194,-0.1590885,0.15368788,0.22338496,-0.40956458,-0.056673106,-0.5599184,0.36405224,-0.5446293,0.34687063,0.14846179,0.17203805,0.47860992
P60228	0.11314701,-0.18331674,-0.9396754,0.03167231,-0.15249163,-0.15883061,0.37398022,-0.18172169,-0.1642436,-0.5887327,-0.26707435,-0.2956206,0.3721291,-0.052314766,-0.5863814,-0.58952904,0.20694828,-0.28866282,0.3420152,-0.0908016,-0.5291983,0.22902957,0.3720654,0.022473605,0.30559716,-0.30925202,-0.45758593,-0.58570343,0.38565,0.11479963,-0.55799323,-0.9430424,0.6023396,0.565606,0.1397164,-0.059282064,0.5661377,0.88297933,-0.8084079,0.015110146,0.09169874,0.070328414,-0.47522733,-0.31120017,-0.14804891,-0.011019756,0.4616306,0.41500327,-0.20428637,0.11905545,0.3743098,-0.1875297,0.05474854,0.20025198,0.19611962,-0.5073424,-0.27482074,-0.1032277,0.20893991,0.08103393,0.30090746,0.003579839,0.19409454,0.2019833,-0.5098787,0.2881539,-0.11331492,-0.038792823,-0.7532959,0.52575886,-0.71448976,-0.014592606,0.18224394,-0.096842006,-0.512696,-0.3956501,0.7147215,-0.40408462,-0.0027768267,0.00085954287,0.11953131,0.84968525,-0.19909404,0.009321084,-0.100459695,0.06511983,-0.02167125,0.06056082,0.13444825,-0.36714208,-0.07371033,-0.35653725,0.22848548,-0.012447176,0.34542072,0.35558742,-0.04684627,-0.06725352,0.3283396,-0.2393588,-0.49731508,0.012229271,-0.11594666,-0.15287255,-0.07154078,0.25063097,0.37402123,0.08809582,0.3791236,0.55583596,0.077205904,0.7351419,0.41844916,0.26323003,0.39314213,0.17143288,0.09514317,-0.3139589,-0.65147805,-0.16997936,-0.48627487,-0.2661016,-0.029661585,0.20534702,0.4174603,0.58764374,0.4834003,0.3123158,-0.4326712,-0.42194545,-0.20740438,0.61053413,0.21632189,0.8725728,0.53289825,0.2459741,0.33085272,-0.8897626,-0.05379477,0.43861723,-0.081378624,0.46881905,-0.37808076,0.15999071,0.8560245,0.30908144,0.025482237,-0.28083545,0.5785599,0.72037023,0.14266717,0.73626006,-0.26555067,-0.10992769,0.4743627,-0.042585,-0.3606848,0.15441325,0.21406017,-0.38448408,-0.19465734,-0.11353605,0.18431717,-0.073016725,-0.11230808,0.29913554,0.10621704,-0.326839,-0.4940202,0.33306742,0.042827263,-0.007270411,-0.36144724,-0.53057295,0.65753704,-0.9509577,0.1939498,0.14180818,-0.1938508,-0.351519,0.6679589,0.17005868,0.14201358,-0.2588217,0.18274632,0.0066682072,-0.23332605,0.34532312,-0.027715612,0.45873877,0.05714862,-0.2933152,-0.016848834,-0.20673147,0.28563333,-0.48677093,0.5593189,0.021148892,-0.19279844,0.7321413
Q15006	-0.28842908,-0.7544457,-0.35350806,-0.209683,0.23413226,0.3209486,0.6605477,0.15656751,0.12862308,-0.24447472,-0.5953935,0.05048903,0.32978308,0.17550506,-0.40623242,-0.002794684,-0.12786596,-0.6953137,0.07297666,0.35153103,-0.48197198,-0.11999243,0.2901243,0.19085144,-0.063360564,-0.3058359,0.20626812,-0.8317929,0.22104824,-0.45926973,-0.5270269,-0.6908957,0.23524234,0.18900143,0.4481995,0.3383624,0.17270195,0.19004856,-0.4816193,-0.3819998,0.6215914,0.4460809,-1.0532447,0.5300813,-0.0069486126,0.34239867,0.23907235,0.24887453,0.23839872,0.33769462,0.36500615,-0.25512895,0.16146773,0.112959564,0.77391946,0.53142625,-0.20269701,0.42547864,0.6251785,-0.5026631,0.43581247,-0.2563657,0.42288506,0.39405984,-0.03185519,1.1118362,0.26054156,-0.18943846,-0.3729209,-0.22671445,-0.19401556,-0.46031272,0.4748219,0.56340647,-0.14795981,0.30999306,0.6323704,0.075959645,-0.55149835,-0.17493126,0.52126914,-0.2699132,-0.38526663,-0.5736134,-0.14328405,-0.14274283,0.041102927,0.22045775,0.3096262,0.10880039,-0.17120488,-0.17012018,0.41807464,0.017493986,0.0329893,-0.017044967,0.34212708,0.22076015,0.09414732,-0.2599291,-0.22116949,0.23866422,0.14055084,-0.18713368,-0.09768594,0.5424652,0.036636017,-0.4652691,-0.2477338,0.22441617,0.35697073,0.7087942,0.047368344,0.53204453,0.19369838,0.24900098,-0.027976267,-0.34262785,-0.37811887,0.15239741,-0.6649837,0.2821787,-0.18668126,-0.19024135,0.13059801,0.37558797,0.17074941,0.5923872,-0.36434585,-0.9780928,-0.6939688,0.14958474,0.0050054016,0.18121627,-0.27558023,0.14073497,0.272563,-0.76717067,0.027546609,0.43236506,-0.13486643,0.46853298,-0.73439854,0.29512867,0.5467591,0.40716046,-0.4654569,-0.1438051,0.61636615,0.13876493,-0.01151831,-0.10064894,-0.07285282,-0.23985115,0.5840081,0.33445042,-0.6730775,0.034898903,0.0970578,0.061693568,-0.9911495,-0.32904947,-0.070983134,-0.34361094,0.4340744,-0.40450585,-0.55956084,-0.29081902,0.20729887,0.5190353,0.39677218,-0.07317491,-0.59949213,0.27223665,0.13523331,-0.63523144,0.38885808,0.34648097,-0.57510394,-0.040093143,0.5032661,-0.30337676,0.121060096,-0.40678942,0.018358571,-0.2830445,-0.6279444,0.75990576,-0.1801503,0.22977434,-0.31811473,-0.022230616,0.25652558,-0.18705516,-0.061620735,-0.039834883,0.24588431,0.28611496,0.16017708,0.3341198
Q9NRG0	0.09469436,-0.6049691,-0.73357475,-0.11600017,0.4253885,0.14678866,0.2915238,0.2890401,0.55681556,0.35752752,-0.22751813,-0.3259156,-0.18583293,-0.29878196,-0.26331955,-0.0746573,-0.16597436,-0.5120852,0.707977,-0.3358522,-0.65960866,-0.15119249,0.46585014,-0.051411364,-0.5189635,-0.028242834,0.35783437,-0.5490185,0.70873326,0.34638035,0.0038658234,-0.44860807,0.36228013,0.46534476,0.104269125,-0.2718655,0.9370729,0.67075264,-0.33300358,-0.19048733,0.8421531,0.7278454,-1.3341019,0.53808933,-0.011354602,0.4522445,0.19634941,0.35772666,-0.07911935,0.47391537,0.17218357,0.18214247,0.039734136,-0.05690582,0.10298889,-0.33318487,-0.1809367,0.58501834,0.2876357,-0.76823115,0.47809103,-0.35923463,0.16451088,0.16363823,0.06438462,0.28372216,-0.12532143,-0.04484738,-0.42091137,0.009360667,0.47021392,-0.6345298,0.2748279,0.54264486,-0.42478588,-0.17637695,-0.24820155,-0.076440424,-0.1907235,-0.01604464,-0.093591064,-0.38785586,-0.3272103,-0.040212687,-0.11552585,-0.1314679,-0.102263756,0.28132942,0.6233494,-0.30858624,0.072814465,-0.54707885,0.55810106,-0.0036017888,0.39467305,0.18529464,-0.11891156,0.21204016,0.31024307,-0.0022574773,-0.5519576,0.046947353,-0.38185385,-0.4398127,0.23166467,0.26952586,-0.040268254,0.07805912,0.32001778,0.4842317,0.39326197,0.96683055,-0.122667335,0.3789476,0.33310157,0.42041156,-0.2599786,-0.04400601,0.10585703,-0.32279816,-0.7219523,0.36979643,-0.23029315,-0.114089385,0.6000707,0.15533957,-0.13755703,0.5110459,-0.5666918,-0.1385438,-0.43662176,-0.25558826,0.16126916,0.31725302,-0.10018647,0.0992522,-0.08974944,-0.49328354,-0.24888097,0.52459025,0.016869769,0.1991748,-0.4345518,0.55952257,0.79132915,-0.007881843,0.13715598,-0.26067582,0.71450317,-0.22765239,-0.19663265,-0.03175007,-0.07491682,-0.8879202,-0.14378448,0.51228815,-0.90398276,0.74480295,0.18301645,-0.02787075,-0.55375075,-0.26620215,-0.061004717,-0.060547702,0.10698875,-0.43035436,0.13299653,0.32317615,0.43801323,0.08168787,0.26134872,-0.1866635,-0.1450281,-0.12758942,-0.16322388,-0.37834474,0.093939014,0.10531911,-0.37028784,0.083471805,-0.10758292,0.06258323,0.2584977,-0.041079324,0.040245008,-0.48848894,-0.16582613,0.6459863,-0.22306336,0.22075953,-0.28741032,0.29005438,0.5396651,0.25426644,0.20685536,0.109348685,0.19430651,0.26063856,0.5233836,0.24385482
P14866	0.1882854,-0.11540283,-0.6400464,-0.39369604,-0.33225337,0.44092342,0.080867544,-0.66157216,-0.049694583,-0.4024393,-0.42869917,-0.48976043,0.14374946,-0.438781,-0.8175686,-0.5038386,0.064631194,-0.49201006,-0.020658655,-0.439207,-0.37413853,0.2508467,0.43230155,-0.20236336,0.14700326,-0.35609138,0.056191426,-0.5926146,0.3443599,0.3391052,-0.11488768,-0.53653014,0.6052234,0.37052205,-0.28002512,0.1245313,0.5903886,0.46223512,-0.3988909,0.16655022,0.2556967,0.5309685,-0.9934735,-0.013880728,0.38230532,-0.49726242,0.00023683431,0.37476045,0.22423175,0.24362369,0.35646683,-0.20408233,-0.09019081,0.18271543,0.21300253,0.06025651,-0.74154824,-0.03624057,-0.3053627,-0.026286738,0.20262505,0.09742786,0.12867397,0.5734064,-0.31375563,0.16465992,-0.0014681667,0.121363215,-0.19619127,0.17622589,-0.017346313,0.065571494,-0.112455174,0.03633728,-0.4458188,-0.7006833,0.3035678,-0.49868968,0.15947433,-0.05636995,0.31794268,0.3238844,-0.3208495,-0.1735781,0.06833901,0.107122146,-0.18777867,0.1585013,-0.018023679,-0.053093474,0.08426118,-0.15535912,0.064454705,-0.23105557,0.47161072,0.36524975,0.27976584,0.17537367,0.045570966,-0.102570646,-0.42963234,-0.25882316,-0.34312764,0.047857344,0.29779825,0.34216085,0.0984652,-0.027612878,0.49118644,0.28180444,-0.14822796,0.6769066,0.2869968,0.04540891,0.16735291,0.18898593,-0.5066317,-0.02483553,-0.7524566,-0.2655918,-0.55537397,-0.029522717,-0.66031533,-0.05217174,0.54540306,0.12946019,0.14467731,0.2476958,-0.29118514,-0.6082679,-0.52087146,0.19107065,0.524657,0.62227505,0.33290166,0.1935082,-0.32062018,-0.8179767,0.51651996,0.37413052,0.034211922,0.52777666,-0.23557481,0.59941083,0.57744986,0.34344468,-0.08957963,-0.16903497,0.6761643,0.19752477,-0.13484538,0.31802762,-0.2654288,-0.064544484,0.6958244,0.4837314,-0.42685863,0.24337305,0.37716055,-0.29177213,-0.45862007,-0.4581407,-0.070053786,0.05470451,-0.23155719,0.11382641,0.10188699,-0.3963787,-0.07326345,0.27659482,0.42459586,-0.1370524,-0.3764702,-0.6201833,0.188447,-0.8013918,0.5334389,0.043633178,-0.62119806,-0.023611575,0.36013326,-0.19897749,0.007993554,-0.7464989,0.3677711,0.20120113,-0.8942009,0.7109582,-0.24637373,0.091265984,0.083967045,-0.019713374,-0.070278324,-0.26756617,0.5891758,-0.36981857,0.5069347,0.05804215,-0.16125862,0.5786248
Q15428	0.3117162,-0.10396272,-0.81116456,-0.22806299,-0.13788855,-0.2100762,0.16381112,-0.4123319,-0.08309307,-0.15838934,-0.8810696,-0.68060434,-0.37379268,-0.12284027,-0.5331987,0.023889167,0.02014838,-0.8056983,-0.14788976,-0.41374892,-0.17808609,-0.116644144,0.74329257,0.05035625,-0.19148672,-0.43175933,0.13062896,-0.99846345,0.10619566,0.15832101,0.101734325,-0.7867072,0.22305325,0.24363936,0.05402175,0.47366396,1.0313168,0.18004179,-0.6080663,0.008070414,0.39610314,0.58287984,-0.45533103,0.48367268,0.23307227,-0.57680917,0.12746763,0.7769364,-0.04558247,0.44021234,0.5272702,0.038142532,-0.20275539,0.05555618,0.0019080382,0.2451017,-0.72834355,0.009761783,0.09433279,-0.5198468,0.42010322,-0.1685537,-0.36137703,0.051888604,-0.116779186,0.3497696,0.13454977,0.24973811,0.019433426,0.3589793,0.14897573,-0.31980437,-0.006615793,0.114749566,-0.6315023,-0.7012512,0.64650106,-0.5569824,0.4124449,0.074906714,0.5816717,0.1822302,-0.5248823,0.5601713,0.07886977,-0.29238427,-0.36659625,0.17809874,0.38506117,-0.2155618,-0.36444268,-0.124812655,0.050405163,0.14746955,0.877142,-0.12752481,-0.21424611,-0.18566674,0.08366712,-0.095127076,-0.37608007,0.0015839142,-0.37692678,-0.116194606,-0.3463784,0.4728468,-0.16869198,0.06658896,0.34355208,0.20918913,0.24113977,0.3980191,0.3621334,0.051563658,0.23558639,0.07957057,-0.40838504,-0.38185722,-0.60999614,-0.20904341,-0.4941469,0.05081925,-0.54079413,0.13735995,0.5940007,0.20319,0.03420418,0.32048747,-0.34944412,0.05314016,0.4033675,0.10672804,0.28631902,0.25494722,0.24582891,0.25274068,-0.11831313,-0.53043324,0.15031268,0.46685222,0.23787409,0.30006677,-0.30011588,0.20835128,0.62904495,0.28070256,-0.3756342,-0.6102845,0.93733376,0.2831663,0.18164203,0.09890557,-0.19810067,0.0990072,0.35407937,0.38408846,-0.54688334,0.37344155,0.5217044,-0.29582214,-0.380257,-0.8333892,-0.053855978,-0.008785631,-0.13653292,-0.040046066,0.10544287,-0.27843368,-0.042449284,-0.054286737,0.31291255,-0.9069328,-0.46727785,-1.3462812,0.35223457,-0.12008131,0.47449443,0.16323017,-0.46318287,-0.4385664,0.3533325,-0.08272477,-0.047639597,-0.90863734,0.17977303,-0.5286528,-0.33944136,0.48761922,0.20009474,0.12265563,0.05042651,0.03372196,-0.09034374,-0.30730155,0.10799683,-0.48887363,0.32327634,0.32664767,-0.17908512,0.17107494
P22087	0.15539621,0.022784267,-0.9721506,-0.2501688,-0.041104183,0.10446386,0.2236395,-0.5295309,0.48741084,0.13009667,-0.60380304,-0.96989423,-0.004354087,-0.29469377,-0.62074536,-0.5000981,-0.061145384,-0.18218715,0.6071608,-0.020131176,-0.36451524,-0.44163612,0.19022222,0.012859965,0.5091327,-0.09022376,0.38806406,-0.25214273,0.76988864,0.30793905,0.05693257,-0.23170535,0.51274526,0.69630474,-0.34891024,0.0909161,0.53587055,0.42341292,-0.58481514,0.24597536,0.025204744,0.5971619,-0.77456236,0.38304436,0.1218715,-0.10801721,-0.14932036,0.45284897,0.43979156,0.31935987,0.57067186,0.1924153,0.17278369,0.4085152,-0.057638653,-0.23720983,-0.47167853,-0.23726358,0.056413442,-0.3004524,-0.042432364,0.21571504,-0.416188,0.66918194,-0.6250515,0.48267165,0.5762729,0.26086602,-0.42731768,0.40295568,-0.12373538,-0.38020676,0.19586203,0.33365571,-0.1770241,-0.17161877,-0.3253668,-0.591813,0.1506107,-0.054224294,0.23527615,0.123480946,-0.6817111,-0.31763464,0.5265952,-0.008271536,-0.43797493,-0.03682751,-0.2437165,-0.08364079,0.56946844,-0.054503083,0.14177138,0.19011599,0.43447503,0.059873614,-0.34069523,0.04212086,-0.42764562,-0.43253338,-0.49191484,0.016790032,-0.5385405,0.08594318,-0.065144174,0.31079087,0.4853045,0.18017243,0.4049237,0.23086761,0.3160701,0.8831202,-0.20722303,-0.023680246,0.48861894,-0.26652414,-0.5017821,0.050452925,-0.6391275,-0.078193516,-0.7103973,-0.5504444,-0.6391498,-0.012155846,0.20912308,0.41702762,0.05733753,-0.2057507,-0.49967077,-0.36246896,-0.41641164,-0.23773803,0.47159788,0.8252435,0.35218182,0.19383898,0.073622376,-0.38435653,0.59179336,0.20490426,-0.049188927,-0.26007134,0.17675975,0.34258968,0.7283142,0.16644587,0.48280266,0.21343042,-0.024282238,0.34218282,-0.019623198,0.21115054,-0.15339202,-0.2213137,0.51041424,-0.046023507,-0.37290612,0.25829846,-0.24070391,-0.10422207,-0.16517031,0.27029455,0.3320453,0.15816092,0.017145354,-0.0016984484,-0.0814486,-0.39168188,-0.04399652,-0.10495961,0.4034588,0.002246869,-0.31262514,-0.33984888,0.18295923,-0.21612366,0.27242625,-0.2577969,-0.5231727,-0.22643586,0.9950216,-0.005194757,0.09300005,-0.4472219,0.21237352,-0.0094239,-0.12924121,0.57296485,-0.018232966,0.22001284,-0.1162612,0.1372634,0.3622153,0.26889372,-0.08932741,-0.38840163,0.62368315,0.02112873,0.05609237,0.68184847
P36954	0.6236708,-0.34799325,-0.3055155,-0.25204897,-0.116215736,-0.09956966,-0.3725848,-0.36995706,0.22299834,0.08047953,-0.062051117,-0.9575655,-0.44363585,-0.73621124,-0.17276198,-0.20051068,-0.016544893,-0.06640344,0.2956053,-0.0095463535,-0.36389294,-0.4200705,0.628999,0.1407595,-0.1428571,-0.23181048,0.19921336,-0.5919668,0.21886796,-0.21568696,0.16156426,-0.27667296,-0.27774027,0.46353623,-0.39520064,0.039320126,1.1041008,0.45087442,-0.5745452,0.14459626,0.13348456,0.62897444,-0.41073248,0.31298956,0.42483065,-0.45678,-0.05795663,0.36618215,0.43242657,0.31789666,0.33045426,0.24048606,-0.017220952,0.3385576,0.2383036,-0.017580051,-0.36178523,-0.34682494,0.061042756,-0.47888842,0.24666655,-0.1978187,-0.41519487,0.27188194,-0.028779207,-0.099824324,-0.14799346,0.6344494,-0.3658531,0.6109458,0.16332711,-0.59058756,-0.29411635,0.0916694,-0.55617094,-0.6264903,-0.0664512,-0.36908904,0.17124225,0.13627604,0.36130401,0.17168887,-0.2597763,0.44377503,-0.009517896,0.30399477,-0.17974912,-0.3842902,0.34957078,-0.26352185,0.06155781,-1.0361375,0.43345866,0.39608133,0.82218343,-0.2555424,-0.10546903,0.5021231,0.20294665,-0.1254109,-0.59075844,-0.16557519,-0.021223074,-0.26635748,0.15156132,0.5754273,-0.06690635,0.2853173,0.4996582,0.35742632,0.12355805,0.35795158,-0.06080899,-0.29416063,0.357892,-0.0076763895,-0.29912135,-0.18274853,-0.3397518,0.034851007,-0.63466364,0.37279785,-0.88019925,0.14447922,0.60060674,-0.1502936,-0.48674983,0.1348369,-0.6905631,0.10435911,0.04466332,-0.05445318,0.66354716,0.80832535,0.008841884,-0.29781786,0.30287993,-0.50373894,-0.20152815,0.39845058,-0.043827936,0.12224089,-0.34135157,0.5742731,0.77889407,0.106671385,-0.5868369,-0.7773254,0.5850696,0.28382334,-0.13029552,0.18922295,-0.26006883,-0.22515585,0.11174456,0.14216755,-0.3893335,0.55769247,0.8618377,-0.048116114,-0.7247381,-0.6019478,-0.12627287,0.076048136,0.10245432,-0.2588423,0.040264145,-0.063350566,0.46809784,-0.0818068,-0.093006745,-0.74177337,-0.5507101,-0.49525753,-0.45141402,-0.30837142,0.4127761,-0.27259842,-0.9275989,0.2949957,-0.040846437,-0.20008494,0.09173838,-0.49417454,0.21862948,-0.19973993,-0.28654423,1.136613,-0.034539048,0.13336614,-0.12810573,-0.08029455,0.09382489,-0.32142103,0.070708565,-0.077018216,0.13465944,0.38448182,0.2632748,0.13483016
Q02543	-0.23005043,-0.35062844,-0.34111726,0.1281078,-0.6756436,0.30187264,0.33570004,-0.40294603,0.11048004,-0.23964302,-0.2502415,-0.3275438,0.12288802,-0.2502959,-0.6517865,-0.030161433,0.094900236,-0.21070306,0.15820692,0.029479628,-0.42274863,0.67084223,0.53234714,0.32065037,0.010520667,-0.24029286,-0.42361346,-0.41768393,0.3156545,-0.3017684,-0.24549897,-0.469766,0.14042081,0.4557622,0.04835009,-0.17805466,0.7893201,0.26229712,-0.46110058,0.19073403,0.24852723,0.45239928,-0.82190055,-0.34221184,0.052960485,-0.19815424,0.07984235,0.25163084,0.22932485,0.34770384,0.5839855,0.095191166,0.05506558,0.3641869,0.18997903,-0.3477282,-0.06881002,0.21640883,0.60144085,-0.2158651,0.59758514,-0.37240732,-0.12948221,0.30634823,0.11512979,0.31498718,0.16148533,0.090627454,-0.35012823,-0.07019798,-0.29065126,-0.39445186,-0.07337455,0.13674079,-0.14897448,-0.025727315,0.46024296,-0.4513147,-0.30928925,-0.3339622,0.040548682,0.51519537,-0.5137182,-0.2038457,-0.16040045,0.37571466,-0.206182,-0.4058275,-0.064398535,0.37341595,0.12098112,-0.5140068,0.5470821,0.05494144,0.15036908,0.13261086,-0.23244892,-0.07813998,-0.19503306,-0.18301086,-0.5193326,0.10966292,0.13356653,-0.18585348,0.47114325,0.4901738,0.040398993,0.3152402,0.24049799,0.390513,-0.09785093,0.6761476,-0.086635046,0.33199948,0.4592621,-0.01262545,-0.10436476,-0.4903591,-0.39604324,-0.64164585,-0.2901775,-0.010826289,-0.35119095,0.4918176,-0.018246735,0.69274145,0.65697306,0.18392669,-0.18363889,-0.84416544,-0.4722092,0.16162641,-0.12018218,0.83357155,0.43473795,-0.013538515,0.15376404,-0.8037107,0.31959134,0.4856892,0.5209633,-0.05469695,-0.5513477,0.8163777,0.7470895,0.71374536,-0.59284306,-0.17573449,0.8326431,0.5045228,-0.055392686,0.7844646,-0.528041,-0.62799686,0.45842326,-0.018613692,-0.9065785,-0.01310362,0.550993,-0.39987928,-0.25304154,-0.24633418,-0.14082657,-0.050890375,-0.07769432,-0.06871104,-0.09103904,-0.059873562,0.03600549,0.7478698,0.3250042,-0.44762853,-0.7844087,-0.111146554,0.31457698,-0.9076988,-0.29894495,-0.057976827,-0.9628255,0.099039935,0.45025283,-0.07855932,0.30466065,-0.32064664,0.09391132,0.028902426,-0.39194378,0.7689496,0.32974944,0.7099299,0.31231582,-0.55464256,0.4243563,0.14434174,0.3754916,-0.5174762,0.32723153,0.23428056,-0.36569524,0.17056909
Q3B726	0.36658457,0.19460146,-0.38798785,-0.09374194,-0.32765105,0.12422895,0.35321367,-0.5649101,0.56104,0.064733505,0.23130246,-0.9592468,-0.6957428,0.19849347,-0.3061865,-0.47235966,0.34481955,-0.4663733,0.22327206,-0.041146073,0.15921056,0.33539537,0.5946814,0.42359126,-0.27400303,-0.7552832,0.49455693,-0.3218471,0.2538458,0.049158294,-0.28287286,-0.4098889,0.24887721,0.33908,-0.503284,-0.26176512,0.5995694,0.4797907,-0.81581163,0.36622146,-0.066165775,0.80346286,-0.48963815,0.7608336,0.058168523,-0.8036041,-0.46179634,0.3437186,0.38782847,0.23691252,0.32408196,-0.031283252,0.2225255,0.42821822,-0.13137157,0.08769183,-0.651922,-0.2413554,0.25166106,-0.16070665,0.10753099,-0.2786066,-0.41184175,0.21579167,-0.06272737,0.0010365956,0.046976347,0.54210025,-0.22376718,-0.07368024,-0.08106999,-0.4740835,-0.818347,0.16109574,-0.102137804,0.25097784,-0.3825149,-0.1253043,-0.37761632,0.3930568,0.6834076,0.018001387,0.3667197,0.45279118,-0.12650307,-0.13513194,0.2577326,-0.06634563,0.72051054,-0.015543512,0.016183084,-0.83402747,-0.07176236,0.37624058,0.4417332,-0.19280554,-0.5362904,0.43196064,0.1701448,-0.20515276,-0.9797547,-0.43590245,0.021010859,-0.059271745,0.31725484,0.38680413,0.15557395,0.1240926,0.2753776,0.42149884,0.43538398,0.24320392,-0.05769329,-0.013997858,0.52153724,-0.072491914,-0.20290115,-0.13793647,-0.10148656,0.14658013,-0.784769,0.2461603,-0.47237524,-0.058762733,0.485064,0.09747794,-0.03832424,0.14858213,-0.7190839,0.3900513,0.47498065,-0.39382887,0.7868924,0.5298116,0.38742277,0.028679397,-0.28829494,-0.53694457,0.26887164,0.75219804,-0.42818597,0.06489635,-0.15502185,0.23461027,0.52891344,0.24809097,-0.49929792,-0.61523217,0.40409407,0.47039598,0.024239102,0.17527206,-0.3713431,-0.2500012,-0.27099025,0.2678615,0.13347328,0.5656059,0.46558964,0.37971985,-0.72666824,-0.9444987,-0.33572337,0.18175495,0.45524198,-0.8648043,0.19096124,-0.3930481,0.25688574,-0.39350313,0.076867655,-0.43001032,-0.91282886,0.042376816,-0.529278,-0.16446373,0.26465014,0.07222649,-1.0802385,0.015695335,-0.043578763,-0.4986433,0.14015773,-0.049796924,0.19094649,0.15018545,-0.21321519,1.3573018,-0.3210175,-0.18676849,-0.789388,-0.22533266,-0.13939506,-0.18578233,-0.11824417,-0.075904265,0.099684514,0.21874087,0.19873995,0.11154501
