Q16850	-0.13441843,-1.7020121,0.8493234,-1.4171525,-0.031006897,1.7370791,0.15946195,1.5352418,-0.22171009,-0.47448066,-1.0950958,-2.13427,0.15897523,0.7974218,-1.1276878,1.9811128,-0.8465176,-1.2303606,3.2375019,1.4241811,-0.8931116,-1.996547,0.7478444,1.0472383,-1.5934482,0.048460018,0.5402597,-3.647592,-0.42210883,-0.19818106,-1.2228374,0.29884505,0.4459032,-0.528337,0.7332796,1.3183405,-0.69503623,-3.0363243,-2.0152547,-0.3394658,1.3487532,1.9583718,-1.3899499,-0.91496056,0.8131482,-1.017236,0.0910409,-1.0476192,-0.9315759,0.54750055,-2.6984115,1.0401152,-0.08836575,0.7974118,-0.33079875,-0.7174771,-0.6284653,0.47835368,-0.35340726,1.1001444,0.103653714,0.49062717,-1.4365196,2.1195898,-0.2658588,-0.37302122,1.5960996,-0.0664182,1.1871177,0.7425725,1.6248422,-0.7466035,1.7752618,-0.030370694,-0.32761723,-0.79227823,-0.76924115,-0.7200774,-0.94030386,1.8986822,2.067122,0.074607946,-0.5450549,-0.4389553,-0.9212837,0.3231707,-1.6261934,-1.3206217,0.9460557,0.37877166,-0.09004861,-0.37101927,-0.027985703,-0.61880255,-1.1194577,2.7437556,1.9420538,0.87850684,1.6209288,-1.7637346,0.98283744,-0.5428636,-0.704094,-0.75474954,0.06153856,-1.000495,-1.0747076,0.13594876,0.39336613,-0.800948,0.27387688,0.97050124,-2.2284472,2.4338741,0.25486746,-1.7583791,1.4627976,-1.7586256,-1.6905973,0.69002837,-0.4683148,1.1937559,-0.6090629,0.3380705,-1.2523457,0.4424356,-0.3926178,2.2041984,1.2417817,0.685909,-0.7598686,-1.8820513,2.8423238,0.2773703,0.64575434,-0.24840303,2.8226938,-1.1004347,0.66083825,0.23876737,0.7157309,-0.62520415,-0.20409067,0.0073587615,-0.2860995,1.4829848,2.3873882,0.018364914,-0.030130846,0.57959324,1.8420423,-0.9166747,-0.08387439,0.74491215,-0.4382365,0.7074476,0.10071435,1.2390636,-1.1232537,0.33624858,-0.8569552,-2.4286058,1.121587,-1.4397646,1.2367175,-0.09545443,-1.0687214,-0.54275596,1.4930143,0.11401536,1.6469603,-0.9461085,0.7115711,1.5784872,0.2442067,0.42740244,0.585428,2.1502757,-2.566952,-0.3802014,0.55619985,-0.09528199,2.0701914,-0.9941953,0.579752,1.4497168,-0.7580705,-0.91285616,-0.22703181,-1.6384331,1.1098077,-0.22004244,0.12428384,0.41580594,0.054119304,-1.1646267,0.49212855,0.36709386,-1.5120225,0.044476714
O75865	-1.0974332,0.33041033,2.3996954,-1.8963221,0.25553852,2.4370446,0.38052928,1.2528687,0.5596378,-1.1552092,0.53414655,-0.32499522,-0.39550593,-0.6563034,-0.12133316,1.6041173,-0.14252453,-0.38876736,-0.034904703,1.0152243,1.7949417,0.3017287,1.2345644,1.116261,1.4305633,0.3547911,-0.5585644,-1.9966699,-2.8657377,-2.4062486,-1.3852708,0.21011971,-1.4513007,2.2285855,-0.51707524,0.9321245,-0.7686717,-3.5827384,-1.3688992,-0.25714836,1.358022,3.3414693,-1.1054634,-1.9148235,0.32341066,-1.5106726,-0.0020792098,0.071724355,-0.7509025,-0.39138824,-1.762676,0.9476507,-1.8827695,1.4552321,-0.31843993,1.8454485,0.6855149,-1.0124319,-0.1655865,1.1781882,-0.96357566,-1.5722793,-2.1242795,0.94452417,-0.4627582,-0.857459,1.2961432,-1.2918775,0.56465465,-0.20350896,1.1416482,-0.8299244,1.6364048,1.6279204,-1.6728193,-0.46158975,1.2735995,-0.09579399,-0.65015495,-0.39966843,1.2045032,-2.312282,-1.572686,1.6935161,-0.2600015,0.36664578,0.8647034,-0.71013665,1.4560754,-0.07440592,-1.0221575,-0.90351516,0.009260735,0.68189025,-1.2795491,-0.70042294,2.6315546,1.6798551,1.4445063,-2.6104622,0.3748812,-0.17375247,-0.027056502,0.660788,0.60076314,-0.011279503,-0.5347605,-0.67190367,0.324168,-0.27794108,1.6936185,1.5804508,-0.6129552,2.8324783,-2.7466252,-2.5074782,-0.09588003,-1.5079926,-0.22167787,-1.0566807,-0.6988881,1.0450926,1.003379,-1.0468907,-0.43715706,-1.0948074,-0.30722365,-0.48423907,-0.08729925,0.82113045,0.4143299,-2.786377,0.3506065,-1.7027391,1.9545437,0.30214524,1.8654734,0.17691818,0.8432137,-0.4382408,1.1827233,-0.96297055,-1.0728941,-0.5763554,0.10582523,-1.2957824,0.46377173,-2.769568,-0.50376725,0.1292767,-0.26322156,-2.1936378,-1.4402406,-0.4157514,-0.31420055,1.5697902,0.49960947,3.013908,0.43869045,0.75649846,-0.04328137,-2.1841674,3.5609117,-1.7741423,1.4209373,-1.3052138,-0.20941211,-1.0570586,3.2183228,0.94406086,1.8498182,-2.4893434,1.4851564,-0.25377715,-1.6280357,-1.2205408,2.1481519,1.807607,-2.0256195,-1.0926377,1.0648416,-2.3202589,1.3193219,-1.2374723,-0.6768288,2.1545486,-0.55633914,-0.5657808,1.1505027,-1.1658598,-0.3831765,-2.5765686,-0.015958456,2.172453,-0.6039861,-1.0384107,0.2950602,0.36686227,-1.182975,-0.065031365
Q16526	-1.0684427,-0.09733529,-1.2967399,-0.8146715,-0.17727078,-0.15205367,-0.45251387,0.21807687,0.09602051,0.33895233,-0.41112998,-0.42164397,-0.42905518,-0.8477044,-2.2596338,1.080721,-0.7150589,-1.3877964,-0.53710634,-1.7331301,-0.20247328,-0.92605686,1.0589806,-1.509631,-0.72183305,0.16908874,1.0433998,-0.27166212,-3.5989692,1.5941343,1.5691309,-2.2183623,-1.433554,-0.95064807,-0.37884647,0.2429203,0.4244058,-2.0391853,-2.0409653,0.7017373,0.85844266,1.1731272,-1.5310193,0.31082988,0.8052931,-0.08659889,-0.40950522,-0.09050125,-2.4301205,0.9742781,0.18851335,1.1622437,-0.3616934,-0.35925588,1.1406888,0.85770994,-2.3044267,0.6175824,-0.54645514,-0.3591527,0.68577945,-0.6272064,0.36674228,1.2504067,0.8328934,-0.21549419,0.5752593,0.67129296,0.63550705,1.1626352,0.119983435,-1.1440383,2.6869557,0.53279066,-1.5650543,-1.9644935,-0.6100128,0.45659322,2.5453165,0.68424577,-0.20596775,0.14069319,-3.2946696,-0.62473494,0.5964541,-2.5841553,-0.80034906,-1.8670175,-2.5426908,0.7041713,0.7834844,-1.6800213,1.8768702,1.6861867,-0.52970403,0.63799196,0.11499054,0.598248,1.2753316,-0.13108696,-2.4399827,0.6479054,-1.6736243,-0.47728175,0.90360856,0.48923844,-0.45264003,0.5878463,-0.9387161,-0.10304883,-0.2296462,1.4061967,0.24167766,-0.004051802,1.5074189,-0.6495356,-0.82667935,-0.27366692,-1.3232238,-1.0747328,-0.41421,0.26336917,-3.2153926,-0.98148644,-2.089315,1.1533294,-0.7321733,0.35780156,-0.12489798,-0.7612335,-0.57896215,-1.3813982,1.203474,-0.3163225,0.70282286,0.25458738,1.3512326,1.7509121,-0.6607911,1.3787138,0.79553044,0.36763734,1.3892419,-1.4338965,1.1056476,0.9746259,0.71570295,0.5045535,0.22294962,-2.1123426,0.09136443,0.63241804,0.38002935,0.5268144,-0.29770133,1.0371636,-0.41135076,1.3253272,2.2049003,0.3793992,-2.0939512,1.6726915,0.30919603,-0.8394599,0.35311738,0.504908,-1.2653785,-1.651527,2.2973545,0.545023,-0.12235934,-1.0983952,-0.9152105,0.29468122,-0.14537741,1.9502505,-1.9505931,-0.5964668,-1.9473553,0.8801711,-0.53134894,1.2471632,0.789002,-1.6283002,0.00018940262,-0.6115572,-1.422285,1.1249528,1.1206517,-0.56957847,0.31895044,-0.6196253,1.1072313,0.43975028,-0.40182915,-2.4314587,1.1585368,1.1532838,-1.1458822,-0.9370421
P07992	-0.797769,0.24391676,-1.5392469,-0.72465277,-0.21036384,-0.4266875,-0.9161311,-0.6753255,0.65556717,-0.35294786,-0.47476214,2.1222718,-0.35137433,0.13087378,-1.6137091,0.95010936,-0.1761491,-1.2776,0.3909302,-0.32818106,-0.312368,-0.038828097,0.8007939,-0.7681495,-0.16511479,0.9730416,-0.6092203,0.22154118,-3.140291,0.03035359,-0.40551865,-1.7810377,-1.5921888,0.38823387,-0.045105323,-0.5731176,0.4417993,-1.8533146,-2.5877824,-0.14211874,0.8362513,1.4919888,-2.847785,0.51959103,-0.15201749,0.48972395,0.5928965,1.5406971,-0.40958643,1.2553372,0.47626656,1.1601697,-0.58427083,1.1271391,1.0997233,1.181727,-2.3840826,-0.9129598,0.72165304,-0.36845642,-0.7369971,0.15839133,0.5164924,1.5271921,0.03291263,-0.40859848,-0.10976269,-0.14843968,0.7182289,0.45421863,-1.6832967,-0.8573232,1.134398,1.0303872,-2.0661938,-1.8975827,-0.5186364,0.1678294,1.4272048,0.78255254,-0.071141966,-1.0200012,-4.0719175,-0.61042863,0.3675197,-3.185967,-0.48999923,-2.0383956,-2.1572194,2.3105083,0.21600185,-1.3293594,1.9334244,1.5226163,0.25802508,0.34807095,0.12468231,0.95897335,1.3020332,0.2643043,-0.7829143,1.5960617,-0.795099,-0.37418333,0.7006058,-0.0390971,0.42667374,0.32065204,-0.68516725,-0.19914705,-0.95048547,1.9732059,-0.6956874,0.7405664,1.8473027,-0.6310384,-0.93343407,0.42393664,-1.310664,-1.6855663,-0.69153076,1.4142622,-2.3366318,-0.30897775,-1.5200353,-0.0053371177,-0.87549746,0.23994741,0.18317291,-1.6566533,-0.5060344,-1.9252377,-0.36572412,-0.71917284,1.3620821,1.3359703,1.7668046,0.33612996,-0.9602292,0.5299884,0.80213225,1.4935179,0.6552034,0.6517329,0.8395075,0.38556993,-0.4504421,0.3235634,-0.52310693,-1.4224325,-1.0969836,0.71390885,-0.35965806,1.284679,0.06892784,0.3008084,0.97025096,1.4019663,1.7710351,-0.16411546,-1.6047297,1.2516537,1.2314652,-0.36470017,1.181089,0.26838157,-2.0969634,-1.5749489,3.258001,1.170903,0.091753125,-0.43690112,-1.1010522,0.9477579,-1.1418464,1.7893544,-0.06333669,-1.0293896,-1.5195295,0.9279716,0.23933834,0.9883952,0.004625622,-2.176097,-0.46911862,-0.3932029,-1.8798732,0.047379766,1.0642104,-0.52736795,-0.032827422,-0.12273148,-0.02109681,1.3785503,-1.8553251,-0.75167316,1.0315326,0.6364965,0.12583028,0.12657024
P00480	-0.71281165,-0.35794905,-0.29484284,-2.442276,0.5657372,0.21184,-0.81077325,0.61690253,0.6498411,-0.83623046,-1.2979115,-0.20181876,0.31866968,-0.72338593,-2.184679,1.2368737,-0.40423584,-2.5211973,0.7948584,-0.7717636,0.69043434,-1.8310055,3.3497434,1.1047935,0.8865561,0.9948201,-0.08720634,-1.4858444,-1.0975308,0.7796246,-0.95891833,-1.2717535,-2.5913844,-0.10507266,0.37088656,1.5526977,0.0038209823,-3.3749647,-2.3120763,0.54530823,-0.9203243,2.4919648,0.7221158,0.5646734,0.5712185,-1.9745967,-1.7403845,-0.20343563,-0.9063776,-1.188985,0.57236075,1.3488325,-1.3983631,-0.43687853,-0.5845204,0.16144165,-2.5193813,-0.4615263,-0.8959099,0.1300653,1.2395036,-2.0152192,-1.8134334,0.92473775,0.80162865,-0.23879299,2.0186975,-0.8003733,0.79408723,1.8099875,-0.48220265,-0.45425674,2.7798126,1.4503351,-2.8874772,-1.7175857,1.250502,0.45114088,2.2373827,0.43836462,-0.1450715,-0.2929314,-1.5185626,-0.25863183,-1.0911951,-1.9325317,-0.96102214,0.22404534,-2.734711,0.65105987,0.48672175,-1.1735411,0.13689765,1.7693748,-0.8249069,0.12605943,1.5652453,0.8153544,1.03051,0.043417983,-3.4547322,-0.94022757,-1.2190468,0.6457178,-0.2845152,-0.24048059,-1.174744,0.47064117,-0.262082,0.02943294,0.45991343,1.1339791,0.858496,-0.38162616,0.37879562,-0.7332174,-1.710537,-0.9750178,-0.093266465,-1.5943615,-0.09141829,1.2506262,-2.4540503,-1.2807738,-2.5960622,0.6084017,-1.4932996,-0.6940208,0.53824085,0.856924,0.92168134,-0.8338103,1.0389667,-0.5054672,-0.97173864,-0.26977918,1.7224689,0.48481944,2.6516438,0.0073747262,1.1078774,-0.17626049,-0.17264615,-1.9836236,0.6484915,0.48847368,0.5672552,-1.119951,0.08403397,0.04124157,-0.033339903,-0.6605955,-0.69266504,0.7532753,1.5319026,1.4452177,0.66628003,1.9935279,0.5536497,1.672856,-1.5003629,-0.45344806,0.4079734,-1.6757921,1.6304585,0.9252117,-0.11168689,-1.6117156,2.083029,0.23318131,1.4977028,-0.5556875,0.42262334,0.31119204,-2.003479,-0.60516083,-0.52792674,0.75987613,-3.320721,-0.8409368,-0.14507376,-0.41035792,1.4277184,0.12892388,-0.77917063,0.7474859,-0.98357403,0.40458858,-0.8484162,-0.8145579,0.6523306,-1.0561712,1.4289263,0.95120543,-0.074883945,-3.2591386,-0.10158354,0.53808796,0.830777,-0.7828877
P25789	-1.1905968,0.112282395,-0.20725177,-1.0356464,0.23404317,0.96961707,0.9188421,1.056415,0.15107754,-0.635001,-0.22263558,-0.49870136,-1.4580177,0.08264942,-2.780097,2.0412345,-0.36479115,-2.0619197,0.52860725,-0.39127204,1.2175535,0.61218387,0.5897496,-0.6284127,-1.1697637,0.25620806,0.6694131,-1.307357,-3.0912497,1.7717804,-0.21815394,-1.9315395,-1.9596637,-0.5977155,-0.79583514,1.2287015,1.5837419,-3.0083666,-1.7911785,-0.7980472,2.207294,-0.008159587,-2.2091877,-1.0226076,0.15250246,-0.5749638,0.8395677,0.28510725,-1.8600485,0.9715376,-1.3858382,0.18648118,-1.254796,1.8894235,1.1479837,1.0325747,-0.23052014,0.56465983,-0.4077507,0.057292238,0.76216525,0.6186827,-1.5645654,0.5944369,0.8953961,0.015625717,0.28457215,2.676641,-0.5444853,1.1470683,0.9620458,-1.2899954,2.5498834,-0.7745423,-0.50033987,2.0659847,-0.22660834,-2.757104,0.73218274,-0.5157955,-0.048222464,-0.9930756,-2.3211706,-0.106694154,-0.60585266,-1.9229597,-0.6601464,-1.2991521,-1.2916135,0.37852323,0.04232746,-1.7752763,2.9556892,2.0836568,0.26059997,0.15107805,1.6835209,2.057708,1.2527028,-1.6251724,-1.2019572,0.49133942,-1.22509,0.3523413,0.4784021,0.6373823,-0.48394507,-0.87945265,-0.36166844,-0.7751216,1.9186147,0.5679644,-0.93831795,0.50216085,1.4572818,-1.6912767,0.16386336,-1.2104495,-2.4553683,0.3516092,-0.6072205,-0.8410804,-2.921618,-1.5566258,0.18912165,-0.24744043,0.34807965,0.7388943,-1.1995935,0.95211273,0.68090487,-1.5276384,0.62476444,0.29061466,0.6279212,-0.49921805,2.990905,0.6270607,-2.3794484,1.3562832,0.5934963,-1.4984004,0.5133029,-0.7784326,-0.19903357,2.1197171,1.4245374,-1.2876673,0.4905738,-2.007337,0.42423773,0.16797307,-0.99924725,-1.0617145,-0.6768073,0.5042948,0.68114984,2.7708328,1.1781373,1.6144885,-1.0936464,-1.0543324,0.9269229,-2.0641038,0.8590088,1.088683,-0.76721287,-0.7746015,3.051067,-0.03358768,1.8324264,-2.270806,0.2507321,-2.1482682,-0.7302341,0.76370007,-0.5718908,-0.27840415,-1.9879278,0.3926413,0.6876778,0.8203386,1.4548898,0.45691153,-0.4259535,1.7303469,0.90246373,-0.3249659,0.19169046,0.8692551,-0.013214718,-0.36531898,0.39604527,-0.52720404,0.8215032,-0.8522463,0.82665825,0.7399742,-1.4721452,-0.5215976
P35250	-0.5704153,-0.52007073,-0.9696313,-1.132415,-1.5038153,-0.4670891,-1.1888818,1.173564,0.34731224,-0.7547015,-1.2135545,1.3271511,-1.4220953,0.3585661,-2.6309888,-0.16746126,0.24892128,-1.8679281,1.6361743,-0.33194816,0.6306091,0.08310411,0.055654433,0.116235934,-0.5141176,0.76229334,0.123104,-1.3893281,-3.7825675,0.38362536,-0.69552094,-1.7107048,-0.34742466,0.30395037,0.10645197,-0.9012638,1.5206313,-3.6836793,-1.9534657,-0.94517404,0.72043973,2.3755853,-3.3851283,-0.8234791,-0.18447205,0.28363255,0.83248395,-0.06665702,0.32896474,1.142867,-0.77856123,0.5237076,-1.394502,3.0460932,1.9411145,1.2537371,-2.6240385,-0.8434262,2.0537786,1.1387724,-0.50607944,0.034136355,-1.6183367,1.5782274,0.6733252,-0.5678237,-0.7777275,-0.42346302,-0.46655732,1.4179686,-0.29908675,-0.20782875,2.4775631,4.3187145e-05,-1.824388,-1.9828142,0.5050835,-1.4653274,0.43433526,-1.5518433,0.7461034,-0.79191995,-3.0747316,-0.5143733,-0.39941666,-1.6326927,-1.2274755,-0.6731306,-0.5687071,2.4097426,0.39869547,-1.8893129,0.51120836,0.56792766,0.2921453,-0.30331263,1.8450699,-0.558554,0.59722286,0.7680699,-0.09625999,1.2941861,0.009387291,0.30109486,0.6539561,0.3066877,-0.52995336,-1.4696664,-1.689873,0.21109754,-0.27530265,2.1424198,-0.1201995,1.5482094,1.9671116,-1.073497,0.01195892,-1.2887034,-1.4273629,-1.4445201,-0.96423787,1.0301795,-2.1475942,-0.20706558,-1.9738288,0.56529677,-1.2667487,0.46242127,0.7328338,-1.3760781,-0.20241886,-0.42447522,0.23825195,-1.2741779,1.7697685,2.5156689,1.8909485,0.8265213,-0.5842011,0.85962695,1.4660774,0.67294955,1.1823592,1.4682822,-0.345576,0.16693415,0.50738627,-0.72642374,-1.2731135,-0.5671837,-0.34521288,0.7640247,-0.1828975,-0.19192281,0.26031005,-0.19782828,0.7278402,2.1936307,1.3014474,0.84639066,-1.6834856,0.082311064,2.8512514,-1.6924375,2.434784,0.96837646,-1.1939238,-1.930801,2.9324086,0.73307395,1.6082948,-1.5462588,-1.2786025,-0.021592395,-1.0124427,0.9028212,0.90469253,-0.369416,-2.0700138,1.0799515,0.5177068,0.008519787,0.097495094,-2.7491329,-0.93543375,-0.50452596,-1.8015469,1.1237379,-0.6346637,0.086015485,0.0033753687,-0.89648336,-0.81927043,1.3668967,-1.4620289,-2.3279285,-0.56232065,0.67910165,0.027821012,-0.5121921
P82673	-0.86409444,0.963317,0.22658698,-2.630326,-1.0296204,-0.6187017,0.3877981,0.30519453,0.31967932,0.6872389,-1.0711292,0.04424477,-1.4684294,0.22859249,-1.599937,0.45642728,-0.23384576,-1.460328,0.82595783,-0.1717691,2.5332804,0.46625015,1.9734391,2.3369129,0.7917725,0.20881745,0.28950673,-1.1715477,-2.138291,-2.853521,-1.6595546,-1.1058167,-0.653685,0.23438028,-0.72548753,0.2976574,0.7471433,-3.2610824,-1.3813357,1.2258831,1.7986307,4.0026855,-0.47994134,-1.9235432,0.45736924,-0.90213704,0.2796961,-0.9275353,0.7600652,-1.1602637,-1.5355219,-0.7772932,-0.92745936,0.4960784,-0.98739326,3.407206,-0.71921897,-1.4286411,-0.30405876,1.3795108,-1.2950929,-1.6993601,-0.8483905,0.005542453,0.20608865,0.1554334,0.30335218,0.1697611,-1.2601029,0.0709667,2.486504,-0.023264952,3.767952,0.490976,-0.5117906,-0.9422728,0.6706824,-0.1579288,0.4452826,-1.4753835,1.8375698,-1.5216982,-1.163808,0.14378566,-1.339652,-0.9883362,-0.34553397,1.3192055,-0.022558637,0.9838861,-0.19780912,-0.98755014,-1.5733267,-0.115170926,-0.76838785,-0.66822505,2.9375622,2.1120944,0.07383384,-1.3046376,-0.9671341,0.4173958,-0.6806461,1.3633271,-0.02329974,0.50124884,-0.33441874,-1.4890258,-1.5984014,-0.62676704,1.1137809,0.882995,-0.28844306,1.9098991,1.3956392,-1.5804216,0.52083796,-1.5077077,-0.6749907,0.6567469,0.13135771,1.1489984,-0.49333677,-0.94133073,-0.21912009,-0.91730344,-0.41295254,-0.70875156,0.013863565,1.6645409,0.9395383,-1.987237,1.0824639,-1.6624855,1.9768507,1.6560309,1.7360904,0.32110178,2.7304237,1.4646496,-1.9538858,0.06532926,0.31699353,0.58526266,-0.6676622,0.22376963,0.11535778,-2.2434433,0.98647785,0.6849719,0.2621448,-0.8281073,-1.3580194,-1.6523467,1.4531354,0.91937405,0.47118473,2.1877174,-0.23823097,-0.23511095,-2.2732174,-3.133346,2.5943577,-1.7565112,0.8468482,-1.2576697,-0.04073524,-0.45307556,3.4427328,-0.02017458,2.5905752,-2.0500479,-0.21067342,-1.2698594,-2.107565,-0.9260919,-0.17442511,1.3744236,-2.1035275,0.02787858,-0.10151918,-1.6454743,-0.89274687,-1.3170856,-1.1576668,0.68826616,-1.8045136,-0.4384415,-0.778256,1.3167887,0.49260816,-1.0845469,-0.5058075,1.1745439,-0.54149467,-1.9064227,0.5980426,2.156709,0.574719,-2.116659
P43686	-1.3268223,-0.371986,-0.40116775,-0.8831422,0.5070465,1.990301,1.3193282,1.1117935,0.1257537,-1.0912312,-0.061365705,-0.0677076,-1.3549397,-0.06974233,-2.3918042,2.4285507,-0.37302643,-2.1895647,1.0737683,0.14842482,0.7619701,0.8360574,0.65219885,-0.33154517,-1.3356856,0.015838264,0.48961934,-1.579933,-2.664848,1.682691,-0.48002803,-1.5961413,-1.4282444,-0.284016,-0.35567513,1.0958937,1.4376851,-3.2663977,-1.9418213,-0.62709177,1.827139,0.3859445,-2.3074093,-0.7513879,0.10860529,-0.83198476,1.1861782,0.01430119,-1.844558,0.8213128,-1.3125101,0.41254494,-1.2744478,1.8253206,0.82559556,0.38002354,0.0015817476,0.957594,-0.4138363,0.0008250862,0.58692694,0.89275515,-1.8231163,0.71261144,0.9116714,0.014402145,0.4129511,2.2254927,-0.08661272,1.1327083,0.8123106,-1.3008808,2.1840868,-0.72585315,-0.8739294,1.3464087,-0.17036285,-3.2375717,0.51394784,-0.34363937,0.18378755,-1.2671955,-1.966437,-0.33247215,-0.7043092,-1.5403826,-0.8951413,-1.5027261,-0.73661023,0.61882335,-0.17363031,-1.783352,2.984577,1.5939895,0.20254536,0.4097697,1.5941066,1.3846841,1.3029447,-1.6797177,-0.59514356,0.15006502,-0.93611753,0.517954,0.56056577,0.06810321,-0.58106244,-0.8478705,-0.19070522,-0.4895809,1.6812546,0.5284235,-1.4698176,1.2224827,0.94370556,-1.4176077,-0.16480058,-1.1303906,-2.3195536,0.6219645,-0.6355266,-0.8910805,-2.5235531,-0.9871476,-0.10702437,-0.12816927,0.5800515,0.96953917,-0.7169567,1.0471582,0.30891514,-1.4624667,0.8344711,0.653058,0.48181224,-0.6814943,3.3767934,0.3588643,-2.4347084,0.8650678,0.81121117,-2.039333,0.27149585,-0.35075134,-0.31791258,1.8697972,1.5062304,-1.1798233,0.2996059,-1.9177665,0.787209,0.2541036,-0.71028644,-0.3653733,-0.9524117,0.8435085,0.7242408,2.7709854,1.0454881,1.658812,-0.799899,-0.9447597,1.1223924,-1.8778765,0.7640007,1.0106876,-0.9623023,-0.4155624,2.94736,0.0049323076,1.9534414,-1.6767737,0.7327532,-1.5861512,-0.7174092,0.798593,0.054298013,0.15417013,-1.8969243,0.35925248,1.1790496,0.5841139,1.5967226,0.42436916,-0.25580943,2.157172,0.8079931,-0.2665043,0.08900268,0.32488686,-0.07496518,-0.21041115,0.24155366,-0.50172335,0.14860716,-0.7221545,0.4360807,0.5734419,-1.0117003,-0.10512698
O95168	-1.8402915,0.6900081,-0.2476794,-2.1919873,0.4775184,1.1236119,1.2668163,0.14391808,-0.7526714,0.8770104,0.18685801,0.19513904,-1.5145711,-0.03664459,-1.6695019,1.7761451,-0.8292431,-2.5303504,-0.5791771,-0.92579615,0.59394664,0.9068793,1.2328748,1.43626,0.45450664,0.06902598,0.040345103,-1.0273582,-3.1153507,-1.1007094,-0.2541568,-1.4919108,-0.6118399,0.21510012,-0.50591606,1.2203505,1.0841572,-3.1882794,-2.255254,1.069073,0.7265102,1.8048189,-1.1232784,-2.260557,0.46936712,-0.3935462,-0.6197759,-0.7849105,-1.8407581,0.13367945,-0.8992247,0.63580334,-1.7771727,0.813539,-0.19002536,2.1237063,0.004446,-0.77194136,-0.48492327,0.9142416,-0.5959394,-1.8552063,-0.61621565,-0.45907217,0.3029514,-0.6593792,1.9125704,1.9008917,-0.043211844,0.48459712,2.0157654,-1.2520378,2.817526,0.81812865,-1.7047247,-1.2816045,0.65848637,-0.13580203,0.12242244,-0.95770884,-0.03838927,-1.5997763,-1.6593366,-0.12555632,-1.5068822,-0.5491842,0.20290361,-0.1754268,-0.25950333,0.64205664,0.35155022,-1.6049339,0.27467135,0.9201587,-0.15756536,-0.08680674,2.6688275,2.4107637,-0.05859414,-1.8249451,-1.7657769,-0.49521065,0.28152797,-0.1772775,0.18727535,1.4931659,0.1763769,-1.1766624,-1.6289625,-0.065899745,0.9715875,1.282245,-1.1253017,1.5309991,-0.4733079,-0.86319095,-0.19624715,-2.1473966,-1.7679676,0.5143915,-0.6151725,0.8702371,-1.7495066,-1.468937,-0.02988606,-0.18427725,0.08544432,0.24341096,-0.039970554,2.134152,0.28692654,-2.4234269,1.0942988,-1.4504622,1.6829882,0.84988767,2.0627315,0.7373431,1.025251,0.35747263,-2.0650206,-0.1508181,0.42974526,-1.3808391,0.49348378,0.5439247,0.6103019,-2.2179186,-0.62421876,-0.6476007,-0.05161412,-0.020612834,-1.5063096,-2.3504531,0.38208717,2.2769833,0.07846045,2.4079797,0.23752391,1.2744416,-1.4397713,-2.2571945,1.5484552,-1.7220246,-0.029980714,-1.672749,0.028644383,-0.6384615,3.585845,0.8416107,1.6739379,-2.7575133,0.4797864,-0.7626946,-0.6581765,0.77803487,-1.1191576,0.6917555,-1.4237151,-1.0004524,-0.17362355,-1.440807,0.6922755,-0.27174413,-0.3727445,1.0617474,-0.67615646,0.055524133,-0.5624342,-0.013236444,0.4153793,-1.3647981,0.81461716,0.75313574,1.2411542,-2.5570111,0.9721047,1.749583,-0.6354918,-1.5994776
Q9NW64	-0.5223999,0.7210774,-0.09693545,-1.0604877,-1.3565183,-0.80267036,0.77320653,0.39145023,1.9624618,-1.4981534,-0.7229292,-0.16017288,0.06854245,-1.072907,-1.8305706,0.7022074,-0.72381926,-2.3156147,0.34693086,0.61906964,1.0180436,0.93418384,1.2190741,1.6241639,0.42171672,0.21089701,0.9732064,-0.38573688,-2.9193602,0.054948837,-0.52793473,-1.1886553,-1.4879318,-0.37775022,0.14720276,2.4605691,1.5162362,-3.119496,-0.9291755,-1.7016535,0.4819018,1.2380025,-1.837797,-0.25436887,-0.33476025,0.7413818,1.2913638,0.26929453,-0.26993456,0.96167785,-0.8034067,-0.56221974,-0.8275833,1.827402,0.32738712,0.4649957,-1.814308,0.2374633,0.03613434,-0.63538796,-1.1636047,-0.19535707,-0.25322947,0.57399625,-0.31483516,0.31843522,1.1033612,-0.19580062,-0.09434099,1.8047924,-0.67656744,-2.0263565,2.171886,-0.031180466,-0.820451,-0.3847033,-0.05349666,-1.3014005,2.2064376,-0.9341263,0.80894727,0.7019205,-3.5893157,1.4510826,0.11712597,-0.8045667,-0.8671755,-2.1724343,-0.894584,2.3916914,1.399047,-1.6862233,1.6730579,-0.055063948,-0.89090276,0.49453187,0.7679009,-0.096608676,2.343266,-2.4388685,-1.5420753,0.3905923,-1.5217544,0.60500985,0.16652039,0.19979322,-0.41622502,-0.22591639,-1.0216542,-1.2154294,0.6491834,0.7341831,1.0844166,1.8999554,1.2182026,-0.53061473,-0.024758747,-0.48447368,0.24938883,-0.7829188,-1.0179731,0.6413364,-3.5346541,-1.9717736,0.9339805,-0.072011925,0.6467698,-0.19835103,-0.20063736,0.16642237,-0.9500861,-0.30995935,0.76091725,-0.84795225,2.2113025,0.5141072,1.023921,1.1593697,-1.3065902,1.788621,-0.2370492,-1.56908,0.7205159,0.6058058,0.41999635,0.7269936,1.4037374,1.1190393,0.93139946,-1.5591835,-0.082484335,1.0387565,-0.40661502,0.16026364,-0.6170912,0.2167304,-0.58560765,2.04576,1.2552884,0.545828,-0.40837497,0.83604413,-0.09851211,-2.7454388,0.96576566,-0.40273842,-0.08527791,-1.4474058,3.73823,0.6690428,0.491852,-2.273068,-1.1328756,0.06945823,0.40823957,1.2000043,-0.5235997,-1.1658407,-0.9505933,0.30104032,0.6446868,0.48693436,0.3769492,-0.48323148,-0.2020645,0.14706506,0.5758847,1.1081206,-0.16982265,-6.2537206e-06,0.48426935,-0.14531462,0.10945498,-0.15694527,0.0147823775,-0.32527062,0.29558557,1.1953049,0.0011051544,0.4970928
P31930	-1.4279778,-0.05155151,0.35612592,-2.9788322,0.7422198,1.4719744,-0.026922481,1.4556322,-1.2316607,-0.0027485574,0.101135805,0.21651621,-1.3184317,0.7694712,-2.0071437,1.3766677,-0.27285728,-3.1380131,0.30576518,0.6768702,1.2593268,-0.0139752915,2.2061226,1.372839,0.23001768,0.45370236,-0.74357355,-1.1089036,-2.475418,-0.45930788,-0.02466417,-1.0883977,-0.9257986,0.5178984,-0.3085632,1.1137439,-0.38596874,-3.9719043,-2.6804976,0.9470847,-0.22062683,2.2186763,-0.3073434,-1.8374542,-0.7405669,-0.9287145,-1.3482739,-1.0357872,-0.31191787,-0.7741392,-0.5560066,0.27791917,-0.8622859,1.4626962,-0.4673142,2.562001,-0.50216424,-0.2977835,-0.5775781,1.1261127,0.016510602,-2.1730306,-1.5327202,1.505241,0.88896525,0.03412376,-0.062897325,0.99369186,0.14368547,0.61648285,1.0445294,0.47816405,2.7602966,0.49004334,-1.4314091,-1.0388645,0.0028722896,-0.4495616,1.2779912,-0.5577514,-0.6991907,-2.2864704,-0.8442896,-0.97167206,-1.1588665,-0.2345496,-0.12238571,0.9852314,-1.4378169,0.62133026,-1.247059,-1.9640087,0.99771553,-0.038348965,-0.7687628,-1.0154674,3.094762,1.5356113,-0.10990425,-0.5671524,-2.208994,-0.26316077,-0.95959806,0.08316249,1.1874223,1.0159633,0.15360497,-0.23706415,-1.2990594,-1.1876442,1.0681094,1.0006878,-0.4433904,1.1721864,0.27701476,-0.86079985,-0.8325068,-1.9106678,-1.2126004,-0.5408007,-0.46742013,-0.28385663,-0.39945534,-0.9429204,0.009326759,-0.1932452,0.33443356,-0.05598905,-1.1328369,0.6757571,0.63876027,-2.7896101,0.7826506,-0.381877,-0.17495383,-0.10210592,2.0622256,0.06378718,1.2681274,0.8464434,-0.34971514,0.332376,0.54371923,-1.0527964,-0.47119004,1.6706164,1.0241342,-2.695091,0.09503885,1.657098,0.06574317,-0.5274965,-0.77120066,-0.67040426,1.0653652,2.2967837,0.21811745,2.3685145,0.44321114,1.964283,-0.63483447,-2.5216742,1.9181553,-0.41469008,1.0605034,-1.3151102,-0.31322184,-1.5542772,2.1182294,2.0806444,1.9185559,-1.2745712,0.21737534,-0.60550946,-0.80859166,-0.69019824,-0.17446658,0.13865684,-2.5416808,-0.79077,0.1187707,-1.396374,1.1673964,0.34271416,-0.9136654,1.9023367,-0.3905436,-0.26983795,-1.6021984,-0.93316877,0.084376946,-1.2581282,1.073015,1.1930083,1.6268471,-1.981816,0.86015856,1.1688296,1.451527,-1.1935675
Q99741	-0.5326171,-0.8948362,-0.82513577,-0.04015736,-0.7422086,-0.1379177,-0.9912711,1.4705608,0.7063285,-0.040458266,-0.16470787,0.42308235,-0.98587626,0.3363454,-1.9256105,1.3453764,0.29637575,-1.6787219,1.3375763,0.078786984,-0.33885348,0.23965698,-0.117671974,-0.26136503,-1.3202674,0.29563493,0.28652453,-0.80827916,-2.3239357,1.4912882,-0.42860433,-1.3509947,-0.41085434,0.55849123,0.9921562,-0.16758604,0.71652174,-3.8051736,-3.2838938,0.035266284,1.0869565,2.1167223,-3.2787876,-0.30583814,-0.12633121,-0.09723561,0.8061372,-0.059003532,-0.88014877,1.1019887,-0.530599,0.36569273,-0.97329193,2.114673,1.0918257,-0.14594136,-0.62783796,-0.54523516,1.3175166,-0.10922051,0.34325477,1.4202415,-1.7024114,1.4154541,0.4777159,-0.61302936,-0.13779919,0.59552646,-0.06116512,1.6007006,-1.1235977,-0.91480696,1.5009291,-0.70510703,-1.9905592,-1.1248175,0.13188522,-1.5518936,-0.009677389,-0.09853469,0.9835388,-0.173833,-2.495508,-0.071871646,-0.7172801,-1.8716267,-1.3030132,-1.5255791,-1.281197,2.5759113,0.6849675,-1.8085154,1.5952896,1.0407338,0.4165588,0.3259842,0.32270882,-1.0936404,1.0744174,-0.24661478,0.5188952,1.4884621,-0.94600815,-0.39743066,-0.78501093,-0.3043302,-0.026242556,-0.29721582,-1.2789665,-0.98594695,-1.2767457,0.77520925,-0.31027383,1.4855502,1.9223812,-1.6525359,0.35287473,0.25287393,-1.6542443,-0.7242082,-1.1253765,0.19789292,-2.3891807,0.6036102,-1.4010242,0.5695031,0.0075734765,0.26794925,-0.5668483,-0.97667027,0.26643416,-0.3234876,1.060804,-0.15079926,0.9460096,1.7381833,2.0389545,0.5625514,-1.2711728,1.1028659,1.7949402,1.1217988,1.1107653,0.6550394,-1.0921466,0.33538088,0.7074905,0.55667037,-0.6068475,-0.71059644,0.0012660567,1.0884222,-1.0390295,0.74679416,0.17782974,-0.059284832,0.9738167,1.517542,1.0401691,0.7173307,-1.0327597,0.76249397,1.9860078,-1.7237221,2.0910978,1.3214273,-1.1798842,-2.05634,1.9533955,0.5294218,1.0679454,-0.48486644,-0.022051614,0.46259347,0.22283505,0.78177625,0.6164996,-0.66058487,-2.0275066,0.9623204,1.1664933,1.0868772,0.60605925,-1.9508325,0.19474976,0.7406827,-0.92696285,-0.17110816,0.94117224,-0.39863017,-0.13670217,0.114712015,-0.46329486,0.5091215,-1.3862646,-1.5137951,0.83472884,0.14505629,-0.78472507,0.42483136
P18206	-2.214811,0.7794566,-0.0052149785,-1.0921838,0.44201577,1.3775288,0.32914472,1.4339944,-0.34076884,-0.18500167,-0.25397965,1.7679204,-0.72661006,0.16401973,-2.048075,1.6391335,0.03842505,-1.9559355,1.2354761,0.3971015,1.3189946,-0.32289484,2.2611268,1.5480678,0.1289826,1.2333118,-0.01544426,0.68059427,-0.5088014,-0.302004,-0.4776318,-0.5074799,-1.6152214,0.55211586,0.6826463,1.1368824,-0.5057682,-3.1651492,-2.36423,0.9383388,1.098049,1.0534849,-1.6490443,-0.342704,0.20303409,-1.0998243,0.55919755,1.337718,-1.4541653,-0.7918807,-0.50007206,0.35994,-1.7608154,1.2848698,-1.1431589,0.39145693,-0.01736139,-1.6054099,0.51394254,-0.34671217,1.3282387,-0.79085463,-1.6725528,-0.06624343,0.15267037,-0.8869219,-0.9449568,0.10260867,-0.07217999,0.6254493,-1.2634077,-1.597177,1.3736862,0.8770111,-1.6173216,0.39243513,1.0848849,-0.5609385,0.91082203,0.08182087,0.8430942,-0.5367903,-1.852053,-1.0158101,0.15435493,-0.7264534,0.16929471,1.0758301,-2.2309124,1.1970286,-0.83730125,-2.0145853,2.4237697,0.8246577,0.3894024,-0.090358794,1.8387886,0.7448106,-0.18982653,-0.52090806,-0.17656507,0.09749095,-1.1155822,-1.02387,-1.6939479,0.024410088,0.44222736,-0.38023522,-0.4470667,-1.1082782,-0.8202375,0.66229904,-0.5660534,-0.5796274,0.49111202,-0.31044418,-0.97569156,-1.5576773,-1.000624,-0.09462702,0.12083687,0.16350009,-1.5427818,-1.0853387,0.35081103,0.35992423,-0.77791774,-0.96332437,-0.49658322,0.56856036,0.60641843,-0.18806276,0.30742565,-1.0638965,0.1384845,1.1459144,1.1206434,-0.82379496,-0.84549826,0.7237301,-0.1339125,1.5916057,-0.031373233,-0.5359142,-1.4169469,0.95848405,0.48771667,0.22153026,0.102963336,-0.31766537,0.5140081,-0.35546377,-1.9722607,-1.0563794,2.4613738,0.9174168,-0.74105275,1.9937149,0.32824,0.017753035,-1.1957059,0.5059038,1.5728871,-1.5766307,1.7194304,-0.6038411,0.123346664,-0.84902096,1.3062406,1.1122307,1.468145,-0.30601948,0.9031333,-0.6193472,-0.40811336,-0.75934225,0.1684527,0.17177378,-2.3481884,-0.7692085,0.008683818,1.4180079,0.9676236,0.7802085,-0.28812495,2.5280173,-0.56195,-0.9270129,-0.20918126,-0.39173284,1.3494867,0.01894986,0.47223288,-0.2526648,0.20815943,-0.64531326,0.8261013,-0.43462515,0.6433837,0.7130473
Q96EB6	-0.34039405,0.34437525,-1.4537287,-0.2568689,-0.4603685,-0.074079454,-0.1074212,0.3103811,0.5803958,-0.2140073,-0.17045313,-0.09740242,-0.529395,-0.35124314,-1.5091599,1.2124346,0.09735967,-0.5732664,0.096044004,-0.3557351,-0.027809134,0.49133596,0.1448063,-0.44931734,-0.96790045,0.5862906,0.43297398,-0.57598555,-2.499302,0.7618655,0.016754666,-1.9015313,-1.2969925,-0.38704225,0.037513483,0.13939007,0.49348205,-1.6218241,-1.8522626,-0.1572287,1.0185193,0.6335182,-2.302736,-0.32645836,0.6249516,-0.23763251,0.82518023,0.826825,-1.4898063,1.3064601,0.07625243,0.4273856,-0.1143893,0.3047694,1.2746043,0.49364653,-1.4082973,-0.45882562,-0.35011724,-0.24461168,-0.2535122,1.1493256,0.3801361,1.09666,-0.1715565,-0.10046235,0.5662347,0.6273647,-0.21338315,0.59215057,-0.39381367,-1.2507647,1.1942067,-0.4618927,-0.62562305,-0.9488648,-0.4580607,-0.81450516,1.2599571,0.9149764,0.4310404,0.1121704,-2.7337492,-0.72411376,0.17725445,-2.3238053,-0.42924294,-2.4396832,-1.4361572,1.0435698,0.5192993,-1.1821452,1.6270043,1.1781301,-0.13747558,0.93031204,0.29201338,1.1983857,1.575799,-0.55911374,-0.8386254,0.8587594,-1.0184873,0.02659031,0.19214372,0.13987952,-0.73994684,0.23842545,-0.5186293,-0.26367995,-0.06911371,1.1810426,-0.63948876,0.79105055,1.892695,-0.37816387,0.026941212,-0.4123264,-1.6742398,-0.86693805,-0.8035887,-0.0456647,-2.0106223,0.07131888,-1.200138,0.31594908,0.23304924,0.90599495,-0.47357637,-0.11080088,0.16152775,-1.120173,0.83212894,-0.33180875,1.8262925,0.23848155,2.1303494,0.54295,-1.6177094,0.8961374,0.50278026,0.5783711,0.40084302,0.013888308,0.921904,0.9013042,0.41042295,0.34501392,0.1419567,-1.5358295,-0.14282565,0.250848,0.20797968,0.6821211,-0.14269565,0.014287277,0.39723858,1.2562416,1.6262189,0.45670542,-1.1281847,1.1905805,0.19647908,-1.1647873,0.21606548,0.5055601,-1.1387084,-0.93216926,2.167939,-0.03252907,0.6279203,-0.8291173,-0.36714336,0.008274798,-0.6197785,2.054105,-0.94223696,-0.40362796,-0.9857832,1.0294219,0.047139604,1.3763794,0.66792065,-1.505388,-0.444666,-0.23475282,-1.1424867,0.048218388,0.74971,-0.1670851,-0.07523403,-0.16789488,-0.27089828,0.35673025,-0.29174927,-0.45868587,0.97816604,0.6860504,-0.49870583,0.23297334
P48556	-1.3988036,0.017906602,-0.33320206,-0.8920197,0.33630034,1.3843774,0.79969037,1.2750633,-0.3082529,-0.5616976,0.2577368,-0.5499165,-1.7481825,0.5821795,-2.8486626,2.3027544,-0.05087204,-2.011435,0.6395585,-0.25290826,1.2364488,0.9087353,0.610461,-0.78266126,-1.1948148,0.18484029,0.48357132,-1.7355185,-3.1842506,1.8007241,-0.25072542,-2.0136313,-1.8699971,-0.35522395,-0.3274928,1.3569006,1.5186557,-3.747887,-1.9168304,-0.9627798,1.7566707,0.1259365,-2.0292218,-1.1455961,0.29319295,-0.7756995,0.9233626,-0.12421232,-1.6207346,0.9665269,-0.9148315,0.1664957,-1.3069046,2.1700413,0.9267322,0.8407611,0.0637819,0.3221167,-0.23451547,0.34800017,0.35197088,0.46171206,-1.6278106,0.7426657,1.0267328,0.08747153,-0.15477163,2.613611,-0.71937233,1.7590764,0.79881,-0.9979966,2.6847243,-1.2486407,-0.5180404,1.6241158,-0.07307735,-3.2344358,0.33748505,-0.56163055,-0.36379153,-1.1683977,-1.901719,-0.5257554,-0.6853068,-1.3728415,-0.5529001,-1.2647989,-1.3913324,0.69751817,-0.47983086,-1.7657452,3.0957823,1.9602941,-0.17686544,0.14881098,2.3206308,1.9640949,1.6329752,-1.4621205,-1.4895104,0.5292682,-1.167839,-0.0063857306,0.18920079,0.64102006,-0.57455385,-0.90159684,-0.54029536,-0.78580403,1.4564611,0.54931074,-0.8562725,0.92823106,1.2298288,-1.4287255,-0.17619523,-1.150885,-2.805959,0.32832035,-0.7487481,-1.2384856,-2.4243793,-1.2826837,0.41566736,-0.01833946,1.0409958,0.74877447,-1.5831964,0.818819,0.7035826,-1.5784277,1.065052,0.27435926,0.33935672,-0.50528944,3.1535301,0.80354756,-2.396879,1.5178752,0.84307534,-1.5009556,0.61204654,-0.98010373,-0.5761551,2.0897138,2.0475695,-1.6126004,-0.10784162,-1.9358008,0.38280165,0.31757072,-0.5683957,-0.7909591,-1.0899212,1.0283749,0.75083417,2.6256182,1.3183258,1.7463523,-0.6248791,-1.0280129,0.83436364,-1.9055102,1.2192898,0.88197446,-0.89915085,-0.48933145,2.2740757,0.31470653,1.8859316,-2.072939,0.3681785,-2.2120795,-0.32624495,0.798627,-0.081041776,-0.11987686,-2.072035,0.384307,0.4437165,0.6126018,1.6365454,0.40263557,-0.39368287,1.8056573,0.76961726,-0.32440397,0.010094122,0.5079354,0.17736483,-0.289733,0.4170958,-0.3295446,0.63312185,-1.0796127,0.780152,0.7405581,-1.5180651,-0.26007324
P30049	-1.7601119,-0.3286374,-0.6440748,-2.1158588,-0.99884725,1.0544131,-0.7062679,1.7635635,-1.309818,0.7739312,-0.61896235,-0.27024525,-2.0789628,0.5629987,-3.7708633,1.1675624,-0.25775754,-3.3767922,2.153247,-0.2818854,1.1741184,-0.9757765,2.2831142,1.6480584,0.26118064,0.75968176,0.1126553,-2.618812,-0.99299854,0.09108183,-0.9424478,-2.2496417,-1.9972788,-0.25199038,0.5428881,1.1629531,0.49873808,-4.3751616,-2.1731324,0.2592345,0.15713134,2.3145583,0.38635927,-1.8843006,0.28540027,-1.9676625,-0.5019575,-1.2039894,0.36046475,-1.479458,-0.99154705,0.33065575,-0.3013327,0.90619266,-0.41481516,0.06524827,-1.2321045,-1.6702902,0.38039234,1.593833,1.0964515,-0.7436923,-1.8199477,0.7898329,1.041624,-0.22303797,-0.31306228,1.1613021,-1.3189068,1.1891379,1.844754,0.37960872,3.1236095,-0.13445912,-1.2756106,-1.2119218,1.8543079,-1.3247335,0.9237802,0.13409813,0.7993053,-1.1294696,0.08218666,-2.1954348,-1.8560356,-0.45839682,-0.45861533,1.0578979,-1.0859683,-0.32908708,-1.4123114,-1.3932074,0.1571858,0.13769458,-0.1542542,0.070760325,4.4559917,2.1849189,0.421585,-0.25360528,-2.2732127,-0.27580908,0.50008047,-0.19401179,-0.62557536,0.9319612,-1.5507873,-1.2806137,-1.3430315,-0.19409026,1.4629804,1.2844312,0.08925987,0.2517434,1.1952109,-0.30673063,-0.5798331,-4.048672,-2.154673,0.17962281,-0.07901762,-0.6020654,-1.0929184,-0.19438168,-0.86665225,1.3473674,-1.1662871,-0.57230073,0.3296882,1.2133448,1.1846613,-0.4426209,1.0072674,-1.3155066,-1.1555573,0.70954055,2.9971874,-0.9677861,2.316122,1.2746544,0.2558191,0.49967113,-0.40203944,-1.5503081,-0.77245015,2.334924,1.392464,-1.4565179,-0.484471,1.1252953,1.0981048,-0.32256085,-0.91352713,-0.62524086,2.284801,1.6439722,-0.0640052,2.0317254,0.26774463,1.1300815,-1.7307253,-2.2618632,1.3625672,-2.6215444,1.5806855,0.36412665,-0.022012277,-0.99459666,1.5379564,-0.0907709,2.8561268,-1.5875963,1.1976918,-1.5215666,-1.4129473,-1.1280339,-0.4050069,1.6833464,-3.6241355,-0.9423661,-0.46895686,0.10666469,0.7627744,-0.03622281,-0.8835556,1.2181239,-1.3868788,0.85979915,-2.1205454,-0.141539,1.6286291,-0.32555482,0.7093291,-0.25130305,0.78933287,-2.9092622,0.20479591,1.5323883,0.16161256,-2.2440429
P17568	-1.8429885,1.0335765,0.50348735,-2.1332302,-0.15797074,0.7429763,0.5675575,0.49046063,-0.82373995,1.4751649,0.40367934,-0.53718895,-1.4956137,0.4155283,-1.906869,1.6079988,-0.8258911,-2.349153,-0.111556925,-0.34169644,1.1359646,0.19777557,1.5439342,1.2888587,0.60991436,0.3839918,0.3361189,-1.513151,-2.720245,-1.1179363,-0.5252878,-1.7156609,-1.4051353,-0.13461475,-0.25055745,1.497307,0.77280474,-4.037968,-1.9072584,0.3638754,0.8244716,1.9714638,-0.57597953,-2.545846,0.7445366,-0.7511182,-0.30626473,-0.90961456,-1.3607554,-0.40053445,-1.0851582,-0.04462347,-1.2086294,1.260882,-0.6281645,2.1507728,0.30696258,-1.5538044,-0.5802754,1.3383046,-0.49936256,-1.391916,-0.75928074,0.02255298,0.27790055,-0.31846738,1.4548364,1.8863456,-0.7085536,0.79011387,2.5626783,-0.2340919,3.327854,0.4102945,-1.2772913,-0.096161366,1.0253586,-0.5602926,-0.08911962,-0.883672,0.8641015,-1.4147247,-0.75969756,-0.39706048,-1.5712109,-0.87231183,0.33609357,0.29041007,-0.46146798,-0.10851521,0.14008763,-1.5616978,0.45575514,1.1644841,-0.24233787,-0.12597507,3.4782882,2.982803,0.6760201,-1.687946,-2.028221,-0.3598248,0.24887098,-0.33556283,-0.9121398,1.4045143,-0.3440774,-1.53917,-1.4822564,-0.8044268,1.2293537,0.86587614,-0.6202071,1.4248825,-0.28504446,-0.85750604,0.5588394,-2.456266,-1.8524323,0.6363983,-0.3618738,0.2938913,-1.5283451,-1.6831018,0.5379705,-0.3852362,0.55566883,-0.13949938,0.003852364,2.120802,1.2843503,-2.2209654,0.9966034,-1.654532,1.2543756,0.3922294,2.1518857,-0.111733675,1.5619504,1.0415852,-1.7992901,0.08882813,0.33084047,-1.7092917,-0.17357561,1.1344527,1.0699894,-2.6737404,-0.49228406,-0.47000322,0.18412344,-0.38584512,-1.4807596,-2.4294121,0.57442206,1.9816897,0.2632809,2.442633,0.27896437,1.3233742,-1.261113,-2.5080168,0.8147447,-2.2337463,0.46768877,-1.2352089,0.41863054,-0.06499865,2.7231603,0.5358372,2.3426287,-2.8433204,0.72292894,-1.708735,-0.87038887,-0.5612655,-0.7566359,1.5946295,-2.1139076,-1.2086108,-0.5066093,-1.2811738,0.62146837,-0.09793702,-0.5747316,1.269935,-0.5498833,0.35773084,-0.9427905,0.8183076,0.70232457,-1.2684871,0.62358654,0.27844942,1.2395595,-2.101527,1.024811,1.5179629,-0.90444404,-1.7527828
P62318	0.33718315,-0.39608282,0.49902308,-2.216062,-0.9696554,-1.238594,-0.50907904,0.6193753,0.9290691,-1.229379,-1.0817567,-1.1877105,-0.6575448,-0.0148570025,-2.6432586,0.11401192,-0.75610787,-2.706442,0.85727584,0.915432,1.5108273,0.22230747,2.378707,2.307706,1.4097747,0.620535,0.13297261,-0.96667993,-2.137697,0.48617646,-1.9191339,-1.0664473,-2.071898,-0.0518736,-0.4588412,2.622549,0.8265794,-3.7591517,-0.6076846,-2.318505,0.6235331,1.8424324,-1.9716195,-0.6534381,-0.9877846,0.849515,0.61416394,0.23728748,1.382873,0.91576916,-0.78569674,-1.4052845,-0.3553982,2.1515265,0.22585876,0.6227371,-0.57809645,-1.0277823,0.1860758,-0.36750922,-1.9263442,-0.90205395,-1.2193456,0.79843354,-0.58591527,-0.31140524,0.24074414,0.39595315,-0.3487597,1.8282869,-0.8804848,-0.6651209,2.6930327,-0.6750404,-0.69142395,0.8052495,0.99008447,-1.1209284,1.6257205,-1.2086638,0.9173066,0.27356005,-2.2874384,1.1854092,-0.47838566,-0.8334252,-0.81242394,-0.7171577,-1.7101209,2.3581412,-0.04418739,-1.8762171,1.6344093,-0.77001137,-1.4515646,-0.05606844,1.5104042,0.4652907,1.7226983,-2.2327101,-1.5246439,0.6344431,-1.5532298,-0.09880327,0.12741356,0.7613545,-0.43940222,0.6155841,-0.24383678,-2.3638422,0.89971364,0.5792506,1.03956,1.610557,2.01244,-2.0021179,0.66193396,0.7189672,-0.45670217,-0.7467239,-0.93086815,0.7266746,-2.2944522,-1.3683603,1.1561016,-1.027346,1.0158635,-0.4369253,-0.47326964,-0.10785277,0.16093573,-0.8034463,0.06616732,-0.85446614,0.94702363,0.54891634,1.2464616,0.9526572,0.5484616,1.8256654,0.27037275,-1.1243485,1.4385816,0.4127155,-0.6104314,1.4553593,2.0915136,-0.24078609,1.0895799,-0.054991283,0.022336375,0.72953457,-1.5998672,-0.9912359,0.33058867,0.27422723,0.49377885,2.0579112,0.31545612,0.26516023,0.4431408,-1.2618673,-0.3405714,-2.6269817,1.7691321,-0.5368293,0.8124636,-1.6809467,3.6576753,1.4187019,0.9741478,-2.4884825,-1.4758165,-0.09369861,0.17922401,-0.58483064,-0.3877322,-0.80551153,-1.270022,-0.2739992,0.40035024,-0.109066255,0.21690364,-0.1773992,0.12139304,0.6270131,0.5428831,0.6757646,-1.3469704,-0.1286028,0.77388287,0.3032821,0.48560527,-0.05469838,0.6453317,0.24726588,0.9417539,1.0139399,-0.15762621,0.23606767
P33992	-0.46329975,-1.6368439,-0.69186634,-0.7471903,-1.0548084,-0.079149805,0.20305155,1.2638038,0.7996485,-1.1646498,-0.7575886,1.298274,-0.3095605,0.46587354,-1.2747912,0.79265416,-0.65477884,-1.278422,2.5503414,0.50932413,-0.11713591,-0.10700484,0.23365027,0.6395657,-0.23416828,-0.65655726,-0.9583338,-0.7746719,-3.2982726,0.50487554,-1.4067472,-0.4402867,0.19188623,0.618558,0.8889778,-0.4388662,0.65459436,-3.7786386,-1.920009,-1.007118,1.2184908,2.39845,-3.924733,-0.5591959,-0.76060057,0.6817841,0.20021927,-0.40803665,-0.0068002683,1.6840476,-1.628223,0.2811249,-1.3483381,2.6509802,0.71239024,-0.12770687,-1.223385,-0.21389957,2.1829,-0.109364524,-0.41793793,-0.25250855,-1.1113364,1.3257885,0.09860136,-0.89495546,-0.430836,-0.36766484,1.0602388,1.3401524,-1.5097818,-0.996573,1.7016308,0.36716667,-2.3242843,-1.3949375,0.26133493,-1.2496293,-0.18073858,-0.7820332,1.0902189,-0.8289961,-2.3641877,0.20781821,-0.21848011,-0.5165959,-1.7384232,-0.9503826,-0.2836392,3.7953324,0.62039447,-2.477613,0.70985883,-0.74465656,0.3380016,1.138409,0.55005956,-0.7400101,0.34327802,-0.42209342,0.6688431,1.3476511,-0.042277068,-0.20284437,0.43713087,-0.49105406,0.5461492,-0.5737878,-1.1495045,-0.42625347,-0.7014914,1.9265721,-1.3743589,2.2986393,1.534295,-1.7972143,0.19859295,-0.7236051,-0.82556516,-0.9923099,-1.3979797,0.8155248,-2.861905,-0.29380113,-1.1249021,0.16188182,-0.093353055,1.0724324,0.7494997,-1.2041006,-1.569667,-0.65097636,0.39955434,-0.017323073,2.0102596,2.2304125,2.0547645,0.37488383,-1.5605576,0.1121844,1.276547,-0.0019778928,1.6161422,2.4587822,-0.8706403,-0.38736573,0.744207,0.09210915,-1.435659,-0.3417346,-0.91849625,1.2167871,-0.59535843,0.31173557,0.45718586,0.532925,0.92293274,1.8839782,0.16628642,0.15426978,-0.7394996,-0.32213363,3.0397227,-1.0154196,2.5414267,0.5394186,-0.78676254,-1.460713,2.8580904,1.6605874,0.9621107,-0.75791603,-0.86887276,1.7638409,0.01739126,0.50924236,1.2838868,-0.29019907,-1.867376,0.74033374,0.7711578,-0.1437285,0.69052863,-2.143314,-0.028855752,0.12759404,-0.74970627,0.22049622,-0.5927143,-1.2122746,0.11163454,0.12727104,-0.3653287,1.4792181,-2.0665064,-1.2115254,0.15390779,-0.31750757,-0.59033716,0.019289594
O15371	0.21982127,0.30677137,0.35606202,-1.8960505,-0.49064615,-0.6455517,1.5844508,0.7066185,0.8128294,-0.5182066,-0.67578906,-0.71096647,-0.123241305,-0.7630675,-1.7442611,1.0283934,-0.8370202,-0.8981527,1.7050185,1.144675,2.075101,2.2557538,0.625454,2.5081115,0.68089247,0.21634926,-0.18004712,0.49100846,-2.1080356,-1.525663,-2.321902,-0.12013691,-0.091512404,0.50510114,-0.4607628,2.4219136,0.24614161,-2.792241,-0.62611365,0.4603341,1.7390538,3.409351,-1.4650285,-0.85336787,-0.72808397,-0.60222447,1.1827265,-0.86148566,-0.5321688,0.2804204,-2.7932737,-2.0236404,-1.3373904,1.1047895,-1.9411306,1.6040759,0.8764804,-1.7724334,-1.2108107,-1.1095,-2.260207,-0.84051806,-1.1929051,-0.2999275,-1.2847694,0.29979688,0.8496267,1.0566144,-1.0157386,-0.2550973,0.4507399,-1.8651052,2.5659466,-1.2346636,0.32070398,1.159983,0.5831955,-0.47216132,-0.26486483,-1.215789,2.4180071,-0.29871643,-1.1153176,2.329574,-0.5225806,-0.72936845,0.24114168,-1.161638,0.28372598,2.7755961,0.61716574,-1.6037719,0.11789213,-0.6663577,-1.7440082,-0.0133503955,1.0876137,1.1051569,0.6869658,-2.9449124,0.90884185,1.3025243,-1.0740422,1.1070895,-0.8719091,-0.069100946,0.105632596,0.91168094,-0.7651063,-1.2612675,0.82307976,0.10629641,-0.7249033,3.2276123,1.5114441,-3.0521383,2.03593,-0.010224853,1.1259773,0.51897466,-1.1122953,0.7728022,-0.7033766,-1.0483559,1.0145317,-2.6183822,1.5623755,-0.35239363,-0.29023778,1.8746127,1.57435,-1.2587763,1.4991075,-1.2427381,3.8033335,1.054941,1.6969134,-0.1319887,0.21508147,0.27968013,-2.3521519,0.5051428,0.6362775,1.3066795,-0.4241981,-0.72254205,0.927956,-1.1747248,1.1268606,0.4013533,0.339164,-0.5340308,-2.0719259,-0.50771195,0.6795164,1.3943521,0.71964604,2.5682619,-0.8136426,-1.0987377,-0.90994155,-1.9932052,1.6189638,-3.951203,0.799264,-1.5020633,1.8038061,-0.38504058,4.6141133,-0.1416795,2.0110517,-2.486423,0.48761424,0.48360544,-0.11135734,-0.16679443,-0.38001785,0.6232633,-1.1306616,0.6086776,0.12275681,-1.5386131,0.36053556,0.06867523,0.59902793,2.4103878,0.24203469,-1.320856,0.95132595,1.3966589,1.0721315,-0.35142034,0.16792265,0.059841722,-0.4791373,0.090747856,1.4253473,1.5498457,-0.5008822,-0.14764255
P62877	-0.787196,-0.4224747,-1.247264,-0.956934,-0.203216,0.73180556,-0.1555787,0.45871097,-0.38409302,-0.6116351,0.0018304215,0.7560143,-1.420571,0.86687154,-2.641754,2.360291,-0.43199813,-1.8737884,0.8487518,-0.03335809,-0.19268838,0.42240247,1.1445175,-0.4190617,-0.81710696,0.6332396,0.12081611,-1.3815975,-2.9756353,1.417963,-0.89902985,-2.2490647,-1.448794,-0.5814659,-0.2573496,0.89678925,1.4215908,-2.5986183,-2.4625025,-1.2950845,1.1366205,-0.074216306,-2.9981294,-0.6036318,-0.07792765,0.2714994,0.4173292,0.46035287,-0.8961577,1.5016911,-0.13309139,0.7349467,-0.5980878,1.8825569,1.7929353,1.0901823,-1.4800375,0.4272099,0.44876787,0.25368723,0.11826451,0.36040586,-0.5505311,0.8856769,0.02905387,0.17516011,0.533579,1.8724465,-0.3810972,1.1622852,-0.10212793,-0.82374537,2.4812965,0.3704093,-1.0990641,0.39282742,-0.9252506,-1.9862015,0.4280762,-0.22568628,-0.040176257,-0.99230826,-2.862682,-0.9302933,-0.66784304,-1.7345635,-1.0236024,-1.9697658,-2.280819,1.0052058,-0.0752728,-1.8658606,2.8163276,1.1705794,0.34922713,0.55622107,1.4812019,1.6148117,0.43233147,-0.805004,-1.7239954,0.50591654,-0.9715775,-0.05005471,1.1764611,0.8464435,-0.31182116,-1.0494456,-0.3847087,-0.4079094,0.9796564,1.0814114,-1.1576325,0.9583044,2.1710753,-0.43470564,-0.17646772,-0.8183673,-2.6395783,-0.26585108,-0.74980956,0.022541385,-2.665452,-0.9250329,-1.1004246,0.059386272,0.45457152,1.3267902,-0.25141367,-0.17125277,-0.47369006,-1.7380557,0.6427573,0.91569567,1.1654679,-0.70853174,2.9077778,0.79902726,-2.641767,0.8435638,0.759976,-0.48261303,1.3918707,-0.054860342,0.50031424,2.8434148,0.9766059,-0.68100536,0.09150668,-1.5324755,-0.09447517,0.92744833,0.24056938,-0.65239096,-0.64728683,0.67985374,0.9983147,2.5797606,1.2584976,1.4241036,-0.8493693,-0.7162148,1.0326306,-1.4518856,0.4378071,0.8380545,-1.4514356,-1.1090705,3.3595722,0.7233244,0.6815222,-1.7031478,-0.41542748,-0.3506364,-1.2947685,1.7697359,-1.1527581,-0.6536423,-1.2587842,0.2137283,0.6177467,0.6445992,1.337993,0.033295244,-0.9676787,0.3046422,-0.37264884,0.46402127,-0.6555465,-0.50878674,-0.08000083,-0.13255264,-0.10868975,0.108856626,0.13024785,-0.9567441,0.8498054,0.23981953,0.15218721,-0.80281913
P10144	-0.39699066,-0.57576483,0.39826453,-0.1579796,0.23151925,1.1871558,1.563203,-0.071266875,1.4792613,-0.96205187,-0.8862238,0.08713071,0.17838003,-2.2743149,-1.8271738,1.3507475,0.19351299,-0.9144233,0.8315888,1.3515763,1.139874,1.7899916,0.15835044,0.037476398,-0.15461104,-1.3415833,1.2651244,0.07330777,-2.3730097,-1.0091237,1.6345308,-0.9785627,0.20069797,-0.30841926,-1.2495289,0.16952725,0.2683142,-1.2103775,-0.7981341,0.4654231,1.9349077,2.4919329,-2.9072483,0.029371014,-0.51567006,0.12420351,1.7319397,-0.73860633,-0.47919738,1.767855,-1.9150488,0.47468787,0.85950965,0.77119917,1.3039109,1.0813851,-0.24421693,0.85494524,-0.1098753,0.10309124,0.16823915,0.8415224,-0.56148434,1.1025118,-1.0986036,-0.044593953,1.1742804,0.011081145,-0.20189367,-1.5600419,1.6717181,-2.458714,1.526309,0.308011,-0.08481465,-0.008410344,-0.8010799,-0.6242905,-0.5350394,0.4392062,1.8145223,-0.59651744,-2.661233,1.2429756,-0.0954443,-1.0519654,1.1977232,-2.1564457,1.8180606,0.44440714,1.0024033,-1.30849,0.7603038,-0.64036065,0.060202967,0.5110233,-0.15064721,0.83182174,0.8743365,-2.5011864,1.5360719,-0.25942862,-0.003700788,1.6466386,0.696466,0.53302264,-0.409993,0.24729185,-0.71654576,-0.83467716,1.9045112,0.51507086,-0.6584911,2.886984,-0.73410046,-1.7645437,2.5176466,-1.2541476,0.005555083,0.26783293,-1.1588032,0.3976676,-0.7824191,-0.991088,-0.12281694,-0.9194689,-0.6364641,0.2909845,0.6334768,0.8505366,0.14048699,-2.2375767,0.94339275,-0.7386662,3.1358774,-0.012003282,2.309368,0.38961604,-0.6187522,0.9140564,-0.75448585,-0.77454865,-0.23799276,-0.6510042,0.45778772,0.060870722,0.86596626,-0.791607,1.491738,-0.9160444,1.2112451,0.12372238,-0.95308656,0.03793336,-1.3104583,1.9727777,-0.77180314,2.52771,0.81306595,0.14765863,-0.018504707,0.31791526,1.2037009,-2.4973202,-1.0852481,-1.797361,-1.3393803,-0.57446855,4.058076,0.23472875,-0.03354481,-3.0127716,0.99007994,0.90598965,0.27890098,-0.027094968,-1.8172377,-0.10003598,-0.5549616,0.04179133,-0.21417962,-0.21375646,0.51453406,-0.78545904,-0.02533622,1.8420761,-0.54627734,0.9704993,0.8681767,-0.17314813,0.706429,0.66621166,-0.81491446,0.7114641,-1.4416404,0.54857504,1.483941,1.3646324,-1.4955987,-0.2182156
P25788	-1.1419983,-0.10691029,-0.11531718,-1.1741511,0.4834952,1.7157704,0.8847481,1.2441387,0.12559433,-0.915232,-0.253563,-0.2276917,-1.782173,0.08063175,-2.6250827,2.2832327,-0.42994198,-2.227143,0.830136,-0.09592484,1.3485869,0.8308956,0.8457735,-0.47966546,-1.2317687,0.20891774,0.7398419,-1.1743319,-2.8742223,1.763803,-0.19064291,-1.6343601,-1.7650481,-0.3238475,-0.63230175,1.272233,1.2329787,-3.588412,-1.7273598,-0.83078945,1.978724,0.17108111,-2.1939437,-0.74582314,-0.059627566,-0.8191411,1.1230648,0.27179107,-1.6664568,0.6263283,-1.0690213,0.24043037,-1.3157405,1.9065063,0.7654743,0.9302141,-0.019788558,0.5281325,-0.41708434,-0.22959529,0.57661825,0.6203549,-1.65368,0.80580425,0.9414845,-0.10254261,0.037059106,2.2959468,-0.30099836,1.4324406,0.7582997,-1.3144437,2.6472123,-0.69638294,-0.5011205,1.4871024,-0.23427375,-2.8183973,0.8015425,-0.48991022,-0.2956064,-0.89909035,-2.2781532,-0.05621644,-0.42572448,-1.559455,-0.6561716,-1.3219371,-1.352879,0.70575225,-0.4515197,-1.7640185,3.1748927,1.6698759,-0.022649748,0.11595462,1.7197093,1.293537,1.1930228,-1.5680627,-1.1187067,0.30175537,-1.6574553,0.11727047,0.43380466,0.5323813,-0.3810363,-0.5747583,-0.14936152,-1.0222558,1.2162117,0.6323061,-0.86914265,0.8311596,1.3419261,-1.5921606,-0.3658908,-0.83224434,-2.4423542,0.44106373,-0.34065852,-0.7787857,-2.5166502,-1.1683849,0.30683222,-0.1973713,0.54793984,0.52017593,-1.2812425,0.73123276,0.59159535,-1.3112801,0.91147685,0.5048085,0.30348656,-0.6796445,2.869358,0.5859447,-2.6191,1.2940279,0.9524137,-1.3317407,0.5112767,-0.61063886,-0.30675247,2.0876079,1.7292993,-1.1724211,0.553594,-1.9349844,0.7860973,0.3627853,-0.86368257,-0.87937796,-0.7036502,0.81615704,0.75357914,2.6209507,1.2825695,1.1601679,-0.6284447,-0.7190404,1.0472146,-1.9880652,1.2735609,0.9399631,-0.97525394,-0.6394526,2.8151696,0.38183996,1.5743545,-1.7587872,0.08274848,-1.8940824,-0.3172479,0.9837042,-0.16920768,-0.5426595,-1.8633273,0.36061466,0.9367128,0.91916585,1.668135,0.46062642,-0.02563993,1.9271805,0.5786577,-0.8427291,0.1926504,0.4330439,0.29995176,-0.24717475,0.37867925,-0.3354184,0.4672944,-0.7513447,0.8371671,0.6495005,-0.6926756,-0.110047035
O14965	-0.4630162,-0.66125685,-0.00626161,-0.27012068,-0.1032263,0.8410334,0.07400584,1.2761074,-0.03677351,-0.81442547,-0.22410972,-0.45781347,-0.5543062,-0.36251616,-1.9198692,1.6494924,0.018977884,-2.0716004,0.80895954,0.60812145,-0.89247495,-0.036637973,0.26306903,-0.31505322,-0.49087092,0.55249685,0.25421095,-1.3557713,-1.8125991,1.7656115,-0.4566507,-1.5563473,-1.7547386,0.3713824,0.5352565,0.6324417,0.77793676,-3.0865452,-2.3048244,-1.3301973,0.63375854,0.8369186,-3.1812673,-0.47660083,0.3750775,-0.104661666,1.2712667,0.2046774,-1.5627315,1.5447985,-0.592047,0.36692065,-1.5394878,2.4057162,1.1124256,-0.91650367,-0.12931089,-1.1952491,0.98578084,-0.48902956,0.5804397,1.3916138,-1.948382,1.4825428,-0.24093638,-0.9432877,0.53359354,0.73668426,0.30139425,1.8153414,-1.3109308,-1.4913279,1.3595653,-0.11556112,-2.079187,-0.31608453,1.0537212,-1.399246,0.20534126,0.15920755,1.2646395,-0.10188333,-1.9160848,-0.48506892,-0.8928903,-1.8054489,-0.27393183,-2.0831442,-0.43968913,1.4416988,0.2700907,-1.607409,2.8250718,1.1612433,0.7096761,0.5545945,0.52800405,-0.58436966,1.2578464,-1.1128345,0.29266608,0.15906319,0.10080375,-0.71457046,-0.4791433,0.040955506,-0.3823873,0.049575448,-0.20650354,-1.1258,-0.59615856,1.0071548,-0.6558955,1.3496047,0.80868596,-1.4812453,0.588982,-0.7619253,-1.833265,-1.116708,-1.0010686,-0.00056170695,-1.9868457,0.23052312,-1.2303426,0.74654925,-0.1855328,0.7131644,-0.010797533,-0.36199358,1.0916612,-0.67618096,0.6489696,-0.16896904,0.73666734,0.64118546,1.9682884,0.22170565,-1.8652426,0.014485656,2.3030422,0.7421875,0.38571918,-0.5492109,-0.0834061,0.5849354,1.0440922,-0.07490889,-0.33368045,-1.2765249,0.28391242,0.91796434,-1.5271407,0.20115274,-0.43433058,0.14161131,0.75489503,2.8100114,0.9833782,0.9036512,-0.17714903,1.259055,0.61101514,-2.3004594,2.0591826,1.2155691,-0.5544553,-1.8027134,2.2821405,0.23758633,0.71871996,-1.7146116,0.71759266,0.11549904,-0.07545187,0.44925505,0.54901415,-0.29903427,-1.4640567,-0.17841907,1.358642,0.94308174,1.982402,-0.65394753,0.053164788,1.477231,-0.41229215,0.071926,0.8266758,-0.8352352,0.17472245,-0.17260818,0.05717888,-0.37095416,-0.16093946,-0.4314621,0.5195657,-0.6016984,-0.6452167,1.1075672
P68400	-0.27268043,-0.81788796,-0.9024247,-0.118498474,-0.44831195,0.6449851,1.2397577,0.7443756,1.2477729,-1.1544338,-0.3326713,0.51908046,-0.20936014,-1.9590517,-2.3705137,1.3498753,-0.45192063,-1.1648638,1.2105855,0.06554368,0.10164669,1.6354167,-0.2253052,-1.2442652,-0.61418205,-0.5045555,0.1913219,-0.2571594,-3.0632703,0.19398241,0.804321,-1.8748809,-0.31037143,-0.6630649,-0.38810745,0.1987339,0.9324289,-1.5400636,-1.4669248,-0.5148334,1.4024338,2.013269,-2.9923468,-0.46882537,-0.32074055,-0.0801398,1.4753911,-0.5409501,-1.9100538,1.3728917,-0.7085456,-0.018291797,-0.5190346,0.780535,1.1492541,0.11375386,-0.4542227,0.04012615,0.56303626,-0.4499794,0.48374063,1.3933291,-0.48207983,0.9835848,-1.0787746,-0.64054567,0.63151056,0.15070225,0.27979493,0.30668643,-0.358566,-2.3952417,1.7910907,0.40212962,-0.5717099,-0.97847766,-0.24400978,-0.308129,0.084382564,0.381971,0.96795994,0.7049469,-2.627482,0.29982433,0.09861035,-0.8636015,0.12997098,-2.5383835,0.52581453,2.3042336,0.86082566,-2.338928,1.9192007,-0.0887628,-0.3018165,0.99577713,0.061362617,0.3315643,0.82872385,-1.2050009,0.46821624,-0.31809697,-0.6512012,0.6464614,0.39342296,-0.13029668,-0.6840121,-0.64207196,-0.3125914,-0.09728063,-0.2273123,1.6190637,-0.64008605,1.9901861,0.9042529,-0.59771043,0.7398945,-1.679141,-1.1243429,-0.56737626,-1.3104186,-0.029411253,-1.9483073,-0.4005934,-0.85283434,-0.15969227,-0.1367124,0.9588904,0.039553136,-0.0067116483,-0.76130545,-0.6951919,1.674623,-0.83641094,2.1009946,0.48509783,1.6825136,0.19511758,-2.7645059,0.2100742,0.3826947,1.1803484,0.4823304,0.0872901,1.0830103,0.2734267,0.55878603,0.2944307,0.40735343,-2.1412964,0.64545643,0.9481313,-0.15852007,-0.093880035,-0.54824895,1.1276191,-0.7434507,2.609843,1.6432872,0.5465408,-0.32265592,1.3119874,1.0444348,-3.1448193,0.61665064,-0.12873128,-0.69954556,-1.573097,2.6636448,1.0673121,-0.44769368,-2.3308468,0.030194594,0.8270948,0.19235562,1.5209159,-1.1851529,0.16008651,-0.015066704,0.5520155,0.62767947,0.9226439,1.9693762,-0.35844135,0.07970707,1.0208188,-0.80910367,1.1162459,0.5341754,-1.3428869,0.9200578,-0.11397273,0.33868083,0.44934434,-0.6260454,-1.551622,1.3684361,0.52040523,-0.9220644,0.20495686
Q9H444	-2.8045022,1.4453813,-0.650272,-1.4388666,-0.4879136,1.4125868,0.4518785,0.61543036,0.46577704,-0.25000635,0.8684649,1.5979922,0.41234156,-0.12297495,-1.3795266,1.9720085,-0.62868685,-1.479946,0.11009596,-0.45913783,1.0359432,0.5143812,2.3302534,0.5014182,1.1139154,1.1179651,-0.74054384,0.37867194,-1.6983243,-1.6475188,-0.42337492,-1.5105672,-1.8913922,1.0663714,0.29904735,-0.08596017,-0.0899743,-2.0782332,-2.647219,1.5487086,1.330081,1.0942129,-0.77267236,-0.80201846,1.4229403,-0.9056547,-0.18962458,1.1566374,-1.6059293,-0.7118492,-0.7042924,0.727912,-1.5341408,0.99092966,-1.0301421,0.78754485,-1.3051584,-1.4486805,0.43046045,-0.20527089,0.9371485,-0.49488428,0.16527662,-0.45447904,1.3280486,-0.18061453,-0.09098938,0.53309727,0.11116542,1.0248287,-0.38463122,-0.99454045,1.0293083,1.8754377,-2.5663044,-2.1854796,1.8424498,0.23802263,1.5555928,0.25656176,0.6921282,-2.1218393,-2.479817,-0.84222513,0.2988996,-1.554285,0.1750211,-0.96545607,-1.9574982,1.1198285,-0.003246688,-1.9867889,1.7985296,1.1624233,1.1911639,0.53868955,1.830867,1.8525891,1.1884512,-0.5715289,-1.5896395,0.81637734,0.16190827,0.56520784,-0.23592348,-0.124106675,-0.12681147,-1.7079519,-1.3895569,0.27270994,0.36639103,2.1613784,-0.92969275,0.7452069,-0.61780703,-0.43362543,-2.215386,-2.2861118,-0.7190659,-0.5929038,-0.014905142,-0.5896738,-1.4947575,-1.149588,-0.2796676,0.60491514,-1.8549404,-0.694673,0.34723073,0.8400665,-0.043549903,-1.0887724,-0.7905347,-1.5546145,1.3435178,1.7828752,1.0505916,-0.029750157,-1.227508,0.16854846,-0.5750659,0.2889117,-0.607691,-0.3088016,0.2315207,-0.95628923,-1.1821696,0.08957158,-1.0892942,-2.529162,-1.0292413,-0.15600577,-0.40562013,0.14876767,1.242051,1.809661,-0.20598312,1.8429161,0.8297951,-0.45301482,-2.0255072,0.7377996,2.1316607,-1.1454153,1.7089212,-0.35831356,-0.26686147,-0.670071,2.5917146,0.7003984,0.98173195,0.023641914,0.7769537,-0.19731614,-2.476574,0.3544134,0.055537775,0.016334303,-2.4448466,0.21062471,0.3973946,0.04065037,0.13300002,-0.4971748,-0.99863243,1.4898179,-1.583193,-0.5490401,1.2547724,-0.43906558,0.5280527,-1.058217,0.44028023,0.6007659,-1.4231489,-1.7624027,0.55352014,1.0025493,-0.07010017,-1.0407006
O75832	-1.308328,0.4559696,-0.62453485,-0.56682336,0.13694869,1.3140907,0.8465406,0.9158856,0.15105745,-0.35895655,0.10693106,-0.06875836,-1.700035,-0.16126049,-2.7526526,1.8311949,0.3104925,-1.5786368,-0.047491845,-0.2825581,1.2058755,1.3241926,0.0457025,-0.76448,-1.4444193,0.30798745,0.7130031,-1.1461775,-3.3610299,1.6038512,0.31962097,-2.3541653,-1.8369243,-0.42361897,-0.36697266,0.97218066,1.2983385,-3.2510395,-1.9944932,-0.2818813,1.8080107,0.08031595,-2.002042,-0.86640495,0.03035839,-0.73092246,1.4391353,0.2032544,-1.6972152,1.1067382,-0.50168705,0.3385104,-0.6504061,1.7077277,1.4321773,1.0664898,-0.44124642,0.32424447,-0.6509472,-0.13765752,0.54822034,1.245618,-1.3392274,0.898314,0.51078165,0.42353228,-0.05760045,2.1023483,-0.698056,1.0860307,0.7123398,-1.249553,2.0126855,-1.1656137,-0.30304304,1.1271106,-0.38958913,-2.6532066,0.73260504,-0.1899458,-0.06943852,-0.74697906,-2.541392,-0.28698513,-0.31254324,-2.24064,0.094412155,-1.7435273,-1.1104054,0.58371943,-0.10581137,-1.6282514,2.8844836,2.0207846,-0.15009409,0.12971625,1.7143487,1.5286329,1.5938206,-1.4629837,-1.011901,0.3902496,-1.2757004,0.35037243,0.32207242,0.59415454,-0.8960004,-0.51738316,-0.67743796,-0.4627711,1.2561347,0.46435034,-0.42078903,0.87340957,1.0724806,-0.8850281,-0.046106633,-1.0152555,-2.5167253,0.031773597,-0.5605491,-1.2636335,-2.1382313,-0.7064437,-0.019366922,0.15143357,0.7183069,0.4179676,-1.169525,0.71539134,0.8661841,-1.4767642,1.1336724,0.13272148,0.8435104,-0.64861596,3.0509713,0.7146799,-2.6948678,1.3444767,0.7703809,-0.74307144,0.32533678,-0.9339541,-0.03856022,2.0526683,1.6228657,-0.8652276,0.61316913,-2.1162577,0.6634531,0.2461691,-0.38756296,-0.102769874,-0.952179,0.89672875,0.35737497,2.4900665,1.6285443,1.60133,-0.6028532,0.38415173,0.64124936,-2.138101,0.4843632,0.88300997,-1.2597617,-0.617948,2.4358337,-0.19171788,1.3206702,-2.1030495,0.39169395,-2.0221493,-0.36843622,1.2253947,-0.4815804,-0.23628348,-1.5525465,0.7437946,0.7955689,1.2749612,1.3358012,-0.07977588,-0.35601705,1.6533138,-0.021434039,-0.03871493,0.8054863,0.7246734,-0.12762937,-0.15549421,0.30720156,-0.6224106,0.23880927,-0.7903024,1.0335854,0.89075613,-0.8874354,-0.1304984
Q9Y5N6	-0.31593832,-0.3794223,0.24130353,-0.17131911,-0.9882567,-0.5805772,0.19303107,1.497967,0.2424925,-0.44736144,-0.48653245,0.6785546,-0.24862993,0.44997364,-0.9914055,0.9710142,-0.27440387,-1.6468159,1.9995338,0.9444623,0.3704753,0.66646045,-0.67288846,1.7483883,0.18076058,-0.7575317,-0.6520102,-0.61720663,-2.4607844,-0.55704546,-1.5526675,-0.2683147,0.52875817,1.459176,1.8212857,-0.32142994,0.2654025,-4.242396,-1.8768457,-0.30749282,1.0523257,2.864393,-3.4491556,-0.46205223,0.1268537,0.8200445,1.1303402,-0.83034146,0.95695263,1.3889751,-1.1946527,0.113406725,-1.5735934,2.918161,0.107975736,0.6007104,-0.6558163,-1.3366896,2.366499,0.25557896,-1.7580758,-0.23935442,-1.2215936,1.416482,-0.27371195,-0.5996758,-0.60188216,-0.15205485,0.16817454,1.3613704,-0.7150265,-0.24543335,1.1403918,-0.32783937,-1.935888,-1.4659495,0.34039158,-0.79205287,-1.0041795,-0.9866276,2.0170715,-0.88910335,-1.4188809,1.2470055,-1.0232033,-0.26767746,-0.8265563,-0.9876251,0.37239638,4.0956507,0.68257415,-1.3879843,-0.28026167,-0.82699317,-0.11589617,0.59868294,1.520703,-0.6761888,0.70609725,-1.1470727,1.3539206,1.6384975,-0.115242146,-0.43406242,-0.5817309,0.21122283,-0.015655303,-1.1976533,-1.8068402,-1.209966,-1.4669423,1.2661268,-0.89399654,2.985218,0.5174,-2.2348459,0.6406129,-0.124916755,-0.2916393,-0.37896073,-1.2275028,1.1081157,-1.1336057,-0.15890808,0.33188313,0.0359022,0.56044483,0.0032345944,-0.23185356,-0.59118843,-0.18290865,-1.1189733,0.7981697,-0.59020835,2.2900865,2.5129716,1.1770334,0.00950475,-1.1485994,1.0686946,0.13410163,0.26923248,1.0801985,2.0881708,-1.8029289,-0.970892,0.74666655,-0.4796823,-1.6840774,-0.13099167,-1.1208409,1.1972615,-1.5156196,0.2820061,0.27152437,0.6463359,0.8335725,1.862633,-0.9280991,-0.398756,0.07102181,-0.6281062,3.139901,-1.7101954,2.5001156,-1.0179248,-0.86330664,-1.5681561,2.3233764,0.96187705,0.8549089,-1.4959518,-0.9279409,1.5685359,0.8087853,0.40592328,2.1479774,-0.2832823,-1.1095902,0.45022705,0.56094253,-0.9175845,-0.08590571,-2.431905,0.26837423,0.91730386,-0.6801974,-0.9717022,0.0066604824,-0.78104156,0.078177795,0.1992841,-1.392391,1.0425677,-2.102461,-1.1537178,0.41408217,0.41516134,-0.4990231,0.41497654
P61970	-0.37571236,1.9997616,0.4958168,-0.87354326,-1.463292,-0.8031854,0.52623034,0.33485973,0.087228246,-0.20005307,0.4017276,-0.28558972,1.0766096,0.05453798,-0.103398405,2.6534529,-0.9509453,-1.3665822,0.7830795,-0.16323698,0.9666112,0.11864776,2.0692902,1.8000295,2.2932599,0.63105315,-0.63737124,-0.6428628,-1.5934362,-1.083896,-2.6351392,-1.6006491,-3.0847569,0.5708591,1.28629,2.6316228,0.21559826,-3.0974612,-1.1394954,-0.6725277,0.6075685,1.28136,-0.029032268,-1.5338826,1.1488968,-0.8026193,-0.6940045,0.20067437,-0.9793261,-0.72877634,-1.2176939,-0.25749156,-2.1416056,0.74991006,-1.2892053,0.54961044,-0.75803185,-3.1539779,0.095278926,-0.49607694,-0.5170065,-2.1655424,-0.3101444,-0.5807809,-0.21623668,0.15731937,2.4620807,0.28102908,-0.6521205,1.6798345,-0.6562038,-1.6578637,1.986143,1.2615644,-1.9557681,-0.034371622,2.0215065,0.393968,0.6361895,-0.6797901,1.9459697,-0.44143412,-1.1303294,0.64261174,-0.9247365,-0.4994852,0.702871,-1.4336948,-1.138626,1.806554,0.81841004,-1.0558567,0.43419707,0.34162354,0.20521444,0.16943988,2.2413974,2.1975675,1.6443723,-2.2996805,-2.2804246,0.48790047,-0.5115832,0.30878505,-1.2261462,0.26262096,-0.63585347,-1.3713028,-0.98368293,-0.0491747,0.6720425,1.236824,0.1547831,0.99222875,0.83463186,-0.79753375,-0.9287297,-2.4975064,0.18879876,-1.0985504,-0.83240044,0.78335524,-1.9987489,-1.4668225,0.18657911,-1.2185854,0.13355766,-0.48600888,-0.052689735,1.3843275,0.87978715,-0.1560914,0.3758952,-1.7731848,2.761913,0.7165986,0.8634754,0.8854375,-0.19441342,0.04301092,-0.8600826,-0.08800862,-0.2057295,-0.36704352,0.84459877,-0.81324786,-0.13802835,-0.9139491,-0.68765277,-1.2000703,-1.3068426,-0.6109596,-1.4139047,-0.9781275,1.4650025,1.4719752,0.24362898,2.6928053,0.14024317,0.17171909,-1.2375852,-0.6437032,0.97666603,-2.5695934,2.124744,-0.3240837,1.1311591,-0.93320847,3.0533428,0.29640073,1.093351,-1.6538525,1.0750965,1.1609291,-1.1731681,1.1686351,0.029790409,1.1502246,-1.4941895,-0.967675,-0.07035827,-0.7101674,1.0827808,-0.023998167,-1.3196678,0.9042746,-0.23334853,-1.124469,0.12233188,-0.31938714,0.33081493,-1.4178935,0.6695746,-0.1268112,0.058547243,-1.4639045,0.37562028,0.41364226,-0.062362626,-0.0056318156
P19387	-1.4952533,0.9956038,0.078324184,-0.6662104,-1.2440119,-0.47521615,-0.77191097,0.17337702,0.48201326,-0.44951257,-0.58604985,1.3388886,-1.7104124,0.2732014,-2.4042351,0.14774752,0.54263854,-1.4012159,-0.27188855,0.27238867,1.8478183,0.982625,0.32592505,2.1882684,0.20401417,0.08010274,0.016926462,0.5519327,-3.5798478,-0.2668052,-1.2705338,-1.6408608,-0.538034,0.7263721,-0.9316304,-0.55752474,1.390452,-2.7826102,-1.6658175,-0.033513155,1.0914336,1.7362797,-3.0101805,0.37770304,-0.94018286,1.0107265,1.0361868,1.0033836,0.8801423,1.4623157,-0.8230141,0.43826285,-0.61573654,2.1292317,1.3356317,2.8722928,-2.0265443,-0.04074899,1.4411432,0.14312203,-0.654281,-0.58540064,-1.0378298,0.731457,0.121475525,0.004502044,-0.99539346,-0.07272945,-0.44245666,-0.6821449,0.6409042,-0.69579536,1.7888355,-0.5827171,-0.6604664,-0.84499115,0.17835812,-1.5707614,1.0295314,-1.5871814,0.77184725,-1.5154569,-3.2895854,0.31468084,-0.2706323,-1.3087827,-0.48195493,-0.25937724,-0.34001607,2.129995,-0.24301714,-1.5949928,0.48341376,0.58830595,0.07760979,-0.95471007,1.1572136,0.32968795,0.0060738497,-0.860247,0.114482366,1.4118973,-0.43928236,0.0129528595,0.9256142,1.1944443,0.20437732,-0.74570006,-1.2385477,0.41750902,0.32565624,0.88362455,-0.41588876,1.6186217,1.3328476,-2.1509156,0.57577604,0.25021672,-0.35162738,-0.82443863,-0.67496884,1.4012413,-0.8210198,-0.8493388,-0.8042839,-0.85601497,-0.43997088,-1.0552938,-0.41501448,-0.8080762,-0.11836088,-1.0969274,-0.6711836,-0.56520367,1.6065204,2.280921,2.7035298,1.244208,-1.089337,1.7059382,-0.39543706,-0.41175124,0.5250437,1.25408,-0.72411984,0.38264072,0.5235536,-0.74996746,-0.23598956,0.06859204,-1.004884,-0.3310732,-0.36403722,-0.8299938,0.05140607,0.7600206,1.1417217,2.3599935,-0.17682439,0.28802827,-1.2767504,-0.21167114,2.5873883,-1.0233487,1.3228624,-0.63489264,-0.7811558,-1.1442835,3.6152632,0.59453154,1.1411402,-2.2454367,-1.2122738,0.09947516,-0.9392628,0.5490653,0.76482767,-1.2510672,-1.3273093,0.7908406,-1.0679822,-0.9465276,-1.0392582,-1.3455585,-0.8391845,0.29851604,-1.2533472,0.11525214,-0.66333836,1.3536857,-0.19452469,-0.25951198,-1.9756345,0.38004732,-0.79010147,-0.7074472,0.24036795,1.5184143,0.50440884,-1.0850103
P51665	-1.6020229,0.10552757,-0.520606,-0.6942741,0.4359175,1.7235644,1.1583761,0.7626311,-0.26199117,-0.6324558,-0.108104765,0.21179861,-1.5190631,0.08292755,-2.8633726,2.6315644,-0.14797553,-2.3522377,0.8272086,0.12420291,0.99739987,0.7200063,0.7546283,-0.2345095,-1.4501046,0.07362567,0.38067847,-1.1799824,-2.580364,1.3684888,-0.10000646,-2.08873,-1.7840664,-0.5334583,-0.34915367,1.0652378,1.6473379,-2.879699,-2.15025,-0.7174968,1.8897035,0.09734878,-2.2029529,-0.8576828,0.20729968,-0.66159195,1.1502389,0.18378204,-1.6764175,0.8273104,-1.0355546,0.33604172,-1.3891987,1.7911829,0.59319866,0.49273372,-0.27499864,0.32220533,-0.17199126,0.103425816,0.9518451,0.68156123,-1.6561795,0.6430108,0.6972893,0.15443952,0.089226745,2.2920272,-0.37299547,1.1379143,0.5826822,-1.3813323,2.255443,-0.45481238,-0.5000911,1.2801538,-0.38720983,-2.873146,0.55097973,0.0017163785,-0.15968157,-1.2537054,-2.3382204,-0.76268405,-1.0052575,-1.3301088,-0.44514602,-0.91723645,-0.92892724,0.9939585,-0.39232215,-1.6573385,2.868594,1.5346448,0.66556615,0.5066006,1.8747653,1.8837078,1.0287892,-1.6192579,-1.0244468,-0.08286843,-0.8191413,0.009847349,0.4854856,0.32617712,-0.18689615,-0.77022684,-0.5399177,-0.6524882,1.2916255,0.6042437,-1.3778821,0.7010733,1.1421939,-0.8866267,-0.19061185,-1.5906416,-2.6016233,0.73717076,-0.59585726,-0.86632717,-2.6156933,-1.0423083,0.17058554,0.2504997,0.27946597,0.57841665,-1.1542245,1.1166047,0.35256004,-1.4218,1.0816947,0.4197872,0.56536776,-0.26042292,3.3994634,0.2902915,-2.4289794,0.9960501,0.354745,-0.9566639,0.19004168,-0.6831831,-0.57265455,2.351547,1.4460043,-0.76925695,0.41461036,-1.5820812,0.6066685,0.5934793,-0.9805549,-0.76917565,-0.7042952,1.0429977,0.39047405,2.9774735,0.9090884,1.4363407,-1.1089231,-0.7468004,1.0801679,-1.8696126,0.88045543,0.73527,-1.0118284,-0.3405102,2.3473454,0.426061,1.5062833,-1.8067896,0.7892155,-1.910502,-0.64624566,0.8477546,-0.30029702,-0.36484283,-2.034535,0.18820643,0.41433316,1.3086346,1.7263526,0.6276132,-0.56996334,1.6054196,0.38530624,-0.49676377,-0.14552881,0.5434745,0.63271874,-0.03141752,0.022482397,-0.4601758,0.5776269,-0.80056727,0.5465034,0.6075937,-0.5641487,-0.29517293
Q9P253	-1.6263876,-0.04031419,0.8226625,-1.6060661,0.19546631,1.9184726,0.3962242,0.82703704,0.34996125,-1.0660493,0.0766388,0.99391985,1.0316595,-0.93491536,-0.79186505,1.3481662,-0.33795375,-2.5691922,1.6762546,0.7877706,-0.7718562,-0.5426803,1.659727,1.5066966,1.2360097,0.180106,-0.6009199,-0.24961491,-1.0457872,-1.6253501,-0.28465438,0.57744753,0.05571184,1.485283,1.0372431,-0.42075515,-1.3311372,-3.0424411,-2.5782416,0.4519657,0.059560925,3.2359753,-1.6902202,-0.38981485,-0.0714206,-0.8160695,0.22672532,0.62830234,-0.16149732,-0.8320531,-1.2236458,2.2648873,-1.7715497,1.2618749,-0.5287146,0.21805868,-0.9957054,-1.227819,1.2664444,0.37823105,-0.8545223,-1.0896475,-1.2203729,1.5486041,-0.5352549,-1.3432528,0.6555503,-1.5218332,1.522137,0.268691,0.33881152,-1.4668361,0.94542176,1.9481262,-3.019271,-3.738355,2.238993,0.48414546,0.37506494,0.6823584,1.8637105,-1.4342426,-2.334534,0.57150525,-0.16824359,0.53775144,0.2022948,-0.5935969,0.86813027,1.3305913,-0.7427186,-1.0127337,-0.31287563,0.2626423,-0.55424684,-0.6646309,2.52215,-0.7335534,0.6682437,-2.0057294,0.9241078,0.07093383,0.5810132,-1.1754246,-0.41466343,-0.43011656,-0.27329257,-0.20373973,-0.85831827,-0.5051025,-1.3830316,2.0459836,-0.4195875,2.5276015,-2.375905,-1.5316036,-0.8518778,-2.2425597,0.93319947,-1.2127695,0.28621948,1.8598332,-0.64922684,-0.14584592,-0.6111613,1.2874653,-2.8105395,-0.7217782,0.26185536,-0.15616773,-0.7858157,-0.9685715,0.16423194,-2.2594342,1.5005467,2.3342314,1.1125749,-0.3779561,0.78797966,0.6616296,0.8505533,0.7987399,-0.9102355,-0.11494906,-0.66504526,-1.0626433,-0.4542595,0.22076298,-1.3997135,0.6966044,0.39559665,-0.546335,-1.9313715,1.1300437,1.5743656,2.2355828,-0.7416331,1.9287125,-0.4504776,-0.8108639,-1.530147,-0.62393975,2.8151212,-1.4929538,1.6912388,-2.4413655,-0.7683053,-1.546734,2.993958,1.8082542,0.693555,-0.99173933,0.95150596,1.7750983,-0.6524916,-0.9091568,1.5709331,0.68475294,-2.2174313,-0.83757746,0.37554705,-1.3379608,0.79173934,-2.2556515,0.07700466,2.0717413,-1.3360972,0.12639551,1.179294,-2.4627273,2.163571,-1.176208,-0.09041195,0.9206706,-1.5659933,-2.258866,-0.0038247874,0.76731086,-0.92974865,-0.05672964
Q9UKV8	-0.34867102,0.06328007,-1.4234806,-0.40282252,-0.90321773,-0.5894594,1.3485912,0.06356089,1.315135,-0.691629,-1.3116703,0.43376946,-0.13092956,-0.75878066,-2.2262197,1.2982173,-0.44104505,-1.0870745,1.0181983,-0.16975828,1.178918,1.0223703,0.55632645,1.4241537,-0.3853783,0.20010659,1.3280063,1.0161947,-2.0743196,0.39986187,-0.83329904,-1.3212862,-0.20465946,-0.62584525,-0.29836044,1.1131654,1.1341779,-1.6439116,-1.1137577,0.6504565,2.1128037,1.1700956,-2.4185357,0.44571185,0.104389474,0.030288871,1.3234073,0.770028,-0.79623383,1.2269102,-1.6674052,-0.1756255,-0.3145292,0.44624406,0.07301798,0.6394178,-1.792109,-0.013881941,-0.5418145,-1.3607216,-0.2831075,-0.016962241,0.38863042,-0.41376033,-0.5812047,0.31444302,0.96981114,0.92366815,-1.0160384,0.04080357,0.07006801,-2.7100627,1.7263781,-0.13675246,-0.25624368,-0.07605051,-0.14858156,-1.5333352,1.3530117,-0.6127091,1.6193898,0.47275692,-3.415175,0.59298736,-0.05654842,-2.209592,-0.77204823,-2.3604245,-1.2353797,1.697098,1.5357071,-1.2855291,1.2380736,0.09290553,0.4641372,0.83189553,-0.3325979,0.1801853,0.92771083,-1.6717577,-0.03069476,1.5547596,-1.338195,1.692274,0.06711275,0.26796666,-0.27314082,0.14402245,-1.567191,-0.46417233,0.8984665,0.57402134,-0.67272913,1.1717111,2.2760773,-0.9902327,0.52182066,-0.41845486,0.24581958,0.37953556,-0.51734036,0.044828292,-2.8745635,-1.6262556,-0.294898,-0.50623715,-0.47640324,0.26256683,-0.013682243,1.0614812,-0.29262218,-0.31781578,0.58582103,-0.30977088,3.295806,0.7946353,1.7951063,0.8074848,-1.6810133,1.462875,-1.4217626,-0.8973356,0.9191326,0.88053274,0.3154978,0.8308773,0.32002905,1.2700036,1.0935478,-1.7393411,0.26328734,0.5455893,-0.39112908,0.22755127,-0.12747355,0.53631914,-0.50505704,1.6200117,0.43929031,-0.8557156,-1.9724073,0.8767406,0.9857525,-2.3752403,-0.025206948,-0.26758838,-0.4470676,-0.4854495,4.2339153,-0.57186234,1.3081157,-1.2663214,-0.26693642,0.92354786,-0.6132512,1.8471613,-1.9420558,-1.2535052,-0.93017304,1.1201982,-0.29725495,0.8265673,-0.7394645,-0.71895725,-0.16825296,0.2923361,-0.24801344,-0.35436124,0.79527193,0.9178698,0.56558967,1.1415738,-0.6327769,-0.33785668,-1.6557716,0.35993853,0.96203357,1.4148779,0.12899528,-0.13196926
P60228	-0.36563614,0.50061184,-0.15804185,-1.3768406,-1.3569508,-0.9468707,1.3029073,0.55779326,0.7588726,-0.7529796,-0.46528187,-0.28654376,-0.38882682,-0.19871156,-1.9916179,1.2232213,-1.0120419,-0.92300165,1.1890421,0.5682684,1.4579195,1.7985708,0.6401905,2.4105773,0.7986489,0.40268785,-0.006005013,0.11316395,-1.9994934,-1.1280773,-2.5701566,-0.8861693,-0.416992,0.22986846,-0.2203404,2.204298,0.7168034,-2.477113,-0.4425276,-0.060214266,2.1094246,1.6968738,-2.6035123,-0.9153544,-0.017956512,0.098711655,1.1005713,-0.3538673,-0.7878002,0.29305246,-2.5509944,-1.6169188,-1.3720802,1.3581091,-1.027462,1.174418,0.36913413,-1.6997411,-0.17682953,-0.6321249,-1.5791092,-0.30637887,-0.900677,-0.6515105,-1.0954565,0.124886364,1.1418632,1.0874628,-1.3959442,0.51751316,-0.023584057,-2.1122453,2.2992055,-0.15575951,-0.4761754,0.9578877,0.643191,-0.7222462,-0.61712456,-1.4596128,2.4604886,0.39251068,-1.0377104,1.6154625,-0.80721474,-1.0644032,0.110311225,-1.3501438,-0.06813943,2.1448476,1.1332077,-1.659959,0.99692833,-0.3717796,-0.15867163,0.3085336,0.83565646,0.89448744,0.46109405,-2.0251508,0.63732576,1.0655969,-0.8498875,1.3081397,-1.043182,0.73331445,0.012839398,-0.6305128,-0.68682015,-0.67136514,0.8790002,0.5646894,-0.8431376,2.794262,1.7435153,-1.7710544,1.7433519,-0.5622064,-0.24658418,0.5747569,-1.1283343,0.3560763,-1.4420203,-1.1129029,0.75070137,-2.10093,1.0477697,0.08169047,0.18740469,1.4031616,0.91458046,-0.92342204,0.8351611,-1.1226449,3.6919606,1.2514622,1.2100902,0.37857422,-0.9907343,-0.12855521,-1.9859178,0.38594818,0.84894073,1.2657365,0.07047375,-0.25008684,0.67841834,-0.8640345,0.5032529,-1.2173821,0.08393807,-0.10950057,-1.3814483,-1.5156395,0.39421582,0.8385219,0.16044036,2.749956,-0.4102784,-0.6473689,-0.9106044,-1.2245703,1.6498144,-3.7640514,1.1560571,-0.6293108,1.006991,-0.09776919,4.2665615,0.3507024,1.8066409,-2.1540484,0.26369256,0.5964798,-0.27786568,0.43233582,-0.66208184,0.3392235,-0.40714362,0.23533927,0.37687892,-0.74717516,0.52941066,0.29307526,0.23549496,1.6159611,0.014191056,-0.9303791,0.08519318,1.0844841,0.42675018,-0.16094191,-0.26771668,-0.08210063,-0.48465672,0.08353428,1.4269712,0.74846745,-0.6353622,0.43668577
Q15006	-1.6923683,0.16942236,2.5270612,-1.1118841,0.13211557,1.2314992,0.43908876,0.53082216,0.38482276,0.34686407,-0.2536577,-0.10972163,0.2735731,-0.15343666,-0.5146042,1.4294497,-0.7926921,-0.96058524,0.88291746,0.96230394,1.0164472,-0.19366229,1.043353,1.7021767,0.9126485,0.16034955,-0.19855578,-0.9601741,-2.2452152,-2.0453079,-0.62332094,-0.24254794,-0.77166706,0.17319484,-0.076747924,0.9173852,-0.42617476,-3.7763844,-1.2902011,0.61931294,1.7654996,2.9002538,-0.9818264,-1.6774799,0.2805242,-0.23481297,0.4003147,-0.97620344,-0.19668366,-0.16710505,-2.9572663,0.017388657,-1.8314872,2.066532,-0.8523023,0.9121178,0.321479,-1.143199,0.10882861,0.39533046,-0.27099797,-0.8307696,-1.2645553,-0.06487934,-0.08757959,-0.21806513,1.0726496,-0.10404124,0.635286,0.3318949,1.5038711,-0.9501126,2.5499892,1.1728814,-1.8569835,0.11241845,1.3748418,-0.27838573,-0.8948261,-1.2472893,2.0119686,-1.1877437,-0.80216783,0.78780824,-0.32530746,-0.6833185,0.34227714,0.066452906,1.2722851,0.7254972,0.4947512,-1.596965,-0.18232313,0.6880005,0.1142876,0.05824758,2.3870184,0.9437126,1.1842586,-2.3363423,0.27023178,-0.109835,0.5644779,0.107963584,-0.8736305,0.40391594,-0.23854788,-0.45849466,-0.91485137,-0.926072,0.8950703,0.85861,-0.53556865,2.375373,-1.8714935,-2.4564729,1.2384603,-2.2007833,-0.7762562,0.8118779,-0.02559908,1.0333041,-1.8917142,-1.3900008,0.22387823,-0.2764808,-0.10522844,-0.6243777,1.4485924,1.8587797,0.7622396,-1.6809578,0.64921474,-2.020644,1.7430841,1.723345,2.117881,-0.48212722,1.2543427,0.57735276,-1.0545887,-0.6204692,-0.82773066,-0.3146916,-1.6574311,-0.59341925,0.9037078,-2.216087,-0.38277408,-0.085475355,0.7563546,-0.937035,-2.1593127,-1.1872165,-0.06248587,1.4555187,0.010317981,3.2797792,-0.7198466,0.7628077,-0.7761036,-2.1716456,2.084095,-2.089378,2.0224211,-1.6600475,-0.16571634,0.2460094,3.057745,0.68369645,1.578726,-1.1564682,1.575152,0.22227676,-0.37688532,-2.2926788,0.89867795,2.02513,-2.231637,-0.7933687,0.645616,-1.9625238,0.8831526,-0.21648706,0.33719638,2.7643003,-0.149764,-0.014536549,-0.11374536,0.7541925,0.5877949,-0.94529104,-0.12487982,0.24467488,-0.9433238,-0.69849825,1.4905847,0.27382192,-2.0449042,-0.3200077
Q9NRG0	-0.3708757,-1.440604,0.06245132,-1.8249402,-2.1142366,-1.1443571,-1.043267,1.1445287,0.60310644,-1.2760752,-0.78226626,-0.10931533,-0.84099907,-0.17361751,-2.721882,-1.1965477,-0.38770175,-1.0323197,1.79491,0.97358245,0.58852714,0.8677373,0.35302332,0.82310534,0.51709837,-0.5064141,-0.37999085,-1.4784988,-3.9564686,-2.208454,-1.2693783,-0.7135573,0.0797956,0.092012115,-0.28183824,0.2144202,0.8193242,-3.4358115,-0.7048886,-1.1195158,0.960776,3.9625278,-3.9703102,-1.3565043,-0.9495561,1.7480805,0.8287479,-1.2340394,0.36524493,1.4634932,-0.8156145,-1.6339755,-0.050063055,2.2680979,0.9147371,2.1538842,-1.024457,-0.3821469,1.8091881,1.44798,-1.7520361,-0.14653601,-0.7041211,2.7065208,-0.56064266,-1.0459173,-1.161069,-1.1743612,-0.11066781,0.99116105,-0.68565917,0.45645756,2.7983317,-0.4831726,-0.7036507,-1.3856685,-0.3599345,0.038912963,0.4091307,-1.0931246,0.98659337,-0.038889132,-1.2779616,0.453911,0.09381275,-0.62180597,-0.7083856,-0.28203002,0.4022593,2.7365143,0.3926232,-3.0300503,0.18181509,-1.7198013,-1.6430016,1.0946743,1.6360444,0.7477779,1.235059,0.30153155,0.67391485,0.79536945,-1.3471701,0.061927397,-0.10819213,0.63474447,0.20920016,-1.1052248,-0.5158438,-0.5667276,0.16659647,2.0968516,-0.6521368,3.507369,1.5160474,-2.1205282,1.355735,-0.47982633,-2.1845694,-1.5198234,-1.8865589,0.77359146,-0.3953147,-0.279856,-0.031079637,-0.86582893,1.2450902,0.99422866,1.1831036,-2.067621,-0.8859999,-2.3184736,1.3701459,-1.2500885,1.0608481,1.8554734,1.2338728,-0.30389196,-0.020602964,0.85385966,-0.07995283,0.5919156,1.2708305,1.8143743,-0.03665689,-0.61655813,1.3229384,-1.3990123,-1.0167675,0.061937213,0.15005235,0.6692578,0.4352672,-0.7162793,-0.08489547,0.29744086,0.14468987,1.8055888,1.6626244,0.38615403,0.5495929,-1.449868,1.4845122,-1.3410517,2.427552,-0.7761081,-0.5553566,-1.7221694,2.7541397,2.1337483,0.78895164,-1.9380347,-2.94606,0.10216573,0.571354,-0.85907364,0.9216102,0.73319024,-1.0697124,0.57876927,0.63340944,-1.1292143,0.3017315,-1.965462,0.82886314,0.43406034,-1.5687829,1.7607089,-1.3025949,-0.88663214,-0.34879267,-0.9511465,-0.97293407,2.572094,-0.2589184,-1.30474,1.0944765,0.26382762,-0.98843706,-0.20795494
P14866	-1.0174233,1.035966,-0.14838096,-1.4502354,-1.779139,-1.2598583,0.49760506,-0.1535474,2.236648,-0.7880703,-1.4366097,0.39839077,-0.8162442,-0.8628334,-1.9660252,-0.27661172,-0.98866326,-1.5802085,0.64569753,0.031497423,2.1284416,0.80557764,1.0790267,2.588669,0.41015998,-0.1522851,0.5970276,-0.107858285,-2.5781567,-0.97517633,-1.0917113,-0.94683915,-1.286383,-0.26161906,-0.8826888,0.9020278,1.6667365,-2.0507543,-0.17703801,-0.83734787,1.8872967,1.5479207,-2.6889088,-0.6684787,-0.48660722,0.72088027,0.9358665,1.0362931,0.7776616,0.8909014,-1.916558,-0.872136,-0.37961283,1.548428,0.23211125,1.4552885,-1.3542731,-0.1951373,0.26970702,-0.6572697,-0.7456446,-0.60706306,-0.4024384,-0.10310146,0.18419199,0.019236358,0.36997035,-0.2001954,-0.5900139,0.394247,0.58428234,-1.7849466,2.170564,-0.016533671,-0.22681594,0.058608525,0.71570617,-1.091304,1.7146384,-1.4131433,1.2770178,-0.17138721,-3.2890275,1.3044387,0.34767398,-0.7107536,-1.0621574,-0.5129246,-0.12066015,2.135468,0.79921746,-1.7721341,0.68065387,-0.38305238,0.056111217,0.5787595,0.79938096,1.2445308,0.8128268,-1.9153644,-0.60737514,1.1473081,-0.49431163,1.0688577,0.70492876,0.3974179,0.2378099,-0.93307245,-1.0710033,-0.3819636,1.8273667,0.8188229,0.017259985,1.6076443,2.173864,-1.5702184,0.1967795,-0.56974417,-0.090409204,0.11220164,-0.88767785,1.0672345,-3.17132,-1.8482302,0.8864312,-1.1446087,-0.54177827,-0.45275256,0.38663253,0.3552,-0.7764709,-0.44526428,-0.23323168,-1.1945846,1.957152,2.1378567,1.5884522,1.1886157,-0.313372,1.6374743,-0.9882395,-1.6487377,0.295643,1.6285006,-0.024447063,0.20135838,0.43834767,0.36049017,1.311805,-0.8412896,-0.22175159,0.13642275,-1.0456834,-1.3786297,0.5149053,-0.13609456,0.16780491,1.8997983,-0.0038623128,-0.25802225,-1.4046742,-0.5703146,1.1105341,-2.3531919,0.88966215,-0.26292464,0.28634652,-0.84445435,4.5642085,0.49394223,1.1804059,-2.3516366,-1.6125183,-0.55917925,-0.69200546,0.37409255,-0.1576216,-1.3415686,-1.5125644,0.2988179,-0.05454363,0.04062009,-1.1622038,-1.0983142,-0.66089267,-0.1471842,-0.13106254,0.07975766,-0.5878368,1.1797402,0.41911888,0.29433393,-0.5510074,0.107022256,-0.32381642,0.044004653,0.26605982,1.9305559,-0.316199,-0.767594
Q15428	-0.7894848,0.7970348,0.2972372,-1.3419498,-1.8686861,-0.44449052,-0.18909788,1.509681,0.26191697,-0.7455492,-0.74014205,-1.2566104,-1.4686682,0.025194915,-3.4318204,0.6695199,-0.39875942,-3.3816974,0.90036017,0.6348902,1.6311792,0.8291904,1.3396131,2.8298874,0.34183395,0.64657634,1.5265173,-1.2230623,-2.2361023,0.5153975,-1.1052264,-1.2819947,-1.3405921,-0.21212775,0.19901112,2.9635613,1.5382085,-4.6572056,-0.7476449,-1.4773313,0.66883516,1.2124139,-2.1690109,-0.5731015,-0.28031164,0.44361314,1.5041279,0.37189153,0.5538532,0.6478081,-1.3754039,-0.9189768,-0.8067409,2.9134173,-0.13408576,0.89852774,-1.4800888,-0.53813493,0.9428338,0.17202073,-1.3752859,-1.0140667,-1.2464143,1.1969701,0.3246554,-0.045627955,0.4425864,0.5970448,-1.4132828,2.2141495,0.7062512,-1.4605553,2.8220403,-1.4912829,-0.4442597,-0.39387012,1.1097214,-2.3200314,1.9798415,-1.6055865,1.1443983,0.7396947,-2.6760452,0.8171808,-0.9969161,-0.58908737,-0.25171888,-0.93428093,-0.6516469,1.9640319,0.32479468,-1.4576352,2.063391,-0.18880628,-0.82520866,-0.051131733,2.4709485,0.13163304,2.3119874,-1.9423293,-1.36841,1.014454,-1.4502523,0.05873526,-0.3836864,1.2574351,-0.5673001,-0.36060902,-1.4281821,-1.5892012,0.98083144,0.15815131,1.0607945,2.0877845,1.2920171,-0.8032561,0.47438946,-0.6542265,-0.52166367,-0.26972684,-0.70629346,0.17620711,-2.4583027,-1.8513767,1.6861464,0.29121813,0.96079713,-0.6478291,-0.6283215,0.12966995,0.1968723,-0.3163907,0.7565184,-1.7338246,0.6216932,0.75175506,1.1747965,0.73377377,0.1508282,2.6616232,-0.5177413,-1.7245561,0.66506183,-0.08704945,-0.6541556,1.486672,2.41501,0.23046675,0.06276897,0.0012813323,0.37836245,0.66100264,-0.6218592,-1.0451466,-0.5292015,0.77493083,-0.87180537,2.2653878,0.40157187,0.65396184,-0.58111817,-0.25969455,-0.5019939,-3.2511501,1.9949166,-0.86671764,0.6637391,-1.3055644,3.2222595,0.6345076,1.691598,-2.7852223,-1.4788668,-0.5485925,1.24242,0.5392102,0.112154536,-1.1817609,-1.6383986,-0.20911264,-0.47058448,0.19271474,-0.2516428,-0.47414017,0.23236364,0.18008152,0.5526881,0.86178994,-1.3244721,0.55812764,1.2411413,0.094003156,-0.3977311,-0.9548354,0.86509115,-0.4571977,-0.078936175,1.1402801,0.060551018,0.7117546
P22087	0.15628439,-0.36533335,-0.38977274,-1.2795662,-0.7870003,-1.5574759,0.1642709,0.040265728,1.8243446,-0.48322546,-1.5347472,0.33374,-0.0469034,-0.5705505,-2.1710231,0.089152485,-1.2825775,-2.9441373,1.9056084,0.5467619,1.3515129,0.78262097,1.4921732,2.91019,1.0661471,0.23997281,-0.02780197,-0.3348618,-0.82995963,-1.5841438,-1.9008054,-0.8369188,-1.8564398,0.0616126,-0.061035454,1.5901022,0.37460187,-2.2951775,-0.7247193,-0.5245964,0.7700057,2.6293645,-1.1012019,-0.5087181,-0.39523184,0.23259541,1.3407106,0.9767413,1.3875617,0.36493605,-1.0040039,-0.9558108,-0.15075298,2.412574,-1.0241952,-0.034524515,-1.3844297,-1.8922226,0.7674136,-0.51931316,-1.8839182,-0.42870232,-0.6971797,0.75644755,-0.109402254,0.22424462,0.41858593,-0.040864132,-0.44194955,1.6569506,-1.3168834,-0.96256614,1.5608937,0.58571887,-1.2136569,-1.4255964,0.95712405,-0.29142046,0.83806604,-0.8403955,1.7178233,0.89518285,-1.8525889,0.9473392,-0.6778054,-1.9764827,-0.7958845,-0.7226896,-0.8986609,3.2232597,1.3357681,-1.4555715,0.61442846,-0.74845344,0.30942565,0.7702631,1.3672612,0.15157726,1.9670402,-1.4995767,-0.7078775,1.3083693,-0.10865381,1.2896696,-0.7897538,0.3098067,0.07367555,-0.24634254,-1.6600835,-1.7323343,0.1267038,1.0712192,-0.014001022,2.2598102,1.8434715,-0.7490864,-0.34242386,-0.5678143,-0.6296658,-0.08103568,-0.37979385,1.4818186,-2.1400576,-1.1153758,1.3539491,-0.99365824,-0.15026991,-0.7877898,1.5303009,0.5849188,0.50948584,-1.2067374,0.7343759,-2.3117774,1.5679681,2.4622245,0.99765146,-0.5379168,1.1615132,0.9497511,-1.5755206,0.13823603,0.08278944,1.0951133,-0.0959475,0.00096923916,0.025689557,-0.4690984,0.59104824,-0.2276813,-0.103502,1.4065027,-1.9315026,0.35079643,0.983493,0.010204449,0.057601936,1.3539429,-0.1733968,-0.784795,-0.20239364,-0.63155806,-0.053545132,-2.6151204,1.9162819,-0.8343779,-0.072453216,-0.6217637,4.131508,0.6316583,1.3211714,-1.0212033,-1.5121284,0.60941464,-0.45114216,-0.46381435,-0.14805752,-0.96131307,-1.1391133,-0.47522235,1.163412,0.49052513,-0.64922625,-0.415539,0.027572682,0.87186295,-0.89128464,-0.32066992,-0.6621373,0.38416773,1.5199852,0.1664667,-0.38461784,0.18799295,-0.8096487,0.30489752,0.89892364,1.0533136,0.32523966,0.6239061
P36954	-0.9051311,1.0067536,-0.050207388,-1.0220752,-1.2971966,-0.8533263,-1.1168104,0.34162468,0.1181561,-0.019987289,-0.7560865,0.67930824,-1.8745903,0.6354951,-2.4129033,0.04046686,-0.08807078,-1.5216879,0.17034617,-0.058062665,1.5441035,0.876569,0.47674903,2.3638341,-0.03602302,0.1680429,0.3877436,0.16505077,-3.3646297,0.15101714,-1.4684365,-1.3100117,0.21267956,0.25219548,-0.8020077,-0.30135992,1.6407527,-3.208374,-1.7074604,0.13581713,1.1889551,1.8883791,-3.079478,-0.12026262,-0.7320472,1.0333215,0.93968004,0.82520044,1.0334527,1.4246632,-1.125823,-0.10852675,-0.66279185,1.9865171,1.2637815,3.1364713,-2.4656632,0.2643319,1.2108444,0.11834482,-1.1286331,-1.0927775,-0.76216084,0.8933346,0.22718087,-0.09472742,-0.45254028,0.5416948,-0.7709763,-0.2792853,1.4229143,-0.48708344,2.4084253,-1.2157192,-0.54010165,-1.0634428,-0.20522687,-1.3396001,1.2291971,-1.7040858,0.663688,-1.1685965,-3.2154717,0.37250093,-0.40550822,-1.3687767,-1.0642958,-0.32575706,-0.6954114,2.1943913,0.04056656,-1.5447714,0.21866639,0.6706845,-0.63512236,-0.47309878,1.4123693,0.52003354,-0.17863713,-1.0447268,-0.14350486,1.5446973,-0.9435889,-0.26269612,1.339272,1.3077096,0.09705065,-1.1066217,-1.3569422,0.07418444,0.4655961,0.785359,-0.71746886,1.8064567,1.9203713,-1.9456413,0.54288167,0.43170285,-0.4769061,-0.1982766,-0.16063318,1.6707956,-1.2111174,-1.0971931,-0.7588286,-0.6296498,-0.10943359,-0.55504686,-0.5233095,-0.735756,-0.29078278,-1.3656135,-0.19588734,-0.4527549,1.556934,1.7236937,2.4394603,1.0514362,-0.6991477,2.2584512,-0.93101645,-0.7465896,0.90608627,1.4577572,-0.6950199,0.8339075,0.82873374,-0.68950886,-0.2994689,0.53594434,-0.9387437,-0.054309357,-0.013607338,-1.0882018,0.16871597,0.42491692,1.1467832,2.1454537,-0.33208025,0.19746779,-1.8863466,-1.348002,2.611482,-1.0684881,1.2103484,-0.87711436,-0.5279391,-1.3433949,3.9443483,0.5249399,1.5958016,-2.2963653,-1.9777921,0.08737485,-0.6382281,1.2285244,0.48528206,-1.2579857,-1.2944232,1.0895615,-0.9445991,-1.0210232,-1.1678963,-1.7068434,-0.64458966,-0.4857634,-1.0248489,0.028182078,-0.7888168,1.311263,-0.21396878,-0.60616803,-1.875571,0.23758732,-0.41416726,-1.1861827,0.33204192,2.1165826,0.38019714,-1.4487816
Q02543	-1.3997977,0.49896735,-0.31003925,-2.5143826,-0.5011047,0.02624874,1.1748319,0.26623145,0.99945027,-0.21129555,-0.5346964,0.7886954,-0.84839666,0.42063236,-1.539169,0.86716527,-1.2454787,-1.0468202,0.93553567,0.42008045,2.0740125,1.1575391,1.5560259,2.0595129,-0.22148755,0.023451487,0.08607295,0.49877313,-2.6370692,-1.5347211,-1.3093916,-0.3494083,0.4731,0.13866544,-1.0343534,0.62626624,0.72164035,-2.4826863,-1.6696472,1.4461799,2.3330145,2.4713845,-2.1467,-1.5040656,-0.5347786,-0.18581857,-0.081411,-0.22460917,-0.8421674,0.45438787,-2.5782866,-1.0689439,-0.7779436,1.4863691,-1.2513759,2.8431563,-0.25881264,0.080464326,-0.27830556,-0.14341469,-0.539648,-1.432888,-0.3038306,-0.440547,0.35808715,-0.13263133,0.5509616,1.4199361,-0.34170175,-0.34462512,1.4075131,-1.3172609,2.895993,0.23903371,-0.55401736,0.18201922,-0.12458413,-0.5917896,0.31197947,-1.8140521,1.0712003,-1.7124653,-2.4074779,0.62799925,0.13590817,-0.7367936,-0.6477302,0.19845793,-0.62528884,1.7781936,0.317547,-1.8951455,0.8378488,-0.31057605,-0.14836547,0.011085498,1.011949,1.7208133,-0.33114135,-1.5030324,-0.17885646,1.3627795,-1.1674162,1.2642927,0.5369182,0.45948696,1.1150446,-1.5247774,-1.472499,-0.68002135,1.4537336,0.5985961,-1.4341137,2.1156864,1.6249164,-1.8573732,0.44504714,-0.89159477,-0.3646456,1.1730554,-0.6073482,0.35577002,-1.8378363,-1.762045,0.78814536,-1.7262622,0.08858274,0.24311094,-0.24442427,1.0398458,-0.21057402,-1.6078366,0.23915775,-0.37320325,2.7946649,1.378568,1.8391074,0.44712022,-0.45743227,1.0685343,-2.0927055,-0.51135033,1.1106001,1.5684997,-0.7880768,0.18409482,0.24531184,-0.86139655,0.90571636,-0.13445094,0.03271553,-0.55263734,-0.88014144,-1.6488715,0.6718026,0.9588312,0.20758192,1.7865206,0.017345836,-0.46404415,-2.0203989,-2.3290606,2.9563687,-1.6738741,0.82602847,-1.0084604,0.2746812,-0.6188643,4.2161574,0.947482,1.9981928,-1.4421109,-0.55235827,-0.070328966,-0.8731798,0.15499097,-0.6998767,-0.27919418,-1.836567,0.48786867,0.34145957,-1.1329995,-0.66819775,-0.38072473,-0.71183884,1.3137646,-0.06046396,-0.82218593,-0.121955305,1.1021951,0.022934083,-0.42828378,0.1369646,0.6345496,-0.5509174,-0.42986897,1.082627,1.8502928,0.257959,-1.4618185
Q3B726	-1.7179443,2.093823,0.92084813,-0.18188295,-1.1750122,0.26314643,-1.0903499,0.7448115,-1.3077445,0.3295917,-0.53416437,0.58581823,-3.2568638,1.22762,-2.4506893,1.0111362,1.456379,-1.8627789,-0.2920937,0.19856858,2.6032095,1.7439023,-0.7025575,3.1133087,0.6105647,0.29197487,-0.020585606,-0.96742266,-3.7444255,-0.7559678,-1.9813474,-2.0253692,-0.762385,1.7914896,-0.85950094,-0.045372985,2.3626006,-3.7719646,-1.9795411,-0.1405391,0.58454025,2.052422,-2.5783293,-0.54137886,-0.1136462,0.6337906,1.5082991,0.8464243,1.2426358,1.3519686,-0.8930456,0.2044624,-0.8673758,3.1693153,0.8609467,4.0920606,-1.3777333,-2.1122296,2.1945062,1.6779572,-1.7302905,-1.2174722,-1.8403895,1.3438271,0.038436037,0.0976463,-0.42233542,0.74716336,-1.3855882,-0.4898413,1.8480209,-0.062238116,1.9313797,-1.557276,-0.6873307,-0.68708175,0.94463927,-1.9761449,-0.2954907,-1.7565522,0.63619196,-1.9322821,-2.0888739,0.08146967,-2.0394104,-1.422928,0.7580487,-0.15230758,0.98095274,2.1720467,-0.9716595,-0.72066873,-0.5463926,1.5016868,0.524625,-0.7479284,3.1639237,1.6227888,0.78294975,-0.81037736,-0.35337368,1.3543667,0.17367136,-0.12856705,0.6178909,2.2120829,-0.19518739,-1.2035487,-2.457192,0.5951185,0.652739,1.0090703,-0.998387,2.4790847,0.47538444,-2.5344973,0.5557661,-0.4926478,-1.0943092,-0.28006917,-0.49053943,1.5949812,0.9144849,-0.6579935,-0.26433203,-1.5338796,0.7774809,-1.1701694,-0.9113777,-0.1891482,2.1065662,-2.3510942,-0.19769831,-1.596324,1.2944541,1.981281,3.2885633,0.2789249,0.9933231,1.1742995,-0.9917054,-0.46374145,-0.381186,0.13845332,-0.40281928,-0.27915072,0.8822063,-3.7004952,-1.8174468,0.8192159,-1.6595125,-1.1881095,-0.6956334,-2.105467,-0.99424577,1.2956853,1.8505963,3.8297558,-1.073854,0.7579762,-1.2594477,-1.3929075,2.460867,-1.5486534,2.1805134,-0.9974619,-0.7304342,-0.3071378,3.3659775,-0.12770124,2.5236735,-3.5822885,-0.642004,-0.3838014,-0.6822601,1.4181747,2.0092838,-0.5301628,-1.1578602,-0.14575928,-1.5786132,-1.6974665,-0.8997192,-1.9012125,-1.2038885,0.28619424,-1.6743854,-1.3745704,-0.94240415,1.9220567,-0.27687058,-0.96086407,-2.2765844,0.47720197,-0.11653388,-1.277165,0.061030548,2.3355827,0.8170425,-0.7658228
O00401	-1.8363141,0.83769685,1.0131195,-0.97659403,-0.17233332,1.4609793,0.14377986,1.9823982,0.37307858,-0.70671016,1.1600928,0.28121173,-0.35137644,0.20613043,-1.4450248,1.9874505,-0.0872273,-1.4128239,-0.27138764,0.8020492,0.46850124,0.36613724,1.7980281,1.2160579,0.9464907,0.1646385,-0.11409082,0.060532887,-2.0440836,-0.050373476,-0.73196477,-0.3067784,-1.1554505,1.8462536,1.5139917,0.9012849,-0.8090791,-3.667038,-1.6292682,0.43380228,0.29479635,0.85856634,-2.503479,-0.5214288,0.97878766,-0.83147925,-0.14611514,1.4204559,-2.06442,0.040359825,0.10505033,0.57427305,-2.1478992,1.6674919,-1.271522,1.2452899,0.5225534,-0.705551,1.5421474,0.09487764,0.0618077,-1.3245691,-1.03423,0.72179353,-0.19199136,-1.3302536,0.24879561,-0.7837628,-0.535726,1.2555107,-1.2813115,-1.4348341,0.42750227,1.78443,-2.1347692,-1.5646985,1.5352974,-0.22068645,-0.4084905,0.31990886,1.2332587,-0.81299263,-2.3043492,0.92815065,0.47858563,-0.242752,0.6823868,-0.9051708,-1.3157437,1.1331534,-0.7087377,-1.4570367,2.463272,0.5017916,-0.33310744,-0.47164857,1.4599764,0.63973707,0.5535202,-1.3174423,-0.08733354,0.9924624,-1.4146519,-0.8515495,-0.30294815,0.9172843,0.2996217,-1.315904,-0.8700923,-1.2339611,-1.0097337,0.7216033,-0.5910454,1.3237739,-1.3470501,-0.110635765,-0.7408752,-0.15154575,0.11328119,-0.7175774,0.06024019,0.3043485,-0.42121276,-1.0879476,0.3769735,0.9601752,-0.04829386,-0.6526835,-1.2622051,-0.9543993,0.11824439,-1.767367,0.6336534,-0.68373054,1.1764809,0.4887023,-0.015592513,0.78910935,-1.6647131,1.0961132,1.0947738,0.8035099,0.59580916,-1.0096205,-0.45011833,-0.5428973,0.80979514,0.34811237,-0.8924518,-1.2896621,-1.0153435,-0.37911958,-1.0519485,-0.14883071,0.63141316,0.9104526,-0.61832505,2.0240433,0.5622385,-0.56005746,-0.44187993,0.58524585,2.086469,-0.9192704,1.4317391,-1.2976367,-0.38690352,-1.846887,1.9647349,2.1597638,0.3365158,-1.6933396,0.08746518,1.0435787,0.7293205,0.1750474,0.98204046,-0.5704652,-1.7514169,-0.5993457,-0.12614575,0.70518416,0.7914713,-0.85221505,-0.568628,1.5491201,-0.6500993,-1.2239183,0.665131,-1.9904718,0.4521956,-0.9848449,0.61111796,0.25700137,-0.33795774,-1.2073303,0.5530594,-0.4053746,-0.34826988,1.5318996
P35244	-1.2958798,0.3815491,-0.6466178,-0.95129746,-0.96599704,-0.09221739,-1.5962967,0.6041333,0.28817502,-0.6258862,-0.41223755,1.55989,-1.7193315,0.8114912,-1.7438676,1.0967863,0.03150856,-1.6644986,0.77664334,-0.40013415,0.39465556,-0.087506056,0.41621014,0.10126728,-0.517374,0.69365126,-0.2683098,-1.359133,-3.2540233,0.41008937,-1.4999955,-1.8000345,-1.0757558,1.3550597,0.32846856,-1.1548462,1.2105244,-3.0085824,-2.743831,-0.8780271,0.6469271,1.5369858,-3.492476,-0.46243954,0.3825561,0.23121914,0.59747344,0.8015445,0.06887561,1.236111,0.21708542,1.0500789,-1.424132,2.7204306,1.6430358,1.5213292,-1.9886501,-1.0838689,2.133222,0.8838859,-0.8022856,0.292445,-1.0083488,1.3169439,0.6838626,-1.0571557,-0.5856627,0.24899721,-0.08960513,1.278984,-0.41087267,-0.061262462,1.7142593,0.10347502,-2.1361752,-1.8318672,0.57930225,-0.9281447,-0.024329707,-0.44219455,0.52231884,-1.6516466,-3.3032455,-0.089847885,-0.47174317,-1.5279365,-1.1036037,-1.3897375,-1.3081458,2.4096093,-0.28541178,-1.1137681,1.019163,1.468205,0.43976766,0.090073116,1.3231039,0.769836,0.91087025,0.2875208,-0.31758115,1.6027199,-0.42755893,-0.81840634,0.59013295,0.7714637,-0.16219133,-1.8815582,-0.8756149,0.24622723,-0.61645454,2.0319617,-0.6506944,1.4911164,1.7101635,-1.3669564,-0.43496892,-0.25129947,-1.5199897,-1.2686192,-0.6998352,1.612298,-1.71602,-0.01317843,-1.5766023,0.037635338,-1.1338679,0.18394767,-0.11596749,-1.9544543,-0.5189149,-1.0591351,-0.37068152,-0.6546424,1.3355708,2.3474886,2.2034564,0.92939395,-1.4889789,0.7627583,1.7981211,0.6833906,0.8276297,1.1651399,-0.26938277,0.12469818,0.18969461,-0.3026903,-1.5961443,-1.1069384,-1.0726645,0.2884265,-0.25039437,-0.40750086,0.14369084,-0.3365646,1.679781,2.2019286,0.83396244,0.3358679,-1.51543,-0.00354707,3.0162446,-1.4575866,2.1267514,1.1432625,-1.8927839,-1.8324012,3.262947,0.973182,0.8680105,-1.5438538,-1.1339725,0.1579431,-1.2376683,1.7713077,1.3174713,-0.91655195,-1.6543934,0.6439433,0.43009466,0.5775943,0.0015993175,-2.6641307,-0.7834815,-0.51772374,-1.9777747,-0.4373303,0.30921137,-0.55226874,-0.0005693374,-0.315962,-0.91710734,1.4909953,-1.3882517,-2.0754888,-0.08248433,1.0860445,0.0015115096,-0.50241464
