Q16850	0.45973006,0.113858074,-0.21133119,-0.2462556,0.20961137,0.10768109,0.013879897,0.12767677,-0.09607608,0.013158792,-0.026072687,0.019818634,-0.3570329,-0.22908194,0.12177404,0.29862073,-0.22233628,-0.80185163,-0.09485656,-0.070755236,-0.4701407,-0.04743708,-0.11046007,0.15044098,0.5224496,-0.2911642,0.008288395,-0.43167812,-0.29172897,-0.31776717,0.10152171,-0.34955317,0.47399288,-0.25889897,-0.37882623,0.33629787,0.8002456,0.3151691,-0.12614408,-0.4012415,0.120049655,-0.07046063,-0.34576494,-0.20371509,-0.12341932,-0.36973053,0.45888957,0.18967125,0.026793318,0.058311854,-0.3147207,0.29175273,-0.032892384,0.1938818,-0.15289362,0.45499533,0.036462303,0.19266208,0.08534993,-0.24405171,0.34324476,0.16130716,-0.11048655,0.06436181,0.25744075,0.3695488,0.39960733,-0.1232333,-0.2458232,-0.4135375,0.3211908,-0.77500015,0.27535957,-0.0074119545,-0.27334765,-0.037619133,0.4229655,-0.114491135,0.46337855,-0.093121044,-0.45372096,0.30897814,-0.0049049584,-0.33518565,0.22318062,0.056020465,-0.016948668,-0.18673475,0.37959513,0.19651437,0.18894586,-0.28345934,0.18920772,0.4228682,0.23282018,0.34399867,0.23582186,0.13392594,-0.7361673,0.14566475,-0.07190599,0.24984984,-0.21586944,-0.02798795,0.12435323,0.06716343,0.15133618,0.6350148,0.31468827,0.3786799,0.51391923,0.13165633,0.13724232,0.18375608,0.21038418,0.37346673,-0.1700273,-0.22548375,0.051368203,0.124009535,0.06396927,0.03130141,-0.5592505,-0.0044455756,0.52218807,0.4877453,-0.17939898,-0.33623767,-0.1771292,-0.033353206,-0.37763953,-0.03461481,-0.23669815,0.43025368,0.63322437,0.029576205,0.06852632,0.23280741,0.04374296,-0.052935146,0.37757942,-0.061468426,-0.421144,0.6781917,0.25223365,0.039232418,-0.2744403,-0.47156703,0.0036315185,0.50925624,-0.1523607,-0.18979837,0.43668786,-0.19096398,-0.38427484,0.29823694,-0.49532866,0.2563513,-0.23396039,0.20789942,-0.8246895,-0.23634215,0.35612923,0.03931263,-0.2660874,0.021057785,-0.4979082,0.20033051,-0.23530674,-0.1288646,-0.11536763,-0.38940603,-0.05301955,-0.21945108,0.06560857,0.022848696,-0.09429456,0.2815203,-0.30802122,0.12925123,-0.018565305,-0.32790592,0.06411812,0.108201176,0.10978401,-0.49457696,-0.691508,0.34880897,-0.25638467,0.119289994,-0.91190857,0.19603594,0.13153395,-0.0046336264,0.20786342,-0.12001472,-0.23402163,-0.045026228,0.62663466,0.12971854
O75865	0.30693856,0.39380324,-0.19484518,-0.21570975,-0.052664243,-0.09039697,0.2559488,0.19490789,0.120931916,0.2576258,0.018084915,0.28334495,-0.69170046,-0.39872986,-0.1697065,0.01727576,0.32209867,-0.37649557,-0.3755057,0.46232817,0.23996328,-0.06768225,0.08057808,0.5384359,0.2845555,-0.015713602,-0.1429653,-0.31522465,-0.21563159,-0.34786278,-0.23548058,-0.14265399,0.22910829,-0.23466504,-0.05714634,0.37714615,0.1572601,0.060840804,0.1272429,-0.54472893,0.15736556,0.032345425,-0.27211204,0.51262426,-0.12711416,-0.064577624,-0.058011737,-0.043100636,0.06943246,0.3788014,-0.04553706,-0.0070953113,-0.23747498,-0.1968319,0.072822146,0.5356971,0.18780668,0.20324418,0.11710894,-0.19377846,0.14402893,-0.027763411,-0.08290841,0.06425949,0.20501657,0.29370093,0.22023442,0.06968702,-0.22897711,-0.6131195,0.04431154,-0.31470594,0.14578727,-0.1503447,0.17193724,0.024423737,0.5144184,0.0411214,0.43729937,-0.22487284,-0.0719419,0.119422816,0.25270867,-0.043689262,-0.04222867,-0.19496746,0.041366015,-0.017874649,-0.10363876,0.00851285,0.3143529,-0.38071075,0.21316308,0.1537313,-0.016426196,0.334146,0.057412937,0.28486928,-0.4032379,0.059585027,-0.087656215,0.117950834,-0.399916,0.024569536,-0.09606947,0.31330988,0.084455594,0.43182173,0.19269261,0.11480275,0.33751395,-0.47974852,0.17137241,0.38866323,0.5499798,0.36663428,0.02422358,-0.30116507,-0.044836007,0.16844383,-0.16704252,0.04084069,-0.046971623,-0.0013312041,0.65959936,0.41308817,0.20542699,-0.39378506,-0.24824594,-0.2539728,0.17038625,-0.32572627,-0.20948493,0.46553093,0.26150894,0.4070925,-0.019596096,0.31961393,-0.21825592,0.46357507,0.053145763,-0.42256743,-0.112772,0.45813426,0.30615816,0.80139554,-0.084579945,-0.11289203,0.62117,0.32199255,-0.07266913,0.00039485723,0.2692485,-0.025481395,-0.10973977,-0.0766836,-0.18230325,-0.06539113,0.19914798,-0.3290283,-0.71023333,-0.011677149,0.1594166,-0.03125458,0.064343475,0.030159513,-0.23150036,-0.52383375,-0.23374815,-0.009451006,0.14453784,0.017900132,-0.031217882,0.20574164,-0.049923696,-0.18130733,-0.080335535,0.26303193,-0.71747583,0.17892191,0.35809457,-0.44593412,-0.029294908,-0.031923275,-0.036055833,-0.23705229,-0.43651628,0.38719702,-0.10204076,0.38145548,-0.42160815,0.003054518,0.34281138,-0.20718648,0.2806942,0.38356203,-0.033942446,0.44447803,0.19106315,-0.055736884
Q16526	0.3467303,-0.52673924,-0.12766817,-0.0726529,0.16334787,-0.52905387,0.019860497,-0.2727923,0.026952,0.27349392,0.08185351,0.11643665,-0.50983846,0.16274878,0.12172735,-0.1455529,0.28196356,-0.4977176,-0.26743108,-0.07086147,-0.18540277,0.23841912,0.1345396,0.0533826,0.44531992,-0.0068213507,-0.08744621,-0.24203074,0.08790047,-0.27732366,-0.102212615,-0.312162,-0.03395953,-0.22011876,-0.21926582,0.11400893,0.38386977,0.2522959,-0.037086144,-0.20665713,0.3959902,0.39402935,-0.6970365,-0.23094255,0.042808864,0.09016306,0.36706856,-0.29357117,0.21227339,0.14363222,-0.04596158,-0.41852212,-0.2935055,0.105628446,0.3664025,0.103440806,-0.21983045,-0.12179257,-0.09200796,-0.093287714,0.32091182,-0.15127234,0.04290633,0.29631472,0.03174171,0.06470222,-0.41877496,-0.3925697,-0.16591054,-0.13460155,-0.14372034,-0.17821877,-0.12161305,-0.5503261,0.28485158,0.28244287,-0.030196045,0.101580314,0.78119946,-0.19218834,0.059616864,0.27773815,0.11773375,0.12984839,-0.06402917,0.17475438,0.0057703326,-0.077784315,0.08823511,0.0023718448,0.07036276,-0.57513255,-0.0062530255,0.4883643,0.23750503,-0.0061137173,0.120423,-0.0538564,0.054176003,-0.12679027,-0.04060287,0.06408704,-0.09392401,-0.057746798,0.13451245,0.26089415,-0.07166023,0.18390894,0.35315758,0.2216828,-0.010710448,0.051579528,0.17662477,-0.33272815,0.29650524,0.42368692,0.40434074,0.2721367,-0.07684469,-0.11205816,0.2561535,0.3548341,-0.52319664,0.037247434,0.41100833,0.073554054,-0.23259737,-0.01939896,0.09925751,-0.14192875,0.040988635,-0.046308257,-0.32770652,0.5253783,0.44183612,-0.39762992,0.18538366,0.0142594315,-0.050653532,0.41284597,-0.11055897,-0.38413444,-0.10913216,0.3631827,0.06946102,0.43069378,0.06720935,-0.2759042,0.70852757,0.30263203,-0.22686301,-0.15627415,0.029563148,-0.3986218,0.1133721,-0.14040257,-0.44622874,0.09373702,-0.05384795,-0.09743875,-0.6012409,0.18808939,0.04259428,-0.18114087,-0.075949244,-0.014358246,-0.04632413,0.23277009,0.15748031,-0.4970482,-0.29975867,-0.3845603,0.09125913,0.26904774,0.009110299,-0.5843453,-0.21450219,-0.29808417,-0.48096904,0.05069034,-0.016343817,-0.33590555,-0.56209826,-0.033279575,0.30527723,-0.24738565,-0.4366975,0.41643855,-0.1841783,0.49059862,-0.45237815,0.7908145,-0.030685212,-0.028549235,-0.032233927,0.37963775,0.01935014,0.27694455,0.13300635,0.29649687
P07992	0.044405457,-0.08415863,0.10001837,0.07527957,0.18200216,-0.39784375,-0.15711035,-0.51060385,-0.06998903,-0.13319828,0.6476191,0.039616413,-0.1619205,0.12486759,0.038417507,-0.027483763,0.18913162,0.046473462,0.239495,0.16776106,0.031350277,0.3339958,-0.4736195,0.22466661,0.2108925,0.17203845,0.16361496,0.2309702,0.26271442,-0.1744303,-0.08474739,-0.28608882,-0.038731772,-0.1428163,-0.53595227,0.0060669095,0.34745586,0.3349289,-0.23288843,0.044144556,-0.04093326,0.2536967,-0.2658692,-0.26362476,0.018692248,-0.047699448,0.25078198,0.065971345,0.29285115,-0.20466994,0.19203988,-0.28106236,-0.016632816,0.029248055,0.05035937,-0.35333285,-0.1370204,-0.02229422,-0.029155336,-0.025765186,0.5449367,-0.2823454,-0.015466072,0.25041816,-0.14142488,0.19616763,-0.04803191,-0.08634745,-0.17012933,-0.19231114,-0.28927007,-0.064380154,-0.36198488,-0.19098264,-0.039505243,0.1624057,-0.123300955,-0.06654637,0.09812706,0.0035945093,-0.026984205,0.3471537,0.25621146,0.23953599,0.19167717,0.13455628,-0.04711517,-0.29302925,0.19942634,0.17385818,0.45938382,-0.6804403,0.11774251,0.16500391,-0.19591625,-0.029323064,-0.08217602,0.19454673,-0.12010948,-0.39594775,0.15567839,-0.14070022,-0.58465534,0.24169813,0.16103354,-0.15028125,0.10451771,0.27760917,0.039024726,0.36117464,0.07778504,-0.07048899,0.080637015,-0.3274751,0.14806783,0.08928596,0.3260119,0.31008306,0.087214135,-0.004676371,-0.18125212,0.2636622,-0.5205085,0.055577192,0.24021286,0.062822364,0.114511475,-0.009165022,-0.064647764,-0.39486533,-0.26829135,0.16002688,-0.35988572,0.56487876,0.18693115,-0.29974914,0.3894844,-0.09481312,0.09875458,0.17804632,-0.40641093,-0.43441942,-0.14684328,0.68690574,0.57595354,0.4933589,-0.041789506,-0.16246898,0.5442369,0.5511657,0.33640638,-0.31821197,-0.09618305,-0.14299265,0.10370895,-0.18942097,-0.20198633,0.01959734,0.016700722,-0.23218164,-0.3053868,0.031765923,0.07992538,-0.16909581,-0.09875666,-0.26294318,-0.17921942,0.011174922,0.28507662,-0.39845073,-0.120357364,-0.36543563,-0.4788588,0.32267547,-0.24597888,-0.31810337,-0.03458065,0.29494753,-0.09948262,0.13761654,-0.050765976,-0.11321289,-0.12345136,0.06688549,0.17155585,-0.11496288,-0.3012695,0.8119899,-0.41559145,0.60673964,-0.50382847,0.31846914,0.1268356,0.26240826,-0.26061955,0.07118815,0.14489338,-0.28274378,0.4583748,0.22408484
P00480	0.5018784,-0.10602863,0.22276184,-0.17131412,0.039846763,0.10411092,-0.08552778,0.20843065,0.16675796,0.42767742,-0.13211589,-0.21184921,-0.21585487,-0.6009236,0.03530417,0.18492706,0.19856772,-0.6448407,0.047503766,-0.105954014,0.028318262,-0.004387388,-0.23390234,0.35248116,0.66626906,-0.17562509,-0.07125984,-0.39798373,0.5449299,-0.23296,0.1957425,-0.1656673,-0.17432971,-0.0033334908,0.1515907,0.07918073,0.7004679,0.2664235,-0.029358804,-0.52350914,0.6892612,0.08659814,-0.40728533,0.025834544,-0.07318534,0.11971854,-0.03074464,-0.061737627,0.1753752,-0.14728463,-0.43531108,-0.1661605,-0.06436961,-0.20659824,0.20558536,-0.26986966,-0.11348687,-0.050084263,-0.07399266,-0.21332057,0.18985204,-0.30880222,0.04727264,-0.15316452,-0.09895341,0.32864493,-0.06964075,-0.45036486,-0.10248396,-0.13532075,0.20113139,-0.6202586,0.22807068,-0.033495113,0.18050008,0.17581831,-0.51957786,0.31981516,0.58077693,-0.28382725,-0.22107361,-0.19480887,-0.21094178,-0.44657588,0.19028525,0.41409233,0.0800672,-0.23204724,0.21010226,0.15215026,0.034996085,-0.33602077,-0.20896974,0.2968183,0.19765155,0.10400995,0.28517386,0.43248263,-0.50534254,-0.0355621,0.10895517,0.20061415,-0.10727307,-0.2053386,0.0863459,0.30129206,0.3221259,0.26631445,0.3046579,0.17130227,0.37658358,0.08464221,-0.2589228,0.25659797,0.34176555,0.1652642,-0.029776812,0.049878825,0.26869807,0.08357798,0.4272192,0.11299931,-0.10093904,-0.037561223,0.27022523,0.22963181,-0.15565492,-0.13980152,-0.54420906,-0.30913115,-0.45934063,0.0846734,-0.14605874,0.253868,0.57561356,0.1431046,0.15442878,0.33577487,0.20459774,0.051679578,-0.14000972,-0.16459149,-0.27452877,0.4085815,0.05983823,0.0017382671,0.49648574,-0.13318147,0.6848965,0.13864256,-0.2368733,-0.2006618,-0.026649168,-0.37153,0.14424211,0.10283099,-0.2963093,0.5541202,-0.07822955,-0.3814365,-0.66131765,0.25456104,0.3525598,0.15201688,-0.24388683,-0.38522366,-0.3399665,0.1429399,0.11721066,-0.55428797,-0.17519078,-0.26878554,0.53653747,0.2684044,-0.12815568,-0.14147642,-0.25850135,-0.15859093,-0.4855943,0.100840285,-0.30006608,-0.3524857,-0.13827895,0.03443279,-0.100507475,-0.506129,-0.37734875,0.23109916,-0.06146648,-0.023923595,-0.9469847,0.5444419,0.31165448,0.30493274,-0.08860032,0.21554413,-0.1873893,-0.18671145,0.27738258,0.029742373
P25789	0.2801228,-0.061718486,0.0822216,-0.052897494,0.014503328,-0.3966322,-0.15810807,-0.15285164,0.0699601,-0.12606104,0.16157831,-0.27461255,-0.28460154,-0.11757758,0.061643198,-0.15033792,0.13766631,0.062444825,0.15631816,-0.31410593,0.0170708,0.23471898,-0.2154712,0.19227241,0.1164821,-0.14828508,0.004213082,-0.008377674,0.4043489,-0.017735898,-0.25604206,-0.16894023,0.084877975,-0.09078159,-0.15991808,0.037320387,0.33895093,-0.10442661,0.3743261,-0.07617224,0.33136132,0.19451913,-0.23139064,-0.14369869,0.23331992,-0.0904139,0.10559358,-0.22358742,0.095345244,0.10447551,0.28192103,-0.13682577,0.00024329057,0.017632695,0.22096397,-0.018967064,-0.0070577576,-0.17829293,0.114439204,-0.092006706,0.27382046,0.20682432,0.22002459,0.5774395,-0.33911088,0.35767496,-0.17854957,0.2762729,-0.35165247,-0.10661855,-0.21861264,-0.13465698,-0.097176656,-0.24517657,-0.16031887,0.20706646,0.2853484,-0.24844861,0.33086285,-0.04028468,-0.028917715,-0.016633121,0.11556087,-0.01880749,0.15988608,-0.06408997,0.0627022,-0.0150326425,-0.1050269,-0.26714012,0.13263589,-0.48700997,-0.14983314,0.49613288,0.2540365,0.06337872,0.060868375,0.039957102,-0.120303355,-0.2402626,-0.118031316,-0.4042182,-0.33072093,0.29964176,-0.109227456,0.46889752,-0.04885379,-0.3016288,0.22524795,0.19297324,0.02979408,-0.15400775,0.3785239,0.162394,0.44152132,0.15617718,0.20491159,-0.010649878,-0.10208396,-0.121029854,0.026793733,-0.074033484,-0.35411012,-0.20752418,0.21055922,0.20885813,-0.01654123,-0.30414164,-0.3694786,0.08236303,-0.09239923,0.06913857,-0.2862141,0.600167,0.12696643,0.023918219,0.18469186,0.14232926,-0.30724812,0.5874126,-0.093080714,-0.34366196,-0.37207404,0.6067543,0.55075777,0.9758438,0.3258659,-0.1825936,0.58875805,0.15342338,0.12623197,0.029392479,-0.123605505,-0.15210442,0.4176906,-0.25145823,-0.1703156,0.23577423,0.4049931,-0.1540179,-0.41478157,-0.12456906,-0.01810948,-0.3685385,0.14516129,-0.10033803,-0.08613907,-0.10231786,-0.15961649,-0.29969817,-0.034005746,0.077408195,0.21822177,-0.0032545163,0.1241215,-0.4066188,0.15023191,0.18386446,-0.6485673,0.3248719,0.3668057,0.14407688,-0.25924432,-0.18565258,-0.04091694,-0.10380785,-0.3597181,0.48994806,-0.1261486,0.57105047,-0.33985043,0.20701,0.1040023,-0.11450167,-0.102898635,0.029624302,0.29931253,0.1478793,0.29233453,0.25543806
P35250	0.2986772,-0.028106112,0.21719576,-0.0880788,-0.09485511,-0.482629,-0.15051615,-0.19261341,0.34843516,-0.11384397,0.06414826,0.083680205,-0.3967518,-0.1619446,-0.08926151,-0.11833756,0.13565172,-0.196064,0.081483945,-0.37895834,0.21508946,0.016548434,0.10639571,0.03364703,-0.05514241,0.14478292,0.2051924,0.118985966,0.1678423,0.08207298,-0.077323675,-0.2761274,-0.2654183,0.1698527,-0.28961694,0.08139584,0.41623703,0.11883432,0.121341795,-0.21876255,0.27379736,-0.05540327,-0.14688711,-0.19342649,0.04187424,-0.35080025,-0.10374116,0.14118394,0.04914379,-0.16679981,-0.01504972,-0.06357065,0.029341696,-0.024339465,-0.04858642,-0.18401197,-0.13512923,-0.14752637,-0.07170898,-0.003938032,0.4565069,0.102889836,-0.20066643,0.05733584,0.043443345,0.23196097,-0.14868659,0.09712959,-0.23846918,-0.34812984,0.10287076,-0.34365326,-0.48251548,-0.35381952,-0.034566578,0.050639585,-0.31305438,0.08287144,0.6526035,-0.081685185,0.2124447,-0.122695774,0.08243368,0.100546256,0.1595131,0.01353786,0.429661,-0.13708147,0.36236343,-0.033392847,-0.16275044,-0.5669113,0.09297945,0.6054005,0.1846057,-0.022833731,0.084144406,0.24061428,0.028578363,-0.4833549,0.028588967,-0.18742695,-0.4746854,-0.2706087,-0.09194726,0.22886656,-0.0031364458,0.14830711,0.058191188,0.32566854,0.20505944,0.121815264,0.28136533,0.14720714,0.24940884,0.25455993,-0.15109092,0.2914101,0.004096152,-0.08616672,0.011561525,0.07961742,-0.41661757,0.019575149,0.46219808,0.16510853,-0.20995815,-0.009074355,-0.22667377,-0.061348733,0.008147062,0.007959615,-0.3295614,0.4369163,0.030149722,-0.24420324,0.15895717,0.394965,0.033438753,0.36285755,-0.13564782,-0.46359563,-0.08029589,0.5005441,0.7743667,0.6435372,0.27085465,-0.09831317,0.5608875,0.118952684,0.31972662,-0.49373165,-0.11788887,-0.4692326,0.14547287,-0.3045653,-0.12321824,0.28382006,0.47462747,0.036405005,-0.5709507,0.24043155,0.30339867,-0.17460376,0.020313375,-0.25506252,0.06819175,0.17729513,-0.035109084,-0.49936095,-0.121315815,-0.485349,0.033403922,0.2636028,0.070775434,-0.0050612898,-0.061448183,-0.030554358,-0.7653971,0.31535336,0.17667776,-0.024254378,-0.19448817,-0.26846498,-0.12975058,-0.29556933,-0.0646966,0.5305347,-0.2603871,0.41279662,-0.52946883,0.28995985,-0.05801263,-0.14009282,0.01819141,0.26492208,0.10656582,-0.1705947,0.1907045,0.18905729
P82673	0.3394762,0.18805891,-0.3038995,-0.074636474,-0.18208732,0.108797275,0.36267495,0.049992044,0.24847855,0.4587669,-0.23205684,-0.016846912,-0.500368,-0.2315002,-0.33783486,0.22584817,0.29415014,-0.34460807,0.2732041,0.283183,-0.2206892,0.3763044,0.11410631,0.451635,0.5376166,-0.40275353,0.3135014,-0.2636485,0.20060407,-0.078049846,0.2653142,-0.3234606,0.22831786,-0.31477246,-0.16194811,-0.2641781,1.217738,0.41600823,-0.16884471,0.034682464,0.6209056,0.41743264,-0.4636405,0.3900219,-0.46459138,-0.1020003,-0.13662449,0.0250823,-0.0015926511,0.33769348,-0.15909503,0.4658867,-0.42448112,-0.033796303,0.05019577,-0.34530708,-0.0990646,0.19820231,0.014563208,0.006878952,0.66110784,-0.48656416,-0.13106282,-0.003968838,0.059400547,0.3930058,0.38006008,-0.30251208,-0.22879054,-0.40498424,0.23122136,-0.20204554,0.056181453,-0.15002142,0.11554254,-0.026981173,-0.1428021,-0.26767716,0.32052264,-0.28000224,0.0504165,0.10488976,-0.22513947,-0.14158347,0.1915006,0.32854524,0.11307138,-0.11482945,0.049797382,0.30099863,0.5872205,-0.30735824,0.2562287,0.3473749,0.14975998,0.3095262,-0.29289907,0.25379816,-0.20870888,-0.18825927,-0.54532164,0.13641119,-0.25020185,-0.17896247,0.11186454,0.036223467,-0.0267375,0.42355236,0.27248406,0.55267006,0.36999175,-0.08308715,-0.03507503,0.10006215,0.5974636,0.40613127,0.21934736,-0.18614368,0.5298252,-0.25504586,-0.26634583,-0.05639646,-0.40968758,0.21058664,-0.16474421,0.1625049,0.04386007,-0.06607079,-0.18795747,-0.3105162,-0.108998016,-0.4724363,-0.55816466,0.35264277,0.9250977,0.17813987,-0.43613368,-0.045144975,0.33869386,0.207799,0.13653459,-0.105856,-0.44263747,0.76890105,-0.41690627,0.20698802,-0.051397055,0.068906434,0.34741902,0.8219836,-0.2190562,0.024809454,-0.071712814,-0.19423476,-0.010525214,0.1939953,-0.42606202,0.6845199,-0.11589738,-0.26479498,-0.46771234,-0.10365539,0.1059356,0.5043831,-0.55716115,-0.44255942,0.053611677,0.13200964,0.13225111,-0.012006093,0.22005929,-0.24767952,-0.23393813,-0.1451666,-0.14799283,-0.24616498,-0.18234769,0.38471636,-0.6310838,-0.111519426,-0.15344316,-0.52612865,-0.30381173,-0.31216714,-0.022465942,-0.51062614,-0.24843147,0.41906497,-0.32748273,0.52649635,-0.41165385,0.29738307,0.30561763,0.04381206,0.19120978,0.11424332,-0.09897298,-0.05105905,0.011255659,0.70127875
P43686	0.095850386,0.081331275,0.25754422,-0.061025105,-0.26007208,-0.37911776,-0.23006833,-0.17627722,0.34421384,-0.117794186,-0.003318615,0.11931152,-0.29705644,-0.25400117,-0.047746424,-0.07152398,0.20580964,0.06637137,0.2422942,-0.31105456,0.17284192,0.033642992,-0.16332735,0.08668136,-0.32332093,-0.041911487,-0.073529325,-0.14397997,0.09966037,-0.006382062,-0.10825757,-0.18607652,-0.17151062,0.054722838,0.06006905,0.047424685,0.33670503,0.037575983,0.009127397,-0.1289552,0.25637677,-0.11690106,0.043705426,-0.029561667,0.093826294,-0.035508413,0.009563155,0.038955603,0.0024113916,-0.22643968,-0.04847429,0.07778212,0.17871484,-0.27846247,-0.32825992,0.013077415,0.0004768291,-0.2208177,0.020015666,0.0027662432,0.14278743,0.24902084,0.05312935,0.30345634,-0.023291657,0.45803776,-0.2788851,0.16840118,-0.2095431,-0.21953464,-0.13796128,-0.31846693,-0.21030119,-0.283156,-0.1236514,0.015114203,-0.056659803,-0.13064395,0.2705353,0.019670596,-0.05229357,-0.20500752,0.06526627,0.062092714,0.23706983,-0.14602536,0.26139855,-0.14632663,-0.020612018,-0.17509489,-0.06551072,-0.52402794,0.11550554,0.40623182,0.3881538,0.26250443,-0.027428651,0.08976651,-0.17461264,-0.3009278,0.022913467,-0.09848917,-0.40664718,-0.06481016,-0.1309011,0.15403326,-0.09774001,-0.06887928,0.033677448,0.23700908,0.08307908,-0.26293215,0.3267851,0.48092234,0.3569465,0.09219477,0.015287348,-0.043560877,-0.17759463,0.10018117,-0.086780965,-0.15367268,-0.248614,0.13852318,0.6084434,0.26543787,-0.11078287,-0.20218709,-0.28984234,-0.109775834,-0.17785433,0.10250191,-0.4941344,0.5579538,0.15227623,0.17436783,0.22574976,-0.080044195,0.117954284,0.4301179,-0.037240848,-0.24473381,-0.4935348,0.7220154,0.6292747,0.6015595,0.10109553,-0.2624082,0.53753763,0.20721854,0.3096736,-0.19989698,-0.21849264,-0.26275328,0.39430103,0.13139012,-0.17292924,0.00838357,0.50325793,-0.28232375,-0.55990696,-0.01937106,0.28308406,0.019199321,0.10086609,-0.061961304,-0.16334687,-0.020982344,-0.10690076,-0.41325828,-0.0235175,-0.24409108,0.16822587,0.24327506,0.23702042,-0.24615827,0.17181322,0.16463326,-0.7670226,0.43709472,0.4367664,0.11963692,0.12665313,-0.24647997,-0.18370745,-0.073601164,-0.38540798,0.4142633,-0.24585441,0.34186542,-0.6006054,-0.00816722,0.049885504,-0.08336728,0.06858538,0.19630729,0.21585588,-0.11705288,0.13537836,0.3432435
O95168	0.2826758,0.008214263,-0.15737349,-0.28510177,-0.14219171,0.14362611,0.405145,-0.26118928,0.031970724,0.25131094,-0.001240071,-0.094856344,-0.26613602,-0.24144423,-0.31020516,0.16611208,0.34120923,-1.0375623,0.08181289,-0.11431478,-0.040463995,0.16916801,0.14507101,0.3263155,0.7712006,-0.40558025,-0.075795196,-0.20493467,0.064086914,-0.25634494,0.31446174,-0.46536046,-0.06552461,0.11703602,-0.101296924,-0.15351932,0.58719224,0.33735025,0.040247545,-0.1831867,0.5007368,0.24005403,-0.18298458,0.18096241,0.042905264,-0.052111585,0.0034130276,-0.1342033,-0.21477646,0.15196107,-0.41518474,-0.07537291,0.10161876,-0.118061244,0.044088192,0.03698951,-0.057767756,0.012536618,-0.13055877,0.05727528,0.2736879,-0.19449583,0.031104349,-0.049827058,0.16670133,0.2892535,0.124376915,-0.12512703,0.15076415,-0.41528043,0.43034995,-0.71020716,-0.16299798,-0.18876186,0.10165746,-0.30762106,-0.11124814,-0.11263694,0.49822995,-0.13324545,-0.39449313,-0.025676627,-0.13371941,-0.1899872,0.058822062,0.34959406,0.03867866,-0.11499698,0.479436,0.14201413,0.2879483,-0.72119015,0.061856113,0.496486,0.24694584,0.31511936,0.11392809,0.19535042,-0.4463186,-0.09860597,-0.24733597,0.44151595,0.0327675,0.21347564,0.02596421,0.41232008,0.23181014,0.45909888,-0.015356624,0.19310923,0.21919677,-0.099894136,-0.06070739,0.26788262,0.20022306,-0.16980915,0.112321265,-0.25815716,0.28949872,-0.051804136,0.15961535,0.32544938,-0.15517363,0.25131196,0.45818704,0.22563891,0.06865828,-0.2761806,-0.054529835,-0.12787852,-0.3414081,-0.18961552,-0.12012154,0.5002553,0.6047424,0.44593117,-0.049455073,-0.035781514,0.17178732,0.3065495,-0.111924775,-0.091865584,-0.5987504,0.40034986,-0.15307474,0.19203243,0.06445502,-0.066068575,0.5519782,0.5393176,-0.12311368,-0.35436985,0.057340115,-0.16633634,-0.047931075,0.54904157,-0.15766308,0.0572299,-0.09070142,-0.2815403,-0.5933276,-0.01929314,0.1656562,0.49305797,-0.39770445,-0.26431537,-0.36926785,0.21553484,0.13423218,-0.5025629,-0.0056352033,-0.22370787,0.17339556,0.19967696,-0.12250196,-0.59166676,-0.44267195,0.32089126,-0.8257161,0.004526309,-0.32788026,-0.8580487,-0.22789584,0.0053808503,0.13338077,-0.40302497,-0.6019814,0.50106436,-0.043341458,0.1666105,-0.89448285,0.5061022,0.18360817,0.196147,0.005008861,0.32989857,-0.15273426,-0.07687612,0.09050314,0.11019333
Q9NW64	0.21491583,-0.43099502,0.24905017,0.07824503,0.17686409,-0.2649651,0.11666753,-0.17653975,-0.12034599,0.22588614,0.26753747,0.03986087,-0.45491675,0.17696409,0.23078534,-0.048812684,-0.015159986,-0.055283025,0.2167989,0.01938514,-0.20139375,0.13103573,-0.16861816,0.036830235,0.21197811,0.19761051,0.24486138,0.20764378,-0.1311934,-0.21362635,-0.07564742,-0.16576234,0.17928496,-0.16719007,-0.4926356,-0.27549604,0.61663866,0.3944057,-0.23384584,-0.07696347,0.16356538,0.15472968,-0.547821,-0.056689203,0.082920946,-0.34167317,0.07409554,-0.0066831238,0.1858503,0.2523018,0.112756684,-0.2590257,-0.29583615,0.14174399,0.35930282,-0.02830117,-0.025486019,-0.16692151,-0.14757493,-0.09835739,0.62168103,0.32988575,-0.01964764,0.18498704,-0.33834538,0.3439693,0.016664954,-0.17216915,-0.1804656,-0.10334771,0.0309044,-0.2647454,-0.031136328,0.12431167,-0.06978859,0.10806338,0.1591948,-0.23863548,0.7667793,0.081848174,0.12011022,0.25812718,0.08504255,0.12639548,0.39209044,-0.046063237,0.12192172,-0.35514495,0.46736908,-0.09872782,0.05575812,-0.113786444,0.26940233,0.19837287,0.077700056,-0.15121745,0.029095974,0.09417605,0.116473034,-0.3255352,-0.255164,-0.30441862,-0.49267644,-0.03628767,-0.15096582,0.23150766,-0.007362266,0.18420005,0.13711487,0.48275802,0.21318583,0.001711411,0.33235106,-0.3350576,0.2172335,0.34456667,0.07606607,0.074007876,-0.1782521,-0.096122585,-0.35241136,0.07056812,-0.60135263,-0.029355641,0.22224392,0.40531388,0.0008637635,0.22039172,-0.35134032,-0.16763224,-0.13526198,-0.057559162,-0.37688544,0.447231,0.2654761,-0.045593858,0.1608051,0.10518199,-0.017394107,0.07477618,-0.25706318,-0.25819677,-0.06669722,0.29527155,0.33217555,0.64672095,0.0137263825,-0.14836386,0.4083025,0.35919994,0.38251522,-0.26559177,-0.09792544,-0.3661417,0.36982772,-0.2017079,-0.3151433,0.26786196,0.19834363,-0.049975432,-0.509809,-0.16538201,0.25543103,-0.14052533,0.08444291,-0.052235097,-0.060757685,0.25624004,0.0408147,-0.04004253,-0.096879855,-0.45782405,-0.4337276,0.21027029,-0.05048019,-0.14800473,0.27723622,0.34932584,-0.5232053,0.083595105,0.023611559,0.10185054,-0.28675234,-0.35315752,0.25278446,-0.28595626,-0.32891268,0.5896566,-0.20753041,0.64716196,-0.4666095,0.37458125,0.29424304,-0.05856648,-0.17967206,0.2545757,0.21414237,0.0072208573,0.30030596,0.21790774
P31930	0.11903504,-0.085276924,0.071330994,-0.3702872,-0.10781735,-0.17062065,0.19617574,-0.059233624,-0.17940903,0.36387897,0.004630809,0.25718248,-0.74212915,-0.16551042,-0.15009655,0.13510782,0.25937226,-0.6598282,-0.19830856,0.32388288,-0.028922947,-0.24412946,-0.08747736,0.2205559,0.27843222,-0.112956285,-0.34133032,-0.25573808,0.015614565,-0.6654442,-0.2471159,-0.061428692,-0.14494498,-0.36682126,-0.165889,-0.1547913,0.6281203,0.29624444,-0.03575181,-0.4677455,0.23804463,-0.2063793,-0.17546582,0.25193477,-0.13140813,-0.17872924,-0.26664913,-0.25877112,0.31863305,0.17079464,0.0713565,-0.39584103,-0.3605687,-0.2747568,0.2040698,0.2224131,0.040452555,-0.11344764,0.27145118,-0.21132067,0.41467652,-0.19461104,-0.1168465,-0.13033062,0.099548236,0.23543933,0.059577897,0.103938825,-0.009562992,-0.030274555,0.096548274,-0.29057828,0.071383975,0.09244627,0.09466885,0.079138294,0.236058,0.07028098,0.85276014,0.018319238,-0.04590467,-0.12796111,0.21717374,0.061180554,0.20489289,0.011118703,-0.024271207,-0.48400113,-0.14919768,-0.11529687,0.1558209,0.018744875,0.26129317,0.15584956,0.21279559,0.22787598,-0.2003097,0.40438858,-0.030866284,0.031657122,-0.2123009,0.25350538,-0.27954832,0.2146696,-0.115264945,0.396487,0.08222808,0.17378171,0.6367247,0.19092059,0.22909676,-0.08089071,-0.12925318,-0.13031313,0.411901,0.22425656,0.25624102,0.038415983,-0.13829067,-0.035631943,-0.15817589,0.022243146,-0.38141635,-0.2949807,0.03967578,0.397519,-0.17093611,-0.32788962,-0.22085157,-0.20392242,0.45021075,-0.2841588,-0.44026852,0.020303072,0.2812247,0.05157249,0.2915514,0.38276115,-0.020298637,0.28288475,-0.13910864,0.089705676,-0.10810635,0.36584964,0.20915385,0.38150072,-0.040581964,-0.27741212,0.6263747,0.17634082,0.23251455,0.13735668,-0.14423622,-0.1442033,0.0880681,0.08240004,-0.03815978,0.2508153,0.14963228,-0.3252346,-0.53805625,0.038277198,0.060869403,0.109222725,0.1826028,-0.15027243,-0.1434322,-0.114410065,0.1673209,-0.0012513759,-0.27114046,-0.37095046,-0.1264867,0.20329198,0.062090624,-0.35663366,-0.16743614,0.11501148,-0.96114343,0.33886638,-0.009418884,0.008144569,-0.24872264,-0.48963898,0.10660688,-0.17464994,-0.2905152,0.3388297,-0.14978625,0.53808874,-0.5477217,0.35009187,0.62498903,-0.11188224,-0.117199354,0.42496803,-0.13539657,0.22246544,0.41912916,0.08483518
Q99741	0.1596847,-0.05647559,0.060217265,0.029459719,0.10059758,-0.11859516,-0.016921703,-0.25328594,0.20036238,-0.02404763,0.22189727,0.115226544,-0.36053133,0.11971062,-0.018503381,-0.20534177,0.07760471,0.052286472,0.19399825,-0.23680654,0.3750925,0.24708034,0.098402366,-0.10375828,-0.011824328,-0.12498937,-0.04974855,0.023418218,0.20338951,0.19690502,-0.24041723,-0.28578064,-0.16997406,0.09018849,-0.1473452,-0.019013638,0.39780924,0.088529326,0.16174169,-0.21789634,0.07602438,0.2699723,-0.08950215,-0.12596676,0.09196039,-0.3498864,-0.14900531,-0.19564597,0.1845824,-0.015555224,-0.11471149,-0.2500707,-0.042176988,0.029462988,-0.031503048,-0.1346442,-0.2372451,-0.22466962,-0.25511545,0.12527403,0.16223967,0.2265076,-0.32256585,0.2774353,-0.069620825,0.05028676,-0.25502768,0.18210703,-0.32427496,-0.32748014,-0.29844704,-0.1566005,-0.31188688,-0.343141,-0.017387124,0.14561301,0.19436288,-0.20376952,0.4482564,0.06665835,0.01210412,0.023638928,0.24076435,0.14136255,0.15917712,-0.26585504,0.21769896,-0.1310782,0.058748893,-0.18561089,-0.04440183,-0.7067311,0.33643404,0.45230082,0.10827814,-0.11701924,0.050694644,0.24980244,-0.049664125,-0.41472027,-0.2700995,-0.07390861,-0.17265208,-0.29615173,-0.069622174,0.5722686,0.08395618,0.031621356,0.035826333,0.23091495,-0.14373986,-0.022892604,0.24219449,0.09603856,0.5845666,-0.13601017,-0.012654494,0.20475112,-0.039518725,0.12695618,-0.0841371,0.18749115,-0.42354086,-0.0760965,0.26712784,0.15080582,-0.17605208,-0.13237743,-0.015418594,-0.0046123513,-0.008795456,-0.21383655,-0.31258145,0.33021522,0.016985279,-0.09746094,0.2765488,0.054564353,0.17179447,0.4488554,-0.2055434,-0.52721,-0.050218936,0.48673555,0.7456848,0.73796743,0.31739128,-0.03292332,0.685048,0.21257427,0.48382154,-0.14351636,-0.017666824,-0.19532825,0.56644243,-0.4488857,-0.026597496,0.12310554,0.45193896,-0.082450636,-0.5275874,0.18061338,0.19639404,-0.28141147,0.2403921,0.0070517086,0.20462014,-0.07442382,-0.08448601,-0.3816094,-0.16198699,-0.33502904,-0.21009324,0.2850792,0.009114027,-0.18086584,0.052228335,0.21021341,-0.8042061,0.34662482,0.41216987,0.19148912,-0.27445987,-0.37612766,0.016574271,-0.0015081177,-0.31243506,0.42670345,-0.13540566,0.5093127,-0.32299665,0.34025764,0.03818601,-0.14210421,0.111706205,0.19865054,0.080837406,0.038990263,0.09687616,0.07596799
P18206	-0.058144722,0.07220013,-0.26561573,0.07418073,-0.13428523,0.10366253,-0.15407851,0.0032054496,-0.13282011,0.1469473,-0.042174146,-0.054688547,-0.31959203,-0.35555226,0.010993934,-0.26679146,0.21281452,0.38388386,0.007979393,0.28087798,-0.10034028,0.095848456,-0.008258397,0.7024058,0.29791832,-0.25098953,-0.15089811,0.03931241,0.27030194,-0.16210793,-0.30615884,-0.022502635,0.43991455,-0.14417043,-0.18003877,0.15651481,0.45565724,0.25984266,0.40248686,-0.20196277,0.2352413,0.4120082,-0.1340547,-0.17435968,-0.1520968,-0.1270114,0.3677063,-0.218306,0.023085754,0.17775767,0.29841384,-0.5664071,-0.17180642,-0.2672828,0.26917526,0.04127067,-0.12735352,-0.033871546,0.20036536,-0.29967016,0.33861765,-0.042081583,0.0031023447,0.21963844,-0.27807775,0.3605177,-0.042562757,0.21475315,-0.28457838,-0.110681236,-0.31419536,-0.32968757,0.4829897,0.21512666,-0.3065184,-0.032198746,-0.06274891,0.026738647,0.037528742,-0.08188629,0.06919126,-0.099667005,-0.21613139,0.17702487,0.18637735,0.26942208,-0.059544105,-0.21569803,-0.20456864,-0.042672977,0.25362173,-0.0011507873,0.046325266,0.33243194,0.18705682,0.34821635,-0.30355746,0.13374315,-0.2853947,-0.19597562,0.0211593,-0.06313073,-0.11383879,0.35940897,-0.35546732,0.08380406,2.2646575e-05,-0.38335106,0.63632935,0.00874493,0.1913996,-0.1717336,0.07507741,0.461354,0.6001606,0.28228235,-0.111028776,-0.06386586,-0.234267,-0.23540151,-0.14403524,-0.19879292,-0.3181178,-0.39818573,-0.12349487,0.3087738,0.06389958,-0.6179451,-0.42121962,-0.28001556,0.022175927,0.13808201,-0.12569147,0.6972788,0.33767384,0.17775358,0.32384476,-0.024210986,-0.07094355,0.19871232,-0.09326029,-0.27489582,-0.31464007,0.6357852,0.51351553,0.6159976,0.23631094,-0.09769448,0.56990325,0.09656028,0.11205925,0.50455433,-0.021947756,0.11739971,0.4267483,-0.15365294,-0.15755332,0.4324114,0.3438154,-0.23165011,-0.580586,-0.25783107,0.05807969,-0.2983053,0.28708804,0.35716292,-0.40373325,-0.73686475,-0.048787743,0.20593792,0.0077866954,0.16509707,-0.098112606,0.01572471,0.08687118,-0.36330122,0.011647859,0.08624814,-0.48250487,0.22951116,0.60150725,0.08331853,-0.29326004,-0.23902874,-0.15164314,0.12314386,-0.24987517,0.10302007,-0.025430892,0.31208503,-0.09532026,0.21401763,0.28871077,0.20283876,-0.24033293,-0.058735162,0.4967244,0.16209182,0.07302022,0.23055902
Q96EB6	0.16967185,-0.3262182,-0.2760861,-0.13777855,0.36492062,-0.15127444,-0.42109546,-0.062665656,-0.04253336,0.031119423,0.39802104,0.18798147,-0.1254679,0.23985733,0.30005288,0.0056580803,0.062156856,-0.17697147,-0.050134107,-0.18577802,-0.024303798,0.0055376566,-0.28600785,-0.26868972,0.38847333,-0.27676728,-0.30476147,-0.02386383,0.11240199,-0.29960698,-0.27225965,-0.1381854,-0.17298582,-0.13622381,-0.008167877,-0.17549053,0.38202876,0.21196707,-0.29468396,-0.16527383,0.06129302,0.2307663,-0.16666512,-0.46875545,0.04892708,-0.1231206,0.14156465,-0.12435247,0.1188902,0.16885868,-0.09301018,-0.3912674,-0.24339117,-0.01866337,0.25545105,-0.13372779,-0.21584442,-0.17564009,-0.26587915,0.106166735,0.2587179,0.124095365,-0.28667927,0.16903564,-0.062186375,-0.089756384,-0.20730391,0.11198041,-0.22467561,0.004749998,-0.1723949,-0.43656805,-0.06624708,-0.047533873,0.060224503,0.07615613,0.12966456,-0.068719536,0.49113777,0.13051292,-0.26411328,0.049072776,0.18589032,0.19425055,0.010426172,0.09457027,-0.06279633,-0.14660281,0.14501284,-0.20143782,0.02591036,-0.47527483,0.06295691,0.2828672,0.3421217,0.08224768,-0.119800724,0.21566105,0.003957799,-0.22181933,-0.045539364,0.16877843,0.006543261,-0.05086786,-0.15463233,0.44425732,0.10683873,-0.13921535,0.33661643,0.12414812,0.045085635,0.18881927,-0.1678867,-0.17949347,0.3905168,0.08430879,0.025322143,0.3625195,0.08188093,0.10476874,0.07329049,0.34758544,-0.616556,-0.23825388,0.2573843,0.3704651,-0.3161873,-0.15218319,-0.009656039,0.0018777922,-0.022743909,-0.073081665,-0.44546717,0.25897646,0.5187051,-0.18201885,0.4899872,0.033084523,0.095019944,0.2481882,-0.27049646,-0.23373222,0.028496677,0.4087727,0.443417,0.41543022,-0.028399244,-0.17224985,0.7751941,0.010615875,0.2981662,-0.062003233,0.05630004,-0.116344005,0.14399597,-0.14411207,-0.29830134,0.36663565,0.07442357,-0.23720348,-0.6303086,0.04661499,0.06111772,-0.017481605,0.13554451,-0.3112184,-0.23889539,0.117500596,0.189518,-0.3879794,-0.40285593,-0.30712917,-0.035323627,-0.024519414,0.064619094,-0.3917341,-0.06811309,0.03012751,-0.56562454,0.18384816,0.28236967,0.004400021,-0.18022573,-0.19256455,0.27588114,-0.10549258,-0.546838,0.5302119,-0.08189776,0.24630068,-0.50011957,0.45145372,0.20162688,0.10499087,-0.061321482,0.0022885965,0.029571539,0.14067297,0.3005442,0.15124397
P48556	0.38715863,0.018605763,0.05115432,0.08999413,0.04202136,-0.3976738,-0.29019335,-0.23205428,0.50456756,-0.07718917,0.06098176,-0.21188432,-0.4249659,-0.32182986,-0.03401718,-0.3221476,0.34215128,-0.02466206,0.07035868,-0.20610705,0.20184721,-0.09319704,-0.16435283,0.13229221,-0.013811187,-0.17775683,-0.16389802,-0.11626183,0.09666643,-0.16807956,-0.25472322,-0.22810146,-0.0066539603,0.20030269,-0.10536429,0.11016752,0.14947322,-0.029282508,0.09754839,-0.23609795,0.39020875,0.21205188,-0.109968446,-0.1980503,0.17877638,-0.0720306,-0.1506053,0.024321258,0.10395765,0.00042741676,0.12990072,0.04699176,-0.018585557,-0.078400776,-0.042749956,0.09927174,0.07497609,-0.15941975,0.22260866,-0.31715453,0.31935003,0.23016736,0.03444684,0.57595867,-0.16531043,0.38911426,-0.30811784,0.19643302,-0.34282643,-0.2818606,-0.27058095,-0.30900395,-0.09994877,-0.26240712,-0.15907617,0.09177457,0.12933768,-0.04083531,0.36299038,-0.10553384,0.032576114,-0.1028405,0.11522844,0.050482035,-0.009178814,-0.030094992,0.18362458,-0.111281045,-0.086203694,-0.16623907,-0.069516115,-0.4862853,-0.25295308,0.4987273,0.3860892,0.03766259,0.16223261,0.16832525,-0.13156584,-0.27960917,0.13709234,-0.22043619,-0.3490031,0.16673562,-0.12226917,0.19178745,-0.2893323,-0.19675851,0.11345433,-0.014347179,0.069957905,-0.16760223,0.2983917,0.2532254,0.37155786,0.15995607,0.122290775,0.20874204,-0.24180894,0.02620192,0.10257474,-0.019069493,-0.346511,0.011336115,0.5301759,0.2665917,-0.099376224,-0.2066188,-0.48591825,-0.12757683,-0.038627606,0.22521679,-0.4261614,0.5941147,0.13455051,-0.015933525,0.42002738,0.18753433,-0.04100806,0.45436558,-0.22491385,-0.26642343,-0.42276502,0.49224985,0.5987608,0.7182553,0.3631058,-0.18061462,0.63503253,0.15947084,0.31464338,0.09449795,-0.06724515,-0.2783188,0.31631646,-0.10141752,-0.055389985,0.07962606,0.47386694,-0.19385028,-0.55420566,-0.052086014,0.025673209,-0.36958718,0.13398758,-0.14433645,-0.12657766,-0.024808109,-0.30578595,-0.31624135,0.01518023,-0.19754717,0.10538611,0.12813593,0.22270533,-0.3122482,0.17730018,0.21044898,-0.6137717,0.5673701,0.33872768,0.094002165,-0.21295536,-0.3380501,-0.22312278,-0.056382068,-0.30877793,0.41616312,-0.2457631,0.3859568,-0.59958816,0.2745962,0.08252427,0.032627895,-0.2188805,0.33447608,0.2754479,-0.122696176,0.3026993,0.41823015
P30049	0.087980986,0.07745036,0.31683248,-0.28004435,-0.116950415,-0.19447067,0.3296361,0.009576586,0.20800582,0.10472126,-0.1777462,0.09340325,-0.64511013,-0.4542646,-0.072215855,0.18850319,-0.14448851,-0.5415954,0.3051586,0.068082005,0.073102586,0.095898576,0.24835931,0.072267935,0.10948263,-0.16184269,0.00520608,-0.19728233,0.40105465,0.039857198,0.39220557,-0.17957863,-0.39078438,-0.11099337,-0.0005527868,-0.0030166493,1.0754673,-0.16836555,0.18197863,-0.41668397,0.5314586,-0.10238041,0.019983279,0.27304262,-0.288901,-0.3079733,-0.24888144,-0.13038129,0.22028127,-0.30840322,-0.4692797,-0.29183626,-0.19710162,-0.62906873,0.026297567,-0.18445057,0.020545853,-0.16911359,-0.07842173,-0.11419412,0.45924369,-0.10982334,-0.10660781,-0.14834851,0.3180893,0.20467158,-0.19495763,-0.05828283,-0.12741207,-0.2045659,0.21667339,-0.45643175,-0.30792528,-0.17210914,0.20939812,-0.16391772,-0.44550267,-0.09200026,0.68552387,-0.24525571,0.105906665,-0.1477522,-0.20220138,-0.09716402,0.22687015,0.097995825,0.38309327,-0.2566673,0.2023337,-0.05345854,-0.13978058,-0.38116813,0.24167752,0.42097673,0.2366316,0.067763016,-0.0064079855,0.46770695,-0.1818414,-0.38565463,-0.20228764,0.077056564,-0.282098,-0.4078105,-0.15877093,0.3579193,0.13617314,0.2966295,0.20250897,0.7772844,0.48105767,0.05401588,-0.06010966,0.2342503,0.47048664,0.05290864,-0.15962325,-0.19862956,0.15113175,0.08004564,-0.046898253,-0.018648004,0.024973275,0.0280178,0.18996212,0.2626826,-0.042736128,-0.1843787,-0.1125937,-0.19529946,0.051443525,-0.19646105,-0.13652134,0.19492286,0.21566357,0.25365242,0.17892149,0.24035513,0.47691417,0.14553216,0.17376515,-0.52016526,-0.3342433,0.5610253,0.25342476,0.18863878,0.08093686,-0.062448524,0.48055065,0.24393265,0.19528419,-0.33669734,-0.035432823,-0.37574133,0.33398443,-0.12496623,-0.18618111,0.78748024,0.21378987,-0.3911687,-0.6722591,0.2928655,0.47360936,0.27159926,-0.100082844,-0.056187928,-0.048569817,-0.056204606,-0.079799354,-0.36623234,-0.27731922,-0.48258266,0.345501,0.21407488,-0.13286497,-0.083952844,-0.13151634,-0.08572202,-0.8079159,0.0073211114,-0.1883705,0.060846273,-0.2549125,-0.1983691,-0.054964762,-0.26178974,-0.06495711,0.3718737,-0.10094697,0.37626165,-0.6723264,0.38307777,0.30795854,-0.19704092,0.22685708,0.327208,-0.16389874,-0.2675615,0.09423749,-0.086167045
P17568	0.25874993,-0.081382684,0.1029476,-0.19677147,0.064114146,0.019296767,0.34073883,-0.27217174,0.044568498,0.4190138,0.022060722,-0.065130584,-0.53135675,-0.37109536,-0.11093975,0.1682877,0.32750568,-0.8461282,0.11675757,0.2280823,0.21204928,0.20902786,0.14979082,0.3860352,0.5395394,-0.081182376,-0.18245827,-0.3038191,0.32090524,-0.23159924,0.29234883,-0.31934765,-0.25105706,-0.040506143,-0.0766087,-0.016674614,0.65776145,0.21290103,0.21124731,-0.26002192,0.6789641,0.13918272,-0.23465234,0.34269354,-0.023875086,-0.12946163,-0.11500253,-0.21086602,0.050954826,0.11052896,-0.34979898,-0.19879861,-0.07377598,-0.30267435,0.2976608,-0.20905256,-0.059526272,0.10432688,0.025997343,-0.22485268,0.43725118,-0.3902672,0.16787441,-0.12529679,0.21714757,0.2904047,0.041066237,-0.218754,-0.08974055,-0.4587494,0.2011918,-0.5795863,-0.1251506,-0.10466828,0.2608033,-0.29342753,-0.2547737,-0.21527654,0.62332,-0.16960734,-0.030121306,-0.28516844,-0.15354167,-0.27202523,-0.002967625,0.20864202,0.1946403,-0.1492749,0.20811522,0.13497986,0.41733775,-0.48403418,-0.08519494,0.42522234,0.16834575,0.07464383,-0.05976154,0.4969955,-0.2839505,-0.057209298,-0.15148777,0.2134947,-0.18758287,-0.030733377,-0.046882577,0.25109017,0.11454545,0.42586747,0.21679878,0.4205985,0.14073415,-0.28602046,-0.15008463,0.037729092,0.36742386,0.063987635,0.31546083,-0.3617107,0.22424927,-0.06885165,-0.16847904,0.19126555,-0.27431217,0.21580184,0.3205515,0.11789174,0.030855747,-0.3102996,-0.2574858,-0.248113,0.014350193,-0.30562264,-0.17083415,0.29494658,0.40097347,0.47008595,0.019416282,0.1539201,0.25334552,0.30556294,-0.24331298,-0.20050196,-0.4126366,0.23004505,0.038946856,0.35775903,0.22091852,0.13005164,0.58966523,0.5074917,-0.15981194,-0.3065104,0.10440539,-0.2689859,-0.0914914,0.11101438,-0.1990214,0.41402826,0.011193413,-0.2551487,-0.3838282,0.11775386,0.25300524,0.40415257,-0.14694494,-0.4030777,-0.024549868,0.14721182,0.15574469,-0.45470363,0.110360146,-0.3824489,0.04500954,0.34806553,-0.07967482,-0.35951585,-0.3884446,0.2898802,-0.897048,0.014119125,-0.39850506,-0.54869276,-0.21209008,-0.10150109,-0.031188495,-0.5193549,-0.17946734,0.43723473,-0.18715583,0.48423722,-0.66774905,0.4580087,0.35012135,0.022568533,-0.10327611,0.45120806,-0.14703795,-0.03870647,0.1668783,0.09762723
P62318	0.34821036,0.058092687,-0.09928854,0.14389439,0.12880385,-0.33832693,-0.14952141,-0.09906322,0.48751387,0.22858731,-0.04950317,0.0815478,-0.5254951,-0.088086314,-0.15314382,-0.13280958,0.36351022,-0.27149436,0.20832008,0.021621488,0.031118665,0.08015195,-0.0267823,0.10522737,0.1776803,0.14183682,-0.13401638,0.0707189,-0.022180563,-0.09977561,-0.03362688,-0.04141778,0.22427651,0.20439671,-0.2880151,-0.06316181,0.16967238,0.5425593,0.10160147,-0.2258179,0.3172539,0.41999236,-0.39812383,-0.1004617,-0.071862146,-0.11539599,-0.028211502,-0.06778461,0.13580889,0.061981417,0.43956104,0.10511214,-0.022970952,0.09199703,0.098345235,-0.11384302,0.10838167,-0.13214485,0.052993428,-0.266564,0.44377387,0.13638808,-0.027363917,0.26678404,-0.14916402,0.4007827,0.22262618,0.055754233,-0.31104204,-0.14662737,0.060795445,-0.23183197,-0.06363394,-0.21726228,-0.051490285,-0.083374724,0.070426516,0.17944358,0.50365585,-0.26103365,0.020680046,0.13060646,0.31194416,-0.144471,0.22775126,-0.09397297,0.2369233,-0.17696673,0.1281474,0.020005908,0.01574797,-0.43751964,0.15823087,0.18895598,0.06470331,0.0065182983,0.07029023,-0.09330301,-0.23237407,-0.069785595,-0.18822876,0.06404481,-0.51711935,-0.10831813,-0.23065521,0.24957225,-0.0011702885,0.0016327462,0.036764555,0.1396603,0.21654204,-0.24973123,0.19790244,0.22325268,0.50509685,0.34963876,0.0042614783,0.25409165,-0.023147922,-0.040499613,-0.18569636,-0.14379123,-0.34192282,-0.01723027,0.35818484,0.2339623,-0.09694418,0.17722473,-0.39041674,-0.03988639,0.029760323,0.035749856,-0.51714325,0.67470795,0.2106608,-0.010384291,0.2150493,0.21404487,-0.057722744,0.31413862,-0.14258477,-0.38151926,-0.19380066,0.43467924,0.35214812,0.5521462,0.2809104,0.0074071432,0.5575232,0.35142243,0.3215001,0.12157302,-0.14247547,-0.428736,0.34427848,-0.18847454,-0.30406582,0.2485566,0.3148318,-0.22623199,-0.6312768,-0.08335789,-0.0388778,-0.12894614,-0.13443625,-0.07587373,-0.1337594,0.058757942,-0.12619457,-0.1909437,-0.11842656,-0.2895586,-0.048963197,0.03245492,-0.06267496,-0.316269,0.15565819,0.25392053,-0.6364898,0.53584415,0.25835007,0.003305638,-0.42604548,-0.4620267,-0.04237366,-0.27147892,-0.31720874,0.35580623,-0.65449804,0.39802787,-0.31718457,0.22362235,0.15745819,0.08772689,-0.12728111,0.26860866,0.05666004,-0.036222193,0.11541423,0.42603627
P33992	0.001768463,0.17827478,0.28114855,-0.033401776,0.0040924535,-0.36184466,-0.0038616876,-0.20107935,0.3053755,-0.07844775,-0.026057066,0.49938416,-0.36016208,-0.09030742,-0.2210396,-0.16209775,0.30872333,-0.24744748,0.18279749,-0.24971524,0.15923306,0.20375544,0.07019146,0.100518465,-0.12539639,-0.060538977,-0.09524667,-0.034245312,-0.009371089,0.023206407,-0.11612814,-0.15053345,-0.23119792,0.18776943,-0.19393867,-0.07400527,0.44074717,0.1405385,-0.091572374,-0.37468216,0.33186683,0.042428788,0.047541715,-0.14030088,-0.048661847,-0.12553775,-0.17353098,0.018631466,0.07218476,-0.14394242,0.023296032,-0.03130053,0.04566656,-0.26883185,-0.057304554,-0.23583718,-0.19893925,-0.24567483,0.11379736,-0.063585274,0.13105991,0.15649103,0.14900087,0.15973708,-0.05010825,0.49207336,-0.20379834,0.095119484,-0.4021291,-0.33744776,-0.121869296,-0.22974505,-0.25774798,-0.2955042,0.06731611,-0.10405542,0.15717135,-0.13041466,0.41561094,0.06060236,0.21665204,0.033698846,0.087269984,0.006271082,0.2680559,-0.029887741,0.34449553,-0.1292862,0.09521319,-0.11856251,-0.17729841,-0.55634403,0.40908158,0.27851078,0.13968596,0.1740529,-0.022021975,0.19934888,-0.076540284,-0.31901273,-0.03719778,-0.02181127,-0.42137405,-0.26131752,-0.22594143,0.26653856,-0.036007293,0.081533395,-0.0025774066,0.25544825,0.15669735,-0.18726222,0.30728996,0.35924625,0.48203668,0.1534744,0.008755615,0.094460726,0.0010524231,0.112645455,-0.030388992,-0.09413993,-0.24285693,-0.0020155099,0.42491052,0.18397006,-0.081074715,-0.047014967,-0.09458079,-0.22449934,-0.25691906,-0.039272137,-0.41487554,0.42383647,-0.005814803,0.009885223,0.16463836,0.025361348,0.11237167,0.4764246,-0.14485773,-0.27012768,-0.26084012,0.652752,0.5962409,0.5356909,0.21686901,-0.059960015,0.60919255,0.20213427,0.37837383,-0.2698625,-0.15051386,-0.440279,0.45132923,-0.18326847,-0.20604368,0.09629048,0.4118388,-0.36420843,-0.5807859,0.18189867,0.23828118,-0.065729,0.012801096,-0.18471774,-0.054328825,-0.024120376,-0.2129351,-0.3238323,0.021517703,-0.33392248,-0.074814215,0.44402844,0.14155324,-0.24981621,0.01049131,0.17831746,-0.76660115,0.23585474,0.45332113,0.13117793,-0.041995004,-0.30537376,-0.016545877,-0.18015723,-0.2517067,0.5152371,-0.3801053,0.32189006,-0.43803036,0.08921903,0.08431302,-0.22377819,0.16135335,0.35386884,0.098634236,-0.02171775,0.13618958,0.39676243
O15371	-0.010774918,0.016688475,-0.1883344,-0.114666104,-0.18452011,-0.21632767,-0.021667816,-0.24140924,-0.0034236852,0.20214327,0.16933447,0.22804618,-0.18348588,0.16547592,-0.4870696,-0.13877952,0.32458207,-0.036314707,0.053262305,0.25628635,0.11234761,0.52329135,-0.075462654,0.28286588,0.18981457,-0.21078163,-0.08676668,-0.12244845,-0.08671589,-0.31805748,-0.25588107,-0.117110215,0.385942,-0.25839135,-0.2510331,-0.191562,0.40529698,0.27555734,-0.041020367,0.010465651,0.17789176,0.409201,-0.4915756,-0.29439315,-0.3360801,0.1154534,-0.04132252,0.047228202,0.23869023,0.16910984,0.39299348,-0.12847213,-0.16222455,-0.08471071,0.18155952,-0.27019325,-0.1660399,0.07128947,0.2106777,0.041885026,0.53263766,-0.2691136,-0.21880981,0.31287235,0.06264092,0.39752987,0.24540786,-0.19436234,-0.24831271,-0.27825278,-0.30472952,0.10716485,0.076287016,-0.2605832,0.17370556,0.12033492,0.11757485,-0.23100615,-0.009322005,-0.2418772,0.11033295,0.26213095,0.04013949,0.1434587,-0.019858904,-0.0077785244,0.03502023,0.047521092,-0.22071283,0.25071406,0.49232474,-0.3435341,0.16405295,-0.090422295,0.24395536,0.32276922,-0.17703424,0.09214495,-0.07948907,-0.08226485,-0.6426383,-0.05336426,-0.29081923,0.088413425,0.20090334,0.2105149,-0.021995855,0.2572465,0.2228832,0.3512324,-0.026518092,-0.40714726,0.31659016,-0.021337317,0.56517357,0.22506125,0.4530457,-0.03379917,0.009554738,0.04668411,-0.02026961,0.050439704,-0.29245946,-0.023262931,0.001090311,0.17282411,-0.08048276,-0.09941053,0.119342394,-0.4634444,-0.14545801,-0.14269023,-0.46997622,0.5265133,0.49815246,0.14291868,0.16260691,-0.2058932,0.39487615,0.36146486,0.15532358,-0.2397414,-0.22381088,0.73434204,0.25894904,0.5115821,0.042906135,0.07737335,0.50993407,0.50916964,0.19807841,0.5134304,-0.1611847,-0.09306106,0.29991478,0.076562226,-0.2791077,0.060633726,0.09590446,-0.42485315,-0.49078324,0.27245906,-0.09321775,0.042918026,-0.053110503,-0.073644035,-0.18612391,-0.2573144,0.5322902,0.23824367,-0.05443265,-0.16180128,-0.4999623,0.0735799,0.15831995,-0.48396516,-0.008153773,0.26914245,-0.47770718,0.037576687,0.4800737,-0.018679129,-0.08785876,-0.1639534,0.098069794,-0.102707125,-0.375757,0.49846753,-0.40756816,0.44308245,-0.12726752,0.09498693,0.36567116,0.00034222374,0.1041858,0.03446962,0.06536536,0.23409231,-0.020524187,0.57022953
P62877	0.30002823,-0.08837994,0.106565475,0.07772014,-0.04388024,-0.3560094,-0.5455963,-0.09060053,0.41947225,-0.08813315,-0.17854033,-0.026866764,-0.36496997,-0.20647825,0.06169955,-0.12720382,0.20635511,-0.17674482,0.009282246,-0.11916945,0.36738458,-0.20484261,-0.16453005,0.10892357,-0.110637985,-0.22103336,-0.15633275,-0.05162067,0.23082995,-0.19203034,-0.1017129,-0.20019245,0.058606103,0.090551205,-0.22136566,0.12891415,0.23221584,-0.12329676,0.049320545,-0.15509312,0.15484677,-0.11232744,-0.0149394935,-0.23112503,0.0053115645,-0.1508718,0.029542016,0.10332301,-0.0036818981,-0.093043484,0.3592692,-0.06317237,-0.005179098,-0.09988555,0.008264118,0.10156247,0.014028147,-0.28778017,0.3254793,-0.33581465,0.18165655,0.17505081,-0.12756781,0.3148871,-0.11747934,0.23898105,-0.30512094,0.290927,-0.33111387,-0.11878013,-0.13456194,-0.316614,0.021013407,0.0073401122,-0.32202703,0.12958166,0.16324459,-0.05677791,0.44531757,-0.020676296,-0.099858955,0.16123968,0.2010341,0.12131023,0.114363484,-0.117188536,0.12933367,-0.3251914,-0.22260712,-0.28145385,-0.18344124,-0.3307652,-0.1864681,0.38734272,0.4665524,-0.12455884,0.046113912,-0.066456884,-0.21121997,-0.0947158,-0.0732263,-0.21868563,-0.36809033,0.26991692,-0.2877089,0.04192056,-0.28773677,-0.013007402,0.27714962,0.11436334,0.22395578,-0.23218676,0.25828975,0.28249696,0.5605523,0.31247526,-0.080162816,0.15249074,-0.33048853,0.10863308,-0.0001310709,0.22409959,-0.4911378,-0.026506608,0.2979801,0.30146688,-0.06995183,-0.13646357,-0.44627017,0.21157934,0.1610215,0.2982321,-0.3416477,0.54970634,0.13320066,-0.1883433,0.5994281,0.17332353,-0.14856385,0.29696506,-0.15316169,-0.3603334,-0.3045639,0.37553817,0.81537133,0.63907135,0.113115236,-0.20079564,0.49234027,0.15164582,0.308063,0.10554286,-0.121569216,-0.20625453,0.13295895,-0.1645042,0.0021222827,-0.06452146,0.50202125,-0.1254447,-0.65155447,-0.18410406,0.021239547,-0.3953618,-0.08157822,0.0126939,-0.22074755,-0.010817888,-0.12443339,-0.25966093,-0.14188011,-0.13507752,-0.12557076,-0.2714652,0.031979732,-0.40326926,-0.103297606,0.18155564,-0.62810767,0.5595157,0.23858654,0.3011494,-0.17956167,-0.4638885,-0.014786598,-0.19989637,-0.43253744,0.4393552,-0.2790334,0.32116342,-0.70092857,0.19221474,0.062152296,-0.03797118,-0.28287363,0.17477994,0.2467424,0.04916715,0.31074083,0.32830584
P10144	0.33515075,-0.22890306,-0.15812849,-0.2055703,0.05080066,-0.10125221,0.06894742,-0.05119313,0.0257491,0.031095669,0.07873337,0.16394332,-0.5470042,0.06539177,0.11540779,-0.3309591,0.22892126,-0.59292823,0.046230614,-0.05579211,-0.16373871,0.11862546,-0.03156543,0.062518515,0.2958734,-0.04702717,-0.36095276,-0.21185789,-0.28845298,-0.33090368,-0.40154728,-0.20401405,-0.25555992,-0.040685773,-0.11281506,0.033184163,0.2456835,0.20701739,0.087957926,-0.34544775,0.17798717,0.14305145,-0.44609118,-0.08320497,0.04784243,-0.12256589,0.05651428,-0.36473346,0.12885953,0.32995084,-0.31179708,-0.19245492,-0.114900425,-0.15629429,0.2269153,0.09809866,0.09311157,-0.07651215,-0.12799372,-0.091576666,0.29368922,0.08656905,0.022536498,0.42796704,-0.09329047,0.2858919,-0.11181565,-0.099471755,-0.080779836,-0.20016266,-0.10854972,-0.38935322,0.048850536,-0.42753285,0.22336513,0.0015326863,0.34155396,-0.17467251,0.5848061,-0.0072950115,-0.09316679,-0.04425739,0.11010287,0.0003457852,0.0813987,0.06853827,0.22311807,-0.22544153,0.04799723,-0.136072,-0.013921154,-0.5674667,0.25619286,0.20496969,0.24296744,0.22412243,-0.0001701719,0.12920251,-0.022529544,0.022006497,-0.2439167,0.16165495,-0.28693423,0.023422798,-0.009693266,0.41906232,-0.10556844,0.1742271,0.21123563,0.29550156,0.067291945,-0.26431465,0.18684086,0.047128648,0.23502302,0.21552023,0.37380114,-0.032971084,-0.04176146,-0.1017623,-0.10552722,-0.03687525,-0.41077626,0.042219337,0.26700643,0.2485447,-0.115222655,-0.1141255,-0.10722365,-0.22214365,0.00024123437,-0.014839574,-0.41663432,0.5474864,0.21868008,0.3253287,0.26597178,-0.059189606,0.08958087,0.47843853,0.0011795354,-0.13956447,-0.276811,0.27830303,0.06951309,0.49760383,0.26148587,-0.20861624,0.5481234,0.3922334,-0.013084298,0.08267405,-0.086297356,-0.17860161,0.33370432,0.09360734,-0.3086028,0.13905412,0.061081324,-0.2334367,-0.5215457,0.012516538,0.18876338,-0.023883894,0.16574322,-0.034042865,-0.10200085,-0.1693028,-0.10167853,-0.11686347,-0.114322014,-0.31226635,-0.027460596,0.55108047,0.36426958,-0.4926387,-0.09023886,0.041504137,-0.85461396,0.071055286,0.17319609,-0.13403027,-0.23671462,-0.16751744,0.09493814,-0.120363496,-0.46192253,0.3812396,-0.065545924,0.33514467,-0.3284966,0.16033876,0.29096276,-0.027665867,0.03152416,0.4087065,0.14761403,0.32377756,0.120474294,0.2244226
P25788	0.23618822,0.04552349,0.0009812792,0.10029101,0.06722903,-0.42773622,-0.25271067,-0.14886568,0.23116605,-0.026545092,0.11698693,-0.31380674,-0.22192247,-0.19285053,-0.01827744,-0.16372256,0.15807511,0.13437447,0.1510272,-0.26645193,0.13427363,0.13452518,-0.1613118,0.17273466,0.07639354,-0.19187433,0.046302196,0.042423047,0.41073957,0.056600153,-0.15292887,-0.23732342,0.013015085,-0.031013634,-0.16556503,0.07100403,0.27707008,-0.20545441,0.39625585,-0.09878012,0.2295221,0.22159874,-0.21302228,-0.12340788,0.13929456,-0.18556304,-0.037062466,-0.19542246,0.023921657,0.1911033,0.29218027,-0.26747757,-0.0643805,-0.03131238,0.24110009,-0.06332583,-0.111939885,-0.1766285,0.124186605,-0.21677347,0.24060585,0.20990244,0.11882599,0.522963,-0.25652522,0.48555836,-0.11371161,0.24483886,-0.3070401,-0.21540585,-0.190315,-0.20023735,-0.08459342,-0.26237285,-0.16013284,0.23180941,0.1447413,-0.22719423,0.2716116,0.005927484,0.046957258,-0.049743567,0.022903305,0.05525426,0.10564702,-0.09064741,0.13038062,-0.07880234,-0.102886245,-0.3137665,0.1491134,-0.44313508,-0.24386534,0.38650933,0.26144525,0.068411745,-0.067992456,0.0015271439,-0.036000982,-0.34658268,-0.16115198,-0.40649125,-0.3108405,0.36673075,-0.0044628084,0.33135423,-0.10856494,-0.43399706,0.12577051,0.33696604,0.05089106,-0.23057409,0.33995587,0.28911793,0.5051393,0.04688807,0.16705966,0.06866268,-0.09554596,-0.06735825,-0.10766482,-0.072021954,-0.33322352,-0.04205267,0.21696535,0.22644523,-0.030004222,-0.15104197,-0.3344312,-0.07399038,-0.06965973,0.15205191,-0.33645576,0.6636141,0.16428119,0.015895333,0.2670434,0.16501234,-0.2583922,0.5974185,-0.14745076,-0.40770173,-0.37990025,0.6481801,0.515559,0.8356954,0.31667605,-0.1001026,0.6216832,0.15306006,0.1556479,0.055695053,-0.18261942,-0.19126648,0.3572703,-0.34207824,-0.08956587,0.09844905,0.41679072,-0.2145779,-0.47600335,-0.026961563,0.04181776,-0.37392724,0.06734862,-0.12582028,0.04596648,-0.10007053,-0.24207973,-0.26796252,0.022162905,0.04405369,0.07395241,0.02845276,0.09109099,-0.41003725,0.07051476,0.14972144,-0.6455035,0.35370365,0.34003347,0.124238044,-0.2499202,-0.10807551,-0.11276835,-0.16129212,-0.38766563,0.4726034,-0.068019815,0.52508676,-0.3353116,0.20366138,0.043830797,-0.1029565,-0.064395756,0.09717866,0.31876588,0.07723406,0.274339,0.22679642
O14965	0.2460877,0.099239945,0.08792913,0.08125665,0.1377372,-0.11741627,-0.27915132,-0.08043907,0.68133664,-0.1411217,0.1848196,0.23560108,-0.3797325,-0.20735386,-0.17394726,-0.53173023,0.02326052,-0.0079272,0.06729925,-0.2159339,0.36634362,-0.063959114,-0.14573908,-0.09135218,-0.08457189,-0.0475534,-0.18122134,-0.09206552,0.29295695,0.026394596,-0.19128118,-0.14308482,-0.19591592,0.10561853,-0.15045048,0.12330502,0.21587764,0.12282071,0.14476025,-0.2767975,0.01629269,0.18359497,-0.033503767,-0.07701309,-0.10572148,0.060968213,0.15921527,0.016590366,0.15427166,-0.27550754,0.041592665,0.030955646,0.003532662,-0.28477016,-0.13346262,0.012164038,-0.14342509,-0.21089344,-0.10703879,-0.15879667,0.105687924,0.14363359,-0.07773662,0.29069787,-0.1826247,0.14763981,-0.27114874,0.24566326,-0.2562605,-0.32197472,-0.16870527,-0.25236654,-0.14691332,-0.3921381,-0.10301544,0.06883457,0.14182226,0.08627868,0.31950563,-0.0153044695,-0.0140544595,-0.09431785,0.38579646,0.14339626,0.066667944,-0.15830554,0.35457632,0.030963333,0.012098509,-0.011587971,0.016858893,-0.5114495,0.12999603,0.36458278,0.20096996,-0.06377654,0.044647556,0.22635728,-0.06415745,-0.23056798,0.040555224,-0.047685858,-0.26160377,-0.09335448,-0.12602755,0.275885,-0.005255368,-0.20331018,0.08082008,-0.04821248,0.10126697,-0.0052360035,0.24799414,0.36042657,0.61301076,-0.042375494,-0.21467476,0.24946192,0.014593635,0.00763886,0.08701801,0.14107515,-0.3437947,-0.03192114,0.6079436,0.19312552,-0.15517922,-0.33836573,-0.09424364,0.07367249,0.072991334,-0.044854026,-0.3522773,0.37367988,-0.12057076,-0.099891596,0.5301166,0.18231466,0.26899844,0.47320998,-0.21035644,-0.39560774,-0.1013056,0.47288722,0.7517542,0.56084627,0.2645753,-0.076148584,0.7831253,-0.10258894,0.36840555,-0.059466768,-0.007823352,-0.16529281,0.36059403,-0.25321764,-0.048381075,0.06612184,0.54322916,-0.07979626,-0.6361749,0.038716704,0.17923205,-0.299948,0.22244194,-0.14504589,-0.23599014,-0.36238298,-0.16309553,-0.36251092,-0.10808587,-0.13440584,0.025680656,0.3502333,-0.0529854,-0.19777569,0.16501716,0.07102583,-0.72647554,0.4110948,0.41388026,-0.023813276,-0.15467289,-0.43947893,-0.05690715,0.16134942,-0.3704764,0.31437802,-0.24592823,0.16547726,-0.394268,0.18133868,0.20662919,-0.09313469,-0.08801334,0.14860642,0.13131098,0.0021063425,0.17635018,0.041805606
P68400	0.26048583,-0.1698763,0.18222146,0.024056884,-0.12610358,-0.07299872,-0.09325505,0.1329754,0.47612405,-0.120688505,0.029367454,0.40332064,-0.23207103,-0.055344164,-0.04604885,-0.1507042,0.13588482,-0.4908323,0.18220767,-0.32779905,0.016492274,0.17398308,-0.35818368,-0.088265084,-0.044301983,-0.15256913,0.016413523,-0.1315894,0.070109844,-0.08525762,-0.44975248,-0.15174684,-0.18691699,0.14419547,0.06740884,0.21003988,0.155124,0.20641012,-0.10053383,-0.297014,0.20829727,0.08273589,-0.2593628,-0.25951365,-0.12046931,-0.035694458,-0.014860816,-0.010537903,-0.15835597,-0.22976498,-0.28659454,-0.04497155,0.25134775,-0.33332762,-0.093685634,-0.10704043,-0.10467103,-0.22640964,-0.10349055,0.11953409,0.2092061,0.5124921,-0.011093482,0.31693757,-0.08137777,0.19766027,-0.19491209,0.12857993,-0.32680634,-0.20957303,-0.16289088,-0.30964512,-0.028187212,-0.3800067,-0.058096737,0.2889128,-0.025981909,-0.034991454,0.28104168,-0.0038824452,-0.079335056,-0.31253698,0.039099466,-0.045143038,0.030425616,-0.2586218,0.607207,0.036241505,0.06460196,-0.19245976,-0.22498715,-0.542749,0.120381884,0.24572502,0.33172834,0.16354437,0.17715757,0.13079467,-0.14584477,-0.24696386,0.051859375,-0.3066165,-0.28426912,-0.33349088,-0.18891338,0.3593635,0.09931934,0.023650646,-0.17665724,0.11291694,0.19560796,0.07158286,0.28751397,0.40502456,0.3619929,-0.1450421,-0.04857154,0.4493641,-0.15774286,0.19931433,0.12253846,0.097409286,-0.18636517,0.05342893,0.28860158,-0.0073659075,-0.2903689,-0.08526108,-0.23558487,-0.15790202,-0.23186097,0.18751177,-0.538343,0.51875645,0.10615831,-0.14453664,0.40800604,0.061547052,0.096851334,0.23668769,-0.07109872,-0.30546582,-0.19634531,0.40865472,0.71063083,0.49152184,0.23048747,-0.046146974,0.6972527,-0.15411223,0.43891323,-0.22066788,-0.32746485,-0.40386268,0.43694782,-0.1362344,-0.37408414,0.15644428,0.54395,-0.2552889,-0.73413455,0.075641416,0.12788662,-0.41011518,0.22166027,-0.2871971,-0.33353233,-0.33486637,-0.010836185,-0.17785652,-0.081534885,-0.40145552,0.18784495,0.3603167,0.21578258,-0.20803186,0.20895791,0.09406676,-0.69033873,0.12393279,0.47635722,0.15087864,-0.14459977,-0.5061321,0.19535282,-0.05556794,-0.117375195,0.4596628,-0.17029355,0.17747991,-0.43872213,0.037116874,0.21024618,0.15203921,0.004711926,0.37505385,0.1513377,-0.110412665,0.114895955,0.09045165
Q9H444	0.3092752,-0.16410108,0.0014721744,-0.15471588,0.07838225,-0.31639352,0.02921938,0.06547447,-0.17803115,0.0448964,0.021720057,0.14032541,-0.25482666,-0.16281796,-0.04558263,-0.24010424,0.29395437,-0.12928692,-0.15908316,-0.10427174,-0.2071676,0.31802654,0.02920588,0.20120265,0.3410235,-0.086700335,0.008909584,-0.005696391,0.054062273,-0.17710654,-0.48659328,-0.033192694,0.17890579,-0.13901901,-0.16944264,0.06759051,0.23351805,0.32316723,0.38945863,-0.41829947,0.31259516,0.2476015,-0.6089671,-0.29605982,0.13675945,-0.07365385,0.17926414,-0.24724115,0.08207417,0.3469337,0.0500574,-0.4271274,-0.08291703,-0.102871574,0.42906442,0.13136347,-0.15228069,-0.19656608,-0.14435677,-0.039014045,0.23614821,0.11926183,0.1431656,0.4579595,-0.32429865,0.3287086,0.009686481,-0.035609238,-0.31732923,-0.1552708,0.07936196,-0.3267707,0.06778993,-0.18333544,0.008474564,0.18064879,0.2958214,-0.00967755,0.5739739,-0.057992794,-0.027924746,-0.14758685,0.03660795,-0.1123761,0.24106763,0.23915482,0.07441959,-0.041610587,0.042396206,-0.11816333,0.14155622,-0.29746574,0.20003533,0.48038647,0.124612175,0.27438644,-0.054195214,0.09975323,-0.13690299,-0.26627684,-0.28283852,-0.21042453,-0.3337234,-0.00025154836,-0.025298266,0.6284207,-0.014139916,0.022839747,0.301997,0.069490135,0.083993465,0.033195537,0.2954756,0.23387095,0.29356715,0.38687876,0.044814818,0.07313436,-0.08291281,0.0005298831,0.048704803,-0.058204766,-0.16190259,-0.34938607,0.26208675,0.33429208,-0.2558696,-0.33464435,-0.30840507,-0.23882858,-0.13007322,-0.10339671,-0.27251992,0.57101315,0.1314921,0.041881364,0.014295715,0.28757375,-0.19204123,0.48026934,-0.05960369,-0.06463189,-0.20063408,0.46627524,0.16033912,0.629435,0.27348304,-0.041323606,0.71649057,0.11256908,-0.077196285,0.090756364,-0.01436889,-0.13860552,0.40093464,-0.2708284,-0.27847546,0.29154536,0.23461021,-0.21225525,-0.47994784,0.027804455,0.10377441,-0.1948192,0.31461793,0.05289539,-0.117961645,-0.34166664,-0.043095157,0.11486147,-0.112376116,-0.023074266,0.18785447,0.28597134,0.24169867,-0.39903885,0.069764294,0.003760036,-0.6610512,0.2981713,0.42083776,-0.17684427,-0.23721528,-0.21345496,0.099955484,-0.27828342,-0.22908625,0.19424157,-0.06129947,0.4281156,-0.20277652,0.32875746,0.20934585,-0.15115562,0.047361393,0.25063455,0.21916947,0.32323194,0.3162801,0.18384823
O75832	0.3051564,-0.1640899,-0.06771817,0.027944649,0.108662434,-0.23767011,-0.2573671,-0.26576915,0.38038793,0.017917791,0.3452116,-0.21874645,-0.31487465,-0.12507051,0.09695168,-0.2833813,0.092261516,0.081334025,-0.015363612,-0.15455416,0.2629667,0.0022252754,-0.22750945,-0.046587426,0.09534178,0.03448848,-0.056188405,-0.14902842,0.19966662,-0.17050523,-0.35319927,-0.24419515,-0.092883036,-0.086576626,-0.09363291,-0.016469803,0.2886591,-0.11570966,-0.053029757,-0.054365594,0.16991173,0.21963264,-0.33065522,0.035272256,0.13017474,-0.099678166,0.16361193,-0.037493974,0.17071918,0.17973341,0.08466083,-0.092145845,-0.095520236,-0.049094323,0.14807327,0.16742414,-0.072255604,-0.15632463,-0.044743564,0.044565015,0.37511033,0.24520268,7.3306175e-05,0.45428795,-0.20051374,0.2213359,-0.32894802,0.12450117,-0.31500453,-0.20824249,-0.2221503,-0.26315904,-0.14605981,-0.33765602,-0.014417899,0.27839416,0.101760514,-0.057630837,0.34194943,0.078277774,0.0776027,-0.02238735,0.23134938,0.12504207,0.06490061,-0.06434856,0.2609837,-0.11035571,-0.14532809,-0.27530277,0.035037864,-0.41764727,-0.056137245,0.33404377,0.23444691,0.067823365,-0.055120293,0.15412089,0.18842134,-0.30328295,9.804996e-05,-0.2909189,-0.3360664,0.2563097,0.004654437,0.27667114,-0.21657124,-0.27369747,0.17641906,0.10395207,-0.1796165,-0.1334814,0.33748716,-0.010942283,0.58533984,0.12227113,0.4047187,0.15198907,-0.23634079,-0.038843036,-0.12531057,0.21381044,-0.5424465,0.037282106,0.3929257,0.23262407,-0.10481588,-0.1758965,-0.33063182,-0.044016663,0.000527874,-0.025784137,-0.3697514,0.42379647,0.2916348,0.0017934224,0.41417783,0.03768874,-0.001912091,0.5690423,-0.31299397,-0.2651858,-0.25302544,0.50087357,0.5085351,0.8765543,0.22830196,-0.18671018,0.71010244,0.13591294,0.2421337,-0.089597724,-0.13147056,-0.14441526,0.24506623,-0.083876856,-0.17781658,0.028680723,0.41943648,-0.19141217,-0.44967562,-0.032056786,0.081761494,-0.38749573,0.03877135,-0.3419021,0.008071027,-0.015096916,-0.06438361,-0.36905035,-0.007628361,-0.09979608,-0.025196105,0.16493256,0.056455903,-0.35456926,0.1216026,0.15714943,-0.58226323,0.4564114,0.22374564,0.012802692,-0.22073913,-0.19522098,-0.122860156,0.024586113,-0.4985819,0.4315313,-0.14472051,0.4057476,-0.53252465,0.41280955,0.091547266,-0.1191659,-0.118306436,0.27519557,0.25932667,0.19226918,0.0800282,0.17029107
Q9Y5N6	0.0445914,0.23730057,0.16042726,0.18543424,0.12769,-0.48117667,-0.0805733,-0.31563216,0.28824958,-0.02883613,0.10668951,0.08720698,-0.08092898,0.1091567,-0.15904114,0.050244346,0.24280848,-0.287688,0.33218765,-0.057108816,-0.09354713,0.29632354,-0.09379041,0.38528085,-0.12211337,0.044837046,0.4035241,0.093146354,0.16124895,-0.09602151,-0.027027735,-0.4647832,0.10676026,0.10782233,-0.3656122,-0.028118325,0.50372154,0.32362822,-0.28840902,0.10132829,0.12101772,0.32331854,-0.23614547,-0.22239529,-0.20675749,-0.20343818,-0.15866607,0.21509548,0.15992399,0.07363142,0.1370526,0.23462518,0.13892697,-0.036107093,-0.109432176,-0.37103617,-0.12818089,0.041741293,0.26109043,-0.2642601,0.2715321,-0.24890937,-0.11055034,0.2372707,0.021435276,0.2952247,-0.088098995,-0.13942555,-0.28137207,-0.4464635,-0.109537564,-0.1735274,-0.18302876,-0.38576078,-0.14571056,0.1376991,-0.035180937,-0.20728588,-0.05435548,0.04929223,0.11187245,0.18410629,-0.002205646,0.11218911,0.06769407,0.21691172,0.35154384,-0.170201,0.368902,0.11547175,0.08459677,-0.6078546,0.1915856,0.21244459,0.16308375,-0.077730834,-0.06456894,-0.047116257,-0.16207033,-0.24539652,0.23811473,0.06622458,-0.6136673,-0.27717495,-0.09384414,-0.2362936,-0.12210609,0.5096925,-0.05015962,0.39536393,0.31546572,-0.052624464,0.32242104,0.08947725,0.28756523,0.23595281,0.2291633,0.12865926,0.24463843,-0.0293094,-0.04283386,0.05493957,-0.46387553,0.059265222,0.14371093,0.16622259,-0.1926944,0.16892865,-0.2841008,-0.33659747,-0.48775372,0.19277602,-0.57220656,0.4365711,0.30277207,-0.03779117,0.18205622,-0.15939082,0.3437813,0.32973817,0.16025612,-0.40896523,-0.28150803,0.76450723,0.9212228,0.4809624,0.07495394,-0.33788592,0.423763,0.563619,0.2992121,-0.030078754,-0.0469058,-0.42322466,-0.08169773,-0.029810756,-0.13077967,0.19574387,0.2763053,0.046770126,-0.38117328,0.031841777,0.03361144,-0.19517523,-0.2030497,-0.429953,0.025750166,0.38562796,-0.01997305,-0.24016169,0.017500632,-0.50202197,-0.40371403,0.2012477,-0.097944185,-0.21739766,-0.26823208,0.15938334,-0.29717675,0.072232075,0.22011255,0.04957764,0.08875597,-0.11584083,-0.04368129,-0.20472324,-0.13112076,0.86717474,-0.57428473,0.43126422,-0.41229084,0.07166531,0.35439697,0.30569497,-0.43022272,-0.12579839,0.2524222,-0.10737817,0.43170866,0.5839793
P61970	0.07218999,0.13230401,0.031121973,0.025973698,0.20518324,-0.2177525,-0.100536115,0.059367552,-0.14711,0.11277162,-0.02893349,-0.013286055,-0.06326631,-0.09536106,-0.2562087,0.15741834,0.21627021,-0.08461061,0.10610561,-0.012526489,-0.026231747,0.3288933,-0.19121431,0.4079711,0.21848796,-0.03177161,0.26820287,0.0900133,0.3920428,-0.049020905,-0.37380657,-0.029740926,0.30775538,-0.1326639,-0.30653238,-0.15026653,0.17851384,0.27227515,0.18050888,-0.41335166,0.29994658,0.24453188,-0.2929464,-0.17421353,-0.079561874,-0.11161101,-0.32546258,-0.06783874,0.29569277,0.4322327,0.23725264,-0.26987237,0.053244423,-0.187424,0.39691597,-0.12978253,-0.3501836,-0.16182812,0.07577267,-0.10379809,0.26054594,0.009823796,0.15208581,0.2422456,-0.37564683,0.5763137,0.27769518,0.25308225,-0.3753886,-0.24350157,-0.12771074,-0.123174824,0.14236893,0.18268518,0.07409387,0.21844952,0.2731757,-0.015374894,0.2591598,0.029835507,0.111087374,0.018587833,0.045769334,-0.19830233,0.21289086,0.23325221,0.1236538,-0.4155192,-0.13361813,-0.121014364,0.28828984,-0.12364572,0.054312646,0.3098342,-0.17125642,0.18257539,-0.06124064,0.12774879,-0.11044816,-0.22556452,-0.2009212,-0.14603013,-0.42802167,-0.022386674,-0.28731626,0.44795808,0.1632228,0.059580002,0.0694073,0.24474847,0.24179776,-0.20231147,-0.01843769,0.218197,0.53276104,0.14030321,0.14883713,0.039821852,0.10644815,0.09027229,-0.17125368,-0.07718313,-0.3347183,-0.4420853,-0.1560543,0.27360237,0.031010544,-0.071789496,-0.16301683,-0.40481982,-0.039216373,0.03531755,-0.45679253,0.3343913,0.1067625,0.07432127,0.056660984,0.40206477,0.08865848,0.3330668,-0.097728916,-0.1643788,-0.27057892,0.71060675,0.7046923,0.61457694,0.38789466,0.13895315,0.7781234,0.4124954,0.27425766,-0.10145741,-0.029814893,-0.2922504,0.40540636,-0.30100355,-0.014877149,0.5949084,0.43554837,-0.26454926,-0.44640666,0.0757899,-0.2412712,-0.39673445,0.13075005,-0.3408717,-0.09297001,-0.023169547,-0.107482485,-0.0354697,-0.031570937,0.036889236,0.113298364,0.1761289,-0.26654297,-0.24422686,-0.077762574,0.2939286,-0.49549446,0.22732368,0.4351283,0.427853,-0.09267423,-0.21445026,-0.06945202,-0.28847808,-0.2306147,0.5909161,-0.24658658,0.3089602,-0.27551204,0.072524056,0.27218863,-0.13765483,0.033768635,0.24726091,0.18975182,-0.006445727,0.7213857,0.020095088
P19387	0.30431876,0.0009866377,-0.10155432,0.21821637,0.123981796,-0.2905941,-0.25421333,-0.19336382,0.62998384,0.17414142,0.014514891,0.025603428,-0.47102204,-0.08341749,-0.025287412,-0.2686338,0.37522998,-0.0604975,0.008290215,0.06892973,0.24024342,-0.042243667,-0.12302125,0.1396612,0.120794125,0.10780856,-0.057407286,0.038137417,-0.18767458,-0.15410404,-0.034260437,-0.2025128,0.06507674,0.06778192,-0.37680578,0.111696765,0.23981531,0.42323136,-0.053513046,-0.18669899,0.21050584,0.44974744,-0.13488603,-0.24882673,-0.030805228,-0.0978758,0.0009208453,-0.03568295,0.30092174,0.12556718,0.27923757,0.092950605,0.009648768,0.12786788,0.12639277,-0.021627024,0.036576323,-0.03247688,0.07116899,-0.30534995,0.28319913,0.12860927,-0.014181899,0.44855043,-0.3519391,0.35274532,-0.0036366887,0.07598353,-0.29426962,-0.16054335,-0.20392665,-0.31409755,-0.13339321,-0.02316734,-0.04587936,-0.061285634,0.17718469,-0.04419169,0.39566183,0.068861134,0.06048096,0.1528088,0.17522557,-0.0633689,0.13562576,0.05516004,0.11027868,-0.17829512,0.005286582,-0.05178362,-0.07213378,-0.37377656,0.024489533,0.25563595,0.10789696,-0.105485134,0.09705256,0.10145257,-0.2739674,-0.12623034,-0.032904338,0.06552081,-0.51064056,-0.020666676,-0.2681368,0.045748267,-0.20472722,0.0448688,0.038698886,0.1733481,0.3031644,-0.13405015,0.27557412,0.0453543,0.5198973,0.23918842,-0.026534213,0.30414122,-0.031041134,0.058357153,-0.17800607,-0.096255794,-0.39416155,0.011486724,0.49634156,0.10972383,-0.052395437,-0.07150396,-0.48041826,-0.152808,0.049368087,0.085231416,-0.301608,0.5685494,0.21551551,-0.07205273,0.22355688,0.15800405,0.02904071,0.26834232,-0.17366359,-0.34016228,-0.041208487,0.4787287,0.5146909,0.6470448,0.34650052,-0.20678195,0.56320894,0.26595354,0.34855098,0.21964811,-0.07064008,-0.20546906,0.3099643,-0.2072661,-0.26052508,0.23701595,0.40929154,-0.2033318,-0.52019393,-0.07615594,-0.008684257,-0.27620667,-0.09641905,-0.10091143,-0.13308445,-0.13360943,-0.09917039,-0.39755,0.009384468,-0.4170462,-0.33189645,0.1735828,-0.018731082,-0.24537182,0.10224786,0.27485138,-0.44758877,0.29786783,0.21480283,0.081172906,-0.32974008,-0.29209098,-0.07348844,-0.05706702,-0.26262677,0.5144684,-0.487368,0.4000302,-0.43754822,0.3163706,0.14564186,0.04933867,-0.20558529,0.22875105,0.22955285,-0.030755874,0.109044105,0.32898974
P51665	0.2534953,-0.035959728,0.16082901,-0.100387946,-0.00768895,-0.31147864,-0.32746485,0.011356906,0.15902433,-0.110853836,-0.16878071,-0.15389726,-0.0749907,-0.2471515,0.10600016,-0.16901346,0.24513341,0.0786659,0.19427039,-0.3402225,-0.13417453,0.18942222,-0.141099,0.3250649,0.0020250867,-0.034090947,0.009293798,-0.018195266,0.22728571,-0.13667232,-0.3150773,-0.08016337,0.10237652,-0.010846445,-0.011507414,-0.029144289,0.15693833,0.21794784,0.1738861,-0.18908243,0.46502647,0.28850302,-0.16703567,-0.31307074,0.26632497,0.023557512,0.16503915,-0.009058367,-0.022437016,0.16792335,0.04883242,-0.03971987,0.22239502,-0.26380035,0.0721731,0.06807969,-0.15728037,-0.21229693,0.09074933,-0.19216111,0.13652346,0.25622216,0.21339557,0.580374,-0.27930892,0.46398544,-0.26655903,0.101028554,-0.3374157,-0.15693364,-0.17706668,-0.37448967,0.005256907,-0.06650194,-0.15800105,0.08213564,-0.010050758,-0.08846286,0.20323767,-0.0565557,0.08149047,-0.28427464,-0.1602115,-0.13670757,0.118435465,0.16326134,0.1237218,-0.1432342,-0.1090815,-0.3159044,0.022719707,-0.33106697,-0.16154836,0.5278869,0.33734024,0.2026537,0.017683426,0.024291612,-0.17202733,-0.2684237,0.15856129,-0.25646013,-0.39894977,0.23763502,-0.2835753,0.27423277,-0.23166898,-0.27328053,0.0773382,0.15138952,0.09218672,-0.21801619,0.3396516,0.49129826,0.33058494,0.14188404,-0.04545918,0.004635301,-0.13846894,0.03628783,-0.0020797087,-0.26589754,-0.3022462,-0.10135165,0.3106673,0.32328323,-0.23615582,-0.37111923,-0.5487535,-0.042954627,-0.28694907,0.19079064,-0.41647607,0.74429524,0.1897594,0.24265873,0.12902941,-0.11017367,0.03113238,0.42760137,-0.047988676,-0.023534734,-0.5048579,0.61781067,0.5130716,0.83153886,0.31457028,-0.23803674,0.56333375,0.041468624,0.20127352,-0.07115275,-0.1654191,-0.30776808,0.35807717,-0.0051650824,-0.15541188,0.30482167,0.35411927,-0.16672851,-0.48605612,-0.12635678,0.13002813,-0.22691613,0.20646551,-0.15206118,-0.21724804,-0.19154027,-0.33433458,-0.24208263,-0.040013675,-0.06966103,0.31417122,0.07686208,0.27496335,-0.40824375,0.17345428,0.04204416,-0.4820334,0.3546902,0.5421389,0.12625292,0.02669726,-0.1595367,-0.15582782,-0.092197224,-0.28575152,0.3942239,-0.1934715,0.3135982,-0.4737504,0.0022239962,0.08816519,-0.013139611,-0.11829383,0.023592034,0.50117856,0.07690321,0.29183802,0.44653237
Q9P253	0.34385228,-0.10890409,0.13183756,0.033254553,0.008463061,0.0036616512,0.4560578,0.02440411,-0.17823133,0.12839995,-0.20351256,-0.0014707891,-0.7909172,-0.5060425,0.23736016,0.27126637,0.10175935,0.0838935,-0.43149975,0.5910248,0.0031364644,-0.32895815,0.0077547533,0.19258538,-0.20225768,-0.27346438,0.19872543,-0.012109224,-0.22268313,-0.5805771,-0.05549814,0.08692334,0.42191762,-0.15550268,0.07459099,0.13833843,0.8131837,0.046984944,-0.18680812,-0.27611056,0.07924265,-0.2431507,-0.62063104,0.39432022,-0.39585814,-0.36912805,-0.35315767,-0.020744858,0.12609795,0.165104,0.09979691,-0.172455,-0.54041964,-0.6401432,0.29940686,0.34402838,0.07966977,-0.005798687,0.21523055,-0.3424578,0.45530537,0.02632824,-0.29246366,-0.10289934,0.007923464,-0.009230592,0.2700339,-0.28627062,-0.16196336,-0.38499248,0.0817127,-0.6350762,0.037199095,0.576443,-0.26264742,0.0048543545,-0.31955457,0.04487481,0.46350282,0.029447354,0.09955313,-0.16096984,-0.24657808,0.25426066,0.13459055,0.007932134,-0.06704614,-0.14752078,0.21359989,0.06189039,0.13117732,0.33902696,0.081122,0.30437154,0.3718051,0.22055535,-0.6351836,0.40119693,-0.24346204,-0.44039798,0.49645892,-0.28298208,-0.29036117,0.027064817,-0.13231944,-0.059909552,-0.03014699,0.35796687,0.34597054,-0.102085024,0.81841904,0.007564132,0.14524205,-0.025024435,0.39820072,0.19902237,-0.1730198,-0.2646955,0.01632057,0.34876934,-0.2183582,0.113848,-0.26837522,-0.34213796,0.29075593,0.654014,-0.13393266,-0.3267657,-0.5009216,-0.6646579,0.33360153,-0.25172004,0.011121127,0.26889646,0.2984887,0.3307033,0.21395579,0.29143348,-0.16225049,-0.22033453,-0.27668986,-0.33513874,-0.13754894,0.6705445,0.6746419,0.24291629,-0.38970545,-0.3578005,0.5608745,0.1686137,-0.1310953,0.07846153,0.019116772,0.28978378,0.23796955,-0.34290487,0.03378885,0.522688,0.20527759,-0.21196796,-0.56170046,-0.20899875,0.28012463,0.08827488,0.3029413,-0.07313815,-0.2742772,-0.7360742,0.3844849,0.27325976,0.2582737,-0.10971703,-0.32396692,0.0718747,0.25041953,0.16462725,0.16302507,0.32226247,-0.7629385,0.093714826,0.26023823,-0.36448535,-0.14063129,-0.36836693,0.32114023,-0.09317563,-0.15362263,0.12184243,0.21917057,0.3023603,-0.41482016,0.42271644,0.4165418,-0.12952125,-0.18227923,0.32985178,0.0439264,0.06941537,0.22971945,-0.13983454
Q9UKV8	-0.025967272,-0.2312148,0.014035119,-0.039657824,0.2581879,-0.31059846,-0.1358074,0.022780085,-0.32456,0.28050974,0.1879635,0.014182176,-0.11928763,0.07950102,0.067765415,0.06971664,0.0013788847,-0.03853558,-0.058534462,-0.121584065,-0.19194068,0.2922657,-0.12051639,0.12275781,0.20093805,-0.0064705503,0.048395813,-0.074105844,-0.16176297,-0.1113473,-0.29513535,-0.04335139,0.096708745,-0.2149808,-0.16779752,-0.3672669,0.5690797,0.2099004,-0.1860997,-0.073145926,0.02953816,0.19152024,-0.50654304,-0.21848911,-0.08835176,-0.23216431,0.24192908,-0.020461973,0.14623322,0.24234365,0.13832685,-0.26508352,-0.22586398,0.14440124,0.3615704,-0.11277238,-0.21973644,-0.17683232,0.009005427,0.035403695,0.24445249,0.15394667,0.17977151,0.39915147,-0.31297472,0.35543206,0.0063265404,-0.0189513,-0.38457328,-0.013287365,-0.22105204,-0.17559645,0.14512579,-0.10358721,-0.017522879,0.0490036,0.30732682,-0.3582632,0.40290827,0.21585746,-0.01995975,0.0046769734,-0.0254528,-0.109511815,0.27014562,0.0046101213,-0.14553684,-0.109640874,0.06894508,-0.3844046,0.07273992,-0.10558848,0.09968235,0.22681764,0.17881271,0.22466464,-0.26448938,0.13149424,0.10495049,-0.19112709,-0.18064986,-0.10658857,-0.43115503,-0.047009796,-0.11881855,0.54621965,-0.081116565,-0.17614268,0.28046346,0.31715617,0.17239626,0.055244453,0.18116313,-0.07182985,0.29086405,0.42320472,0.081952356,0.17133124,0.038591843,0.16105661,-0.19604646,-0.03406712,-0.51069415,-0.30519217,0.10016199,0.39591295,-0.23685403,-0.08236009,-0.13173229,-0.2675424,-0.16366749,-0.07518437,-0.44695196,0.31142956,0.40281656,-0.113748185,0.047451362,-0.023862688,0.09812511,0.21139184,-0.16746971,-0.10139694,-0.11180094,0.7304767,0.43591374,0.49089244,0.051544413,-0.25232357,0.5164174,0.13674556,0.11696344,-0.057236854,-0.07129294,-0.19620432,0.3681675,-0.124924324,-0.50988024,0.27693874,0.0842428,-0.3862334,-0.6048691,-0.14219278,0.13858357,-0.10212843,0.0802522,-0.119296916,-0.09839235,0.03929212,0.23709697,-0.16271459,0.106197104,-0.265938,-0.41848958,-0.114615366,0.21138588,-0.42547172,0.14477792,0.2782071,-0.51658505,0.08146668,0.48825198,0.30040085,-0.1442452,-0.22739556,0.34127393,-0.27941513,-0.3511773,0.48799053,-0.10635595,0.46691132,-0.18949814,0.4339692,0.29309896,-0.05628122,-0.05562114,0.16387227,0.32977247,0.35584858,0.43259674,0.493451
P60228	0.14800142,-0.040202614,0.04129917,0.04015015,0.23572892,-0.30799878,0.020483498,-0.006556518,-0.103961326,0.08908865,0.07982095,0.020619722,-0.14490432,0.009932073,-0.12080716,-0.2287853,0.13766877,-0.22385745,0.23047864,-0.28822413,-0.22151273,0.40326872,0.016603589,0.16272004,0.28028458,-0.059222933,0.002558153,0.01590313,0.05698619,-0.1480492,-0.26677257,-0.06482516,0.22454144,0.036584064,-0.21366288,-0.3026135,0.286315,0.4097299,0.2044302,-0.12267497,0.24563943,0.2765505,-0.5652653,-0.32997578,0.067569844,-0.11374151,-0.048780713,-0.16962658,0.1476591,0.25267285,0.19281723,-0.11353264,-0.054913435,0.05297761,0.283812,-0.2711408,-0.10039544,-0.098324195,0.09850664,-0.10652527,0.2541207,0.08926047,0.28789473,0.5066425,-0.30678868,0.4450227,0.11191171,0.04131362,-0.38738418,-0.20417206,-0.15043074,-0.12348731,0.054098994,-0.23368585,-0.0052464786,-0.04337651,0.39102682,-0.21379028,0.3242508,0.0046666204,0.06558827,0.10979537,0.082563944,-0.10626463,0.27170432,0.08442637,0.13664101,-0.13639511,0.14167662,-0.16862695,0.08419516,-0.36173278,0.17232046,0.29182604,0.13235518,0.14125517,-0.08517886,-0.024897082,0.016037758,-0.19303438,-0.3215533,-0.07934844,-0.4039319,-0.082277626,-0.04402771,0.53621,-0.06782172,-0.07011843,0.110351466,0.25659165,0.1277972,-0.30270234,0.16079524,0.22442068,0.27642974,0.2245003,0.1280075,0.07437009,0.062861145,-0.058284014,-0.08654946,-0.13517733,-0.3003887,-0.26962435,0.047748405,0.38423365,-0.12703176,3.4932924e-05,-0.11819349,-0.20469095,-0.3360015,-0.016355347,-0.49553737,0.419997,0.1576591,0.034769416,-0.014225051,0.020335233,0.006563572,0.3544212,-0.028087277,-0.1773978,-0.33781782,0.68775207,0.38225272,0.52283454,0.3060745,-0.027700579,0.53929555,0.3624212,0.056159407,0.113860905,-0.15659305,-0.33407882,0.41376162,-0.12249252,-0.37613803,0.31844062,0.06309261,-0.28098637,-0.4430817,-0.019823408,0.07494406,-0.103357494,0.117297746,-0.061356634,-0.1402981,0.1122015,-0.08402441,-0.07637302,-0.014689083,-0.1107665,-0.17635328,0.103432536,0.11753973,-0.4228056,0.15862758,0.23009819,-0.5969901,0.23025122,0.45481947,0.16498484,-0.19169123,-0.21436894,0.03764923,-0.18610613,-0.29051322,0.4506723,-0.27663156,0.34571806,-0.1459647,0.19153517,0.27168947,-0.014364516,-0.06478229,0.22870193,0.35320315,0.17968486,0.38769335,0.3879101
Q15006	0.49663985,-0.35222387,-0.0540826,-0.14221253,0.20673977,-0.058979135,0.2582731,-0.07343848,-0.008358403,-0.05273508,0.0411016,0.035547864,-0.493021,-0.14504452,0.24438857,-0.39297214,0.31412804,-0.36918592,-0.030610358,0.21491674,0.0051088375,0.020248244,0.05761314,0.08228588,0.30966705,0.08013975,-0.08430954,-0.3778276,-0.06892157,-0.4010122,-0.2826644,-0.28465465,0.04666908,-0.018060936,-0.15110554,0.4226561,0.112190306,0.3225732,0.25561965,-0.43278036,0.16256443,0.20575592,-0.42892218,0.092679456,0.43856123,-0.12000691,0.25987983,-0.24126813,0.18493223,0.37229866,-0.13995335,-0.38453093,-0.12846091,0.31950623,0.56841946,0.32063413,0.13552347,0.23249264,-0.010508236,-0.38750148,0.27914086,0.21803053,0.28963,0.18224885,-0.22271022,0.52061296,0.24547243,-0.04791471,0.02470083,-0.38828716,-0.08772004,-0.575085,-0.08751709,0.19569483,-0.037143994,0.08173904,0.46811372,-0.012337321,0.6861238,0.07881678,0.08445857,0.22136737,0.043341145,-0.079644896,0.19599307,0.23832038,0.28444266,-0.07015949,0.55001235,0.18784562,0.21894422,-0.3949105,0.2865926,0.49379018,-0.11934954,-0.07872912,0.18110108,0.012432087,-0.06634407,-0.19175656,0.07828299,0.04993135,-0.2945264,0.29191363,0.19601567,0.27108464,-0.021625787,0.20967439,0.34494042,0.0031498496,0.09093593,-0.039072998,0.3571492,0.17995463,0.13524482,0.44058514,0.044907875,-0.40028918,-0.17388143,-0.33032304,-0.13709615,0.15770248,-0.24171619,0.26428902,0.6566226,0.33939263,0.15246582,-0.2769013,-0.3133358,-0.33073854,-0.21004105,0.031201035,-0.019894475,0.6202985,0.09656905,0.37542328,0.018095769,0.18441531,-0.53498703,0.40413025,-0.22003993,-0.12232135,-0.2961473,0.16082314,0.12159823,0.6906588,0.27867374,-0.09878295,0.38584873,0.574756,-0.3050769,-0.34793338,0.4556811,-0.18702652,0.14033899,-0.06212892,-0.3037473,0.08458719,0.088918455,0.14510512,-0.4739336,-0.13720942,0.36251247,-0.014696451,0.28313124,0.039861266,-0.17499013,-0.13110931,-0.42137814,-0.08280418,0.086527966,-0.09775332,-0.046893556,0.69444954,0.05077051,-0.23426916,0.06248479,0.2668388,-0.5702797,0.06678656,0.0052327593,-0.71490353,-0.20630147,-0.16617875,-0.008780286,-0.20565341,-0.45007738,0.29862127,0.06258352,0.5220554,-0.38198182,0.26461065,0.015238436,-0.18940552,-0.166123,0.40354392,0.11811167,0.27507725,0.28525427,0.07269131
Q9NRG0	0.5447147,-0.3475838,-0.42394426,-0.040393252,-0.14110982,-0.32988262,-0.14612077,-0.14669822,0.39236888,-0.0118042,0.18602741,0.29159188,-0.4852509,0.038924888,-0.16637854,-0.36950794,0.34848392,-0.41420394,-0.13600071,-0.08862584,-0.14028959,0.13602364,-0.17862184,-0.06549483,0.29815724,0.09251912,0.2766118,0.18983755,0.12052907,-0.04315382,0.31394306,-0.5717488,-0.062859595,-0.1427546,-0.21344142,0.17722307,0.3551754,0.42755905,0.24172422,0.055115487,0.20807196,0.58475333,-0.7365803,-0.3089093,-0.29668045,-0.14756672,0.35120407,-0.013342576,0.1427086,0.17031173,-0.13303395,-0.20110509,0.13228038,0.2572492,0.11503803,0.18323842,0.024688365,0.115926564,-0.051808286,-0.2651503,0.4030688,-0.16549885,-0.13391836,0.40733266,-0.29197362,0.24040824,-0.38501137,-0.13640434,-0.0710646,-0.4368816,0.21859136,-0.46047074,-0.15375163,-0.6441813,-0.011287041,0.18859032,0.019156799,-0.03103835,0.25877973,-0.43925464,-0.1327359,0.18818247,-0.06990869,0.15378828,-0.0029067118,0.20891593,0.20016822,0.2581668,0.40760612,-0.037292894,-0.039241895,-0.51519376,0.49610385,0.47319224,0.2768798,-0.13415763,0.36389002,-0.19055034,-0.23777802,-0.25541335,-0.27559903,0.0031000355,-0.40459839,-0.058883857,0.4076383,-0.13417819,0.07577873,0.6423841,0.36025906,0.3610008,0.05942573,-0.08781338,0.5188754,-0.10916574,0.29131567,0.4214777,0.06316555,0.18255362,0.0913868,-0.3560754,0.09428488,0.32593378,-0.41477856,0.20476976,0.6591992,-0.042968504,-0.28443217,0.20648827,-0.408617,0.124095865,-0.35980618,0.14157242,0.17400834,0.6681226,0.68002963,-0.15199877,0.012490948,-0.0013427781,-0.25991404,0.5208947,0.11880424,-0.07414554,-0.100106284,0.13987987,0.09625232,0.5478885,0.26964334,-0.30782047,0.32363668,0.4545839,-0.09297402,-0.006732437,0.19800378,-0.47274384,0.15529071,0.12859647,-0.33690828,0.14619334,0.18667226,0.07229293,-0.5356555,-0.08078401,0.24727781,-0.116557814,-0.26621458,0.05201332,0.02872435,0.23593146,0.049301147,-0.17392892,-0.29968053,-0.6470699,-0.067774236,0.35445234,0.33115125,-0.36651552,-0.08262926,-0.1623196,-0.24284473,0.048006147,0.00814052,-0.38839462,-0.45484918,-0.15583205,0.10841946,-0.17573367,-0.23217548,0.47851488,-0.3794516,0.45338422,-0.3873986,0.5059599,0.030717177,0.18659618,-0.22487839,0.3127264,0.13749358,0.3206695,0.014697723,0.5367248
P14866	0.10263972,-0.15871873,0.07548794,0.1218163,0.22411712,-0.3362647,-0.035916224,-0.036117528,-0.1378878,0.21188293,0.25768495,-0.10710675,-0.12721,0.045680117,0.15715095,-0.09547483,-0.09213448,-0.053824183,0.4416315,-0.3988982,-0.25361043,0.4072736,-0.05389426,0.1880031,0.38812378,-0.04408722,0.1626592,0.019576782,0.107878916,-0.010573799,-0.040046655,-0.17883429,0.17136993,-0.12278727,-0.27128848,-0.1833076,0.43015966,0.3079079,0.16370663,0.031707358,0.21233009,0.2831908,-0.63780624,-0.27033076,0.2921098,-0.26354423,0.16870068,-0.18706529,0.115207255,0.34022108,0.20232156,-0.08747336,-0.21371245,0.21650222,0.47604167,-0.25112376,-0.2731672,0.017732672,-0.126925,-0.16308942,0.4532926,0.16488343,0.2957241,0.4928348,-0.42407954,0.4130419,0.2108344,-0.058981102,-0.22950043,-0.19998203,-0.0030288745,-0.2396327,-0.18457712,-0.274364,-0.13166103,-0.026559198,0.28693044,-0.35906145,0.4563782,0.009850107,0.06740851,0.0540506,-0.094083525,-0.12952657,0.39370838,0.19167978,0.10308848,-0.10786338,0.32223937,-0.06413333,0.22126915,-0.44951546,0.06438589,0.31444466,0.11877635,0.00077845773,-0.10375168,0.07318064,-0.050092224,-0.29503345,-0.2685998,-0.31742036,-0.41677722,-0.08903024,0.08900078,0.5123774,-0.053957585,-0.13969721,0.117945634,0.46438053,0.15100212,-0.12215651,0.28627753,0.09845159,0.081556894,0.40991545,-0.028448345,-0.026794583,0.11715615,-0.15229726,-0.29479343,0.026116945,-0.2241802,-0.046604723,0.12991975,0.2908238,-0.16201669,0.16599429,-0.22596064,-0.17159761,-0.41808546,-0.058845278,-0.46892616,0.56512916,0.45293427,-0.09814066,-0.1404761,0.06288714,-0.02020045,0.3580537,-0.10425034,-0.35822713,-0.33468366,0.5800558,0.2521308,0.61666656,0.25781053,0.08526454,0.4761693,0.4697949,0.01069968,-0.10559122,0.0037890838,-0.24115981,0.44542852,-0.13414057,-0.59413534,0.4404456,-0.01018061,-0.27878425,-0.277631,-0.10840591,0.2812292,-0.0660166,-0.03629411,-0.1264255,-0.022477036,0.24321115,-0.028078206,-0.2240872,0.022527702,-0.18382517,-0.26288596,0.18593131,-0.023731835,-0.34913716,0.165664,0.2678038,-0.4784028,0.07743733,0.22080857,-0.07652594,-0.27193218,-0.16171621,0.041656964,-0.3420442,-0.36381802,0.4346728,-0.29264364,0.44732702,-0.13453186,0.28462514,0.0980186,0.00017657972,-0.00966054,0.010811505,0.4736391,-0.008077027,0.3129676,0.37132862
Q15428	0.37928995,-0.20166467,0.07414874,0.1281272,0.15557076,-0.07517058,-0.18509601,-0.044209458,0.10593852,0.26922187,0.13604777,-0.27443397,-0.30289397,-0.07286331,0.08907307,-0.10267205,-0.018880116,-0.45127854,0.24281523,-0.13080285,0.008857722,-0.06572146,0.14999287,-0.06618733,0.24606116,0.19571063,0.28693193,-0.019216944,-0.07575778,-0.3170537,0.15637784,-0.28602365,0.32501727,0.14990197,-0.3023337,-0.013432585,0.5246169,0.45496872,-0.061420124,0.007626247,0.09941138,0.20710106,-0.3690328,-0.09884977,0.029926335,-0.43612197,-0.04623356,0.09431729,0.1672139,0.07508056,0.27962133,0.18873,-0.09110338,0.14597553,0.244129,-0.06271529,0.060366984,-0.0759837,0.08784842,-0.27727443,0.4942146,0.12979355,-0.027288431,0.21212523,-0.13789028,0.26863077,0.25205767,0.028299522,-0.23237294,-0.25150198,0.19660501,-0.52650726,-0.22478233,0.17724927,-0.25601307,-0.3059162,0.009400626,-0.09771175,0.64119333,-0.100381985,0.08057225,0.11177691,0.09879155,-0.1355948,0.32488975,0.14915448,0.28091285,-0.20273392,0.5856893,0.098586485,-0.13814545,-0.39824778,0.055852834,0.24283947,0.28372097,-0.0742156,0.079903066,0.03275998,0.0028019988,-0.04928884,-0.28834537,0.042064134,-0.6005319,-0.06858766,-0.124712974,0.19919235,-0.10031904,0.17945962,0.23697777,0.25680822,0.37821063,-0.15701579,0.21793868,0.056484673,0.26492766,0.54005486,-0.03035064,0.032388903,-0.11538889,-0.21817282,-0.11849212,-0.059703846,-0.4443848,-0.064110495,0.2754154,0.286493,-0.102445,-0.00027085934,-0.56447786,0.033439886,-0.12475791,0.06804322,-0.2858213,0.5484279,0.3427392,0.12686294,0.19125086,0.15486978,-0.09597387,0.11853972,-0.0724444,-0.36946064,-0.13481456,0.4311679,0.7276634,0.5749959,0.10604969,-0.15795977,0.35708857,0.57854384,0.16400217,-0.016163303,-0.017044932,-0.47794715,0.18884727,0.09121308,-0.32852945,0.4354643,0.3194056,-0.005292831,-0.6574592,-0.2907633,0.18884376,-0.05861725,-0.105532035,-0.047067598,-0.20381777,0.45194077,-0.051732004,-0.27094603,0.0597469,-0.43287653,-0.34638786,-0.23482253,-0.1687945,-0.16989358,0.1679008,0.38228214,-0.59354246,0.24142179,0.092522435,-0.016163781,-0.3284786,-0.5729057,-0.011499901,-0.39660633,-0.10710677,0.47435454,-0.5396021,0.24914357,-0.38751185,0.41802868,0.30967888,0.07516569,-0.37207508,0.013793586,0.24425197,-0.10305903,0.37932,0.31251904
P22087	0.19900012,-0.046888355,0.028437626,0.12654273,0.25580883,-0.21268801,-0.08262608,0.06859452,-0.0067470972,0.23387389,0.038765762,-0.2698911,-0.039188065,-0.06896905,-0.056161515,-0.10722682,-0.010326966,-0.32037652,0.49603724,-0.2916719,-0.17541349,0.34443545,0.30104798,0.21662238,0.32516074,-0.0633427,0.2542769,0.13422893,0.14088441,0.02603386,0.029730761,-0.20799023,0.15745369,0.26240605,-0.15272605,-0.2590291,0.5048174,0.42045495,0.08142651,-0.17239232,0.25861418,0.515557,-0.42813683,-0.2656732,0.0445075,-0.44776928,0.027094522,0.12570167,0.08610418,0.34614313,-0.07843772,0.037758052,0.12059683,0.19892617,0.12565169,-0.30832013,-0.20429929,0.035417162,-0.088022865,-0.27943802,0.27834487,0.17559455,0.12317684,0.37776217,-0.12575394,0.3362758,0.19642182,0.051316213,-0.43210936,-0.41935548,-0.22233607,-0.47024915,-0.0013121397,-0.19507582,-0.048117694,-0.16929999,0.21526504,-0.18510447,0.31176937,-0.054394707,0.11422206,0.034224834,-0.25298274,-0.26916754,0.30382288,0.18091972,0.21029095,-0.09526205,0.4413204,-0.009025818,-0.08825907,-0.4436513,0.17658627,0.43876886,0.13477848,-0.102084875,-0.02741771,0.06898986,-0.015885305,-0.28134438,-0.2227831,0.07058105,-0.28425333,-0.39559412,-0.08317394,0.58718914,-0.0830559,0.07505612,0.008913871,0.38614082,0.2470582,-0.038802784,0.18922666,0.34708372,0.35532817,0.21512985,-0.1624678,0.07380162,0.12551695,-0.0710955,0.068248466,-0.18932927,-0.33819067,-0.28528872,0.036707293,0.4086345,-0.2486607,-0.040662937,-0.29011148,-0.17255285,-0.46199545,0.02554906,-0.2779521,0.3801335,0.2898763,0.22365421,-0.1379754,0.050089076,0.26596695,0.25404042,0.18966535,-0.25506532,-0.22622947,0.53557295,0.6415806,0.3947573,0.42126197,0.0135273645,0.28001377,0.43681282,0.11420761,-0.028337806,-0.027653912,-0.5503553,0.2984659,-0.19365582,-0.35398057,0.5093045,0.106169626,-0.15374507,-0.47159302,0.025493117,0.24172018,-0.13860673,0.11200893,-0.118814245,0.03045461,0.35110277,-0.21855655,-0.09167572,0.11604113,-0.38811567,-0.17410266,-0.023854354,0.09280713,-0.26041934,0.08433752,0.14762336,-0.6414558,0.12385314,0.394599,0.24683246,-0.14323173,-0.37009493,0.0010022973,-0.280181,-0.10226663,0.5840778,-0.17713878,0.36781338,-0.11189845,0.36131105,0.36462176,0.08702477,-0.09407499,0.0480974,0.4158329,0.015351159,0.4953817,0.43954778
P36954	0.30736297,-0.30338395,0.10190112,0.07331767,0.15619959,-0.06862687,-0.19917597,-0.12651525,0.13706262,0.26225227,0.12708767,-0.35549277,-0.32704034,1.4753445e-05,0.24432592,-0.0923277,0.0056633716,-0.26692173,0.09815032,-0.12144256,0.2928152,-0.13775077,0.1450592,-0.13589649,0.1993057,-0.036339134,0.22893582,0.1259096,-0.08537883,-0.2882902,-0.01676512,-0.3666137,0.21460144,0.11473282,-0.42020893,-0.0072428235,0.6493662,0.16293658,-0.13745679,-0.14192958,-0.042260416,0.28480184,-0.32764912,-0.16756126,0.09407013,-0.6487485,-0.05215043,0.110982075,0.22103333,0.17904583,0.057092067,0.0026676194,-0.026831856,0.29922488,0.12087009,0.022362601,-0.09690858,-0.061826188,-0.0068427715,-0.20212157,0.21851721,0.28455472,-0.37968776,0.25854605,-0.03934191,0.15259185,0.12752149,0.071370706,-0.17508082,-0.4516687,0.01588724,-0.5868674,-0.24493644,0.1788451,-0.2825266,-0.032937042,0.02280123,-0.26030385,0.7268126,0.02783457,0.024061233,0.21796256,0.087963,0.0870248,0.15374725,-0.048107654,0.28003034,-0.22757521,0.5358265,0.015079405,-0.15243244,-0.44546705,0.07325058,0.48083168,0.20036584,-0.2497337,-0.008947404,0.071970664,-0.050483853,-0.18964703,-0.10178579,-0.00023417413,-0.3051641,-0.10081419,-0.026183277,0.25121635,-0.046222493,0.21674077,0.13046956,0.2770399,0.27258518,0.039193552,0.25305042,-0.056358162,0.46792364,0.24367478,-0.14779574,0.15045679,-0.16436931,-0.00081387645,-0.19618884,0.23662889,-0.6379343,-0.24017052,0.3676624,0.30699024,-0.19281776,-0.10400952,-0.4808719,0.12555318,-0.016356757,-0.047925938,-0.010347744,0.46349213,0.41366506,-0.06533511,0.29551828,0.24015394,-0.027454464,0.18151172,-0.09009566,-0.39097217,-0.045023285,0.35280493,0.9102946,0.3483596,0.18195274,-0.26017258,0.257207,0.55484694,0.23178437,-0.07372396,0.12175343,-0.360148,0.0628364,-0.1299587,-0.25607565,0.2950087,0.5035661,0.10548828,-0.46957123,-0.118948385,0.24762096,-0.15901485,0.036321674,-0.06372448,0.007367742,0.44222632,-0.045837834,-0.3594962,0.14130467,-0.52250904,-0.6538665,-0.2745922,-0.08143685,-0.086733215,0.015228668,0.20597471,-0.68846214,0.3692648,0.1270776,0.07401548,-0.23292443,-0.40118852,0.08996458,-0.35236648,-0.16861619,0.5798112,-0.19295622,0.47333288,-0.45547104,0.46655327,0.124028936,0.13864975,-0.32873598,-0.029691126,0.10615277,0.10010979,0.38789624,0.04413649
Q02543	0.12973168,0.123073675,-0.2510095,-0.10278346,-0.23301277,-0.20378923,-0.015727675,-0.24403915,-0.124247715,0.26708296,0.086714044,0.1423024,-0.36860827,-0.02932892,-0.3602737,-0.24456814,0.37874725,-0.24530903,0.23486249,0.16012639,0.109585986,0.50667137,-0.119670935,0.39653853,0.2712249,-0.32663256,-0.1451259,-0.17674549,-0.06395992,-0.30355415,-0.25641683,-0.24481373,0.43370858,-0.25149706,-0.25576192,-0.13202891,0.3742496,0.35103852,0.01920539,-0.043460082,0.24098845,0.4412005,-0.5742382,-0.23207659,-0.18773814,0.088782236,-0.07779729,-0.12406371,0.31391215,0.23850214,0.25386485,0.021466054,-0.08391819,-0.095077604,0.20920399,-0.28643593,-0.06138483,0.06435219,0.31447425,-0.102585964,0.5173751,-0.33900103,-0.15660699,0.48191828,0.016481116,0.4200209,0.27839825,-0.18192552,-0.31806844,-0.33660978,-0.3401855,0.019356985,0.055464163,-0.38024256,0.16791093,0.17621836,0.25571793,-0.15260701,0.11513049,-0.3003021,-0.12447164,0.24692625,0.15209481,0.02714422,0.02892528,-0.075359695,0.045201838,-0.008440843,-0.31231093,0.31601056,0.5659505,-0.5428282,0.2555059,0.09100325,0.24909317,0.299235,-0.0690235,0.102469094,-0.18156376,0.103942156,-0.6427811,0.108127594,-0.4064498,-0.021978987,0.22395514,0.19080478,0.022299146,0.25601605,0.3180333,0.20612293,-0.017155247,-0.49253678,0.19810204,0.024901088,0.6163883,0.3643538,0.4138055,-0.07527494,0.0553696,-0.02852165,0.030338299,-0.10351848,-0.36751544,-0.067117386,0.12954491,0.21707399,-0.16704154,-0.20120025,0.054977898,-0.40695903,-0.18442784,-0.031742815,-0.60055417,0.6317284,0.47840503,0.18720168,0.20339842,-0.11256234,0.28463027,0.49793208,0.22283378,-0.31166813,-0.32747367,0.7493352,0.14730893,0.39843228,0.14479545,0.026603395,0.5547217,0.6172072,0.017681442,0.5452859,-0.25470656,-0.045516018,0.2392703,0.0924023,-0.32889655,0.054404423,0.18846178,-0.3831189,-0.46667403,0.16272892,-0.1265477,0.04775346,-0.089073546,0.03488042,-0.11989277,-0.17605366,0.28663167,0.239271,-0.009869071,-0.071144976,-0.4019334,0.018311897,0.045245793,-0.51152563,-0.052281633,0.23566933,-0.621246,0.23533404,0.54779774,-0.14177194,-0.18019642,-0.18248002,0.11264663,-0.16144826,-0.3469683,0.36273783,-0.46997297,0.46330118,-0.072283804,0.13878803,0.41557086,0.02101838,0.026893891,0.043013714,-0.045410488,0.20011744,0.06330276,0.49670807
Q3B726	0.37462646,0.25822285,-0.58395875,0.1999393,-0.09850118,-0.119630426,0.08907872,-0.5173914,0.30381683,-0.029785573,0.104427874,-0.5193756,-0.19242738,-0.05798607,-0.20766935,0.039376765,0.398753,-0.020883672,-0.0011559564,0.057116117,-0.03939217,0.0913623,-0.1861078,0.30141956,0.17862345,0.005956765,0.6157966,0.011486966,0.048982162,-0.0026199813,0.16023791,-0.44683436,0.094186045,-0.07031133,-0.23567764,-0.13214487,0.37907377,0.014531604,-0.28930175,-0.072713554,-0.28381565,0.01264872,0.26888594,-0.06761198,-0.32279214,-0.38529146,-0.22491542,0.4881017,0.2043613,-0.32333103,0.30154872,0.23479742,0.39608535,0.2857078,-0.45290142,-0.139704,-0.19087943,0.086193345,-0.32015705,-0.104267746,0.52244866,-0.004886307,0.050106082,0.15943475,-0.15698369,0.41143858,0.24490623,0.22599497,-0.11288821,-0.27523416,-0.10357444,-0.3290262,-0.37045628,0.07805226,-0.34652805,-0.08382418,-0.2861704,-0.055597555,-0.31345186,0.39770088,0.0982273,-0.02170861,0.06219309,0.0379047,0.21416582,0.5427007,0.05347139,0.009217351,0.25723252,0.15890574,-0.032891933,-0.5634467,-0.13654786,0.489097,0.103067294,-0.1501608,0.025104001,0.26268238,-0.13747257,-0.46956253,0.15058546,-0.30101374,-0.5805651,-0.06681084,0.031623375,-0.4454721,-0.085516006,0.060673535,0.07626856,0.6592977,0.5506219,0.26798627,0.33141905,0.28589222,0.282932,0.32873905,0.10516597,0.45181453,0.2189285,-0.27328613,-0.18295504,-0.037557524,-0.6187165,0.111435354,0.21072468,0.18994188,-0.08908762,0.4196436,-0.40200728,-0.3544489,-0.22525187,0.19017662,0.06681012,0.31570187,0.4397381,-0.28639403,-0.048046093,0.23477721,0.046765156,0.41283092,-0.22297826,-0.11258361,0.225415,0.66529727,1.0005524,0.38944992,0.29391047,-0.13563707,0.25321975,0.14308883,0.34936196,-0.06393975,-0.11334393,-0.018088315,-0.21184902,0.07340218,0.20535311,0.21044731,0.44786108,0.15782465,-0.43564072,-0.024695892,0.20695394,-0.2926421,-0.15558594,-0.5307228,0.1467379,0.07614112,0.03871631,-0.64593995,0.118149005,-0.26197433,-0.38984972,-0.05759761,-0.22007765,-0.08055028,0.12985261,0.7210611,-0.39818227,-0.18917008,-0.0811415,0.23076396,0.5850899,-0.21979414,-0.16863409,-0.008496037,-0.20662805,0.8736552,-0.70218694,0.18375409,-0.3593468,0.24247013,0.10720143,0.11557583,-0.087998405,-0.108587824,0.2220658,-0.23812744,0.62802416,0.16625823
