Q16850	0.17222108,-1.547468,-0.61361897,-0.5062353,0.32321557,0.33119377,0.55010635,-0.39853752,-0.86865944,-1.1563532,-0.86642945,0.26121998,0.9477751,0.16251644,-0.55538905,0.7505862,-0.07933898,0.19192103,-0.32779354,0.3190364,0.04856652,0.48040745,0.96594286,0.60034716,0.28835887,-0.4548431,0.41111827,-0.07321048,0.14174408,0.18195096,-0.6495644,0.06955424,-0.71589917,1.2312057,0.004478484,0.3448694,-0.52012664,-0.6527008,-0.70282614,0.4686595,-0.28087023,-0.2890524,-1.1010315,0.28726265,-0.24909203,-1.2586052,-0.6024661,0.17561415,0.042850714,0.6111592,-1.1559039,-0.09019064,0.19182873,1.3409828,-0.07627504,0.58489895,-0.6262017,0.23375528,-0.9424671,-0.07331522,1.3104329,-1.5438405,-0.61304694,1.062874,0.11964788,0.76597464,0.75873655,-0.03192732,0.98992664,0.34325275,-0.19995926,-0.5062357,0.49130458,0.0815195,-0.61102265,0.10507154,0.32943144,0.050042633,-0.23093612,0.014142136,0.36748675,0.3258798,0.04686034,0.37474242,-1.0704167,-0.2868335,0.33221874,0.38298976,0.06823472,0.27788508,0.28222632,-0.58807534,0.623784,0.28354988,-0.4954308,0.2312165,-0.5533073,-0.7703149,0.18098678,0.74704355,0.5330005,0.73670536,-0.23032837,-0.8774289,0.5277277,-0.7881838,-0.52078515,0.6309329,-0.74761546,0.8647311,-0.5904112,-0.69116336,0.3637115,0.17510344,-0.02622063,0.12539752,-0.06808796,-0.034171544,0.771355,-0.63387114,-0.37706393,0.052500356,-0.50426686,0.52234554,-0.948708,0.10449821,0.056829624,0.7527804,0.30517578,-0.5784257,0.27308455,0.50417536,0.025079587,0.8536585,0.77553976,-0.3734311,-0.20238996,-0.4406046,-1.4357809,0.60509443,1.0128585,0.39854708,-0.58068645,0.4338473,0.26629043,0.4985459,0.7017264,1.0664468,0.3931432,0.6526255,-0.81631345,1.1572928,0.043915663,0.31739044,0.66387033,0.60002285,-0.71824265,0.42729557,-1.275498,-0.5160761,-0.5820046,0.80741173,1.0025805,-1.2291075,0.538321,-0.60852647,0.30215532,0.0063517117,0.28830755,0.34782732,0.37118268,-1.3036935,0.5460808,1.1813579,0.75082594,0.353221,-0.0953043,0.23604581,-0.58574903,0.12760425,1.1137886,0.12407922,0.09284038,-0.26068822,-0.65116215,0.35971975,-0.16039564,0.07325032,-0.030026855,-0.8680325,0.007353356,-0.44074237,0.7355404,-0.19729204,0.1932206,-0.38538674,0.09344481,-1.2108343,0.54813164,0.730393
O75865	0.03330212,-0.9610274,-0.060878094,-0.23602723,0.67502946,0.26276827,0.723526,0.22494854,-0.35399213,-0.80323684,-0.118399344,0.019262591,0.236597,-0.8650402,-0.59013504,0.5301022,-0.49928793,-0.050806917,-0.91374415,-0.05745581,-0.5511565,0.55696756,0.24260814,0.47292665,0.19511344,-0.984382,-0.32296187,-0.16681157,-0.1755182,0.45141095,-0.19972204,0.7708772,-1.2857128,0.67428136,0.307253,0.9162665,-0.007927005,-0.0005611472,-0.083633795,-1.2668723,0.15238796,-0.5210028,-0.5538285,-0.19339998,-0.30701905,-0.15451038,-0.6323863,-0.2289006,-0.024302334,0.26086608,0.3339082,0.70721936,-0.1718313,0.25811505,-0.2852038,0.124753684,-0.27210072,0.17128424,0.09447144,-0.64289695,-0.15338595,-0.5433304,-0.7190786,-0.45647362,-0.13447262,0.27437076,0.09231886,1.0427552,0.08293932,-0.43829894,0.074028164,-0.4489621,-0.4208188,1.089412,-0.5950902,0.46477747,0.5914787,0.06347328,-0.8682578,-0.6871187,0.8390242,0.6830816,-0.7465815,1.4634944,0.39165345,0.57925045,0.44369864,0.7598953,-0.26507452,0.46744642,-0.0125479,-0.52540135,0.13449429,0.21100482,-0.46619496,0.13379513,-0.19659646,1.2012763,0.68472034,-1.0429573,-0.4280014,-0.054917686,-0.20369841,0.44580197,0.64467245,0.39585423,-0.03363121,-0.15017185,0.10005135,-0.10971371,0.17671303,0.30837354,0.36776814,0.21758272,-0.30235657,-0.6985272,0.49515128,-0.6099461,0.4069297,-0.17938672,-0.29864407,-0.18432364,-0.0060439412,0.106747106,1.4799719,0.105822064,0.9358988,-0.33125496,-0.68311745,-0.31298426,-0.85091585,0.21989943,0.051014237,1.011535,0.62940437,-0.39248902,0.46352592,0.10083475,-1.090101,0.6320415,0.36340073,-0.53417087,-0.22978823,0.26422602,-1.0227113,0.017165616,-0.42265248,-0.075791724,-0.059968587,0.7415262,-0.06375223,0.4212381,-0.2725005,-0.44898885,0.3228121,-0.16409053,-0.46706542,0.8196047,-0.7328178,-0.19529475,0.019906322,-1.0745217,1.0537556,-1.265714,0.58115745,-0.90805465,-1.1785514,-0.48878095,-0.20631576,-0.90298814,-0.59178567,-0.9921973,0.66548437,0.044422306,-0.1373843,-0.20039895,0.09790671,0.9946269,-0.4909861,0.52284205,1.0158266,-0.22783771,0.7484461,-0.213128,-1.0536374,0.95053613,1.0026739,0.69614625,0.56495935,-0.36174914,0.22281106,-0.08595754,0.19629407,-0.77774775,-0.04636482,-0.4539307,0.24643461,-0.01690808,-0.03389224,-0.2011497
Q16526	-0.07187892,-1.663281,-1.5991719,-0.40542167,1.1479295,-0.024495574,0.34747517,0.055628724,-0.8362937,-1.3052605,-0.7625353,0.32063583,0.59745526,-0.010806563,-0.6154357,-0.54575944,0.3604978,-0.383228,-0.25617668,-0.304583,0.1925479,0.86176205,1.3436244,-0.7312193,-0.904631,-0.6041929,-0.69026077,-0.006170571,0.00865407,0.06755735,-0.16828738,0.31863773,0.28992608,0.6636333,-0.0008903995,-1.4532913,0.10691934,-0.8780995,-1.1074384,0.070892125,0.07651874,0.62635326,-0.93743026,-0.020202048,0.7576281,-0.168985,0.59642243,0.22004063,-0.41854194,-0.32329574,0.3612204,-0.11487662,0.34324256,0.21026905,0.1532346,0.4745793,-0.47945547,0.08069538,0.24695691,0.7442849,0.0353525,0.6780038,-0.32338986,0.41711706,0.7919001,-0.6457372,-0.3956432,0.36684632,-0.09794829,-0.44321796,1.0284722,0.55358493,-0.1405676,0.6848427,-1.9842993,-0.0019537488,-0.36946335,-0.26384065,-0.38346356,-0.013932238,0.33167008,0.7411925,-0.5165105,-0.13624418,-0.48891133,1.2168928,0.59020275,-1.0731809,-0.20757768,-0.43010455,-0.5673772,0.24022838,0.61026686,-0.048068047,0.034274556,0.02480168,-0.5997247,-0.79114896,-0.50293887,0.6344259,0.0077195354,-0.29627082,0.22528616,-1.3081088,0.4291096,1.3350353,-0.14550169,0.110621944,-0.26003155,0.41422835,-0.08906418,1.4336685,-0.6224363,-0.16849229,0.18114191,0.19088368,1.2159085,-0.8110155,0.44523162,0.22051865,-1.0060805,-0.49372417,-0.10596046,0.15270805,-1.4406471,0.73255354,-0.8912017,1.2586266,0.13116902,-0.6806393,0.14531477,-0.3248361,-0.6848701,0.7765128,0.17332754,0.68439126,-0.13064194,0.17615451,-0.70333725,1.4568512,0.914947,0.21454684,-0.47232533,0.29119438,0.08331943,0.33421528,0.41180867,-0.2250505,-0.13906415,0.40458524,0.06928662,1.0374933,0.64061,-0.7663817,0.27457294,-0.70281,-0.2836113,0.8899296,-0.46558347,-0.7333716,-0.102831155,0.6086144,0.009264821,0.38322014,-0.10671622,0.47195935,-0.24188782,-0.48009717,0.5554652,0.19883436,-1.0367554,-0.69942874,-0.6479581,0.9295507,0.6961161,0.6102988,-0.3999874,0.01622031,-0.19637612,0.7099741,0.86077815,0.1741482,0.19624326,0.2979611,-0.40571693,-0.107942834,0.06924117,0.02865257,-0.71364087,-1.1026735,-0.89527386,-0.22066751,-0.18073593,-0.1760561,-0.07647744,-0.9118674,0.13439748,-0.2899783,-0.53537136,-0.18810867
P07992	-0.037781827,-0.13988239,-0.31835228,0.2819434,0.36470747,-0.24690755,0.0481224,0.529046,0.24740869,0.22064263,-0.86676055,0.28090316,0.06933776,-0.3111818,-0.5287699,0.72517806,0.27430058,-0.47150922,-0.174206,-0.19347553,0.018636994,0.043880895,0.39120135,-0.27840593,-0.07968979,1.0386934,-0.15858622,0.008309991,0.019642329,-0.037474915,-0.40304205,-0.6406987,0.42587978,0.39123848,0.86896086,-0.45590112,-0.27450305,-0.74881124,-0.22559747,-0.18723454,-0.29865718,-0.048546035,-0.4171971,0.39683804,-0.40303794,0.7230131,-0.91100776,-0.8157969,-0.83423823,-0.12819462,-0.38329846,-0.23982503,0.71014184,0.9767744,0.3722459,0.29838285,-0.13055164,-0.5353998,-0.19666612,0.50648314,-0.38120636,1.0443144,0.2216881,-0.13591096,0.72269267,1.1149213,-0.3156901,0.41533634,-0.67129827,-0.8462052,0.16144902,-0.13436309,-0.34680855,1.3257074,-1.4074173,-0.7173229,0.10528556,0.79897684,-0.25207534,-0.113392904,0.04822716,0.93808675,-0.9117917,0.0025538607,-0.92103994,0.2844095,0.23939575,-0.60733867,-0.15862788,1.0127655,-0.276303,-0.20264463,-0.44091994,-0.31408173,-0.084391676,-0.89288473,0.044138357,0.036295395,0.7899367,-0.2630684,-1.1393782,-0.0075262934,-0.71165943,-1.0226035,-0.066807725,1.0348376,-0.13521726,0.2993773,-0.43367675,-0.27545908,-0.9204567,1.1392312,0.69100595,1.1274772,0.81408244,0.9151244,0.58158463,-0.88849396,0.06942651,-1.0205663,0.65303177,1.6005439,-0.6379811,0.95015824,-1.0168667,0.17827028,1.0609922,1.1790255,-0.8696106,-1.1324121,-0.32145265,-0.89844733,0.9748239,0.8533985,-0.037952214,0.3192172,-0.105873354,0.30594963,0.10890254,1.0879306,0.38612205,1.4432806,0.060879443,0.7835067,-0.15261984,0.22693996,0.09906601,0.34562618,0.09600072,0.19331835,-0.32125083,0.5487583,-0.7655207,-0.9498097,-0.30201122,-0.003966327,0.29610774,0.22203268,-0.8167901,0.11436983,0.6999579,0.0048451717,-0.08186443,0.688975,0.8166764,-0.17992446,-0.8859174,-0.49672046,-0.46088085,0.17325573,0.8493317,0.16208257,0.39530164,1.2640991,1.0582888,0.7972987,-0.04324945,0.124683045,-0.22070627,0.2786932,0.68060607,0.50005955,0.64185905,-0.068364404,-0.54083145,-0.56764114,-0.13497333,-0.58477414,0.56164104,-0.9871297,-0.27711004,-0.8146809,-0.30025238,0.87522286,-1.130304,-0.19210586,1.7760744,-0.18275835,-0.109581314,1.0285413
P00480	0.30830514,-0.9841933,-0.028508633,-0.165355,0.9017126,-0.05722286,-0.1790166,-0.29240388,-0.9099434,-0.83401513,-0.116350144,0.4541531,0.8819125,0.2616332,-0.8769128,0.8849377,0.5639464,0.18250069,0.10090133,0.051618338,0.74560905,0.40138602,1.373516,0.23277338,-0.51950425,-1.3255873,-0.848312,-0.2500695,0.07917326,-0.24535495,0.19823663,0.23499748,0.12247727,0.9329556,0.40582508,0.34366593,0.015366046,0.18861073,-1.513318,0.1295294,0.10245691,-0.5268912,-0.22469208,-0.11653541,-0.06944556,-0.092738196,0.20111778,-0.11397325,0.18488374,-0.017901413,0.32526675,-0.039668508,0.2718249,-0.30218986,-0.2814932,0.40182596,-1.2378838,0.3322192,-0.49559143,-0.101771444,1.0127052,0.25236362,-0.15965056,0.0886547,1.6210074,0.89615226,0.6433988,0.17123309,-0.1240499,0.29888108,0.46272895,-0.5465356,0.19804026,1.5963835,-2.615132,0.013806439,-0.55212283,0.4576683,0.6904377,0.12875314,0.036986947,-0.23405544,-0.7531383,0.9137091,-0.6879199,-0.30480576,0.53255135,-0.19170786,-1.1792432,0.25886592,0.5216154,0.23782614,-0.33171412,0.49556383,-0.12157462,0.45137677,-0.017112361,-0.49585694,0.38292712,0.0524863,-0.3969407,-0.33989525,-1.2109376,0.0050890613,-0.05823076,0.0057897274,0.6546573,-0.84806305,-0.09246582,0.6938232,-0.27525446,0.8327,-0.23376408,0.15834197,-0.66623247,0.26359153,-0.4759017,-0.8346528,0.62449247,-0.29754952,-0.42128322,-0.13324042,-1.0880609,-1.3057439,-1.4349136,0.60778636,-0.56929785,1.19045,-0.1603426,-0.5803155,0.16440625,-0.24602346,0.04857298,0.8094547,0.30708155,0.5603612,0.33531937,0.14730906,0.6390999,0.45817566,0.90556955,-0.37478676,-0.589615,0.24262005,-0.6560393,1.2381027,-0.60580397,0.49034932,-0.21124844,0.27339563,-1.0175412,1.4839394,0.7548644,-0.42308828,0.5110313,-0.50709903,-0.6107148,0.27700543,-0.22502881,-0.1878131,-0.6012924,0.65802073,0.96654916,-0.15821782,0.64778715,0.32427108,-1.4193873,-0.56241775,-0.5994795,-0.18852454,0.13229862,-0.45282385,-0.17377995,0.4190991,0.08387422,0.30634102,0.40762177,0.23078948,-0.98135895,0.31770858,0.19299321,0.050983004,-0.17122176,-0.26270336,-0.36205527,0.30638644,-0.6934747,-0.03887865,-0.39707538,-0.73777115,-0.6173106,0.28943247,0.5211496,-0.20605265,-0.5371084,-0.9357585,-0.49234307,-0.96283615,0.56415975,-0.70322734
P25789	-0.046049748,-0.44302446,-0.5330221,0.29885715,1.3034546,0.35034275,-0.19787474,0.53423244,0.32592916,-0.47872868,-0.15643053,0.7121931,-0.30219415,-0.42361325,-0.30491742,0.46783057,-0.11518973,-0.29620132,-0.27291405,-0.3172581,0.5352947,0.7802825,0.56620306,0.47389594,-0.06333448,-0.1436638,-0.950243,-0.82337004,0.7470869,1.0119774,-0.04371836,0.28487295,-0.7226702,0.48725614,-0.35116595,0.28418335,0.89596605,-0.15024318,-0.6400601,-0.80167466,-0.13210918,-1.1461172,-0.747485,-0.10800989,-0.7716154,0.3077484,0.2630895,-0.09386043,-0.11945397,0.33819807,0.0772126,0.74405307,-0.15248066,-0.5049279,-0.008019575,-0.38946807,-0.5617748,-0.36163655,-0.028418114,-1.2733237,-0.13233058,0.33158955,-0.5798835,-0.34788945,0.5958791,0.14951074,-0.026236674,0.47440127,0.21366307,0.35752454,0.73849416,-0.17382935,0.35941225,-0.24959883,-1.0734893,0.7338334,0.83443797,-0.7077008,-0.12804835,0.14275801,-0.29654482,0.6433835,-0.4620871,0.2218708,0.08802594,0.49603668,0.057186842,-0.18974178,-1.1404368,0.5473041,0.02889544,0.32164794,0.19044757,0.29137373,-0.24569535,-0.077505015,0.5782195,0.98791695,0.89013606,-0.5108341,-0.7065376,-0.21291237,-0.46702585,-0.85796076,0.6281288,0.15891755,-0.31470504,0.38840014,0.27106383,0.29560322,-0.38222113,1.2834251,-0.14915387,0.22433093,0.7683118,0.20513842,-0.17804259,-0.2474846,0.19463162,0.16428629,0.34127465,0.566529,-0.49717334,0.8249148,-0.48792934,0.5083741,-0.17102984,0.7266758,0.27609873,0.24137902,-0.2355412,-0.38577002,-0.24995367,0.7994244,0.59753615,-0.6340963,0.7390694,-0.15285733,-0.5912979,0.46583122,0.38953853,0.14701357,-0.99249464,0.42852548,0.717756,0.7413999,0.30045348,0.4900081,-0.063720524,-0.12427961,1.0933644,0.25529346,-0.52175486,-0.45574757,-0.00044785405,-0.642967,-0.14058448,1.0247924,-0.31831878,-0.3076251,0.55893797,-0.49298707,0.74000645,-1.456356,1.052908,0.041020673,-0.7310784,-0.18279001,-0.30268967,-0.6628768,-0.1994487,-0.53273106,-0.46701562,-0.71440035,0.21210402,0.80305904,-0.5048889,0.31793496,0.09330631,0.23797062,1.4764594,0.56814903,1.6277184,0.7247189,-0.47504613,0.16967513,0.25891313,0.38364765,0.256755,0.50380874,-0.30050373,0.56988764,1.119388,-0.30414703,-0.19288708,0.2602474,0.73444515,0.024943829,-0.8336193,-0.037498802
P35250	0.23631972,-0.5026407,-0.52076876,0.6699577,0.69699955,0.037080966,0.3812541,0.71890795,0.06587698,-0.06466886,-0.6166738,0.430147,-0.456712,0.005377739,-1.223117,0.07975386,-0.22526984,-0.82494336,-0.043758877,-0.8659241,-0.46789646,0.49157253,-0.21168955,-0.31414667,-0.9629715,-0.017409371,-0.6789891,-0.93819284,-0.1190116,0.68856984,-0.2832173,-0.18101113,0.3174662,0.13968074,-0.14849682,-0.16482799,-0.20594937,-0.0031779122,-1.0689193,-0.00061490113,-0.49812075,0.26579124,-0.4022894,-0.34238505,-0.13574325,0.258023,-0.31838018,-0.3549847,-0.48322618,1.0349488,-0.46525118,0.37218678,-0.14246188,0.23957983,-0.2741383,0.28387877,-1.011532,-0.24425957,-0.3824293,-0.38633043,0.33785447,0.4215818,-0.14222768,-0.9672417,0.6608719,0.48694322,-0.04606327,0.567,0.2077411,-0.011445974,0.23445345,-0.32399905,-0.31209758,0.635765,-1.4407907,-0.33080637,-0.47071907,0.15114827,0.14794062,-0.15704721,0.08153516,1.3525906,-0.018356372,0.12846713,-0.5114516,0.3491762,0.18434358,0.17781875,-0.9158085,0.47520894,-0.28441566,-0.08300345,0.039419267,0.421448,0.800563,-0.45524266,0.603398,0.04587153,-0.13024513,-0.31826383,-0.22747737,0.65206057,0.16263315,-0.36499953,-0.37856114,0.24635679,0.021435533,-0.04493411,0.13454437,0.54868436,-1.2682959,0.7886021,0.65813357,0.6448059,0.6783186,0.18666922,-0.36485907,-0.44796705,-1.0890749,0.40200353,0.8001149,0.7074625,-1.3781254,0.44448856,-0.73945564,1.3450358,-0.31480122,0.3138153,0.24352935,-0.3663173,0.27373186,-0.7012647,-0.77337664,-0.18723425,0.97759765,0.62861466,0.2942281,-0.3961446,0.94519013,1.3859354,0.10039734,0.5846423,-0.470265,-0.0030913248,-0.1663206,1.019856,-0.20634826,0.31777218,-0.7967539,1.471581,0.14105213,0.6899947,-0.53588766,-1.0564988,-0.70663303,-0.668448,-0.24355246,0.5214973,-0.47856474,0.4648816,-0.29792994,-0.13726658,0.7113972,-0.73137045,0.5095896,-0.14377344,-0.5517889,-0.7947978,-0.7290298,-0.12352995,0.26386327,-0.031458095,0.5519963,0.44633335,1.02767,-0.6688063,-0.27680588,0.14955476,-0.19836055,0.48251387,1.2774593,0.0589505,0.86162347,-0.091239646,-0.25710452,0.14459832,0.6056052,0.95424265,-0.26494592,-0.38572812,-1.1516075,-0.18786865,0.040860172,-0.15407896,-0.3954663,-0.9049593,0.8146356,-0.38482144,0.3205271,0.15599847
P82673	0.087585226,-0.499902,0.14411023,-0.17798969,0.55128986,0.21462773,0.8681151,-0.41346103,-0.5707945,-0.06236514,-0.6974505,-0.2910147,0.632674,0.4171386,-0.6005683,0.44666383,0.17916478,0.0899709,0.81848484,-0.5113525,-0.075136565,0.54921794,1.2934928,0.023434596,-0.23959227,-0.6211656,-0.16619422,-0.5328466,-0.04985764,0.023366777,-1.0708208,0.41281,0.21229132,0.6539354,-0.22720821,0.18826476,0.47523436,0.283922,-1.1681992,-0.22248146,-0.10897229,0.707819,-0.5302708,0.23189239,0.020647764,-0.5082318,-0.06778083,0.25592157,0.077361055,0.42917886,-0.40262958,-0.032134697,-0.29456252,-0.0050701564,-0.59007156,0.91494024,-0.24307601,-0.34673366,-0.66590565,0.18186705,0.2754442,-0.47362033,-0.28722975,-0.6193935,0.40658394,1.1703123,0.6006322,0.16318023,0.17060682,0.50382704,-0.22626202,0.13976122,0.16142803,0.6737102,-1.0154798,0.30299422,0.26026067,-0.03995758,-0.041882634,-0.43716314,0.38309237,-0.074723914,-0.21059999,0.95538485,-0.8027445,0.6122293,0.034593742,0.9765157,-0.5689357,0.6842117,0.042556483,0.711426,-0.011257238,0.43982,-0.8225114,0.12616354,-0.13981028,0.23619486,0.40696755,-1.0755705,-0.4443551,-0.30127856,-0.805374,-0.14609857,-0.22226253,0.27214324,-0.31606627,-0.08525822,-0.11457011,0.5963414,-1.1793991,1.0861253,0.37804222,0.8307152,-0.47270593,-0.44057333,-0.40463218,-1.1165566,-0.9115172,-0.032492094,0.0456692,0.28883684,-1.2898569,-0.68899244,-0.11845719,0.5936727,-0.13126366,0.5714751,-0.23236193,-0.19372937,-0.19647773,-0.4648728,0.71220875,0.39752284,0.24582586,-0.93307763,0.58003163,-0.13007708,0.42909527,0.9130914,0.32980886,0.066620186,-0.036890626,0.6229419,0.40436006,1.2953448,-0.006781478,0.7212263,0.3362196,0.59451187,0.023047538,0.7298215,-0.080189206,-0.9176319,0.6964954,0.7384471,0.16707355,0.05032671,-0.6213968,0.4993678,-1.0159782,-1.3007252,0.6729523,-0.6602316,-0.2836595,-0.23711811,0.3440555,-0.14743963,-0.31496692,-0.7304728,0.29397234,-0.76589274,-0.13813125,0.3446079,0.33488882,0.190453,-0.49294898,0.98037016,-0.39563066,0.32253116,0.90735924,-0.4485251,0.76806897,0.04134931,-0.49459934,0.5587011,-0.12649366,0.8180383,0.153207,-0.13530436,-0.23630154,-0.77973557,0.22455311,-0.087886095,0.22988717,-0.32136518,0.20366037,-0.6889446,0.61942315,-0.35335863
P43686	0.36298633,-0.8901442,-0.65505755,0.51409394,0.78839904,1.0392694,-0.36347958,0.98355746,0.46994898,-0.4409828,-0.036248174,0.5605739,-0.2465453,0.11845193,0.06379728,0.6583247,-0.5892934,-0.55706316,0.057907756,-0.22471108,0.1886242,0.6809912,0.21096593,0.40906176,-0.49348414,-0.55990195,-1.0359948,-0.5471588,0.6276005,1.4352788,-0.2907184,0.16434592,-0.4523544,0.17249146,-0.25266072,0.33588767,0.76349986,-0.16003081,-0.41916966,-0.6561264,-0.27438572,-0.55566776,-0.2012873,-0.027755972,-0.8325362,0.34792218,0.3781011,-0.5571502,-0.28835583,0.77621156,-0.19192234,0.9103101,-0.15859863,-0.0500326,-0.19956812,-0.012482801,-0.4865531,0.05816267,-0.15808754,-1.7475448,-0.21506198,-0.1258493,-0.3483439,-0.5236115,0.80895144,0.20912793,-0.24236174,0.14677632,0.5472384,-0.071307264,0.2909794,-0.40420943,0.8311023,-0.24584198,-0.9612194,0.82106674,0.97750485,-0.9054011,0.1057555,0.04710311,0.21267188,0.17942192,-0.22310954,0.19337673,0.3335287,0.36658633,-0.11682104,-0.43170476,-0.8450457,-0.10188113,0.20603967,-0.26447698,-0.063730344,0.53211343,0.09378011,-0.5699789,0.24847387,0.77105063,1.0455477,-0.5199328,-0.47309536,0.14280684,-0.008498771,-0.6607716,0.27967122,-0.8905688,-0.06728758,0.3412303,0.6557842,0.4561018,-0.6269361,0.69132036,0.37403718,0.64016175,1.0840775,0.16696621,-0.895817,-0.33724663,0.10583864,0.33953407,0.6691198,0.29025742,-0.7057567,0.82304525,-0.8120852,0.5335063,0.47831643,1.0122682,0.29352674,-0.06779422,-0.24724576,0.15236135,-0.31261858,0.72218686,0.6385022,-0.8647534,0.7499662,-0.8082503,-0.95691323,0.60032815,0.6043851,0.05915488,-0.6945681,0.6331118,0.37897578,0.49387044,-0.046343792,0.4013294,-0.22381356,-0.09675445,1.1054686,-0.10452071,-0.88013744,0.298121,-0.44068798,-0.7068371,-0.329289,0.7538494,-0.060424704,0.030310301,0.5162568,-0.18648419,0.5884702,-1.5637816,1.0427675,0.3724645,-0.60285825,-0.7536907,-0.13256322,-0.9281601,0.14453858,-0.59395033,-0.2396107,-0.29510397,0.64862347,0.050010834,-0.32569188,0.099171475,0.16375335,0.06596175,1.1210157,0.6016499,1.611572,0.2607038,-0.5542602,-0.081337854,-0.06368846,0.8505966,-0.26409352,0.17460681,-0.30326226,0.63322747,0.40780362,-0.51798946,-0.47921032,0.39951286,0.30780616,0.16554831,-0.0037027816,-0.11219382
O95168	0.31641132,-1.1657814,-0.43363786,-0.06415566,1.1267227,0.26386064,0.2501139,0.03292106,-0.90172493,0.4807303,-0.025851186,-0.02767739,0.7358719,0.26066035,-0.77703875,0.7837824,-0.22528811,-0.71018183,-0.3878203,-0.19162866,-0.37228915,0.2896599,1.3922268,0.31167015,0.859859,-0.19428384,-0.6314237,-0.19549373,0.34578136,-0.16876455,-0.8626148,-0.02494561,-0.79243517,0.559307,0.37040684,0.75164497,0.68592167,-0.3701107,-0.84466934,-0.040392585,-0.32121304,0.29193354,-0.61079156,-0.7528543,0.5584557,0.29164502,-1.0351363,-0.285736,0.5491943,-0.09151924,0.5059275,0.19248122,-0.1277433,0.12774019,0.6467602,0.496702,-0.7841864,-0.23832268,-0.29248455,0.47935826,0.5523371,-0.30312592,0.05305657,-0.75107306,0.49666634,0.46589765,-0.1485619,0.6281588,-0.005851,-0.4218898,0.109011106,-0.2378778,-0.7318624,0.7559653,-1.3928173,0.17559227,-0.01830881,-0.45829093,-0.5989687,-0.105053656,0.24413304,-0.027636956,-1.1174672,0.5883632,-1.0165378,0.9141709,0.4522897,-0.8334791,-0.41062984,0.3161961,0.3031628,0.17999794,0.2117918,0.101600416,0.13041455,0.33530974,0.25672826,0.6464237,0.5587341,-0.92842096,-0.3759536,-0.5133079,-0.0842737,-0.87654895,0.4891795,0.87936044,-0.62823325,0.23192294,-0.05973194,0.39613095,0.003363916,1.5889223,-0.31505418,-0.07984746,0.2257151,0.18339759,-0.37051135,-1.2235272,-0.522644,-0.0555961,-0.7714663,0.82282394,-0.8527372,-0.3416651,-0.63151383,0.4983369,0.17949444,0.85852927,-0.5366694,0.6422263,-0.62108845,-1.18324,-0.0782904,1.048212,0.4229889,-0.046974096,0.9364194,0.46774232,-0.32854548,0.23234788,-0.11089229,-0.20637044,-0.22347976,0.26723003,0.20420213,0.7566842,0.027856087,-0.028123522,0.17840064,-0.19880356,-0.46534762,0.42607024,0.23426305,-0.7403216,-0.30828246,0.28381282,-0.061215866,0.1961027,-0.65991926,0.50863934,-0.45133805,-0.63479364,0.4895128,-0.15981333,-0.07747457,-0.5951431,-0.15184407,-0.58848536,-0.11877335,-0.12816164,-0.21418999,-0.72715074,-0.18989497,-0.15404388,0.22113125,1.1138406,-0.54329354,0.22245282,-0.29451028,0.21859428,0.79225546,-0.19990595,0.65068513,0.5381843,-0.8566508,0.38103065,0.61014205,0.07034032,0.16704747,-0.8655033,-0.27244896,-0.45605868,0.63409364,0.3481651,0.16654319,0.048030265,0.19368933,-0.3898644,-0.19942403,0.14055108
Q9NW64	0.108923666,0.099281356,-0.9296106,-0.8294141,-0.0029248877,-0.277708,-0.13407017,-0.45771918,-1.0463045,-0.38008526,-0.6761184,0.42360252,0.3715676,-0.13646401,-0.5330663,-0.43839842,0.27797547,-0.9493969,-0.11857532,0.5505994,-0.31190717,0.31538993,0.48542696,0.6908847,0.11584855,-0.03391968,0.61808765,-0.29079247,-0.11872689,0.16200842,-0.62135917,0.25803134,-0.56623745,0.7780028,-0.07318257,0.3670014,0.23903808,-1.0649471,-0.3122329,-0.467064,-0.59404683,0.032497577,-1.1510459,-0.041683484,-0.63134533,0.52466285,0.05637362,0.22618732,0.40742517,0.7096282,-0.23962718,-0.48250437,0.12224143,1.443375,0.520089,0.25766402,-0.57497436,0.09503027,-0.12777412,0.40415668,-0.22507024,0.13736627,-0.057514437,0.07233414,0.59782755,0.259429,-0.19553822,-0.005570315,-0.07912662,-0.034276955,-0.5242118,-0.3923027,-0.24314047,0.4066298,-0.74002,-0.08625825,0.5883976,-0.27699658,-0.41186088,-0.22745964,-0.2922723,0.33346727,-0.4795443,0.5267578,0.055487633,0.49314243,0.5683044,-1.3364826,-1.3669289,0.76533765,-0.033761434,0.025591975,0.29385924,0.45370775,-0.35286525,-0.70458066,-0.31322786,-0.51359063,0.2669893,-0.35573256,0.0738034,0.40457162,-1.1465374,-1.3406248,-0.52973324,1.189307,-0.29086116,-0.32858697,-0.6139758,0.2570035,0.4601688,0.3301615,0.4357563,-0.092361294,0.19815378,0.33581433,0.065187246,-0.1256103,-0.0030486942,-0.24118991,-0.17410535,0.6502526,-1.5532514,0.6599105,-1.0225589,0.85246634,-0.16134791,0.678107,-0.16376323,-1.0971495,-0.37974232,0.3130746,-0.3979647,0.7462356,0.09413431,0.24381492,0.7141312,1.139224,-0.14266618,0.8748869,0.7800842,0.10653925,-1.0416751,0.77852315,0.3575007,0.5839675,0.21395637,1.2049016,0.38489,0.76542276,0.56629056,0.22868949,0.24767317,0.3958126,-0.49193633,-0.6655495,-0.21769615,-0.55083674,-0.27810034,-0.5300319,0.25191247,0.090831324,0.22073232,-0.54309005,-0.08929305,-0.041301,-0.6683876,-0.47622427,0.8256779,0.08731305,-0.4233907,-0.515559,-0.56822985,0.81525713,1.1395984,0.41754526,-0.44851425,-0.6259882,-0.32237178,-0.22214241,0.48833844,-0.14757591,-0.24510814,-0.09783029,0.23072837,0.07516234,-0.5121621,0.8567324,-0.1498753,-1.0058162,0.34017554,0.07286943,0.2513197,-0.22657569,-0.15836148,-0.3347072,0.784484,-0.57993907,0.19788758,0.47557878
P31930	0.25074583,-0.6223608,0.23991378,-0.15022144,0.9454387,0.1603278,-0.4088256,0.6524993,-1.114056,-0.6053373,-0.7131913,-0.059597567,0.66938835,0.80117804,-0.35458362,0.821921,0.69131035,-0.07872193,-0.2837708,0.25025737,0.60504764,-0.15964606,1.3189225,0.51960576,-0.63885397,-0.75343555,-0.7439063,-0.37616605,0.08286853,-0.6718998,-0.13556904,0.5302142,-0.25426513,0.35090336,-0.060301997,0.66768986,0.936209,0.19577941,-2.338194,-0.3040535,0.054010272,0.34076938,-0.25633246,-0.3102323,0.24432333,-0.649196,-0.6395475,0.9123972,0.28000233,0.21351434,0.15120178,-0.49264506,0.5124033,-0.19296527,0.17041288,0.21997397,-1.0622691,-0.35699707,-0.83612645,-0.191532,0.8456852,-0.107898846,0.39104262,-0.18965945,0.11270975,1.2092104,0.46235842,0.5514375,0.016515873,-0.36112767,0.3398241,-0.3203362,0.18620154,1.03137,-0.97701335,0.36564893,-0.21952623,0.17110203,-0.16304117,0.3565802,0.09503621,-0.07818157,-0.5164297,-0.20512702,-0.44225997,0.66563797,-1.0959017,-0.6306593,-0.78156155,0.6286434,-0.2764048,-0.05759217,-0.54208976,-0.53896976,-0.22091652,0.5900185,0.43121713,0.30014685,0.14997563,-0.98926127,-0.26984456,-0.12657559,-0.41716054,0.10858968,0.6782831,0.5386676,0.035686843,-0.05994734,-0.30827397,-0.2526607,0.091293275,0.94731563,-0.22033788,0.1419503,-0.1804923,0.3832325,-0.33498704,-0.7391018,0.12922204,0.05340778,-0.8992189,0.30409035,-1.0285883,-0.18469816,-0.17657861,-0.53078544,0.33907422,0.97526604,-0.39585844,-0.043622516,0.06910999,-0.69912875,-0.4550526,0.94449437,0.38828197,0.35350367,0.5445946,0.12848294,-0.12101927,0.9381062,0.47602323,0.030799538,0.5254111,0.624116,0.23840447,0.72951263,-0.18153217,-0.17567916,-0.5103014,0.43366158,-0.048923694,-0.124273054,0.53130794,-0.11404069,-0.13058326,-0.8773652,-0.33438265,0.010146127,-0.5166727,1.1154115,-1.0370854,-0.3168118,0.2514032,-0.0993828,0.15496068,-0.6405902,-1.0154773,-0.76091355,-1.0162084,-0.5605759,0.031605065,-1.0106437,0.026204152,-0.24271114,0.06465079,0.7337729,0.54699457,0.72495776,-1.0324905,0.11068169,0.5941869,0.039430615,0.6823795,-0.41897383,-1.6286961,0.45268333,0.35235968,0.62362194,-0.010994872,-0.051660378,-0.45185128,-0.17716736,0.47916943,0.2689926,0.5928243,-0.62962884,-0.5249002,0.53715795,0.78043014,0.47395432
Q99741	-0.09866689,-0.18947926,-0.68307245,0.0031534657,1.3207269,1.0231569,0.14365037,0.047650874,0.38100377,-0.7327511,-0.47699517,0.34176815,0.0884986,-0.6690716,-0.6090155,0.32164365,0.21922158,-0.7480199,0.0044178353,-0.37594625,0.23908642,1.2231959,0.14465532,0.78978,-0.0030809548,0.25312647,-0.28331324,-0.5011186,-0.1608952,0.06644933,-0.17820504,-0.4516981,0.7647036,0.33171773,0.83011574,-0.9268906,-0.7237012,-0.21618545,-1.0819451,0.7168418,-0.46408606,-0.13632298,-0.85412526,-0.101761095,-0.118241206,-0.11930463,-0.092658855,0.16436277,-0.03842046,0.18685876,-0.2184498,0.040522087,0.51109344,0.18362392,-0.3057371,-0.16230969,-0.7452043,-0.40401748,-0.13433236,-0.8486521,0.063508846,1.02669,-1.2147679,0.08509378,0.2578487,0.7598958,-0.40187684,-0.41835266,0.12266853,-0.8481263,0.50001466,0.47594982,-0.8954434,-0.5225016,-0.8615329,0.116413064,0.22748743,-0.55089366,-1.0768707,-0.0079132365,0.061059095,0.20324495,-0.19067948,-0.10391048,-0.1355072,-0.05084525,0.01702253,-0.9001757,-0.26252985,0.60910165,-0.28757572,-0.6218315,0.37366045,0.77487946,0.43658534,-1.6132358,0.44656098,-0.9016568,-0.3909175,-0.58129096,-0.16664664,0.77291244,0.12769593,-0.5144622,-0.23077327,0.9131805,0.3364206,0.056130424,-0.3831596,0.065410346,-0.9794429,0.7740089,0.8254082,0.12104035,0.9787487,0.44901463,0.19377066,-0.060500048,0.7056204,0.96219873,0.37479785,0.29643664,-0.35872966,0.6568676,-0.78902274,0.9966045,-0.29738134,1.2421938,-0.23155646,-0.3139173,-0.5057099,-0.011666976,-0.62213486,0.91875523,0.20752259,0.51701885,-0.03301486,-0.042727657,-0.28007132,0.57270294,0.7663824,0.24072573,-0.32448646,0.8154363,-0.5628473,0.27287224,-0.47107205,0.6635346,-0.7223961,0.89931244,0.6939629,0.53620565,-0.17998761,-0.52673554,0.39072227,-0.48928553,0.063771054,0.35471338,-0.87029123,0.507243,0.28012317,0.9948983,0.89900047,-0.026370473,-0.43129757,-0.36132345,-0.84470123,-1.1464205,-0.543285,-0.18287246,0.5919511,-0.6408857,0.29044703,0.57897866,0.64147854,-0.5487884,0.22602712,-0.25783816,-0.22380178,0.60304826,0.795986,0.19404116,0.4063711,0.39785224,-0.14490935,0.06328906,0.9073517,0.53279173,-0.7890926,-0.65500814,-0.5360206,0.6228386,0.123873584,-0.048324134,-0.44531766,-0.6886691,0.12969929,-0.11669217,-0.028623732,0.97660923
P18206	0.09667904,0.89638585,-0.78836226,0.08565336,0.73552316,0.51290756,0.26084176,0.27797315,0.16008535,-1.4495106,-0.6065058,0.68774575,-0.011726147,-0.058118816,0.8963306,0.7620056,0.64301425,0.26976818,-0.55440295,0.15232785,0.268364,0.27211004,0.9186836,0.5942371,-0.25105283,-0.730649,0.0767294,-0.096045375,-0.36413687,0.42235208,-0.4411356,-0.74600637,-0.11050126,0.63797116,0.18255492,0.39257163,0.5875317,-0.1574356,-1.262527,-0.9143446,0.65444815,0.24067822,-0.7004626,-0.0049145715,-0.8629195,-0.061227016,0.95169336,1.363113,-0.9210918,0.8454866,0.10280701,0.28911346,-0.23173606,-0.59383935,-0.08201546,-0.47223547,-0.014918207,-1.2999767,0.6629139,-0.85927176,-0.5650877,0.73828024,-0.64858353,0.4220744,0.25350827,0.289393,-0.27230915,0.0055768383,0.18381394,-0.3457398,-1.1554655,-0.9334068,-0.55901444,0.5347671,-0.38062236,0.24241331,0.7769467,-0.22466029,0.3051653,-0.04555941,0.10651138,0.38882798,-0.83133394,0.58284426,0.4453167,0.11196989,-0.6416852,-0.1377309,-1.9444437,1.2067459,0.060437962,-0.058501255,0.17429549,0.3986782,-0.8640998,0.523829,-0.12972394,0.28744766,0.6530903,-0.98943454,0.5323355,0.12677081,-0.8387197,-0.65179926,-0.07867595,0.14963739,0.14296319,-0.28103143,0.33496028,-0.039940353,-0.34611177,0.46874538,-0.30427092,-0.11495345,0.03395694,-0.33908564,-0.16483492,-0.49379963,1.115184,-0.057456866,0.1602252,0.17816748,-0.15515092,0.6011228,0.28483233,0.8718618,0.2505364,0.30790004,0.09810197,-0.7161022,-0.41769797,0.41819254,0.29323733,-0.38567457,0.33956584,0.062121276,0.67651325,-1.0576546,-0.23527735,0.56421274,-0.506145,0.9037274,-0.13401742,1.3157395,-0.16280998,-0.2200545,-1.4083129,1.8334824,0.21432671,0.18142031,0.21675102,0.3917039,-1.2603706,0.94622517,1.4510775,-0.547978,0.77635145,0.18350214,0.27812716,-0.31475714,-0.021851465,-0.46378213,0.13521257,-0.51956934,0.11431869,-0.22711214,-0.59411234,-0.86621475,0.07722568,0.4550135,-0.99085844,0.04812752,-0.09623339,-0.8348055,-0.08753788,0.13592345,0.039523035,0.46288678,-0.7264772,-0.27437955,1.0985504,1.0378875,0.4757826,-0.65023315,0.09761955,0.09243109,-0.6570121,-0.14323549,0.51736355,0.123845294,-0.15632553,0.23268986,0.38591248,-0.965881,0.46956852,0.8532899,0.2345741,0.7215859,-0.25122747,0.26097596
Q96EB6	0.44952735,-0.12601392,-0.87338585,-0.040872514,0.61081505,-0.18730679,-1.3278455,-0.1677412,-0.85626936,-0.5509083,0.092802845,0.2916788,-0.3968186,-0.51708835,0.27784735,0.37775412,0.69912726,0.4861289,-0.08417055,0.601685,0.15043874,0.6177431,0.062252663,-0.20329858,0.39144665,-0.13753942,-0.17066693,-0.04656892,0.2095003,0.22482602,0.019767795,-0.5051241,0.42295572,0.7873079,-0.16876028,-0.64094913,0.3149394,0.52268815,-0.5885126,-0.13382472,0.37438148,0.30225402,-0.4313165,0.26887107,-0.7882056,-0.3520875,-1.0466694,-0.20705913,-0.1856381,-0.040754847,-0.1698076,-0.34596026,0.95391136,0.1585009,0.021174151,1.0184364,-0.4946498,-0.87100714,0.07514011,0.46298966,0.47317532,0.54314697,0.0518232,0.53439516,0.07369502,0.6554986,-0.031100055,0.22101697,-0.7969191,-0.08154815,0.58145064,0.2203529,-0.2863664,0.7947188,-0.9917734,-0.46856165,0.07558488,-0.13799705,-0.30575326,-0.120481804,0.32912835,-0.39754263,0.037681255,-0.443564,-0.13908881,0.11239815,0.460526,-1.3307267,0.15581773,-0.101200484,-0.34828395,0.06841942,0.6721409,-0.085523866,0.8430047,-0.28576532,-0.7435824,0.018016247,0.38413575,0.100381926,-0.45513716,-0.5349681,0.34621683,-0.31693366,-0.35406432,0.96554124,-0.097820304,0.43617412,-0.4117571,0.5557703,-0.18781886,-0.077890426,-0.29577765,-0.3124657,0.41592854,-0.069506116,0.98433876,-0.61908776,0.3084507,-0.3365769,0.6145752,0.4209611,0.26058674,1.3764826,-1.2697321,0.2169293,-1.0670698,0.40413514,0.6179119,-1.4819641,-0.20032616,0.06630913,0.034261007,0.7667254,-0.08623012,0.73031586,0.7478525,-0.42012313,-0.116884835,-0.12437016,-0.70090824,1.1470231,-0.8624046,1.2206265,0.016222946,0.97531456,0.19021787,0.12723278,0.1633907,0.43059814,0.17183125,0.9241147,0.5938345,-0.71141624,0.39935663,-0.43073,1.1171035,0.6174566,-0.26954037,-0.43424854,-0.30692354,0.1075971,0.2958034,0.4466245,0.3887358,0.22029634,-1.0501397,-0.19934452,0.5790057,-0.35212508,-0.58103526,-0.5189047,0.059488285,1.0609801,0.30496475,0.83971524,0.68798757,-0.29870936,-0.35704142,0.7058961,0.5986965,0.24400452,-0.19276957,0.80869114,-0.158132,1.0583582,0.38047042,-0.11602806,-0.89932084,-0.44539064,0.26926818,0.8165118,0.1272889,0.038780857,-0.19940121,-0.48524123,0.55824125,-0.7031578,0.12532641,0.9861566
P48556	0.06800763,-0.5129621,-0.4775185,0.42738754,1.1283985,0.90516317,-0.251959,0.63833433,0.26606002,-0.5833546,-0.089071825,0.73350996,-0.18956375,-0.24734676,-0.01074913,0.30143073,-0.15605557,-0.04351031,-0.010833613,-0.6477184,0.23987576,0.7892833,0.45983803,0.41450652,-0.42098272,-0.18225089,-1.0165782,-0.9178671,0.88578343,0.9237061,-0.18671453,0.30384493,-0.38034812,0.5533239,-0.14599472,0.2554464,0.7270522,-0.056316707,-0.6448794,-1.0137081,-0.02852076,-0.81638694,-0.7042991,-0.2693366,-0.28899887,0.093378045,0.49451298,-0.18389869,-0.35593012,0.19129191,0.22424142,0.66459084,0.023025533,-0.4193305,0.32870564,-0.13896249,-0.34278485,-0.21618345,-0.04132109,-1.6219774,-0.3406671,0.27727655,-0.54266006,-0.613055,0.4082658,-0.06266397,-0.15660217,0.4558771,0.3566026,0.2331054,0.515713,-0.019034578,-0.07621011,-0.35558686,-0.93717015,0.57817686,0.705297,-0.5873711,-0.39538112,-0.048659567,-0.37676525,0.47337988,-0.43435967,0.051214654,0.3608257,0.65023834,0.2348494,-0.40402195,-0.73633724,0.49388763,0.12689407,0.1411336,-0.018041827,0.7842729,-0.23464724,-0.44395697,0.55548,1.097089,0.84193027,-0.64723504,-0.56154543,-0.28990668,-0.14074405,-0.5596332,0.47383514,-0.1774966,-0.26892585,0.039335225,0.3562353,0.45282605,-0.77923894,0.998485,0.032483928,0.33762905,0.7775329,-0.095391124,-0.31830665,-0.5102092,-0.17394158,0.66406965,0.57717496,0.26720527,-0.7506046,0.94987386,-0.81444126,0.86579,0.14213006,0.6569494,0.097059935,-0.1295042,-0.41791233,0.33587703,-0.07185537,0.66907054,0.6354978,-1.1637939,0.76504344,-0.15171196,-0.7673375,0.53272843,0.42436412,0.18609552,-0.79965353,0.79082143,0.110919826,0.8038444,0.1525451,0.54523194,0.11918194,-0.0003862699,1.0270065,-0.12013651,-0.545488,-0.22831826,0.14456515,-0.953244,-0.12690412,0.706413,-0.2900402,-0.024170978,0.37001267,-0.3319147,0.71569425,-1.3115501,1.1655734,-0.017077306,-0.73047805,-0.08643575,-0.29638657,-0.79916805,-0.03418918,-0.49490008,-0.35136557,-0.5427272,0.43706194,0.5381262,-0.22651951,0.20851882,0.09907279,0.40213487,1.202563,0.67965084,1.6370518,0.30742878,-0.42988372,0.13338138,0.42587727,0.7769958,-0.15412237,0.29411182,-0.10052014,0.354048,0.5415316,-0.749543,-0.11348733,0.2228847,0.70233035,0.20941679,-0.5839271,0.24903807
P30049	0.16247608,-1.0881624,0.39633653,0.25985777,0.90291023,0.7847296,0.08196138,0.68542624,-0.37839288,-0.26879776,-0.28524587,-0.11577606,0.2444802,1.0357251,-1.2249076,0.9891283,0.5227398,-0.93543124,0.1473307,0.39652094,1.0240567,1.3835186,0.99681973,0.6098527,-0.5398673,-1.3321935,-0.7833055,-0.44526482,-0.135957,0.4139319,-0.5002195,0.2100619,-0.18340863,0.29787382,-0.5632791,0.23641323,0.48365107,0.14844555,-1.7737159,0.14964035,-0.40321615,0.28821877,0.38768637,-0.16571257,-0.4864977,0.1597044,-0.15018612,-0.12530151,0.20353824,-0.08642048,-0.49207276,0.38342375,0.67117786,0.07404606,-0.15832773,0.14755006,-0.63382334,-0.143066,-0.47502947,0.010325017,0.5184074,-0.3992546,-0.7762373,-0.57473296,1.1407497,0.95742315,0.36418396,0.68916684,0.51116085,-0.5278804,0.5487244,-0.5417943,-0.15818387,1.1001844,-1.2536681,0.19377457,-0.3014287,-0.35562587,0.33847117,-0.054172523,-0.4598536,0.14978154,-0.20161752,0.9837975,-0.5046799,0.7187243,-0.781403,0.011184393,-1.2766659,-0.05551775,-0.12736385,-0.117762156,-0.67598265,0.20637248,0.8030689,-0.084850654,0.6906312,0.08356386,0.13642058,-0.4832841,0.11337468,-0.07491436,-0.013835583,0.14937991,0.28821447,-0.42256367,0.2830238,-0.7249938,-0.03768241,1.0466958,-0.4978172,0.3337971,0.28001943,0.14466469,-0.4711004,-0.27483267,-0.87128955,-0.82500255,-2.1823778e-05,0.21968532,-0.15479544,-0.26498854,-1.2803231,-0.6346095,0.33258304,0.31498313,-0.30047044,0.34395856,-0.18557046,0.3329319,-0.48160353,-0.92869467,0.016415417,0.7177737,0.2751274,0.6409116,0.69608283,-0.20761058,-0.1318318,0.903193,0.6728962,-0.56585646,-0.9688125,0.18773709,-0.70560986,0.9316139,-1.0467465,-0.06755553,-0.71775466,1.3464438,-0.2563608,0.17315905,-0.23240499,0.02113757,-0.24691992,-0.31856254,0.42348042,-0.24799965,-0.6415128,0.7015829,-0.49637255,-0.38671795,1.0348287,-0.82099724,0.4060212,0.14744607,-1.014511,-1.3347746,-0.5757758,-0.6025116,0.058568962,-0.2437003,0.38490605,0.38508788,0.9196962,-0.0077443034,0.31026876,0.44566643,-0.28037888,-0.07965699,0.85975087,0.19240902,0.53770214,-0.10205797,-0.8646365,0.6337244,0.06281394,0.16313949,-0.02149165,-0.58628285,-0.87402284,0.58734715,1.1028295,-0.035449006,-0.29176942,-0.79614466,0.255688,-0.06303616,-0.0010592011,-0.5900791
P17568	0.09903176,-1.2098362,-0.27818927,0.0018697642,1.1081228,0.68482494,0.19356832,-0.22177558,-0.65311104,0.29469132,-0.11053478,-0.15585406,0.9208099,0.32160956,-0.6940057,0.32335946,-0.54847544,-0.69785404,-0.18870036,-0.28557065,-0.547087,0.27324423,1.4401528,0.00211787,-0.18827412,-0.8221561,-0.29180345,-0.50240153,0.19829749,0.12062587,-0.61797553,0.27536857,-0.70325446,0.07044602,-0.22934733,0.5610599,0.634567,0.13763145,-1.0545022,-0.9636448,-0.15127493,-0.24518837,-0.5854287,-0.9235944,0.045900397,0.28614077,-0.28446993,-0.18140656,-0.033314653,-0.081098236,0.47490835,0.018024016,0.23874372,0.3000105,0.64198226,0.21733639,-0.1569822,-0.027872588,-0.3221778,0.42405736,0.3340772,-0.09803482,-0.30009815,-0.5009932,0.5005148,0.72861034,0.11750043,0.776069,0.19207773,-0.5287054,-0.07052124,-0.47839877,-0.69614506,0.85458004,-1.0443171,-0.08566556,0.09680558,-0.30272895,-0.084595025,-0.6287229,0.31187138,-0.13040398,-0.58990324,0.5714392,-0.6124231,0.8206837,-0.21539955,-0.06019727,-0.6477982,0.17687088,-0.080415666,0.4355959,-0.05902147,0.22127761,-0.14528543,0.13911568,0.18961446,0.74361014,0.32496306,-0.7733537,0.05450104,-0.7401136,0.12285211,-0.87577987,0.36982417,0.94442564,-0.51629406,-0.36366922,0.15463065,0.55494416,0.41582543,1.2482873,-0.04160103,0.038838673,-0.46149117,0.51222646,-0.08839202,-1.1448061,-0.68840647,0.13937587,-0.5882406,0.75995445,-0.81412756,-0.44624916,-0.11888465,0.6328725,-0.08853725,0.3539087,-0.5450203,-0.011659846,-0.24412043,-0.71949077,-0.095689185,0.7380003,0.21356906,0.0456681,1.1536242,0.37107465,-0.06265939,0.538241,0.022320868,-0.39037508,-0.6468125,0.12612233,-0.20334074,1.0538242,-0.62610537,-0.4318629,0.1835368,0.6009548,0.06772736,0.21449119,0.076313995,-0.59348804,-0.10662321,-0.32454696,-0.10573868,-0.10671165,-0.15965752,0.8380256,-0.5886275,-1.1074835,0.41633245,-0.7808571,-0.091053255,-0.48565286,-0.31381857,-0.35919732,-0.029523475,-0.1118047,0.113818005,-0.3430888,0.22141403,-0.36764055,-0.0027916462,0.30619308,-0.093438014,0.66744405,-0.48750713,-0.029091569,0.82800347,0.02744417,0.61892015,-0.33200562,-1.0548028,0.4596533,0.17941615,0.2255111,0.20693463,-0.64377385,0.07165778,0.035676755,0.7449034,-0.2957275,0.51484805,-0.6109782,0.118435,0.09028979,-0.42826867,-0.3916269
P62318	0.24464941,-0.083346635,-0.96171635,-0.8418178,0.21172751,-0.9464558,0.22361778,-0.20309791,-0.06278685,-1.442228,-0.8192194,0.4515796,-0.26635525,-0.5859865,-0.064227305,-1.051637,0.25504985,-0.6412613,-0.81934226,0.20012169,-0.13311324,0.7630546,-0.35228145,0.89340985,-0.89453036,-0.24926339,0.5147489,-0.40934107,0.39548567,0.17593884,-0.48858333,0.98732275,-0.32698414,0.40718612,-0.9794728,0.2426812,0.5666091,-0.38862443,-0.28373927,-1.1541522,0.030370226,0.16077177,-0.4996913,-0.038074408,-0.6211556,-0.05025395,-0.14032267,0.26181284,-0.38289478,0.31870463,-0.104107276,-0.29664388,0.16021752,0.60660785,0.8873763,0.2829732,-0.32408035,0.19952315,-0.6496933,-0.3121944,-0.5638934,0.1707257,-0.15465549,0.15851636,0.40802604,0.16570954,0.31504536,0.43436328,-0.05548855,-0.1194555,0.019908085,-0.31112388,-0.8573707,1.0473484,-0.40207842,-0.111354776,0.07414755,-0.3917921,-0.509539,-1.1759052,-0.1362962,0.9852409,-0.2149616,1.023821,0.39897555,0.16630757,-0.1187305,-0.86189294,-1.7765906,0.06837653,-0.035245918,0.2054039,-0.32447094,0.5681766,-0.8000982,0.35335106,-0.22488685,0.17122684,0.2262473,-0.98361886,-0.8051236,0.9304147,-0.9628419,-0.9670539,-0.19669692,0.5757018,-0.3271981,-0.15978868,-0.41555393,0.43669164,-0.27310452,-0.30711824,0.26551545,0.10384382,0.4525664,0.6258327,0.26243672,0.030483732,-0.26852217,0.24443778,-0.15948787,0.25977904,-0.9399259,0.7887223,0.35160628,0.6868123,-0.16486706,0.1715802,-0.32145968,-0.68665177,0.06273095,-0.11137978,-0.652324,0.62973034,0.437779,0.31545603,0.7371202,0.83451474,-0.105207965,1.0450685,0.68983865,0.32141852,-0.59621555,0.9783049,-0.18096253,1.4224036,-0.13111869,0.98503685,-0.029011402,0.871224,0.28561708,0.071139395,0.26474667,0.18087178,0.39609304,-1.5737047,0.32642436,-0.29290754,-1.0041322,-0.45452815,0.32757673,-0.8765232,0.26340613,-0.45521787,-0.51568794,-0.24213019,-1.392356,-0.45284787,-0.01125376,-0.51164883,-1.0866126,-0.40306908,-0.25232744,-0.31113774,0.85068166,0.8155978,-0.45687833,0.079277486,-0.5415079,0.07771978,0.88532686,0.26163816,0.25354567,-0.15428673,-0.18025912,0.43173566,0.7084627,0.25198677,0.21782039,-0.2743775,-0.37434208,-0.012960436,0.5782251,-0.8412024,0.6607373,-0.17275761,0.31521732,0.1139472,0.008489017,0.44615018
P33992	0.8693547,-0.36316517,0.28481987,0.7118005,0.9012531,0.63171434,0.6311852,0.61570126,0.18968034,-0.044854004,-0.8078464,0.8523627,-0.000915,0.17015767,-0.73607624,-0.07852989,-0.7490456,-0.72766775,0.04031175,-0.61910325,-0.60500455,0.87051314,0.16720423,-0.007854336,0.02285986,-0.45830926,-0.984406,-0.6881778,0.03395596,0.619521,-0.18408059,0.1606454,0.54067993,0.17742018,0.74350333,0.11770133,-0.1315918,0.1145842,-0.94143885,0.06959191,-0.47203395,0.41738233,-1.0899549,0.21279003,-0.080542885,0.6390489,-0.28124395,-0.68337363,-0.076374985,0.6326978,-0.16580091,0.4548482,-0.08772744,0.5957612,0.01015256,0.30372787,-1.1275762,0.34434366,-0.2982743,-1.2820868,0.41487318,0.46040505,-0.36352172,-0.8424311,0.75745,0.78621,-0.25284904,0.52255386,0.06646652,-0.10573179,-0.19030073,0.04030114,-0.40963736,0.6491321,-1.1971954,0.16007538,0.48234317,-0.26758555,-1.0800031,-0.6068945,-0.21652459,0.79599595,-0.3280368,0.4600489,0.21064168,0.46906015,0.50833976,0.041550655,-0.27710527,0.6069625,-0.03458832,-0.51094896,0.7350615,0.39304817,0.4618919,-1.1740683,0.24066423,-0.1259838,0.14467813,-0.45555994,-0.13478583,0.70451623,0.12941827,-0.381853,0.026129877,0.812356,0.10013866,0.51093006,-0.57294047,0.07165542,-0.08852047,0.26244423,0.38199973,0.5394942,0.8664386,-0.3356292,0.04117197,-0.91243285,-0.23385344,0.37341353,0.7603526,0.020792337,-1.5450776,0.71650124,-0.32130292,1.1087132,0.13326988,1.055553,0.007220118,0.033179775,-0.751415,0.26282704,-0.25096467,0.7028609,0.33001474,-0.8569843,0.37051335,0.49078187,-0.24448839,0.39176702,1.0200475,0.021923598,0.23230815,0.47463775,0.45163414,0.14719558,-0.09661366,0.33486512,-0.36877894,0.32205674,0.47876957,0.38944495,-0.13019721,0.112540655,-0.13512154,-0.021947375,-0.46835965,0.89198864,-0.99929386,0.3365332,-0.104955,-0.07700196,0.6877121,-0.33681768,-0.083532535,0.0028131083,-1.1037565,-0.5560421,-0.23683815,0.608553,0.36443627,-0.45140803,0.50507486,1.0161005,0.9076998,-0.50642043,0.13632815,-0.26792777,-0.11154979,0.4993306,0.026897386,-0.09003497,0.5937031,-0.2823381,-0.12228438,-0.05018446,0.7892712,1.156562,-0.25702843,-0.76605916,-1.322607,-0.18017139,0.28397864,-0.0098488415,-0.6643173,-0.35778463,0.41446128,-0.062959984,0.96033967,-0.008502892
O15371	0.47499004,-0.52451307,-0.30552208,-0.6022386,-0.13611947,-0.1793508,0.6854935,-0.22749218,-0.0490763,-0.67788684,-1.2504472,0.13981648,-0.071526505,-0.7106938,-0.9990821,0.24446984,-0.39583245,-0.46573505,0.008437424,0.03983094,0.32738817,1.0695248,0.5277,0.41379905,0.5257338,-0.4790817,-0.7918079,-0.3813066,0.11327843,0.13950324,-1.3110424,-0.22806898,-0.037691366,0.926188,-0.9139147,0.2605705,0.17634167,-0.009791808,-0.334762,-0.35103396,-0.58640265,-0.004223491,-0.39281034,-0.19869727,-0.9584739,-0.601654,-0.93881303,-0.18625504,-0.619771,-0.63796055,-0.7962432,-0.34742078,0.557302,0.63052744,-0.20483011,0.5259104,0.058816824,-0.59304214,-1.1446162,-0.3605375,-0.13874413,0.26068747,-0.7219086,-0.41050774,-0.018336723,0.70567113,-0.31557575,0.6283568,-0.09258952,0.0633107,-0.412781,0.065883085,-0.047756266,0.16537982,-0.49812454,0.5606217,0.66473615,-0.28461275,-0.5688426,-0.41107705,-0.29801705,-0.07462595,0.05158169,0.97245216,0.45746526,0.60792065,0.52192724,-0.026141364,-1.1518785,0.48392513,-0.11633499,0.2768733,0.004903052,0.60575056,-0.65233064,0.22698322,-0.213299,1.0302045,0.026764644,0.016033228,-0.43699458,0.26668376,-0.96994746,-0.119716614,-0.40637612,0.5731906,-0.41937992,0.018098244,-0.20149751,0.3500704,-0.35366833,0.12222254,1.015172,1.137047,0.7605238,0.15103708,-0.045906205,-0.4611387,0.37096134,-0.38497666,-0.49859163,-0.16642916,-0.6298777,1.1020367,0.43004256,-0.12039937,0.6809752,0.5933458,-0.52992094,-0.08717255,-0.37505794,-0.039756566,0.010513444,0.9581147,0.68173206,-0.050695725,0.72632396,-0.041372757,-0.7493185,0.5635502,-0.43215898,0.8224648,-0.00017373955,0.6170391,0.7601744,0.14322513,0.2561587,0.3084474,0.542801,0.12093868,0.055825632,0.21129408,-0.2307865,-0.034871522,0.6879299,0.17063233,0.4728331,-0.68882465,-0.7756267,-0.33268872,0.27984068,-0.42819175,0.44116923,-1.046443,0.24052417,0.49147302,0.20638442,-0.24341562,0.076267585,0.3359109,-0.29048902,-0.9233002,0.076607674,0.302822,1.1541655,0.6519048,0.09997736,0.57210773,-0.2235421,-0.2075258,1.6274506,-0.10202749,0.5446809,0.18320236,0.21792936,0.4140405,-0.15037857,0.48478502,-0.31009558,-0.25100675,0.102842666,-0.2318542,1.1566145,0.14984554,0.39678487,-0.19023328,0.17931394,-0.23975563,0.542189,-0.059654217
P62877	0.29380003,-0.8231028,-0.67634165,0.21550593,0.5998638,-0.4602598,-0.86170954,1.0094656,0.098494686,-0.73655474,0.6437133,0.72968644,-0.89919055,0.7199383,-0.12297782,0.57322776,0.33289945,0.5927771,-0.94079095,-0.1734643,0.49297884,-0.2906812,0.12082174,-0.024190757,-0.6805034,-0.13627967,-0.5204147,-0.8562134,0.6460181,-0.17352088,-0.2545476,-0.31013444,0.17780937,0.25835168,-0.036927965,0.47141564,0.97824186,-0.7686644,-0.7840543,-0.87444013,-0.032532725,-0.77021426,0.09911221,-0.4291552,-0.65698427,-0.08836866,-1.0979459,-0.70099026,-0.7727846,0.90964067,0.110160515,0.44412598,0.57971984,0.15790343,0.6991518,-0.43003997,-0.9665225,-0.3231989,-0.51036125,-0.4743805,-0.08480558,0.22283946,-0.2060812,0.59901834,0.3518847,-0.118712775,-0.12224258,0.8180746,-0.5125078,0.18200266,0.15150273,-0.37714407,0.5637167,1.6080606,-0.67741865,0.27706975,-0.28993812,-0.34326926,0.09799237,-0.10486223,-0.25091535,0.7364999,-1.0502447,-1.1667378,-0.17464094,0.07213297,-0.5839831,-0.5768267,-1.650236,0.24087135,-0.17370307,0.16254349,-0.39820942,0.59516877,0.13558874,0.2183348,0.1445393,0.88522464,0.3175116,-0.5855061,-0.47274062,-0.40273723,-0.41560033,-0.109748915,0.30906868,0.027185833,-0.31196588,-0.366786,0.5944934,-0.5530584,-1.3987703,-0.034923006,-0.6062431,0.7862865,0.77547663,0.63504326,0.17960298,-0.9404439,-0.49071354,-0.16026819,1.0145291,0.30596548,-0.29242903,1.1704471,-0.16733731,0.6227022,0.021121914,1.0752196,0.13848168,-0.7488969,-0.3526596,-0.7354121,0.033189017,0.35081133,0.98464704,0.2157453,0.32267568,-0.05048024,-0.6725081,0.92548096,-0.16646862,0.7219024,-0.41684422,0.8728162,0.47613508,1.523614,0.08157098,0.18962495,-0.5970546,0.89919305,0.39860028,0.22730748,-0.28104746,-0.70307934,-0.3363663,-1.6951739,0.24264468,0.3869366,-0.52519226,0.57224953,-0.029377513,-0.8458455,0.21806958,-0.15649666,1.0060779,0.06673002,-1.5015285,-0.09584954,-0.8965945,-0.21369897,-0.41922703,-0.019384025,0.45482516,-0.035435647,0.47478393,0.60971326,-0.5089939,0.045332912,-0.09384858,0.33445373,1.0774375,0.8490213,0.9918137,-0.11842217,-1.2564733,0.38916215,0.2153443,0.7025772,-0.2954262,-0.1864821,-0.2540618,0.30952293,0.3771369,-0.20296822,0.18621893,-0.18626998,0.08282226,-0.29838696,0.15019208,0.67689
P10144	-0.48551124,-1.158104,-0.52574253,-0.43502152,0.073009,-0.29533508,0.122183606,0.25568646,-0.0810154,-0.87294334,-0.5570285,0.44059646,0.7385974,-0.1900859,-0.33605492,-0.23066364,-0.2110166,0.21149014,0.6147352,0.5174184,0.522002,0.8761424,0.81738776,0.21058168,-0.109952606,-1.5133809,-0.23218518,-0.5274339,1.066075,0.15527853,0.18384859,0.24439931,-0.65234363,0.3368168,-0.43222114,-0.06329661,0.7901172,-0.2697014,-0.44859606,-0.3460526,-0.56131697,0.33197466,-1.0266438,-0.08124801,-0.28819087,-0.36591685,-0.3908128,-0.2705076,0.06155579,1.0100021,-0.473263,-0.21864353,0.51935315,0.2923351,-0.16893291,-0.14395572,-0.36241618,-0.65833694,0.5606849,-0.037539933,0.7792824,-0.18818438,0.4233948,0.35578543,0.52760464,-0.17089126,0.19592129,0.4060608,0.12304065,-0.310336,0.5717589,0.6964697,0.42240453,-0.5256968,-0.97139573,0.183579,0.121310875,-0.5102889,-0.2197056,-0.014375261,0.5136089,-0.18761614,-0.3441649,0.34554684,-0.33828163,-0.18561126,0.49606073,-0.26487955,-0.31441674,0.47665638,0.054480493,-0.17953911,0.90409654,0.6821247,-0.15667112,0.93754476,-0.5553413,0.6442446,0.5929905,0.07375444,0.19610855,-0.023696119,-0.27478856,-0.801374,-0.5627486,0.50810707,-0.5545068,-0.25546163,0.4292581,-0.06227226,0.108417355,0.9753121,0.28032193,0.32530499,-0.0556588,0.16640173,0.46014234,-0.24052213,0.59312034,0.31419358,-1.0258533,-0.39690688,-0.14847383,0.27037022,0.27491874,-0.6288934,0.15626018,0.8327926,0.6547411,0.57930225,-0.66010326,0.034364138,-0.43397433,0.72582483,0.7752084,-0.068579525,0.17865904,-0.26365843,-1.013629,0.51345015,-0.08932641,-0.046719097,-0.19103797,1.2568357,0.5412756,-0.41318095,0.032132767,-0.34631598,0.18128158,0.23171254,0.5048815,0.38902447,0.39326,-0.2583907,0.56131023,-0.011794876,0.21240608,0.58466893,-0.5149339,0.13616243,-0.28344607,-0.120040156,0.746138,-1.4959058,0.9433213,0.27523047,-0.53350776,0.18910858,0.6652886,-0.5988383,-0.24433154,-1.6073389,0.31697884,0.17663059,0.1600791,-0.031283595,-0.6443346,0.3767531,-0.8054834,-0.25145262,0.8458381,0.11150679,0.6094897,0.06519776,-0.60448366,0.61145097,-1.1249211,0.91619843,-0.410928,-0.6974353,0.55718666,0.39345658,0.3712615,0.21480025,-0.4905805,0.516182,-0.49356335,-0.022306575,0.7342218,-0.11490482
P25788	0.27695456,-0.4896224,-0.5979968,0.42480874,1.0574219,0.2173073,-0.5152472,0.56010246,0.47392797,-0.7143609,-0.42985097,0.60595787,-0.5431179,-0.37798285,0.186505,0.6736333,-0.09827586,-0.17962213,-0.067861184,-0.38267064,0.7768446,0.559588,0.4890591,0.081045605,-0.51627594,-0.11452711,-0.6220701,-0.39137822,0.3561873,0.9602923,-0.10283768,0.05592782,-0.43113142,0.37763566,-0.48850048,0.30652198,0.45675385,-0.61282545,-0.83535933,-0.6064254,-0.033897143,-0.76726395,-0.46874818,-0.04892939,-0.7299543,-0.010174386,0.32952675,-0.0140857445,-0.5962112,0.52202725,-0.28254354,1.0005198,0.14966924,-0.31890678,0.31983677,0.061241757,-0.6828816,-0.47024512,-0.31383103,-1.617172,-0.18807174,0.14909305,-0.3348904,0.060313944,0.6016351,0.13936447,-0.48484328,0.1591177,0.13884243,-0.15126997,0.37549633,-0.4995321,0.41588962,-0.2853265,-0.9098208,0.9735263,0.85006946,-0.30978793,-0.36282122,0.29493797,-0.041964836,0.74880713,-0.23625529,0.17998439,0.22437273,0.5725644,-0.20741871,-0.41415322,-1.4417629,0.57695407,0.11689426,0.21006468,-0.24545956,-0.18569875,-0.026828863,0.11063197,0.60945755,0.98441625,1.06721,-0.30599162,-0.64656734,-0.26520243,-0.32894295,-0.77151173,0.71692526,-0.2631631,0.06556439,0.1158876,0.38058436,0.25951576,-0.8828002,1.20825,-0.17343293,0.22256671,0.9705398,0.35810965,-0.52805847,-0.38417363,0.4707117,0.12523957,0.5088113,0.6637557,-0.5745191,0.77157784,-0.48022568,0.18926328,0.45918182,0.45577013,0.012796345,-0.017124048,0.27427134,-0.28675222,-0.3202324,0.6934121,0.77856094,-0.8267814,0.4734162,-0.6342267,-0.71807677,1.0692533,0.25328755,0.5324207,-0.755966,0.49572846,0.1681986,0.6401279,-0.115468845,0.63775027,-0.030171944,0.11980617,1.0532265,0.14829735,-0.5897158,-0.20273775,0.032235965,-0.99109757,0.10729086,0.44895086,-0.098773934,-0.28925544,0.59705967,-0.054257754,0.25534523,-1.4735845,1.3176792,0.2276917,-0.77222455,-0.28417173,-0.31666803,-0.8868851,-0.09540914,-0.3843873,-0.4573181,-0.8228035,0.4835611,0.9136165,-0.2228782,0.2521932,-0.20377086,0.102873035,1.5878993,0.9420734,1.4576811,0.6862949,-0.64740115,-0.25241598,0.09232557,0.58467346,0.4888369,0.6611081,-0.7273456,0.3738964,0.77022576,-0.39350393,0.08213229,0.2952586,0.9469514,0.069311514,-0.3106609,0.28002033
O14965	-0.32285804,-0.09625785,-0.86419773,0.09672066,0.6049566,-0.3075744,-0.15203197,0.77858377,0.7713568,-1.0784049,-0.46393937,0.17923617,0.10696698,-0.7869063,-0.2637334,0.026652897,0.095792025,-0.26213285,-0.6821663,0.0117175635,-0.72446656,0.30835813,0.38872257,-0.21410555,-0.483201,-0.38709524,-0.03580501,-0.51863253,0.26020098,-0.020954506,0.11494344,-0.78360575,-0.43768337,0.07078908,0.330803,-0.1650523,0.18133219,0.10847959,-1.378331,0.059911165,-0.91983736,-0.7650416,-1.2320116,-0.72148216,-0.6299988,0.43473962,0.028150855,-0.36351964,-0.5290863,0.38231832,-0.28153187,-0.04875488,0.06306481,0.4194373,0.019502474,0.06973318,-0.14911737,-0.38987443,0.467659,-0.8694024,0.543723,0.09725879,-0.7188393,0.3912386,0.52650946,-0.083327405,-0.042046,0.04277067,-0.1022629,-0.56682456,-0.002013564,-0.5188158,-0.048022117,-0.51048243,-0.7356932,0.6732625,-0.0002666356,-0.9751571,-0.23708011,-0.121604554,-0.4939234,-0.48365784,-0.7652182,-0.95270586,-0.028101528,-0.87314975,0.46667892,-0.25840473,-0.1285338,0.012097242,-0.4940539,-0.73398226,0.8630646,0.507111,1.5475618,-0.29471198,0.01948658,0.27179536,-1.4192508e-05,-0.33962467,-0.09019091,0.8043831,-0.9206445,-0.72793025,-0.6778063,0.3264665,0.37928936,-0.15189323,0.6772198,-0.1986925,0.017347028,0.6027628,-0.22068097,0.43532604,0.94458985,-0.05115129,0.34711662,-0.33741838,-0.031094573,0.14739056,0.08455559,0.8024947,-0.008828164,0.75364053,-0.7058009,0.8441087,-1.4267619,1.2469656,1.114575,-0.36998183,0.037021924,-0.7057442,-0.19896203,0.5887481,0.9166229,0.5065408,0.23904291,-0.80674833,0.17827752,0.25968575,-0.09115669,0.3877167,-1.4638239,0.16987978,0.4867713,-0.74227494,-0.5593664,0.7557441,-1.1647097,1.1110842,0.40234768,0.47065645,-0.34914663,0.16297744,-0.08389089,-1.1884124,0.10260588,-0.20651035,0.1594486,0.11907472,0.8999057,0.77633226,0.2644372,0.19899727,1.1540152,0.4671614,-1.2399193,-1.3872551,-0.5004393,-0.41793546,-0.30789584,-0.36671668,-0.48726812,-0.2724547,0.19761872,-0.54477596,0.2728782,0.5702197,0.100554556,0.020386063,1.8120097,-0.24324398,0.33324826,0.14345223,0.6234888,-0.20277786,0.2813378,0.11166112,-0.674478,0.07264561,-0.7221857,0.08779661,0.33741125,-0.30840364,0.31988463,-0.21911152,0.16974261,-0.7611597,-0.61122185,0.694321
P68400	0.30056396,-1.1496949,0.12368558,0.6940005,0.55459523,0.53419673,0.6861487,1.2386808,-0.06264151,-0.9771902,-0.33957464,0.108754,0.31657544,-0.07486978,-0.93177724,0.026075196,0.02505601,0.2646772,0.61267287,-0.58874035,0.2917884,0.7795687,-0.49999675,-0.5943372,0.28622654,-0.21093622,-0.93793553,-0.73730934,1.1102713,0.5137855,0.1983613,-1.139445,-0.19722734,0.5880929,-0.15086553,-0.26711756,0.11294233,0.6422444,-0.79560345,-0.11138297,0.05623485,-0.11435498,-0.84594697,0.03544614,-0.8421046,-0.2801243,-0.78377527,0.12362678,-0.85918164,0.3316503,-1.0987874,0.37365046,0.97508776,0.6964455,0.32289118,-0.680024,0.14559825,-0.27914163,-0.17030405,-0.3038457,0.58922946,-0.18823293,-0.39373612,-0.10761157,0.44094777,0.24909383,0.30464965,0.50742126,-0.27103496,-0.79637694,-0.009198024,-0.27557364,-0.77670264,-0.36819944,-0.9017485,-0.304736,0.30673477,-0.4620564,-0.6526447,0.44085526,0.09303635,0.6895019,-1.2439957,-0.53429335,-0.350683,0.39238244,1.4352517,-0.4113469,0.90577006,-0.5693881,-0.0036225615,-0.05900201,0.6882088,1.0664773,1.8121238,-0.11863565,-0.3742427,0.59407145,0.38216257,0.23416986,0.18060377,-0.7043622,0.5361176,-0.32801735,-0.014549557,-0.30261794,-0.2318474,-0.1553171,0.34197015,0.2360167,-0.13510728,0.8421338,0.18332498,-0.10687365,0.53661656,0.34361902,0.1963905,-0.9075754,-0.23459917,-0.07829561,0.36442503,-0.09693113,0.182754,1.148629,-0.8482987,0.82441324,-0.16373494,0.32073918,1.0555183,0.41678753,-1.1469423,-0.024326408,-0.26539248,-0.046764668,0.7647921,1.0861437,1.2393714,-0.9204507,0.54211634,0.2371137,-0.5504192,0.09950261,-0.60020405,1.3403642,0.13069834,0.099189356,-1.1891713,0.97875065,0.59657985,0.96094877,0.6478681,0.5562367,0.23083359,-0.92002535,-0.20918134,-0.5188679,0.1762062,0.05090084,-0.37269703,-0.3403977,-0.017832862,0.026575543,0.042540725,-1.2222662,0.79232997,-0.13863201,-0.3453161,0.15652068,0.2528613,0.16145684,0.09690828,-1.1098349,0.33433962,0.7515718,0.99142,-0.41647297,0.030573033,0.43590564,0.11321687,-0.34852204,1.7777297,0.02642256,0.63213366,0.10919324,-0.16269016,-0.47943643,-0.2957015,0.5755996,-1.2578311,-0.10355526,-0.10038729,-0.1872267,0.38592649,0.07607854,-0.18068919,-0.21775849,-0.11860481,0.13188806,0.34183848,1.1363995
Q9H444	0.5298051,-0.29473087,-0.28044385,0.47180986,0.688215,0.8041209,-0.3513923,0.3694023,-0.045681115,-0.876552,0.49810943,-0.08223433,-0.19072314,0.66899085,0.04676371,0.369888,-0.19117714,-0.72470844,-0.5720824,-0.37335855,-0.22231562,1.0810246,1.2527658,0.7975036,0.09466236,-0.50565714,0.07784447,-0.71773934,1.1341904,-0.55356646,-0.08614397,-0.5262501,-0.6216387,0.89312434,-0.03386689,0.2031441,0.31768698,-0.36584362,-1.0441569,-0.11378882,0.1695343,0.2175383,0.12403429,0.4724327,-0.47814474,0.7123182,-0.43473405,-0.42042366,-1.2773921,-0.5473598,-0.34860137,0.8010769,-0.34448665,-0.40220013,-0.41557282,0.14215057,-0.8908416,-0.85486615,0.2268611,0.3708044,0.5317811,0.49059016,-0.25761968,-0.09673328,1.3303615,-0.5786319,-0.10815309,0.122077376,-0.6068305,-1.1415366,-0.20245013,-0.09162048,-0.61243504,1.4714818,-0.570385,-0.6597372,0.7268367,-0.62309283,0.09082057,-0.30214265,0.103050664,0.4860883,-1.0205022,0.3746868,-0.9536038,-0.8024217,0.91859114,-1.3998444,-1.5568287,0.094638094,-0.21371265,0.3466676,0.26369455,0.12179707,0.7194991,0.18640043,0.41782746,0.18834858,1.2674235,-0.2167326,-0.5506922,-0.41774914,0.09389228,-0.7114668,-0.67590714,-0.0347359,0.8852306,0.5359467,0.32245314,-0.25591576,0.6471493,1.0095447,0.35637194,0.1358836,-0.082386695,-0.071625136,-0.1312371,-0.65982956,-0.15090135,-0.2909442,0.22941089,0.41720188,0.7313308,0.34140998,0.5649457,0.6852099,-1.0204859,0.1560717,0.0822296,0.0029019408,-0.43467498,-0.5921506,-0.22829336,-0.085077785,0.62666684,0.6548182,0.5865039,0.32768372,0.1261226,-0.9978722,-0.30106974,0.010860531,-0.66073596,1.1827034,0.65731484,0.37660676,-1.3163033,1.210764,-0.25331947,0.54884624,-0.079590164,0.7359054,0.40349117,0.46728832,0.11705623,-0.8156329,0.7178132,-0.083390936,-0.86317134,-0.25934425,0.40703535,-0.41088897,-0.3735705,-0.5309111,1.0470196,0.11268679,-0.6110581,-0.5328848,-0.2900321,-0.11363658,-0.042701114,0.68578446,0.13430043,-0.8106875,0.14235356,-0.78392595,-0.8992128,0.8277844,-0.92982453,0.29806015,1.4066477,0.66073185,0.51669216,0.84562796,0.43727708,0.8580093,0.041936133,0.27834347,0.19473112,-0.4023853,-0.87334406,0.31328103,1.1707314,0.066449136,-0.48572206,0.16119458,0.41147086,-0.65058774,0.77646595,0.17804739
O75832	-0.558797,-0.9417419,-1.012331,-0.20701666,1.1736006,0.65935695,-0.17952435,0.15016642,0.65714127,-0.9042123,0.48172587,0.5396049,0.30632034,-0.069840856,0.12388856,-0.12803088,-0.0038282028,0.4024216,-0.15153345,-0.27145967,0.020489434,0.6957791,0.29389966,0.31935534,-0.4289136,0.16403209,-0.8543753,-0.5297256,0.4909586,0.6189597,-0.1845249,-0.06973819,-0.53610885,0.22097154,-0.28281954,-0.049461544,0.43285602,-0.5150311,-0.60914683,-0.7427555,0.008722172,-0.5742344,-0.6107953,-0.34515584,-0.6106012,0.07172426,0.5831641,-0.7019867,0.009288712,0.42272446,0.38126194,0.41388327,0.40412632,0.040153097,0.6033093,0.25815082,0.15547219,-0.30263063,0.23725297,-1.4508259,0.018452788,0.13829334,-0.46244296,-0.14887953,0.2629849,-0.05422837,-0.2990517,0.6566214,-0.23000301,0.19322954,0.43440855,0.20853029,0.19378513,-0.4270533,-0.82512164,0.3549352,0.6875814,-0.6077583,-0.3618408,0.43128604,-0.048681766,0.1280064,-0.41895515,-0.09441935,0.21187629,0.78702223,0.40235773,-0.60488534,-0.7948269,0.347263,0.009556497,-0.34734386,0.4403511,0.27270985,0.1694846,-0.84923583,-0.09648599,0.80893224,0.5368887,-0.42621428,-0.11310188,-0.6419997,-0.107019424,-0.09469353,0.36764362,-0.08287846,-0.68802685,0.2626932,0.3542788,0.1347029,-0.6683506,0.7435085,-0.22442184,0.64569724,0.5736526,-0.100912146,0.44281548,-1.190296,0.22852817,0.9776816,0.97922254,-0.055553142,0.0020050725,1.1522635,-1.1695583,0.65953463,-0.11453841,0.7762663,0.5114992,-0.36322722,-0.7401187,0.29345715,-0.5324477,0.7641122,0.40670323,-0.93317145,0.5101866,-0.62221885,-0.7379677,0.8358121,0.29222104,0.695072,-0.900291,0.7499289,0.43693084,0.11506604,0.09347108,0.53705275,0.7291549,0.34097025,1.3696504,0.29788232,-0.3471658,-0.25018096,0.15197217,-0.64651793,0.008276513,1.2488565,-0.019183636,0.61089,0.8873164,-0.043046843,0.4870293,-1.1035035,0.779265,0.10194859,-0.60036546,-0.36047104,0.1733786,-0.70926154,-0.16131523,-0.90568244,0.097577564,-0.60442114,0.13324405,-0.051171254,0.094592534,0.19983812,0.42934904,0.47278154,1.2142745,0.47688228,1.3800613,0.2768728,-0.6126927,0.26636875,-0.1365142,1.1490825,-0.45299646,-0.04439035,-0.15580086,0.43647468,0.070521384,-0.70157224,-0.04544155,0.21143499,0.45285878,-0.46090174,-0.3952066,0.26005092
Q9Y5N6	0.58760995,-0.38339183,-0.37970924,0.13440624,0.368783,0.7026022,0.85253966,0.073519826,0.4038916,-0.34810638,-1.3341508,0.85390604,0.18963061,-0.3491807,-1.0673565,-0.060153365,-0.74747086,-1.1517785,0.36229563,-0.2944685,-0.35712647,1.2854109,0.10467137,0.61745113,0.06962325,-0.47478062,-0.49420062,-0.87776804,0.14019597,0.20402957,-0.98096997,-0.45061362,0.8841977,0.5171645,0.10946486,-0.26734105,-0.21244264,0.24656767,-0.77989465,0.15447338,-0.4873841,0.7494562,-1.2461287,0.28780895,-0.2447242,0.42994288,0.051432334,-0.77425635,0.059135225,0.4759214,-0.5299847,0.59188735,-0.12648019,0.1298643,-0.0566309,-0.0555781,-0.6353167,-0.40984753,-0.10652455,-0.44652653,0.051878892,0.5890271,-0.38908136,-0.4408531,0.16703367,0.8225296,-0.35489112,0.110815845,0.19501859,0.22168587,-0.88561743,0.3136427,-0.77915066,0.1758294,-0.9138462,-0.1494641,0.392993,-0.2306153,-0.05862327,-0.2066396,-0.33402824,0.29316488,0.20186542,0.7077851,0.10361108,0.44698706,0.3283479,0.5332491,0.30023807,0.8994268,0.031615905,-0.3549824,0.11558458,0.75118583,0.24858223,-0.83596814,0.81630945,0.3827828,-0.07472616,-1.1494749,0.56822336,0.6535409,0.21865311,-0.68050486,-0.48031038,0.5389854,-0.17483766,-0.19642353,-0.46974877,0.10797964,-0.23637119,0.9101219,0.5671803,0.91903377,0.631378,-0.21519591,-0.4809914,-0.7428061,-0.46490547,0.8059449,0.5069955,0.27859044,-1.2601101,0.9582259,0.39195776,0.6904903,-0.018503034,0.85466444,-0.64671874,0.31266388,-0.4333104,-0.036516014,-0.14665422,0.12478059,0.42258593,-0.416534,0.014053567,-0.507768,-0.39785564,0.4148455,0.15627755,0.09975996,0.08235267,0.93497235,0.47164592,-0.20509703,-0.63597864,0.6669279,-0.34945214,0.2544849,0.14504607,0.2743216,-0.36099118,-0.37994754,0.75129557,0.47767618,-0.2997492,-0.26219046,-1.0255651,0.4404626,-0.4611108,0.0809867,1.2894076,-0.44226864,-0.012399962,-0.5162566,-0.46450382,-0.5062364,-0.3960704,0.16283697,0.4201343,-0.79152435,0.06678622,0.39397278,1.052057,-0.13018294,0.26074407,-0.062307462,0.28245324,-0.047067504,0.57360035,0.08801234,0.40177435,-0.7115773,0.022012994,-0.08260327,0.34451297,0.67499596,-0.8335294,-0.1743607,-0.0191358,-0.65780306,-0.19774088,0.50883657,-0.35438585,-0.678908,0.76331854,0.23787844,0.52361155,0.37244865
P61970	0.38453746,0.35039693,0.38842252,0.2777068,1.1137724,-0.17325832,0.058581147,0.17579386,-0.6102821,-0.71084696,-0.19469588,-0.43501523,0.34247842,-0.12107992,-0.33198798,0.9912089,0.48419586,-0.459299,0.7577754,-0.039555218,-0.66409266,0.06249751,0.85104525,-0.17896268,0.49472412,-0.8793281,-0.6745999,-0.59422845,0.27764764,0.27489603,-0.8203194,0.5960526,-0.4740624,1.1146486,-0.19905281,1.2406161,-0.01096903,0.8020708,-0.84687203,-1.2987916,0.23378587,-0.50903475,-0.18485403,0.25985616,-0.2088848,-0.010070412,0.08500455,0.2837167,0.26235142,0.43741563,-0.6055038,0.5222907,0.27289084,0.69921005,0.49526542,1.0350075,-0.5338419,-0.28442937,-0.43661034,-0.19293272,-0.05359775,0.3449046,-0.51828337,-0.3586421,0.6834507,0.4948027,-0.1509511,0.23160914,-0.40515807,0.55924535,-0.47791374,-0.54699194,-0.9342993,1.5420837,-0.83204883,-0.11147086,0.5597734,0.8570149,-0.27972925,0.2453916,-0.21303652,0.69570744,-0.50845873,0.47254336,0.4708058,0.68725044,0.73467344,-0.13136198,-1.2883215,1.0931736,0.36943293,0.07794251,0.12893519,0.047847234,0.09504793,-0.16967495,0.4694415,0.76072836,0.6717878,-1.4690444,-0.86882716,0.4675618,-1.0104355,-0.23001455,0.028612316,0.4694824,-0.18311645,-0.14386825,-0.16674228,0.11295796,-0.21267733,0.64410067,0.41456702,-0.88113964,0.036122903,0.23902895,-0.6507687,-1.0419335,-0.5126776,-0.27746952,0.08408542,0.94641846,-0.7067074,0.5080402,0.36402038,0.1888618,-0.33273104,-0.24154781,-0.16523787,-0.7453596,0.20894815,0.5954089,0.5411965,0.11829605,0.39163893,-0.63586825,1.5613973,1.0991505,0.47134256,0.28352055,0.8793627,0.15624502,0.12341008,0.7244553,0.6353085,1.5106463,-0.46652108,1.027066,1.0078274,0.54717934,-0.46037826,0.9244303,0.38100785,-0.15817259,0.3995607,-0.25845915,0.19508584,-0.34316185,-0.46728894,0.17618728,0.39018834,-0.10864641,0.36152175,0.011305192,0.8154976,0.04981779,-0.51137626,-0.51094705,0.04517532,-0.41492173,-0.5765562,0.0004568869,0.091833964,0.14944768,0.32486096,0.99794286,-0.26670167,0.12178543,-0.56740737,-0.23381196,0.74113137,0.026921581,0.044146065,-0.15108459,0.14751758,0.86331844,1.0223238,-0.358511,1.0107973,-0.16616789,0.5742151,-0.37330434,0.8708651,-1.0432358,0.5912291,-0.3254466,0.4065768,-0.8285295,-0.19734855,-0.3701514
P19387	0.5266747,-0.6382841,-0.74559224,0.19491553,0.15358366,-0.30420002,-0.0899632,0.5471918,0.7021401,-0.34258962,-1.1431091,0.94201714,-0.14980952,-0.067414686,-1.0705005,-0.866332,-0.5255358,-0.75767106,-0.4738726,-0.14402425,-0.88741463,0.24851757,0.6914145,0.7798948,-0.6045497,0.3714014,-0.19706969,-0.47372675,0.5855091,-0.35700658,-0.49988103,-0.16325337,-0.3612484,0.44542405,-0.28438064,0.1479614,0.7373193,-0.9365239,-1.718697,-0.15624714,-0.21622144,1.0450573,-0.30126026,-0.13933553,-0.024797756,0.32200542,-0.46254492,-0.62022835,-0.06839147,0.6846562,0.3074007,-0.08547869,-0.3612636,0.54970574,0.48612007,-0.03616377,-0.47519878,-0.11893881,0.099525064,0.1295403,0.51484656,0.29877004,-0.18774404,-0.22820295,-0.39100945,0.4269812,-0.28553134,0.90227604,-0.7724631,-0.49839208,0.0812164,0.052348092,0.0297686,0.65094715,-0.72234964,-0.6636858,0.4639734,-1.1569107,-0.7783835,-0.17323965,0.70900667,0.8304487,-1.2420163,-0.46901715,-0.06808787,-0.29617065,-0.2018939,0.023571149,-0.4975808,0.63073826,0.14784914,-0.66399884,0.116364285,0.83422655,-0.39670604,-0.25184354,-0.018152522,0.026476754,-0.014963102,-1.2680725,-0.41074783,-0.08138825,-0.11921535,-0.8405761,-0.6787137,0.8949699,0.010418027,0.65824497,-0.23471656,-0.76409745,-0.10653964,0.4289088,0.29736596,0.85526705,0.9538931,-0.5448081,1.0356624,-0.6040107,-0.98890334,-0.22917192,0.20733564,0.7384793,-0.31057712,0.6730629,-0.35385263,0.65906805,-0.24544379,0.03331255,-0.5523722,-0.20454103,-0.11165265,-0.71733207,-0.19635516,-0.11660956,0.5009663,0.8244359,0.7622767,-0.32040894,0.615038,0.35568196,-0.058420274,0.66921073,-0.55143744,0.7825928,0.5902012,0.9018052,0.64453274,0.4864878,-0.15351938,0.59055245,0.6881523,-0.2870592,-0.38634524,-0.39500973,0.36569268,-1.1702226,0.5951166,0.63928187,-1.1348964,0.028936613,-0.5020199,-0.79474425,0.2869544,-0.48689944,-0.41882682,-0.16403945,-1.2019368,-0.99926984,-0.38131285,0.30368286,-0.017374765,-0.47560796,-0.2697353,-0.6014564,0.20799251,-0.95990217,-0.7064441,-0.060773566,0.020268792,-0.23403911,0.47295812,0.047451675,0.81297934,-0.24397787,-0.15066609,-0.014929765,-1.0025431,0.81568456,-1.0589912,0.013641028,-0.3080307,0.53737175,-0.24895631,-0.1344242,0.08956371,0.5655164,-0.38713267,0.019806284,1.0836347,0.06301582
P51665	0.12841268,-0.62903625,-0.44747263,0.973797,0.9542411,0.9622327,0.22595832,0.77005345,0.16438173,-0.38098246,0.30290484,1.1927606,-0.31599063,0.23302868,0.05824785,1.1933792,-0.31687328,-0.10714719,-0.36208084,-0.23932113,0.13307047,0.7619234,0.4266242,0.22114272,-0.5930785,-0.7493242,-0.83960104,-0.7844249,0.4176611,0.8236261,0.5093554,0.017140748,-0.27076757,0.35249963,-0.094739504,0.1628609,0.3899434,-0.00075642805,-0.9516915,-0.5500169,-0.14806505,-0.4879666,-0.39531526,0.0603131,-0.7461158,0.525224,0.54449445,-0.9273298,-0.56828076,0.7718884,0.31874424,1.1885064,-0.07794058,-0.32251123,0.35504034,-0.4326028,-0.14251593,-0.6257512,0.34854043,-1.4711317,-0.055546116,-0.24944542,-1.1311646,-0.15742753,0.50002927,-0.25056207,-0.518223,0.06590258,0.05609842,0.06604336,0.1962616,-0.013769369,0.07746611,-0.2019153,-1.001792,0.6196055,0.80707836,-0.7360853,-0.14840676,0.47716984,-0.3035931,0.65548706,-0.6341077,0.029351808,0.1422251,0.45383847,0.08368051,-0.03775392,-1.242282,0.6814651,0.0054692137,0.12213556,0.115994036,0.5134267,0.26595843,-0.28918496,0.27501762,0.95222265,0.8086479,-0.39328608,-0.3610674,-0.21026458,-0.40724996,-1.030125,0.31057057,-0.30039567,-0.039978895,0.12850453,0.24732244,0.5670278,-0.39249033,1.047106,0.032275453,0.30853286,0.6479529,-0.14972544,-0.5549683,-0.32045037,-0.43590102,0.6041492,0.28652167,0.4463672,-0.5603226,0.44742727,-0.6054945,0.82451034,-0.017305,0.9441456,0.3009358,0.1161977,-0.9561156,0.017468274,0.32591546,0.04820806,0.12195077,-1.155808,0.6777248,-0.32795155,-0.38793093,0.35553065,0.3444376,-0.0057581915,-0.95405746,0.58560866,0.27569634,1.0349473,-0.3685099,0.98258007,0.1614853,0.16449267,1.4152515,-0.09505536,-0.9226716,0.13850783,0.34177727,-0.41239935,0.3451056,0.50951594,0.015530637,0.17186345,0.21709451,-0.6609237,0.36092547,-1.598341,0.8377762,0.007663536,-0.579201,0.31253034,-0.26262096,-0.5622735,-0.3955186,-0.2238219,-0.39876932,-0.8140887,0.55229497,0.5507884,-0.1814099,0.25339597,-0.04551855,-0.2326999,0.9880158,0.79392815,1.8581231,0.10634836,0.06791626,-0.26095656,-0.047226038,0.7824297,-0.19240654,0.4040838,-0.09625464,0.6775576,0.8112773,-0.3645414,-0.13889407,0.48313272,0.53690463,0.34703824,-0.18615474,0.2069591
Q9P253	0.55712366,-0.265496,-0.4023704,-0.28121573,0.9710657,1.4811695,0.39773485,-0.2868958,-0.18092358,-0.43379092,-0.70246875,-0.7317639,-0.20545143,-0.4377575,-1.0785908,0.36526233,-0.41246805,-1.3291434,-0.77527726,0.21214226,-1.375838,0.13342069,1.0236939,0.83043945,0.192628,0.035625976,0.19616173,0.2014538,-0.6516059,-0.43058997,-1.0817666,-0.22370537,-0.4515208,0.66589123,0.39012605,0.4282512,0.67237204,0.10411227,-0.40758678,0.20337825,0.0659272,-0.51711303,-0.76859885,0.5385646,-1.3368092,0.9569184,-0.41758087,0.15692316,-0.21442118,-0.23256217,-0.32525203,0.6861487,-0.2637033,0.45512405,-0.14605065,0.4215301,-1.3085643,-0.3183769,0.19898058,0.95524555,-0.038122103,0.38089395,-0.4200979,0.7863001,0.07825014,1.2266508,-0.010325754,0.38924316,0.61430854,-1.2048564,-0.84140617,-1.1122887,-0.09730664,0.8067226,-0.41458604,-0.51215756,1.1280982,-0.10615926,0.2475724,-0.8582078,0.64007306,0.25107285,-0.7158713,0.73522484,-1.3462031,-0.65993124,0.06366312,0.10964215,0.022600528,0.4500603,0.38993996,-0.05950513,-0.1425401,0.042154524,-0.33450148,-0.1332194,-0.22779648,-0.5221358,1.0444039,-0.35917312,0.5029277,-0.42119694,-0.27626216,-0.47623932,0.7477768,0.94764686,0.08581285,0.46819142,0.07824472,-1.2964989,-0.29323795,0.25448906,0.038251616,0.041225336,-0.4143607,-0.8026779,-0.08292943,-0.28466442,0.8587012,-0.779106,0.07371076,-0.09031305,0.3492832,-0.08177304,0.40384212,1.1070306,0.0194532,0.16961785,-0.79856926,-0.55922276,0.5600457,-0.66263056,-0.13554335,0.57380295,0.988114,0.42829308,0.47602898,-0.057821,-0.046835393,0.24391197,-0.3135275,0.3711308,-0.46746352,0.35365143,-0.5261561,-0.24429338,-1.239988,0.9774746,-0.6918082,0.37628376,-0.17734964,1.1998726,-0.74629325,0.30101392,-0.694227,0.03833505,-0.8843421,0.04566894,-1.1594702,-0.7334834,-0.4355352,-0.59371907,-0.25687325,-0.34313303,0.3888696,-0.8612982,-0.8665909,-1.7197127,-0.41953892,-0.08258691,-0.50444156,0.43154427,0.3873069,0.00020875302,-0.4014966,-0.13577135,0.071047634,0.67041045,-1.3138498,-0.096835464,0.5669799,-0.27679,0.014157554,-0.3365396,0.22009613,1.1940657,0.4071681,-0.5150654,0.24458864,-0.36004347,-0.14461885,0.17362918,-0.35522428,-0.6388679,-0.5153786,-0.018041642,0.50165284,-0.30062705,-0.3207198,0.5362915
Q9UKV8	0.059374407,-0.25358242,-0.5815181,-0.7969774,-0.27519813,-0.14776444,-0.010833254,0.2288217,-0.28356153,-0.5266278,-0.6255343,0.9449026,-0.021125937,0.05017518,-0.6110154,0.37047562,-0.011172694,-0.804689,0.32983908,0.23564534,1.2646517,0.5609809,-0.22442204,0.27405474,-0.063928515,-0.16406076,0.2774829,-0.11433809,0.2622063,0.50008047,-0.8500975,0.014336648,-0.24195,0.57712275,-0.38628602,-0.61111474,0.8492283,-0.5324716,0.24222155,-0.529662,-0.0016336977,0.0039228653,-0.24049915,1.0340828,-1.3005259,-0.890673,-0.9013262,0.3939104,0.18626906,0.43670848,-0.91971797,-0.04828893,-0.16294329,1.4578589,-0.5307651,-0.25835082,-0.6727478,-0.27585626,-0.9897007,-0.62768996,0.41715547,-0.36288717,-0.019787818,0.44890922,0.3968348,0.9421695,0.60199714,0.1414706,-0.31713426,-0.51960576,-0.36177233,0.0325313,-0.59868443,1.1064987,-0.6049373,-0.2717387,0.791053,-0.9347592,-0.5010157,-0.7564206,0.47007307,-0.33681083,-0.7225698,0.9272522,-0.2234732,0.0037373502,-0.15189,-0.6716423,-1.1053958,-0.1599491,-0.2734573,0.30800033,0.081842095,0.20408529,-0.41251332,-0.39377543,-0.80299157,0.05993999,1.2959816,-0.38698617,-0.43862852,0.8084898,-0.768329,-0.37625605,-0.23030964,0.6524211,-0.2169674,0.16341873,-0.68788105,0.24849224,-0.3068395,0.33011934,0.36190423,0.7283263,0.7286384,0.092974454,0.22272055,-1.3349808,0.28066066,-0.77079266,0.25760832,0.44726163,-0.73785216,0.9200493,0.23406768,-0.555679,0.025657592,0.2586346,0.45864728,-0.66068923,0.1393115,0.076330096,0.24363539,1.6475778,0.3707064,-0.5774383,0.8589958,-0.23330422,-0.2939376,1.1594892,0.3284161,0.8016663,-0.4536267,0.5610469,0.37959003,0.16312298,0.21951737,0.27290598,-0.11450805,0.8463172,0.25858262,0.21746814,-0.538747,0.60687643,0.045133147,-0.29629302,0.797635,-0.07232585,-0.62239045,-0.34659535,0.40232256,-0.31579354,0.0222051,-0.25175488,0.20338336,1.0990825,-0.6246674,-0.18039899,0.5960947,0.539346,-0.4479891,-0.69665486,-0.028861824,1.3152537,1.4298909,0.90855277,-0.95660657,-0.6093079,0.4867912,-0.4533928,1.0613434,0.7357843,0.19245921,0.29824987,0.36015922,0.16675588,-0.1509009,-0.48855323,-0.17950946,-1.0049818,0.8795236,-0.3084267,0.9765871,0.1855218,-0.21481225,-0.12925571,0.7357424,-1.2291424,0.6477619,0.42344302
P60228	0.5371457,-0.71797335,-0.3370029,-0.8667757,-0.085282,-0.22187705,0.27009,0.0746631,-0.03726066,-0.5311925,-1.354957,0.3024822,0.20192102,-0.4474376,-0.71832263,-0.16169995,-0.8039396,0.31791216,0.17929523,-0.6585654,0.1343952,1.1700771,0.2892286,-0.09705029,0.34025952,-1.2641215,-0.6300542,-1.0089767,0.33780062,0.113296986,-0.83021075,-0.29815534,-0.313499,0.5389253,-0.6979287,-0.21805698,0.37570164,-0.18299055,0.6115258,-0.38213468,0.43313828,-0.4243781,-1.16511,-0.39665323,-0.21165827,-0.20737003,-0.74142104,-0.038449824,-0.7911474,-0.7679703,-1.1533852,-0.05408261,0.3672338,0.39505842,0.085631855,0.39256987,-0.12627572,-0.7295356,-0.5118107,-0.075220115,0.1773137,0.5447433,-0.34573686,-0.23145133,0.08002101,-0.011910062,-0.06473888,0.0733314,-0.10659226,0.3121913,-0.7326248,-0.13017249,-0.97246253,0.75369763,-0.79823196,0.56268054,0.91262865,0.003981115,-0.8293415,-0.8434512,0.24452195,0.61499316,0.5253335,1.0364399,0.25739026,0.13736844,1.2819682,0.3027047,-1.3174347,0.1153681,-0.11050961,0.2753401,0.9447209,0.4961031,-0.022924406,0.2771034,-0.45528457,0.6775871,0.10329983,0.7366243,-0.11004003,0.88610506,-0.8697413,-0.40430722,-0.17990337,0.960033,-0.325237,-0.0027270054,0.03129473,0.64994216,0.54013866,0.72100085,0.59218556,0.85397995,0.9000526,0.2967127,0.07432111,-0.38284764,-0.059432767,0.040183015,-0.19592755,-0.10816367,-0.95340264,0.97186714,0.17320605,0.11376811,0.49015045,-0.00666644,0.3035016,-0.15138067,-0.2713575,0.43351087,-0.17185466,0.36336648,0.17134899,-0.6313259,0.8911409,0.09279842,-0.4397488,-0.071854636,-0.041991055,0.8065541,-0.31077752,1.0333904,1.0551041,0.61488336,-0.14865328,0.33142027,0.24662343,0.06730519,0.004933086,0.93870187,0.047636572,-0.31968477,0.41008532,0.020957572,0.33974692,-0.15206032,-0.70974267,-0.8362022,0.52219725,0.2500081,0.23808995,-0.9938414,0.375375,0.4153743,0.17470023,0.32385147,0.30446088,0.9336896,-0.07927964,-1.1973201,-0.6235651,-0.40753236,0.8651901,-0.00084735896,-0.16364008,-0.048269615,0.004711469,-0.3435548,1.5820886,0.37390777,0.4398447,0.19512689,0.47934112,0.2718259,0.048502292,0.33760238,-0.07767045,-0.07813962,0.03988219,-0.0946184,1.2764605,0.4158616,0.47799373,0.4422404,0.7633494,0.270296,0.2546993,0.16323303
Q15006	-0.20637575,-0.8760768,-0.3185093,-0.085093334,0.4304208,0.34246212,0.48196268,-0.281132,0.0928275,-0.48152775,-0.50361,0.3688717,0.78985316,-0.2038962,0.0057996763,-0.26950943,-0.14212194,-0.27923632,-0.14341862,-0.18598817,-0.28779468,1.1684477,1.0100038,0.29528368,0.14585236,-0.6177435,0.015030911,-0.4087558,0.26099467,-0.34739834,-0.9883659,0.42201722,-0.7989429,0.41866982,-0.3464839,0.38781133,0.5035868,-0.22183359,-0.1937794,-0.25716248,0.49231797,0.49199146,-0.97642654,-0.36487976,0.07294947,0.24528672,0.12020728,0.43264306,-0.12000499,-0.24392143,0.17286795,-0.17426969,-0.46140468,0.4232217,0.3693592,0.098335735,-0.3319661,-0.022580743,0.18776503,-0.43407294,0.0584947,0.11413245,-0.10797543,-0.2978563,0.26726475,0.13013072,-0.08713966,-0.035311,0.36520573,-0.6643188,-0.7541057,-0.8761045,-0.34394142,0.36571762,-0.4203553,0.52597386,0.93279856,-0.07532398,-0.5309643,-0.89160633,0.58142453,0.15816829,0.011010442,0.9900597,-0.22923848,0.7763874,0.07947203,-0.28574234,-0.091647506,0.3955879,0.45237878,-0.41430783,0.26355493,0.1752933,-0.22902945,0.1790402,0.1211629,0.14343776,0.40936235,-0.24350086,0.2619394,-0.036838837,0.2075483,-1.0444854,-0.31305492,0.7759114,-0.18530358,-0.49238658,-0.371785,0.67493904,-0.1289163,0.39068398,-0.031754036,0.6601074,-0.2752291,-0.053778667,0.21263619,-0.5889773,0.014252492,0.43727103,-0.27993685,0.26179567,-1.2116861,0.08552541,-0.06943149,-0.18008442,0.20069425,-0.28285182,-0.06495191,-0.41012377,-0.35776567,-0.08624194,-0.62080353,1.042894,0.093895525,-0.20049487,0.30043593,-0.18391412,-0.7873896,0.14180599,0.01874268,-0.008392488,-1.1039599,0.52424353,-0.5063681,0.52987444,-1.0789447,0.09398169,0.052501846,0.7154512,-0.34797052,0.10846026,-0.2641243,-0.5950186,0.23003983,-0.4787418,-0.13928415,0.43694693,-0.7866312,-0.5684462,-0.14432824,-0.656638,0.32106733,-1.2061864,0.7806439,-0.7470911,-0.104204126,-0.28662363,0.5145256,-0.40355226,-0.2762821,-0.6083494,0.02385139,0.22872134,0.051638477,-0.2268721,0.09749474,0.60872054,-0.7184258,0.03759796,0.82329553,-0.1614129,0.555713,-0.30211398,-0.59902835,0.7840876,0.6889591,0.61505646,0.049951743,-0.3138259,-0.12300816,-0.089707635,0.5876242,-0.6409983,-0.1471475,0.35402521,1.0072825,-0.22380391,-0.19938025,0.021006204
Q9NRG0	-0.3403395,-1.5085871,-0.7906016,-0.35153592,0.23807304,-0.016557291,-0.14128184,-0.08561519,-0.20087004,-0.3049145,-1.3511738,0.32230878,0.3321081,-0.11825878,-1.3033117,-1.2736353,-0.7013805,-0.51941174,0.32330796,-0.69682854,-0.6382374,0.70157623,0.34304002,0.107051425,-0.6081026,-0.39858246,0.4527193,-1.0641845,0.0060219867,0.10726819,-0.35927734,0.5156589,-0.20483878,-0.18984179,-0.1948404,-0.14647423,0.49701014,0.041852623,-0.9204188,-0.40227538,0.072722845,0.8414381,-1.5129203,-0.55682725,-0.3592533,0.5691586,0.22531575,-0.6679879,-0.3084128,0.4150409,-0.41253468,0.26601893,0.22971758,0.7981174,0.4383418,0.20282319,0.0036469824,-0.34595087,0.6332429,0.5246879,0.29089662,-0.36336964,-0.14966701,-0.49515814,0.024632938,-0.027234128,-0.028063044,0.35678202,0.3353453,0.2268798,0.045163788,0.32365334,0.12330082,0.7618611,-1.0881993,-1.0671802,0.5693818,0.08610208,-0.287334,-0.18051402,0.0660477,0.94409394,-0.2590186,0.53592736,-0.08891312,0.38923827,0.32001743,0.7079925,0.28714013,0.405909,-0.42234582,-0.42524227,0.03596409,-0.23251314,-0.30429822,0.066132635,-0.14682315,0.3611188,-0.32906523,-0.034871664,0.18377742,-0.34779683,0.047204047,-0.7531431,-0.7067853,0.37927768,0.23152237,-0.517226,-0.72332263,0.60628897,-0.46960086,1.323606,0.3229967,0.24221964,-0.14672235,-0.5529117,0.5954602,-0.6642714,-1.4792681,-0.14816819,0.02806429,0.6760035,-1.1105942,0.124671936,-0.19139673,0.1717713,-0.104375,0.08906533,-0.09707575,-0.009032542,-0.024722656,-0.31258848,0.73817223,-0.38730273,0.25332937,0.58923,0.19768693,-0.20310149,-0.27590206,0.69461876,0.5535603,0.20025904,-0.49039003,0.8442996,0.3757197,0.25731963,-0.09811931,0.26701564,-0.6978524,0.57620156,0.07600798,0.04333501,0.41856685,-1.0781872,0.75079894,-0.0049384497,0.51750374,0.7373221,-0.16627447,0.061820135,-0.74084747,-1.0195616,0.95901644,-1.1167395,0.8647746,-0.066857055,-1.1720846,-0.79751706,0.27165657,-0.29454824,-0.0884772,-0.33023152,-0.42603707,-0.051986307,0.35048625,-0.64509296,0.0070633152,0.6808578,-0.43962657,0.17987573,0.9368169,-0.35908213,0.3982816,-0.2592173,-0.37281984,-0.063974895,0.1030017,0.6708558,0.087179676,-0.7710949,-0.05797523,-0.3644289,-0.03140435,0.46657887,0.4216648,-0.9446304,1.4666204,-0.11249815,0.16656718,-0.76210624
P14866	0.10146123,-0.061555438,-0.5475255,-0.26539278,0.22834066,0.48276657,0.49615818,-0.5954045,0.20170268,-0.15733825,-1.0263866,0.28326812,-0.37384748,-0.61099887,-0.80342823,-0.54286027,-0.5641492,-1.171985,0.19548519,-0.47778463,-0.3204952,1.0747142,0.5534066,0.56761914,0.7074909,-0.31074288,-0.1608581,-0.7230197,0.31998944,0.3969774,-1.1274117,0.075764224,-0.6369262,0.57083344,-0.00021671239,0.10712924,0.13133445,-0.65014184,-0.50724036,-0.0025248441,-0.62443197,-0.3454594,-0.7719285,-0.1047675,-0.4121671,0.01846965,-0.00747569,0.06456132,0.49703038,-0.17120954,0.2938143,0.22218546,-0.5248206,0.6752774,0.23574474,0.45876825,0.07668415,0.123499356,0.3623974,-0.57086825,-0.39918554,0.049267486,-1.0764202,-0.49210525,0.32060456,0.21697727,-0.30677882,0.332677,0.1308015,-0.3929978,-0.44372094,0.08068996,-0.74207157,0.29219484,-0.92493653,0.45448214,0.76343304,-0.60618895,-0.32711232,-1.103121,-0.36713576,0.4010059,-0.32150692,1.4735101,-0.18216929,0.15338038,0.03640442,-0.04263435,-1.1812311,0.5431666,-0.21191232,0.13621493,0.72404593,0.5061231,-0.5270674,-0.36728853,0.27832887,0.24892381,0.091523804,0.08790554,-0.14039253,0.047493275,-0.5120271,-0.8674458,-0.12556563,1.1175854,-0.27885893,-0.38044223,-0.1338172,0.8284879,0.17990391,0.21579374,-0.057255447,0.39632,0.8117448,0.33445394,0.009619755,-0.4076379,-0.09360976,0.18777032,0.2612617,0.9091055,-1.1155589,0.21675546,-0.22604705,0.557123,-0.13444754,0.34948224,0.027121382,-0.14983031,-0.6381302,-0.397811,-0.15172449,0.56095153,-0.36133078,0.12501281,0.7257779,0.418986,-0.1723819,0.18371175,-0.46357182,0.018100765,-1.1989357,-0.1319568,0.67476875,0.54702514,-0.13972098,0.09343099,0.08450934,0.52602667,0.732822,0.36073148,-0.0054486315,-0.26140025,0.21545653,-0.48227957,0.23514883,-0.009939782,-0.7752211,-0.7188771,0.50236636,-0.44534415,0.7996872,-0.43194816,-0.47104594,0.35119188,-0.46633223,-0.7272184,0.49275523,0.16186178,0.12621588,-0.8515765,-0.65424037,0.44017056,1.1552356,0.05485591,-0.5716547,-0.77959347,0.17181152,-0.07783114,1.3909696,0.020002538,0.42421615,0.19632815,0.6343031,-0.25942564,-0.68940336,0.044431727,-0.738955,-0.64636445,-0.03181629,0.5777901,0.43027624,-0.26132643,0.08711263,-0.58430624,0.5615132,-0.8932677,-0.445603,-0.17623423
Q15428	0.14122726,-0.46724713,-1.1038371,-0.70712245,-0.31328267,0.22739986,0.12773293,-0.12918295,-0.45813254,-0.9750515,-0.49475053,0.8119175,-0.4289338,-0.414434,-0.7052664,-0.5304817,0.10892457,-0.42419025,-0.62396294,0.052472137,-0.491663,0.5265958,-0.27923796,1.1490501,-0.26241478,-0.6508789,0.8272813,-0.45942917,0.18931167,0.80676544,-0.8883165,0.2891146,-0.81871843,0.55225444,-0.7937129,0.056126162,1.0186495,-1.0116417,-0.21857859,-0.6487532,0.051048208,0.1407432,-0.73836994,-0.028049562,-0.48326182,-0.10396159,0.021012722,0.27665636,0.36990198,0.43971175,-0.67427903,0.052735656,-0.040685356,0.69679624,0.40465227,-0.3010406,-0.15269917,-0.047364224,-0.06458693,0.18736327,-0.63263303,-0.4359305,-0.29540157,0.07464903,0.5652602,-0.11813605,0.13396062,0.4291824,0.29830125,0.6730671,-0.04510043,-0.62532884,-0.8247636,0.7684974,-0.80147874,-0.52367806,-0.05129458,-0.609606,0.3032753,-1.1968021,-0.19416772,0.49981028,-0.44476584,0.45670822,0.2564483,0.027007382,0.45893,0.24190585,-1.208914,0.5778359,0.036444537,0.025838634,0.45684406,0.4653228,-0.6072536,0.27097228,-0.18660788,0.21592,0.39979368,-1.119267,0.25557986,0.44024563,-0.8512847,-0.7479772,-0.1333384,0.5640407,-0.3668907,-0.5539673,-0.27209502,0.35286808,-0.25410178,-0.07024721,0.5517106,0.5817117,0.14346159,0.42043802,0.15601107,-0.21679917,-0.15113989,-0.2177545,0.22409545,0.48891222,-1.1192085,0.58172387,0.5476889,1.135106,0.027130546,0.062221378,-0.2814026,-0.2998188,-0.090096556,-0.0461174,-0.1325986,-0.11646698,0.41890734,0.18958592,0.65444386,0.11373618,-0.73512393,1.1411793,0.31940114,-0.13395756,-0.97688115,0.5838566,-0.2688948,1.2174445,0.10728723,1.0977764,0.33101758,1.0698133,0.47776747,-0.122676104,-0.5407201,0.688321,0.29660904,-0.70274764,-0.095757656,-0.55056685,-0.5297216,0.17307353,-0.24539258,-0.3238235,0.6222001,-0.83704025,-0.39007777,-0.44086194,-0.51008576,-0.20693251,0.18126132,-0.19065349,-0.4212962,-0.10115453,-0.50418675,-0.2584571,1.1557907,0.25878292,-0.4173658,-0.23072588,-0.12164994,0.08796558,1.2689396,0.22007698,-0.09611777,-0.47345948,-0.26138496,0.46488443,0.3946857,0.8384009,0.019934172,-0.9972004,0.57467777,0.3617338,0.2251265,-0.70596564,0.7640111,-0.16621834,0.57726514,0.2708863,-0.35908386,0.5607014
P22087	-0.13894172,-0.16436571,-0.54039985,0.29322904,0.6926246,0.07348027,0.5809431,-0.4785422,0.2580192,-0.43565005,-0.85351115,0.960566,-0.44709423,-0.15708238,-0.3252373,0.29690513,-0.36956632,-0.5225057,-0.74740374,-0.26828298,-0.4304637,1.0286494,0.2511239,0.7029865,-0.2725754,-0.7188367,-0.43300584,-0.072701976,-0.3496167,-0.5234679,-1.2408055,-0.3809721,-0.31895503,-0.33443755,0.13327378,-0.102859125,0.017247548,0.3346352,-0.47545686,-0.27576157,-0.14717285,0.30093455,-0.64626867,0.08157066,-0.24160029,0.4098259,0.21161291,0.35603112,-0.14255078,0.7122986,0.20599727,0.3793497,0.22341536,-0.030549029,0.64078057,0.4186089,-0.87096804,-0.5549753,-0.38697642,-0.09258834,-0.144219,-0.25633097,-0.5675374,0.75498605,0.58685505,-0.04542346,-0.43467274,-0.6523475,0.046828583,-0.33362517,-0.8625103,-1.1144618,-1.2017107,1.0546018,-0.8858909,0.50546277,-0.16228786,0.26739725,0.038647734,-0.5307808,-0.4067547,1.2048646,0.06526863,1.0605056,0.31313396,0.010881056,-0.6444866,0.9425563,-1.1573421,0.9715261,0.2475795,-0.50191945,0.98183984,0.1967513,0.525017,0.8187911,0.22360472,-0.103268735,0.073475696,0.18686113,-0.07622182,1.1129164,-0.5041613,-0.6201683,-0.10313372,1.0883942,0.07184046,0.12714152,-0.63042516,0.4612365,-0.30806315,-0.18305828,-0.11911646,0.5266898,0.8905014,0.45372772,-0.8312042,0.38100144,0.049875606,0.1299067,-0.25732815,1.3617238,-1.2528502,0.4643162,-0.14078534,0.12076759,1.0147638,-0.32638773,0.55585116,-0.21216255,-0.8925432,-1.0357571,-0.3515905,-0.33941242,0.03933151,1.193129,-0.2251811,-0.027184242,0.3126438,0.5983944,-0.11013881,0.94628334,-0.566285,0.9128364,0.29787627,0.6025243,-0.89833134,0.07279832,-0.4846107,0.47936103,-0.3010991,0.22033058,0.75498676,-0.21791868,0.33560833,-0.48757514,0.42122298,-0.33832014,-0.9350305,0.102832764,-0.32428718,0.33985665,0.49473524,0.26914045,0.2802665,-0.42733473,-0.89103836,-0.024433468,0.16235456,0.6388821,-0.29361162,-0.54570377,-0.9991423,-0.047128584,0.6943841,0.47687754,0.33413425,-0.6838123,-0.6748509,-0.46298018,1.266257,-0.3242653,0.2946701,-0.012979204,0.10574205,0.4885246,0.6090143,-0.3824322,-0.008490773,-0.5228057,-1.2459844,-0.23921615,0.7706883,0.35047287,0.21134718,-0.3213118,0.021084141,0.13727275,0.46172246,1.0697963
P36954	0.5879042,-0.48525757,-0.91885686,-0.27338585,0.11350513,0.15356328,-0.44004866,0.22178629,0.4251711,-0.17986177,-0.9173615,0.66600245,-0.3390365,0.2133109,-0.8937052,-0.5477097,-0.30622104,-0.7074019,-0.49613488,-0.14310828,-0.49783275,0.32626146,0.80973774,1.2912717,-0.3275344,0.48446038,-0.08523879,-0.56247103,1.3135006,0.068799965,-1.1799608,-0.3344929,-0.22585963,0.45690003,-0.3594636,0.107353754,0.9748303,-0.691592,-1.3488066,-0.119929306,-0.31226978,0.85548687,-0.5265126,-0.14079098,0.060445026,-0.08353462,-0.62861216,-0.17297468,-0.08893142,1.0962621,-0.22316897,-0.35086596,-0.34362954,0.1898671,0.30861402,-0.42523438,-0.71061665,-0.36845073,-0.12192713,0.17619947,0.60811764,0.13678709,0.008063006,-0.022019694,-0.013507361,0.6396442,-0.043026607,0.76255876,-0.34015173,-0.14775306,0.07937276,-0.045235027,-0.30848476,0.46675223,-0.8096456,-0.7050884,-0.027035348,-0.9684299,-0.032913785,-0.5256198,0.43989056,0.51670796,-0.88722837,-0.23745675,-0.5452706,-0.47152478,-0.104692556,0.16581008,-0.45183447,0.89608204,0.23607035,-0.7050003,0.62919915,0.940918,-0.63821155,-0.031563878,0.09788899,-0.2917982,0.22484215,-0.81731015,-0.11719418,0.107705034,0.31759998,-0.8201931,-0.44210908,0.55173874,-0.17534728,0.81091976,-0.14196824,-0.19000469,-0.60417855,0.14080109,0.25799805,0.8441299,1.1247953,0.18398139,0.646479,-0.49487257,-0.6574557,-0.07348318,0.7517155,0.79271847,-0.3504297,0.87165475,-0.5397841,0.53784555,0.244856,0.16856143,-0.3487838,-0.027809814,-0.27190292,-0.55480754,-0.21932746,-0.1614097,0.5078295,0.70601505,0.64165336,-0.5549223,0.33177727,0.29771808,-0.121045075,1.000272,-0.37751517,0.68279696,0.46886915,1.6731694,0.8347715,0.7076346,-0.057540208,0.8012728,0.29661685,0.041877896,-0.18845898,-0.53077406,0.4579319,-1.05346,0.2589611,0.24497335,-1.3131939,0.5896315,-0.65672815,-0.21148354,0.67189974,-0.7401327,-0.54214966,-0.5480118,-0.7607317,-0.64159274,-0.25986165,0.6932442,0.7772255,-0.479046,0.10993597,-0.4276039,0.48161036,-0.95438796,-0.7491525,-0.19526397,-0.017977262,-0.37148243,0.710151,0.28209922,0.97761947,-0.0518704,-0.3446522,0.18139632,-0.7593305,0.65164506,-0.7766955,-0.346488,-0.05544475,0.32048413,-0.33128685,-0.15913227,0.12223754,0.42792872,-0.33130595,-0.26455674,1.1762106,0.324798
Q02543	0.20429489,-0.77793825,-0.6542863,-0.11038351,0.5163298,0.2950733,0.2463007,-0.02077221,0.061102893,-0.6661984,-1.1827228,0.56845707,0.3276787,-0.05884612,-0.32718036,0.22808015,-0.8252139,-0.036609016,0.05570751,-0.48513976,0.04129927,0.6626092,1.3997984,0.50495654,-0.004931218,-0.19944197,-0.14751351,-0.7170118,0.031811293,0.12010789,-0.8966704,0.6117443,-0.3557717,0.7130022,-0.16535275,0.66119325,0.36000437,0.056861453,-1.0806409,-0.085556686,-0.64635116,0.34795392,-0.7306937,-0.39770484,-0.34944788,-0.19023143,-0.59313476,0.05588009,-0.40472937,0.35159224,0.11017066,-0.34521955,-0.31981888,0.038443577,-0.546289,0.7874842,-0.46427786,-0.08008524,-0.36098096,-0.5192462,0.50352126,-0.06736172,-0.2888874,-0.6165267,0.21814153,0.6258311,0.18231612,0.57354796,-0.34842905,-0.29607856,-0.22248471,0.080931164,0.006554783,0.42520636,-0.75763977,0.49065208,0.4447551,-0.562286,-0.38621715,-0.9094201,-0.027589338,0.10307259,-0.46932688,0.8074876,0.18693154,0.18032639,0.012371319,0.10741287,-0.68122274,0.84486103,-0.15273531,-0.108429804,0.2617722,-0.029111026,-0.67257935,-0.07045002,-0.153113,0.7102609,0.52123404,-0.41968554,-0.67431647,0.18314217,-0.79573387,-0.12900758,-0.19277522,0.16259094,-0.041718006,0.25087723,0.12743331,0.39035654,-0.15098456,0.68872386,0.24948348,0.3804898,0.61411434,0.2043409,-0.4950375,-0.43988898,-0.54286623,0.2650906,-0.24986538,0.6579463,-0.5102799,0.29263905,0.25629506,-0.22379684,0.49946982,0.4130989,-0.3319807,-0.13928401,-0.3481308,-0.09032576,-0.11870687,0.9117822,0.0014548053,-1.0044854,0.48499915,-0.018190067,-0.04125193,-0.14856867,0.12501778,0.70083827,0.23656069,1.1426526,1.2167034,0.69996375,0.23123832,0.09105281,0.018448964,0.12852862,-0.015619897,0.18192112,0.10957961,-0.115195654,1.0973928,0.18655966,0.27295202,0.20714611,-0.8075714,0.3669062,-0.36349973,-0.9698721,0.6067083,-0.778898,0.03152959,0.15918055,0.0062437807,-0.14234444,0.21070832,0.072962604,0.081729725,-1.1874044,-0.43861964,-0.23448274,0.42871192,0.30031428,-0.26879025,0.38566217,-0.6383836,0.49779072,1.1538552,-0.3678475,0.7145967,0.207317,-0.26107854,0.4416742,-0.02569477,0.5494885,-0.33102125,-0.36069277,-0.23768207,-0.19951788,0.98241264,0.016499763,0.3379775,-0.12775607,-0.32319528,-0.6164039,0.9291216,-0.30192223
Q3B726	0.110398896,-0.3711146,0.1755303,0.13518436,0.13323642,-0.28452465,-0.3178442,0.15616974,-0.27547082,0.6860579,-0.7258523,0.7489896,-0.6324302,0.2982382,-0.7671768,0.98942286,0.081424,-1.1855017,-0.45187747,-0.081716664,-0.32912374,0.5546802,-0.6193785,1.3857285,0.26813546,-0.21282704,-0.7499337,-0.18593277,0.25735638,0.5312294,-1.047934,-0.11509612,-0.11513032,0.95717055,-0.16927135,0.72359055,0.71071154,0.031225963,-1.5626633,-0.21185763,-0.6964161,0.58915055,-0.3044495,0.11739905,0.07541198,-0.22197628,-0.54508096,-0.4644445,0.47998732,0.85061216,-0.45218587,0.40139264,1.075501,0.72823966,0.36334613,0.50170946,-0.020389842,-0.52585995,0.6155668,-0.479763,-0.56185424,0.12257828,0.18134746,-0.09880637,-0.8656826,0.47923997,-0.36789834,0.76904523,-0.49361444,0.27327642,0.025323205,0.16761102,-0.53977567,1.0445825,-0.7486637,-0.36809373,0.27882788,0.18243401,-0.43962723,0.33297136,0.57254714,0.53881377,0.3226775,0.42809916,-0.6719276,0.2357663,-0.57702506,0.029661505,-0.6130993,0.8424923,0.13382399,-0.74562883,0.4234364,0.67367953,-0.25057095,-0.33155358,0.4915858,0.88076603,-0.24539042,-0.5395368,-0.56827086,0.006691895,0.0466031,-0.4281565,-0.18977171,0.18262784,0.18493892,-0.4133316,-0.7248126,0.31979716,-1.0061489,0.71563685,0.41124755,0.971794,1.1380012,-0.10349062,0.33953422,-0.26399577,-0.2421591,-0.3683587,0.6926514,0.6965949,-0.05863999,0.7751281,-0.2860314,-0.05178793,1.3067746,-0.40167627,-0.8854828,-0.30029604,-0.38531595,-0.40583706,0.15692218,-0.09366268,1.0996832,0.0966459,0.45165735,-0.6258997,-0.24548277,0.79778486,-0.5863381,1.5414685,-0.5143351,0.9047713,0.3259329,1.4962654,0.57158756,-0.43915716,0.13721707,0.90229887,-0.7939217,0.19859286,-0.78561956,-0.71399873,0.39182988,-0.3197859,-0.054811954,0.43214524,-1.0395077,0.74296206,-0.29822657,-0.44846264,1.7077527,-1.0981326,0.48195887,-1.3140006,-1.0442153,-1.0103816,-0.71626425,0.18590467,0.89863265,-1.3093517,-0.36894163,0.06389147,0.64713997,-0.65105504,0.15389831,0.20841376,-0.011819855,-0.9179001,0.54198086,0.46516585,0.44530553,-0.39097053,-0.8541811,0.52684695,0.15911981,0.43565428,-0.4278199,-0.070612326,-0.1900583,0.8936092,-0.5999202,-0.18132831,0.32655492,0.62580955,0.36901498,0.1269928,1.0511075,0.21251859
O00401	0.43865335,-0.17114174,-0.30333683,0.48894325,0.53477323,0.38214183,0.43239433,0.4295519,0.9888787,-1.0182058,0.14602044,0.65297306,-0.2599772,-1.1571108,-1.6227098,-0.7217151,-0.2771087,0.123647615,-1.1246474,-1.5142356,-0.37574372,1.1647553,0.15656763,1.1009765,0.6383035,0.019504486,-0.89170927,-0.31326213,0.17967665,-0.4039995,-0.7584599,-0.66726434,-1.2385914,-0.09657241,0.57518786,-0.22774334,0.018622706,-0.79510266,-0.12850057,-0.88345605,-0.07390101,0.0156078255,0.54461616,0.40005705,-0.42814016,0.028877975,-0.65470046,0.3947002,-0.59753025,0.4934199,-0.24081951,-0.22500394,-0.4558536,-0.3272622,-0.02945648,-0.42800283,0.72576445,-0.9103386,0.89545155,-0.4285972,0.12147808,0.07342713,-1.6576672,0.24205267,0.06433802,-1.1328893,-0.15322751,0.9937029,-0.63533676,-0.8318708,-0.4021381,-0.47207418,-1.6797993,0.43191633,-1.2557199,-0.59384143,0.61139405,-0.66619015,-0.40136963,-0.22211115,-0.031986352,1.223611,-1.7731715,0.59953445,-0.8965129,-1.2374194,-0.025638722,-0.68078095,-0.8999353,0.89582396,-0.40307683,-0.081220485,1.2178662,0.17584106,-0.45592067,0.45378774,0.18471926,0.5230685,0.40207198,-0.45943925,-0.036453225,-0.19663654,0.028665595,-0.36508736,0.5737568,0.9708233,0.70423067,-0.23778708,0.010390769,-1.2762761,0.7439346,0.4908598,0.20921998,0.29538393,-0.24051304,0.26283047,1.1575876,0.20436019,0.10942103,0.5157358,0.15453537,0.6951408,0.35613775,0.535751,0.76429373,1.3699969,-0.034947246,-0.46147257,0.15399683,0.039769452,-0.1851653,-0.5165252,-0.35394883,0.05433028,0.8201479,0.19857377,-0.38309187,0.2745443,-0.53830075,0.29406664,-0.0875279,0.41666457,-0.080090664,0.035118286,-0.23371103,-0.32986408,-0.2613053,0.57411957,0.11336177,-0.22519036,0.42509657,0.3985393,-0.613303,-0.0144529445,0.08720694,-0.6150942,0.25096047,0.627899,-1.0492942,0.07831491,-0.35467383,0.29155502,0.1388329,-0.975624,0.25365734,-0.3719019,0.11965259,-0.4363858,0.40259317,-0.05732965,-1.082317,-0.512946,0.29766273,-0.5221767,0.4365323,-0.1874226,-0.13778092,0.23830956,-0.69769317,0.29732874,0.96234524,0.92885256,-0.0935883,-0.057223424,0.08467936,0.6409885,0.14237314,-0.13443281,-0.24603546,-1.1512544,-0.19596076,0.15921195,0.37955412,-0.12503178,-0.43648756,-0.5662135,0.8329207,-0.2430753,-0.44253206,0.27342975
