Q16850	-0.017332705,-0.085151486,-0.041823506,0.13521734,-0.122247845,0.19401431,0.3700021,0.504428,0.052599832,-0.5075825,0.38723683,0.13566235,0.019090807,-0.82050943,0.05232239,0.25792986,-0.49301738,-0.06510546,0.14182164,-0.3840667,-0.32511836,-0.4373522,0.0020119862,0.49931404,-0.21662134,-0.8384725,0.59556234,-0.76249737,0.18845512,0.41497034,0.09093937,-0.29518452,-0.12784344,0.32449698,0.57671785,-0.0077175926,0.08220996,-0.41556883,0.21422355,0.24038382,-0.042910866,0.027818603,-1.1212962,0.39230466,0.14523926,-0.48196688,-0.49787426,-0.40455535,0.16679868,1.1436039,-0.22970873,0.6134599,-0.23098604,0.86707586,0.27792588,-0.706576,-0.62665665,-0.34242135,-0.20857677,0.10671217,0.22508785,-0.80701923,0.2809118,0.17630443,-0.077410474,0.45336348,0.69946694,0.01508164,0.56725115,-0.0863411,-0.42562366,0.11208538,0.21173283,1.3572106,-0.317494,0.412917,0.013221136,0.13000043,0.0059780027,-0.37012285,0.4396235,0.68681425,-0.198292,0.5182961,-0.07679425,-0.1534644,0.38678598,-0.27695352,-0.9452546,-0.41968814,0.87100023,0.20605284,0.03969629,0.2197244,-0.3214901,0.72662365,0.29109618,-0.7154301,-0.062449653,0.2016453,0.320907,0.32682407,-0.24232388,-0.20207797,-0.24544872,-0.19244288,-0.57296354,0.016724022,-0.08712766,0.19763923,-0.57459235,0.121130124,-0.4420188,-0.28142163,-0.5218109,-0.24293004,0.62800175,-0.11793166,-0.7712174,0.2541591,-0.3384707,-0.19992654,-0.87607497,0.44340193,-0.019725988,0.40048176,0.4978927,-0.34922445,0.26893547,0.24319503,-0.27396387,-0.25226346,-0.20400806,-0.41052055,0.64076555,-0.320644,-0.19408509,0.32721767,-0.2959434,-0.004909683,-0.07736367,-0.3777529,-0.2035368,-0.16951083,0.30218437,0.120894425,0.3947887,0.3633151,-0.7096987,0.47271556,-0.22222486,0.5843973,0.14157538,-0.3359943,-0.15800042,0.55646306,-0.91834396,0.6294883,-0.7880752,-0.72233605,-0.059611063,0.46813756,0.43783817,-0.08980863,0.12204016,-0.59446347,-0.4504743,-0.37420198,-0.19964041,0.38025832,0.1151607,-0.3152125,-0.21663623,0.95941937,0.044488925,-0.13202958,-0.7857007,0.616665,-0.47718936,-0.26747036,-0.46445432,0.21200241,0.5788406,-0.42500928,-0.114327505,-0.25781664,0.42622948,0.48740166,0.37047988,0.5010306,-0.46747687,0.48388475,-0.6611197,0.056406755,-0.043544456,-0.12721908,0.16448368,-0.055594802,0.38800263,0.30875063
O75865	0.08272692,-0.3292555,0.20739728,-0.46753818,0.27622142,0.504645,0.20960781,-0.34492013,-0.43772385,-0.17771997,0.3566147,-0.45402148,0.22951037,-0.45830896,-0.14255321,-0.2818144,-0.44002149,-0.48929974,-0.31462848,-0.49096602,-0.37219593,0.87898904,-0.116787516,0.7061285,-0.7195365,0.04159078,-0.620672,-0.6987288,0.10738805,0.23208028,-0.097616285,0.0029767896,-0.40874884,0.4679338,0.15311834,-0.56635946,-0.07403465,-0.08416066,0.047006745,0.28745097,0.24954951,0.27400497,-0.2362816,0.40162382,0.21221063,-0.26331297,-0.43285385,-0.18205647,-0.4154179,0.6542704,-0.24332571,0.18782517,-0.0024215966,-0.011887043,-0.27886733,-0.019537214,-0.7299679,-0.082446635,-0.609118,-0.47834402,0.5114132,0.19880354,0.11152381,0.63372797,-0.010677068,-0.13307801,-0.2513601,-0.17991313,0.10006312,-0.47344413,0.13225026,-0.079450384,0.09780992,0.74208665,0.19950752,0.34729823,0.3452492,0.30305502,-0.48262691,-0.30736166,-0.26476836,0.42175063,0.10018217,0.36018556,-0.2422986,0.11780599,-0.16928859,0.4030562,-0.20319495,-0.369989,0.57378286,-0.24738283,0.0978856,0.5177302,-0.462047,0.5257465,0.24253389,-0.21415798,0.07797918,0.10647471,-0.3336836,0.79696923,-0.48443377,-0.083988495,0.6673778,-0.11612153,-0.88171583,-0.1679001,0.6835539,0.05207033,0.26533777,0.3785884,0.24805291,0.20108032,-0.29578876,0.2676821,-0.2792197,0.28238922,0.1535632,-0.009711674,-0.29509592,-0.22330499,0.074601844,0.09283697,-0.26937243,0.113546066,-0.21196368,0.039074976,0.23331796,0.078048974,0.53911394,-0.251581,0.026851226,-0.5753837,0.67782605,-0.26413515,0.5963455,-0.3014886,-0.7888165,0.3286,0.3625601,-0.14470857,-0.49986434,-0.17776084,0.22438619,0.514124,0.28081447,0.31780463,-0.6525246,0.4949325,-0.35096148,0.55688876,-0.5943156,0.5633286,0.30934256,0.244723,-0.76473635,-0.012225098,-0.70319796,-0.43812385,0.06766207,0.38134426,0.32591373,0.40399915,-0.18609877,-0.21010026,-0.4792345,-0.1358112,-0.19608924,0.018905126,0.118728094,-0.38574284,0.029786782,0.15364708,0.12465626,-0.43814775,0.24000138,0.52548206,-0.10988823,0.36019787,-0.26067334,-0.11053215,0.09474119,-0.25990233,0.19286785,-0.052342128,0.09471231,-0.12741426,0.33846688,0.6175235,-0.7237086,0.5100269,-0.008872266,-0.09071458,-0.08377067,0.09817422,-0.04157744,-0.082474716,-0.34754592,-0.19620623
Q16526	0.43559042,-1.0578921,-0.51815844,-0.13803059,-0.03414836,0.16671072,-0.10706348,0.10785588,-0.0087566385,0.23142241,-0.03129098,-0.16500811,0.21446928,-0.27888507,0.054939184,-0.8525991,-0.35395586,-0.15251519,0.04677216,0.18375579,-0.028364943,0.3330857,-0.18069273,0.70483184,-0.14950259,0.07377621,-0.048100952,-0.19585827,0.3468255,0.28334677,0.0015489273,-0.11065928,0.054191068,-0.13600972,0.32064724,-0.6955452,0.09749317,-0.33000958,-0.03319301,0.6581425,0.04732121,0.15572244,-0.39282352,-0.30941796,0.43283644,-0.46312124,-0.17385054,-0.58326197,0.44460627,0.59909946,-0.009118048,-0.5312562,-0.27997547,0.37381753,0.56738204,-0.055797797,-0.8653268,-0.057175722,-0.19752482,-0.29088283,0.87786263,0.23961648,-0.4420291,0.067493014,0.17319745,0.29832193,-0.13263139,-0.39203313,-0.21135393,-0.078833915,0.4605081,0.11761639,-0.0043773334,0.110421196,-0.22171739,-0.3252355,0.43741193,-0.039692257,-0.7619616,-0.6544688,0.15473805,-0.2097878,-0.48419532,0.58175415,0.40377754,-0.61444354,-0.20529541,-0.013883262,-0.060654514,0.35886607,0.15612921,0.031812724,-0.13290535,-0.20870513,-0.98763585,0.559315,0.35618913,0.5006225,-0.13953412,-0.220238,-0.50435466,-0.010104501,0.0015962381,-0.3661691,-0.14095286,0.20055056,-0.592068,0.5973993,-0.5095195,-0.20275919,0.58329946,0.515937,0.07255492,-0.16404808,-0.13028789,0.06382473,0.6653946,-0.25870577,-0.5861353,0.6712584,-0.0054138526,0.047056343,-0.34307876,0.3254741,-0.59247464,0.17337987,-0.25451046,-0.1325119,-0.15683712,0.14974639,0.2866553,-0.30181763,0.101353295,-0.22364143,-0.13137887,0.15379642,0.59265345,0.06476961,0.4689474,0.090541385,0.2710367,-0.16211559,0.27141064,0.07756312,-0.7316679,0.26833844,0.45880035,-0.42990068,0.11591632,-0.05469058,-0.09533635,-0.14869453,-0.095431454,-0.25641254,0.540874,0.04336857,0.1608531,0.2722806,-0.090137295,-0.92375,0.44860804,0.18170372,0.1508987,-0.07032547,-0.532552,-0.33366308,-0.009128205,-0.28261065,-0.66741824,0.28975144,0.46602008,-0.22780333,0.068357,0.011760412,0.15253864,0.15116721,0.08372815,0.2180626,-0.36706442,0.43125346,0.10556744,0.5523854,-0.18023382,-0.09584477,-0.4574142,-0.4019226,-0.11712407,-0.27294597,0.4264673,0.35119995,-0.97015345,0.35532984,-0.6234171,-0.4708543,-0.21107952,-0.25083545,0.1907906,0.3632931,0.17224294,0.1019986
P07992	0.8496397,-0.2679036,-0.98872066,-0.21298675,-0.07463232,0.40817893,0.20085244,-0.20120476,0.27093598,0.25004187,0.13414647,-0.23281497,0.17582558,-0.008784408,0.09367536,0.043271232,0.070439346,-0.0097799115,0.46178558,0.002389497,-0.21970017,0.6066495,0.25509608,-0.20031892,0.44402274,0.11248861,0.21167669,-0.6239729,0.5466926,0.15088955,-0.4259324,0.2623927,-0.16484155,-0.04943957,0.5736493,-0.308502,-0.600974,0.10987089,-0.4644602,0.76277864,0.005419292,-0.03865239,0.082916215,-0.084432855,-0.29708973,-0.15316689,0.27240685,0.30810073,-0.47249657,0.531463,-0.2493543,-0.6656562,-0.0032952097,0.3233552,0.40122655,-0.109767094,0.3108403,-0.12874532,-0.1241353,-0.03247947,-0.31290212,0.08944327,0.06434869,0.24287319,-0.14484528,0.6440369,-0.33197945,0.3752276,-0.51839393,-0.29772073,0.053988803,0.23138438,-0.1520984,0.31924438,-0.30263433,-0.2913958,0.66702396,0.01023947,-1.0259966,-0.316571,-0.9921058,0.06480675,-0.4635791,0.09071545,-0.015287223,-0.53996664,0.33516636,0.27932718,0.12616384,0.18982884,0.27205878,0.23941855,-0.19084609,-0.12309697,-1.1379179,0.4036101,-0.5147015,0.24454361,0.13295406,-0.23371945,-0.924,-0.3237615,-0.090554945,-0.32667568,0.35876212,-0.4569238,-0.33623528,0.96109396,-0.43093866,0.23679988,0.71264875,0.17127511,0.5204383,0.20986094,-0.06659146,0.14093004,0.4214448,-0.84191006,-0.039256062,0.10338659,0.4570017,-0.19564667,0.06160265,0.46129096,-0.98722184,-0.10790204,0.25175676,-0.49367085,0.0067411265,-0.5110758,0.06916702,-0.5164939,0.5700169,-0.04540076,-0.0937606,-0.24434817,0.632434,-0.29206434,0.2345531,0.090863325,-0.30537462,-0.0589638,-0.30443773,0.5278954,0.11745463,0.49861836,0.05658056,0.37801316,-0.6045217,0.007026047,0.13338165,0.3634663,0.23834066,0.61020494,0.86344314,0.1831298,0.6447002,-0.17642894,0.13482285,-0.6388234,0.091620326,-0.25969687,0.36938724,0.1762824,-0.46523425,-0.8473081,-0.19084904,-0.28337982,-0.6851703,-0.04325681,0.2606455,-0.083604306,0.091180295,0.15324306,0.17492853,0.2916633,0.05796328,0.31183133,-0.05734913,0.26871175,-0.018909482,0.10819411,-0.014971001,0.22036478,0.10922958,-0.6606344,-0.0850321,-0.19628242,0.45196643,0.28156912,-0.49525917,0.37349305,-0.30264997,-0.54465526,-0.26309788,-0.06503554,0.680486,0.50859994,-0.039190385,0.4686396
P00480	0.4014788,-0.85634565,-0.07674946,0.40757594,0.2243668,0.1782687,-0.00420975,0.7373794,-0.080042005,-0.19378483,0.13298619,0.49968588,-0.097174846,-0.36262068,0.21552616,0.20657684,-0.7881131,-0.10829399,0.19828156,-0.16809346,-0.092964895,-0.16066909,-0.1736866,0.36282963,0.41421312,-0.11885245,-0.09202182,-0.48050767,0.44893467,-0.12114996,0.28723565,-0.31271288,-0.39204866,-0.5164141,0.41949126,-0.34761417,0.32559603,0.0864572,-0.05077776,0.48107564,0.3532164,0.39664644,-1.0766772,0.038928475,-0.07771751,-0.059092015,-0.30080613,-0.14686847,0.5538053,0.5180687,0.16866075,-0.036579803,-0.6650055,-0.0051942603,0.22606151,-0.553828,-0.5727453,-0.7450827,0.37703186,-0.5066574,0.80158055,-0.69471514,-0.029133331,-0.1745872,-0.15366888,0.13401645,0.5835642,0.18325798,-0.18540655,-0.24083972,-0.05587825,-0.5847751,0.54154533,0.6918472,-0.6159003,-0.06811574,-0.2487214,0.18324496,-0.5605599,-0.9522071,-0.32137305,0.4786371,-0.25729015,0.41014293,-0.29757184,0.6980495,0.43916187,0.17776333,0.09100376,0.32656413,0.78308696,-0.06858288,0.27730265,0.121736236,0.022935927,1.1299489,0.118467696,-0.058080446,-0.36621368,0.023883874,-0.212864,-0.33225673,-0.47464943,-0.5768987,-0.3599438,0.02316409,-0.037676446,-0.24962886,0.17303911,0.1428991,0.3743931,0.7473397,-0.55598396,0.2495886,-0.49924806,-0.35298225,0.42543226,-0.06406128,-0.6268804,0.5546214,-0.3158885,0.010299566,-0.48183358,-0.25109407,-0.41748768,0.8741246,0.36173517,-0.3848244,0.5417796,0.37106198,0.32536656,-0.3817717,0.6135039,-0.26938286,0.023470478,0.6227594,0.096252814,-0.25410447,0.13346574,-0.033600792,0.025048329,-0.10812001,-0.93767506,-0.18497263,-0.06680599,0.5456056,0.22842053,-0.20922822,-0.3310982,0.74831855,-0.42091143,0.35737446,-0.17992507,-0.54642016,0.47897345,-0.2009168,-0.6832911,0.6292919,0.15293479,0.102478765,-0.38766775,0.5567743,0.13831846,0.22952336,0.49921948,0.079031,-0.2488384,-0.5506225,-0.43786106,-0.10522676,-0.35962352,0.014290483,0.25100175,0.30770907,0.19786432,0.024576344,-0.19089913,0.420531,-0.14915651,-0.061137356,-0.4114662,-0.0030929786,-0.04830239,-0.1971876,0.024206745,-0.115646616,0.5213541,0.31736392,-0.018850885,0.283185,-0.87682104,0.39180666,-0.016333308,-0.73201895,0.21598102,-0.27486318,0.14112727,-0.0498806,-0.0049850293,0.9467273
P25789	0.42801556,-0.58689183,0.087648235,-0.0006539889,0.2559043,0.38226444,0.16608869,-0.29079977,0.080200285,0.05725852,0.12190672,-0.00094952976,-0.083167784,0.085099496,-0.32974207,0.3268825,-0.40212467,-0.093042344,0.17746538,-0.25171497,-0.40098128,0.4613466,0.21228246,0.5772081,-0.07429163,0.045848146,-0.13464856,0.071903005,-0.040930267,0.19511221,-0.4907419,0.047496404,-0.23021619,-0.019237045,0.059483897,-0.55667037,0.004926934,-0.009708874,-0.41022068,-0.023959586,0.4759252,0.37896353,0.12105485,-0.00077862205,0.10863187,-0.82602906,0.22816956,0.08097096,-0.17421588,0.6081889,-0.15878418,0.308613,-0.18908006,0.2082901,0.33822623,0.6956207,-0.022101898,-0.50033647,-0.7447888,-0.36226863,0.3878865,-0.07899828,-0.034179248,-0.31966445,0.2535247,0.74702096,0.14980677,-0.22394012,-0.54087085,-0.14467812,0.21949346,0.10946724,0.11419366,0.71576357,-0.33562276,-0.37622476,0.1269735,-0.076883435,-0.6584666,-0.099667154,-0.30700248,0.30117348,-0.49733046,0.43640402,-0.09571796,-0.09877346,0.118517764,0.13439105,-0.4559151,0.10420016,0.21264009,0.1596802,0.08279269,-0.3167103,-0.05754012,1.1976734,-0.025981136,-0.14738414,-0.2227573,-0.016753413,-0.106903516,0.13361673,-0.21747956,-0.21320695,-0.11568299,0.4703218,-0.24272935,-0.26881543,-0.13731155,-0.06989935,0.03041861,-0.26342347,0.3624982,-0.06798093,0.2548551,0.20630443,0.22803849,0.22687487,-0.54777634,0.58005035,0.27036688,-0.27655053,-0.34901258,0.025080215,-0.19277625,0.002993475,-0.25701898,0.29944757,0.35084367,0.41991568,0.043809388,0.047287364,0.85304695,-0.32490316,-0.19070153,-0.14447926,0.71847034,0.43094262,-0.038058564,0.3087967,0.43592346,-0.047575276,-0.2724035,-0.09878514,0.0906768,1.1128125,0.44371936,0.11138362,-0.20810021,0.09398211,0.2327777,0.051676422,-0.41046584,0.15541461,0.17090245,-0.10324083,0.26136315,0.369526,-0.07170371,-0.010626801,0.39788568,-0.49805787,0.21043378,-0.056317855,-0.28694123,-0.6701208,-0.2661467,0.19127075,0.26319346,-0.05869391,0.4972194,-0.14985886,0.5051127,0.24180898,0.268329,-0.27499294,-0.007483591,0.35520002,0.053583253,0.60340464,0.008114516,0.25535378,-0.29847166,0.2889015,-0.117310554,-0.14933498,-0.105565615,-0.3567013,0.5339825,0.40688476,-0.47497702,0.0015207558,0.13667183,-0.5283256,0.15773316,-0.03294772,-0.070424505,0.20179963,-0.04725355,0.065365575
P35250	0.680333,-0.6004742,-0.4245474,0.35176194,-0.22531056,0.24971665,0.109643154,0.27167428,-0.27347478,0.30820844,-0.04680523,-0.3950974,-0.42724553,0.0054872367,-0.19995938,0.01116452,-0.13800868,-0.06456799,0.4725009,-0.40830323,-0.40426418,0.26115242,-0.012314033,0.31154492,-0.2669983,-0.08215577,-0.1463045,-0.29350904,-0.22460881,0.39085883,0.14758493,-0.390317,0.22160295,0.43659666,-0.029210113,-0.31985295,0.27900946,-0.3883178,-0.36664546,0.2280958,0.29988018,0.6592612,-0.55549,0.06146804,-0.3450181,-0.49376044,-0.11744593,0.01444683,0.498727,0.6237459,-0.6106809,0.008487437,-0.24520862,0.52253973,0.79975075,0.032022405,-0.2286487,-0.21721691,-0.14492612,-0.016421942,0.43964118,0.16161084,0.08274066,-0.4408198,0.2250005,0.7656527,-0.4299738,-0.10520123,-0.438701,-0.10248765,0.08234914,0.030989293,-0.2587672,0.4976165,-0.21699366,-0.46178782,0.47792262,-0.60191035,-0.5604061,0.018253323,-0.45897248,0.40322217,-0.37865013,0.002636766,0.1640654,0.13464502,0.17519884,-0.0010330143,0.23069604,-0.0752829,-0.1881012,-0.19660752,0.16093333,-0.10104931,-0.13549028,0.87324864,0.050502744,-0.07575166,-0.05422363,0.24804588,0.097825825,-0.30680823,0.26206514,0.00018623422,-0.061529063,-0.090699926,-0.36710083,-0.21272473,-0.09910439,0.32911646,0.06984362,-0.076345734,0.082290806,0.16183631,0.07398428,0.2662571,0.032768864,-0.39278597,-0.91138256,0.7969874,0.39551088,0.03072804,-0.35826635,-0.103261404,-0.69144815,0.31444052,0.080603026,-0.25609443,0.11184269,0.15579659,0.4378598,0.08676213,0.5556077,-0.45132372,-0.0970417,-0.07926664,0.8177399,-0.10637507,0.16887441,0.05632466,0.10594111,-0.07036658,-0.58103585,0.35412437,-0.08073543,0.5879889,0.15048505,-0.24664244,-0.45394385,0.22962588,-0.09640471,0.36323175,0.08497461,-0.06373198,0.2803077,0.32407406,0.07456081,0.17604639,0.086086735,-0.07493301,-0.37805083,-0.15531494,-0.034913905,-0.0024365364,-0.23298815,-0.26827973,-0.038041722,0.38253796,-0.52884305,-0.14920962,0.6985123,-0.07447691,0.4586412,-0.0405942,0.70485073,0.103292175,0.14810915,0.05064936,-0.16399717,0.21375136,-0.14370897,0.1038304,-0.11391109,-0.019661292,-0.61284363,-0.33942953,0.2585782,0.54113173,0.4755307,0.9725034,-0.5782028,0.42510274,-0.24569596,-0.3968818,0.104294255,-0.34020388,0.4410984,0.16965008,0.26921403,0.18617143
P82673	0.31974223,-0.6920206,-0.26641804,0.034135163,0.30957222,0.33340734,0.36880293,0.09660812,-0.7711496,-0.6257817,0.43246078,-0.27918887,-0.523801,-0.8463171,-0.29926416,0.44556913,-0.8420541,-0.024859987,0.4872521,0.28943875,0.09067562,0.42169255,-0.24158026,0.025851458,-0.21016315,-1.1731219,0.14110163,-1.1865544,1.0487845,-0.26884317,-0.19991165,-0.0057094437,-0.38665676,-0.05762811,0.7171765,-0.56015795,-0.44409716,0.26303974,-0.46904936,0.41386676,-0.018168539,-0.07767781,-0.30998975,0.38829678,-0.14563586,0.20759223,-0.18121149,-0.91534364,-0.28779736,1.2257707,-0.27567095,-0.03115354,-0.27872482,-0.0017170518,0.112805106,-0.50173205,-0.40090716,-0.19904259,-0.34296024,-0.16707318,-0.1388505,-0.5809901,0.089301914,0.25518084,0.0074706194,0.091827914,-0.15043098,0.7970201,-0.062231284,0.01859704,-0.14307877,-0.2853867,-0.3702876,-0.02243559,-0.26171446,-0.16614859,0.42229646,-0.41852626,-0.5471701,-0.28759024,0.22310482,0.23557848,0.41323158,0.27354664,0.1949704,-0.25470036,0.13453932,0.72975266,-0.11274114,-0.34179366,0.390706,0.13149948,-0.22545992,-0.08452007,-0.45371625,0.48485518,0.52724725,0.13404518,0.06848873,-0.55385566,-0.042573746,0.11265168,-0.53344214,-0.40980104,-0.3776866,-0.2592988,-0.752632,0.31289798,0.0035864545,1.0757432,0.087487444,0.7272509,-0.34169996,0.37862334,-0.3712251,-0.1163954,0.6554953,-0.39512607,-1.1251801,0.10182361,-0.32240626,0.28055906,-0.58729476,0.09163412,0.022924084,0.41282228,-0.19861294,-0.09281746,0.25181913,-0.05462028,0.02899403,-0.732894,0.11236077,-0.641173,-0.1885913,0.020268384,-0.41741836,-0.30668616,0.24797826,0.725229,-0.20780012,-0.469573,-0.7934494,-0.5043423,0.10448066,0.21541531,0.08101837,-0.5994884,-0.32364002,1.0678366,0.3800191,0.6355741,0.2618041,-0.124954656,-0.07631436,0.007209833,-0.15765868,-0.31637794,-0.05733316,-0.14273189,-0.38448438,0.21202677,0.0048197852,0.54141,0.46765873,-0.30248663,-0.3340031,0.16822019,-0.26707962,0.15176646,-0.023729045,-0.08313566,0.05970984,0.7932464,0.36954424,-0.81033915,-0.8522259,0.23898028,-0.2711797,-0.07529372,0.38462323,0.16481796,-0.062171876,-0.4308145,0.37748566,-0.80622053,0.10677649,-0.12538402,0.47286502,-0.4116911,-0.052857507,0.43545553,0.32059777,-0.3246858,0.1798745,-0.23803416,0.1820514,0.27874178,-0.20200473,0.42594612
P43686	0.31191367,-0.6305248,0.35681126,0.25669238,-0.038817108,0.24559592,0.13805602,-0.13415524,0.09342061,-0.011901667,0.41264325,0.28660437,-0.12910101,-0.15303408,-0.042843133,0.5179984,-0.1383553,-0.44024736,0.5943614,-0.6789826,-0.63632196,0.16892344,0.3289382,0.42213652,-0.49879777,-0.087949276,-0.18143724,-0.057687335,-0.24130023,0.46834156,0.16565922,0.09027085,-0.19710472,0.29846972,-0.13567476,-0.6675663,-0.04168041,-0.28809714,-0.24851519,-0.023148874,0.48121887,0.4491377,0.037821434,0.33954835,-0.1298904,-0.9072123,-0.15129067,0.028981978,-0.13117816,0.80816895,-0.6510456,0.6892108,-0.21302667,0.41903487,-0.23121382,0.33824584,-0.1075252,-0.34124517,-0.39941376,-0.17664577,0.6273657,0.067388356,0.15241042,-0.31265968,0.3008899,0.8429515,0.072916664,-0.09706105,-0.6049925,-0.053698678,0.085932225,-0.11782998,0.053949837,0.8866873,-0.24348602,-0.42696342,0.107203335,-0.41048643,-0.49185425,0.0036334887,-0.21249035,0.2572103,-0.29515964,0.4029766,0.25496998,0.35743657,0.27819028,0.22091243,0.3036967,0.015576599,0.32150012,0.4295424,0.22887656,-0.2564382,0.22130093,1.2848151,-0.20259254,-0.4404276,-0.24276285,0.35023296,-0.17057782,0.17256333,-0.26321325,-0.41911945,-0.37341902,0.12785532,-0.2518055,-0.22177446,0.32688645,0.21828799,0.33026835,-0.23975666,0.5017735,0.17333859,-0.0029921345,0.29878363,-0.14616758,0.6043237,-0.6979838,0.8973529,0.16313104,0.09901095,-0.4793811,0.08179435,-0.44100806,-0.269673,-0.25425053,0.27500573,0.37794676,0.0952183,0.045787863,0.25760674,0.5304483,-0.40160847,0.101145744,-0.057207644,0.8340091,0.42024285,-0.31252795,0.20277569,0.45670465,0.2698597,-0.5150818,0.10950056,0.38455218,0.74329513,0.16036868,0.040485,-0.29739347,0.17130336,0.10760597,0.27218834,-0.0035269293,-0.09029431,0.15758273,0.24600352,0.057656024,0.1925774,-0.38415608,-0.13001342,-0.33958364,0.022736967,0.654455,-0.3795155,-0.63801926,-0.38517165,0.061785385,0.3605341,0.39428604,-0.23103476,0.56778896,-0.18541658,0.37870663,0.046350516,0.17070867,-0.23521005,0.04970051,0.28091764,-0.072873205,0.6007154,-0.15392092,-0.26283497,0.13437526,0.13120581,-0.15389381,-0.36876214,-0.013120669,-0.15606599,0.49637753,0.58370805,-0.040019363,-0.3693025,-0.41082013,-0.06013939,0.33357525,-0.17279787,-0.0030025225,-0.24098445,0.18200733,0.3546952
O95168	0.2843956,-0.87814844,-0.54315215,-0.08125622,0.25648117,0.6544809,0.19680348,-0.018340014,0.1316367,-0.11146264,0.17164807,0.14777306,-0.039468557,-0.5096556,-0.0052798656,0.35084936,-0.43925768,-0.42419744,0.19957134,0.38250336,-0.46406454,0.20016563,-0.3282615,0.47516948,0.7114207,-0.77864677,-0.11325036,-0.47778893,-0.0061314898,-0.46082163,-0.2842143,0.004440892,-0.67740846,-0.0042652497,0.70634764,-0.25992593,-0.5335876,0.16158712,0.3127578,0.749224,0.36988977,0.5329806,-0.8170255,0.14557771,0.2923134,0.035275385,-0.31577834,-0.52872133,0.026077166,0.8263946,-0.37310502,-0.06577621,-0.6805176,0.017631205,0.35889217,0.04062217,-0.3535484,-0.11787733,0.25995448,-0.3218473,0.13683833,-0.609542,0.08729176,-0.2588199,-0.14206782,0.52138555,0.33742127,0.39185885,-0.1199274,0.5143856,0.15430738,-0.51287276,-0.18717422,0.67363304,-0.45116496,-0.35257038,-0.17874992,-0.32975066,-0.19852744,-0.6705313,0.37465796,-0.2813913,-0.39037412,0.5946499,0.003718507,-0.06899497,0.3519024,0.04364321,0.14741263,-0.037699733,0.8352015,0.2833195,-0.03579163,-0.11142709,-0.39226806,0.65564156,0.2323586,-0.013242907,0.21346143,-0.700335,-0.27838957,-0.20022279,-0.45261768,0.021801703,-0.31881604,0.5379048,-0.33825922,0.3528026,0.07011275,-0.0856741,0.5436432,0.53948706,-0.38995153,0.18537092,-0.8284497,-0.49129364,0.21859232,0.34785348,-0.27927864,0.4540447,-0.20449348,0.28958237,-0.4829042,-0.07023277,-0.0033833832,0.52407783,0.15003438,-0.1498664,0.63699704,0.39722878,0.024330614,-0.7968684,0.60731804,-0.31263295,0.5736272,-0.13475475,-0.37447023,-0.37966025,0.073970295,0.08770854,0.60881007,-0.46877557,-0.21738893,0.23185456,-0.47340468,0.14679524,0.4099936,0.14749943,0.14028281,0.35544533,-0.5314772,0.2504028,0.09171838,-0.46821675,-0.2611326,0.4297999,-0.20910604,0.72554255,0.4328636,-0.6308868,0.21391061,0.2901106,0.06338767,0.49420512,0.29403624,-0.6058193,-0.38414764,-0.14588366,0.033448998,0.7083004,0.11986009,-0.36008167,0.12975107,0.29869634,-0.4637567,-0.025378527,-0.3760206,0.052217387,-0.13489886,0.1869137,0.029938666,-0.26036853,-0.28436932,0.3958721,-0.07704806,-0.63218266,0.22059837,0.10781002,0.8126472,0.3759137,-1.0459818,0.8871403,-0.16391341,-0.698489,0.06514726,-0.12707569,0.64939606,-0.37191197,-0.4596301,0.19319059
Q9NW64	0.30549288,-0.76693684,-0.4780822,-0.19316572,-0.12248232,0.3791474,0.24713488,-0.06922422,-0.31876493,-0.091163695,0.14306183,-0.86773074,0.31323856,-0.17639719,-0.36015475,0.16985217,-0.138954,-0.040139854,0.49679208,-0.05450921,-0.4012159,0.06764997,0.33899248,0.1704869,-0.3333568,-0.1409358,0.58434445,-0.33958977,0.20801726,0.13055322,-0.26314268,0.2779826,-0.03221864,0.09780475,0.10959839,-0.36060685,-0.020408696,0.40805724,-0.60624874,0.32529664,0.38009226,0.30758238,-0.29910773,-0.07996378,-0.043295573,-0.19853276,-0.10807689,-0.06029736,0.03969465,0.59045327,0.03668589,-0.5426475,-0.41496706,0.35981414,0.7980551,0.23646536,-0.38070977,-0.45633557,-0.2924253,-0.10286747,-0.26623136,0.4232794,0.3462483,0.020501098,0.0100043975,0.53546447,-0.16640413,-0.15453368,-0.02025241,-0.1244388,-0.16282074,0.12031804,0.49356732,0.33059514,-0.19149199,-0.033576146,0.51477146,-0.09411829,-0.5149891,-0.2162184,-0.32504973,0.46446878,-0.09326214,0.0006171733,-0.22722588,-0.1989663,-0.17398703,-0.07474934,0.060963403,-0.20459624,0.08683617,0.20050326,-0.28631493,-0.23283279,-0.8663489,0.6580543,0.20229636,-0.24401914,-0.26253715,0.018005248,-0.4336243,-0.029379541,0.32116896,-0.4205738,-0.18905859,0.2092541,-0.37845567,0.16229351,0.059289582,0.07450558,0.44597292,0.23235641,0.31630445,0.35485986,-0.17928632,0.38808575,0.5417742,-0.4487755,-0.43452153,0.066401385,0.3844596,0.16889952,-0.45263386,-0.018631069,-0.6738539,-0.09875064,0.17859101,-0.32724196,-0.087267205,0.050737604,0.2671056,-0.4686646,0.60389286,-0.31793728,0.21493858,-0.6472665,0.42837083,0.031035341,0.16514327,0.47954226,-0.066134535,-0.09738995,-0.24634531,0.3026807,-0.34787616,0.5274846,0.36665842,-0.1839045,-0.12846155,0.20901145,0.09874534,0.13111605,0.21706998,0.25394127,0.70943993,-0.1280456,0.108843595,0.066812634,0.08351687,-0.48928767,0.18261613,-0.18882826,-0.19497958,-0.09675372,-0.4420827,-0.52272874,-0.10941474,0.53898686,-0.30389383,-0.123693965,0.19611898,-0.22737096,-0.0530675,0.12960234,0.37504646,-0.25642383,-0.4593222,0.030555341,-0.23125795,0.36665532,0.09713323,0.73972726,-0.19000839,0.32397744,-0.38872293,-0.22037433,0.044595506,-0.11053349,0.35484797,0.4001136,-0.42372337,0.36130285,0.016902156,-0.3062693,-0.11462378,0.12885511,0.6936896,0.44602472,0.02478678,0.34447744
P31930	0.34105584,-0.8758024,-0.41415295,-0.0431414,0.47751066,0.64851147,0.4472596,0.28496915,-0.5269973,-0.35765928,-0.25726962,-0.30592448,0.5053222,0.0029283876,-0.097492404,0.056561057,-0.11185259,-0.10147197,-0.3243147,0.15251076,0.008679747,0.27018118,0.073573306,1.0662888,-0.16788566,-0.60816836,-0.2730214,-0.25650272,0.30055568,0.11967066,0.39301565,-0.04914389,0.05900785,0.17572577,0.26286843,-0.33255923,0.5108679,0.31711626,-0.44701934,0.20187427,0.3507795,-0.05251735,0.07339628,0.66694725,0.2756321,-0.36565018,-0.26363403,-0.47302294,0.21426362,0.69245183,0.20293616,0.00057976705,-0.22249624,0.10031954,0.28048104,-0.20127143,-0.9487551,0.21062745,-0.0021728873,-0.5072665,0.72806543,0.07937235,0.096420676,0.3456709,-0.36830136,0.14221266,0.33310083,-0.13061263,0.104972646,0.17265922,0.36628744,-0.5631209,0.0139742,0.54912466,-0.0011926534,0.30810767,0.097356334,0.39022684,-0.19641428,-0.6705521,-0.04414994,0.028872466,-0.190344,0.24483816,-0.0349163,0.08117341,-0.34965608,-0.5967399,-0.22434878,-0.10162954,0.31232932,-0.2369616,-0.16346066,0.34553295,-0.42190784,0.18006064,0.34356803,-0.08522328,-0.28155276,-0.17854029,-0.31971946,-0.003901054,-0.40321672,0.084701456,0.21593583,0.028999442,-0.16930623,-0.08940727,0.08871531,0.30066997,0.007887933,0.63012946,0.28657416,0.25903744,0.1733403,0.045517437,0.3218875,0.34417567,-0.3622455,0.13669343,0.16228141,0.51968175,-0.40636984,0.716916,-0.9990251,0.63399166,-0.31647602,0.28784466,-0.3019209,0.6841511,0.22638488,-0.26153204,-0.00738579,-0.32956177,0.09303256,0.03315881,0.33343092,-0.35631764,0.41395018,0.29877526,0.59456277,-0.24445312,-0.39607447,-0.12386956,-0.5125998,0.6820633,0.9715451,0.07090078,-0.36696428,0.5404926,0.10367119,-0.31295922,-0.21657196,0.51211846,0.3321266,-0.17057858,-0.54437256,-0.04368019,-0.5281833,-0.16444853,-0.19054851,0.019392751,0.42551664,0.49385887,-0.21164456,-0.284605,-0.070613146,-0.00753034,-0.4598803,-0.25602448,-0.37977818,0.01724669,0.053429954,0.36293843,0.14333627,-0.3803132,0.013266273,0.28891203,-0.18805586,0.33680558,0.1579507,0.66973853,-0.005379205,-0.12922746,-0.050908346,-0.16172896,0.022592748,0.46739745,0.21096882,0.18766552,-0.773209,0.19984901,-0.034133226,-0.5688178,0.27555612,-0.32212317,-0.14562176,0.1421213,-0.23954727,0.74490273
Q99741	0.34241357,-0.78134835,0.019809166,-0.091109686,0.31102073,0.12699102,0.13047811,-0.08915388,-0.11182337,0.23442137,-0.3066333,-0.7113351,-0.06559925,0.2872039,-0.36907366,-0.105773374,0.26800546,-0.042397086,0.38352105,-0.37630066,-0.21387756,0.47300315,0.10455507,0.5172991,-0.03351257,-0.4376869,-0.18652882,-0.17419305,-0.07683032,0.5224815,0.10693089,-0.11194753,0.19084895,0.30333138,0.02783096,-0.14850031,0.3407927,-0.25575754,-0.6254674,0.24939345,0.08085035,0.19504131,-0.049225267,0.015267321,0.26847604,-0.41684052,-0.31278533,0.2887296,0.13904653,0.42551705,-0.25433147,-0.03532392,0.004886646,0.45659727,0.5074007,0.19723904,-0.050966185,-0.21079285,-0.12646271,-0.22612518,0.5914976,0.63663536,-0.12394641,-0.439529,0.06691923,0.26403356,-0.2760037,0.17750229,-0.3978845,-0.27037594,-0.016102199,-0.17044696,-0.013145749,0.29310584,-0.10484437,-0.35736015,0.73694795,-0.14979167,-0.75339884,-0.19827046,-0.19550979,0.052533355,-0.46063372,-0.25935423,0.07292142,0.2163584,0.35059735,-0.07111907,0.26878616,0.055460315,0.08595101,0.3078043,0.29990748,-0.5302429,-0.04540088,0.4822417,0.02756174,0.18575127,-0.13847297,0.05884222,-0.5329712,0.22872445,0.2583676,-0.21400899,-0.09806045,0.43554428,-0.027351327,-0.30063426,-0.16456425,0.07899442,0.25833556,0.17944817,0.6189657,0.045176793,0.03538152,0.25207865,0.3160609,0.1578384,-0.2937446,0.44963354,0.3023308,0.32929522,0.13548733,-0.028495228,-0.49656144,-0.048437312,-0.27631,-0.077514276,0.04779482,0.5642475,0.2632973,-0.13871308,0.45105648,-0.384277,0.24128029,-0.25930676,0.9161182,-0.0692593,-0.037566125,0.515647,0.078671135,-0.06556607,-0.74395585,0.4966696,-0.27223903,0.766327,0.06489524,0.068619795,-0.1333412,0.25378603,0.06075937,-0.14584549,-0.029716194,0.38507384,0.20279269,-0.20829186,-0.012300176,-0.021897595,-0.22211039,-0.056008935,-0.047908742,-0.08392047,0.3853798,-0.29189745,-0.30533507,-0.2918928,-0.13724962,0.355342,-0.21824393,-0.09211491,0.25625378,-0.17930596,0.15140197,-0.12867849,0.30010727,0.14519368,0.18039119,0.22332878,-0.39362127,0.4428697,-0.1569332,0.19244766,-0.10818007,0.026850574,-0.85190076,-0.3788955,-0.06749056,-0.05515534,0.20587866,0.7647427,-0.6832932,0.6373305,0.018294191,-0.48121408,0.16300967,0.15490225,0.18846175,0.07812377,0.3458818,0.27604675
P18206	-0.11144949,-0.750352,0.014324845,0.16034509,0.5555445,0.23031501,-0.47834864,0.509837,-0.2105335,-0.071951374,0.29533893,-0.29299033,0.36688423,0.37900934,0.028186211,-0.07359143,-0.6593388,0.35616103,0.26926053,0.15351449,-0.40500942,0.23024242,0.15114483,0.60364896,-0.3796033,-0.32873443,-0.22300106,-0.35134128,0.17334634,0.2551878,-0.20910774,-0.23530707,-0.12123066,-0.04419624,0.22632264,-0.3255543,0.6476237,-0.11323616,-0.76684755,-0.49240413,-0.13319011,-0.1505425,0.29048058,0.3021934,-0.0012703222,-0.3670603,0.052615184,0.040572904,-0.88990855,-0.14135821,-0.16174597,0.71723443,0.04425758,0.23113357,0.10330654,0.21499689,-0.49220017,-0.87464184,0.22427507,0.06305577,0.6074471,0.5770839,-0.23105407,0.58353025,-0.44948906,0.075294174,-0.2789569,-0.15438934,-0.0143594425,-0.2137295,-0.13282454,-0.18510717,0.025011728,1.0290607,-0.3667092,-0.14801928,0.058561426,0.63315016,-1.3887995,-0.34612012,-0.30369306,-0.1487674,-0.14253889,0.5856859,0.23881948,0.15008733,-0.18743972,-0.18644433,-1.221652,-0.53881574,0.32688263,-0.007965805,0.057778683,0.4467158,-0.35403955,0.951557,-0.08870397,0.677853,-0.08062912,-0.1309619,-0.46856484,0.34164074,-0.8272254,-0.2709342,0.121142514,0.37516516,-0.12281818,-0.62443334,0.4089529,0.23752785,0.023292117,0.62903076,0.48934245,-0.0051131323,0.3716791,0.61755806,0.28517756,-0.07221973,-0.77197087,-0.08035569,-0.4491397,0.29944974,0.012075338,-0.10624089,0.3323047,-0.09028844,-0.51319677,0.27964494,-0.2390668,0.12131965,-0.068645924,-0.3394034,0.5643635,0.12473344,0.28287145,0.22201717,0.89772654,-0.05098419,-0.25558773,0.13887896,0.40609768,0.42557123,-0.38665414,0.10193353,0.27255583,0.4410112,0.29958802,0.14926308,-0.2579757,0.41745386,0.18727425,-0.17568517,-0.24786638,0.4157322,0.015069546,0.018154902,0.44422677,-0.14931595,0.1625691,-0.46975473,0.35447317,-0.77166504,0.51402944,0.2568922,-0.251644,-0.43794623,-0.084557444,0.21213493,0.0874154,-0.093606345,-0.9092656,0.12159727,-0.04844427,0.10854074,0.5730814,-0.15636946,-0.325733,0.44898564,-0.04062167,0.22173795,0.20605147,0.5656359,0.10646485,-0.43098715,0.13547051,0.085336566,-0.28277093,0.10287937,0.483113,-0.3398022,0.017623322,-0.512922,0.119433194,-0.34729674,0.24884821,0.16529457,-0.041339498,0.23530209,0.19124772,0.49724817
Q96EB6	0.08200009,-0.8597099,-0.54546505,-0.1685147,0.12887406,-0.2437716,0.38383567,-0.034730587,-0.40718964,-0.08472603,-0.40746826,0.18970586,0.23963721,0.18371418,0.35558218,-0.08410449,-0.31379262,0.12090857,0.1663104,0.14864913,-0.12064547,0.32838154,0.4340771,0.4158914,0.011152109,0.005097854,0.13724023,-0.19564344,0.3355006,0.14561588,-0.012369747,0.29403827,-0.0058195256,-0.30417034,0.23861937,-0.6290273,0.2948583,0.116532624,-0.44512218,0.7156402,0.26675096,-0.036069326,-0.4606267,-0.011348411,0.39657304,-0.42819005,0.073702,-0.24678415,0.30972397,0.5447107,-0.006156699,-0.3059006,-0.31689823,0.7918942,0.46279022,0.68127155,-0.0247517,-0.31631464,-0.2385832,-0.16690753,0.28453404,0.27384073,0.29145497,-0.07831071,-0.031567525,0.39106107,0.0386778,-0.09883454,-0.17376238,0.29416332,0.27004036,0.20225926,-0.0039058442,0.4894974,-0.38951775,-0.17317629,0.084791295,0.47248024,-0.59554446,-0.6001094,-0.14801222,0.0003354314,-0.8913734,0.23245284,0.21154276,-0.20037481,0.35704252,-0.087655015,0.30261025,0.51808,0.39100137,0.17185827,-0.16352549,-0.12146599,-0.5673982,0.5840642,0.041530088,0.16708194,-0.083145455,0.10656876,-0.36914724,0.056524295,0.21419936,-0.14929174,0.065558866,0.54718673,0.047423203,-0.1746614,-0.23654065,0.09930181,0.45681962,0.18105835,0.20208625,-0.35287097,-0.16670947,0.36429462,0.22658917,0.54156905,-0.14249879,0.32989213,0.4301793,-0.06457497,-0.28579593,0.21827677,-0.79297817,0.17739129,-0.49194467,-0.55227363,-0.21336187,0.074213006,-0.17247547,0.0202865,0.27212057,-0.3901519,-0.14145531,0.1644601,0.76970387,0.17859004,0.21376882,0.27845725,0.40332985,0.14446002,-0.51869124,0.72988284,-0.28154862,0.64322,0.6106556,0.39348295,0.21875128,0.029329568,-0.2581689,-0.033626083,-0.2902222,0.14382584,0.29002443,-0.009109975,-0.30928925,0.076462194,-0.20913683,-0.12603004,0.11539756,-0.17489994,0.5296195,0.1723715,-0.34042066,-0.4829297,-0.26665974,0.2408662,-0.16587648,0.34978306,0.12860909,-0.12280444,-0.09858389,0.06590194,0.052205287,0.26905078,-0.3510066,-0.24870887,0.060941588,0.022069275,0.1459656,-0.09239414,-0.049059987,0.046145346,-0.47083697,-0.5031609,-0.014556447,-0.28798983,0.061683178,0.035838414,-0.63036406,0.65730107,-0.13354297,-0.342208,0.16651711,-0.112974845,0.18020272,0.2692696,0.037038255,0.3335366
P48556	0.67226636,-0.5444461,0.23256178,0.17123708,0.23443043,0.29558256,0.4061892,-0.47609055,-0.012040585,0.16588537,0.12926258,0.3008868,-0.13266715,0.0088924095,-0.29239994,0.2734088,-0.61049265,-0.23287052,0.1958497,-0.4774293,-0.70697653,0.54096454,0.05264067,0.52306527,-0.40132755,0.10883326,-0.14848387,-0.015762383,-0.21758936,0.40025312,-0.1477491,-0.15586118,-0.089514025,0.0010812356,-0.11037699,-0.6010305,-0.027719868,-0.16535802,-0.3726676,-0.37304294,0.42281902,0.41471708,0.036787253,0.26487988,-0.059989452,-0.8542061,-0.0552725,-0.14115974,-0.0005551353,0.5765642,-0.36006165,0.45389834,-0.099511504,0.33953494,-0.0306586,0.7855837,-0.07185832,-0.4474177,-0.52134585,-0.36179873,0.5766796,-0.19890971,0.08855266,-0.11677537,0.07144918,0.8237359,0.19916122,-0.32642174,-0.36177763,-0.23551501,0.26984844,-0.036918078,0.032079108,0.6229622,-0.3771534,-0.28225896,0.16253754,-0.024847327,-0.57298934,-0.24712738,-0.39023808,0.21219686,-0.41156983,0.5300548,-0.052101474,0.45999706,0.0848932,-0.13922559,-0.16197805,0.2575449,0.5079075,0.4799208,0.32912168,-0.1600851,-0.013481825,1.2752628,-0.13780431,-0.15117486,-0.27258414,0.33954793,-0.17311427,0.49902007,-0.32477337,-0.2947368,-0.29351535,0.5143209,-0.29582387,-0.16112122,0.22472142,-0.06378455,-0.06756929,-0.121367574,0.5881248,0.14366356,0.28454182,0.13683014,-0.044148482,0.39716357,-0.795712,0.5149303,0.071330175,0.11138349,-0.421712,-0.009439319,-0.38643965,0.0692811,-0.12880492,0.2252385,0.32750696,0.37444982,0.32002807,0.67937565,0.5405233,-0.28310698,0.12427027,-0.1598191,0.8790963,0.22022705,-0.31507024,-0.019084105,0.39703143,0.25609732,-0.2579881,0.25413096,-0.029318554,0.8727027,0.13131993,0.008018326,-0.2354165,0.2572412,0.42588308,0.089358345,-0.3370173,0.13962014,0.009292817,0.3046052,-0.005930494,0.2564427,0.0013490963,0.2343897,0.18999049,-0.0075257947,0.5526264,-0.17907642,-0.6747312,-0.40207592,0.0023152512,0.045340832,0.28674585,-0.32597774,0.47846758,-0.14361085,0.73640794,-0.36916015,0.2380725,0.021034326,-0.046911396,0.55854446,0.16587445,0.73193,-0.40261474,0.1833336,-0.22744171,0.19800104,-0.12426595,-0.06236287,0.12046538,-0.00093495863,0.44592074,0.5854646,-0.23205458,-0.09114209,-0.26711783,-0.39849785,0.32158288,-0.020543026,-0.22470729,0.015115256,0.2609692,0.13482666
P30049	0.51379794,-1.1981142,0.263591,0.5521705,0.31426492,0.11987218,-0.06575417,0.64322406,-0.20210837,-0.12704763,0.47138605,-0.084476545,-0.44948658,0.15671094,-0.062754504,0.4480135,0.01163673,-0.0956556,0.45831117,-0.28580683,-0.02370639,0.037787635,-0.2428641,0.7882539,-0.23923181,-0.1617999,-0.07783791,-0.5468603,0.5259328,0.41435865,0.70545757,-0.3224531,-0.09994055,-0.110029444,0.22757398,-0.34515432,0.39742586,-0.07374683,-0.28379834,0.28149164,0.17858633,0.4418417,-0.79061323,0.2530642,-0.35045454,-0.3670967,-0.44582522,-0.06613873,0.5920604,0.58601815,-0.33257768,0.35817483,-0.45717204,0.16290663,0.66669214,-0.51297003,-0.9346953,-0.29221636,0.5385701,-0.477136,0.8205631,0.19918364,-0.10341782,-0.27160093,0.033238698,0.09391681,0.15791829,0.42874283,-0.22022304,0.07681635,0.028349247,-0.7910751,0.5717685,0.51597553,-0.31338295,-0.28547698,0.20128766,-0.7647265,-0.33666742,-0.6866664,0.016872678,0.057536148,-0.25309375,-0.15630823,-0.11590814,0.44204584,-0.18883888,-0.03991416,0.14679317,-0.4100681,0.3864964,-0.011149549,0.117946126,0.27562925,0.11328917,0.6824573,-0.093251854,-0.13549154,-0.12969205,-0.1059703,-0.14479792,-0.5144231,-0.21285647,-0.29825017,-0.09479425,0.16429995,-0.29134673,-0.18557292,0.07472799,0.35491335,0.16663507,0.43252543,-0.029353825,0.42260706,-0.22450078,-0.3227517,0.22889417,-0.16167569,-0.36097,0.658999,0.13169366,0.69852054,-0.5113171,-0.17534627,-0.55133593,0.5255414,-0.028523412,0.1937992,0.27374765,0.5093375,0.3280734,0.024667663,0.10232718,-0.2077723,-0.42943478,0.31936413,-0.03408649,-0.33238745,-0.27856892,0.74549955,0.27351817,-0.52243614,-0.8851107,-0.16886391,-0.3294085,0.67524755,0.10121696,-0.4835452,-0.68596643,1.070608,-0.11739024,0.32226425,-0.21742278,-0.6968845,0.44433805,-0.39039132,-0.30704945,0.37602216,0.00011703958,-0.020082073,-0.7115091,0.3585245,0.10993771,-0.102438435,-0.03872678,-0.09506682,-0.09993513,-0.012923885,-0.34444714,-0.3283661,-0.2733422,-0.19045676,0.1214226,0.5669665,0.47158074,-0.32518828,0.21200296,-0.15229714,-0.45663247,0.25273234,-0.039577134,0.2200707,-0.04411268,-0.32314023,0.017526602,-0.21951889,-0.07191945,0.490917,0.5154043,0.41021436,-0.07121633,0.43890437,0.053402215,-0.3179872,0.4964967,-0.25495762,0.5428847,-0.12254196,-0.058021717,1.0025256
P17568	0.08687408,-1.1127086,-0.077706814,-0.49300176,0.5162919,0.69452244,-0.118064985,0.015232313,-0.029431421,0.12745656,0.279852,-0.0066649816,0.088505514,-0.22994079,-0.09347458,-0.09689932,-0.09766917,-0.28839943,0.14964744,0.3884899,-0.09238619,0.14657721,-0.48243266,0.38487765,0.04974333,-0.3879939,-0.10260322,-0.43301928,0.47180524,-0.07721282,-0.27405515,-0.082119375,-0.25450748,-0.2583428,0.30592504,-0.36123773,0.1520819,0.4033954,0.31230396,0.56015295,0.24554662,0.35766914,-0.3480729,0.32336608,-0.0072472394,0.16072416,-0.17387228,-0.4542306,0.027701423,0.7260747,-0.26821202,-0.08311484,-0.44460067,-0.00208973,0.20159654,-0.06102842,-0.78302544,0.1113238,0.2004343,-0.5909817,0.58310014,-0.076908566,-0.22882798,0.19124547,-0.14200056,0.24460548,0.2510455,0.17969081,-0.48730657,0.09781041,0.13446191,-0.8760764,-0.03888765,0.47171164,-0.05901176,0.062200554,0.12244281,-0.11484473,-0.11961762,-0.70585525,0.24905288,0.07084908,-0.19181734,0.22638224,-0.15521057,0.36584622,0.06976863,0.085163906,0.117558874,-0.30488765,0.5316216,0.23138395,-0.04773634,0.17189062,-0.37639168,0.8076162,0.33658323,0.05059944,-0.0068750437,-0.54885614,-0.19001701,-0.23551515,-0.32083783,-0.15569921,0.10024986,0.15561011,-0.15110011,0.4894251,0.3178405,0.044468243,0.5919898,0.57598555,-0.30014017,0.45627353,-0.73022735,-0.62909067,0.40834904,-0.33846143,-0.21266997,0.46979108,-0.09179577,0.3009568,-0.53535134,0.059956186,0.045040306,0.4282142,0.24279454,0.062268104,0.38248503,0.27205253,0.40040857,-0.6126697,0.4125098,-0.22403497,0.21582292,-0.09724784,0.0040130774,-0.43881187,0.081899814,0.71798664,0.3851091,-0.3822729,-0.5089371,-0.123370275,-0.5332689,0.5244625,0.28720906,-0.22982036,-0.2478585,0.7369191,-0.13404228,0.11351727,0.2371317,-0.16985546,0.059676025,0.03701411,-0.28371245,0.37169167,0.16976093,-0.43316785,0.22815105,0.13876598,-0.18058656,0.54855245,0.18619466,-0.43610573,-0.5514457,-0.10316571,-0.3914547,0.020047132,-0.04704471,-0.38841268,0.2387426,0.03987307,-0.083552934,-0.32468942,-0.03968186,0.17712516,-0.14739424,0.25987524,0.009780292,-0.13183658,-0.03685968,-0.04593257,0.093788445,-0.13960792,0.5621747,0.07963133,0.9198221,0.22552104,-0.8867173,0.5228259,-0.095127724,-0.78511214,0.016112052,-0.08922444,0.7693069,-0.112032816,-0.5422038,0.23525086
P62318	0.50977397,-0.7469226,0.03892019,0.19680288,0.22549243,0.17368248,0.3661654,-0.3071285,-0.46260414,-0.30543977,-0.37019312,-0.10352648,0.036697775,-0.35291302,-0.26135096,-0.11064633,-0.4789582,0.09921123,0.30511865,-0.58783835,-0.573283,0.24047223,0.119473085,0.07051694,-0.5018913,-0.08699186,0.17035675,-0.36671123,0.039174207,0.3627171,0.036736846,-0.089025356,-0.018015094,0.09928683,-0.0059451787,-0.4919323,0.18170974,0.036267716,-0.6374632,-0.095284544,0.63923734,0.08918961,-0.072500765,0.40501776,-0.09345685,-0.12941465,-0.23907484,-0.2726147,0.2249176,0.52403724,-0.3413104,-0.3074482,-0.05045355,0.3192005,0.42961803,0.10801394,-0.2984507,-0.6108618,-0.24411772,-0.0943209,0.5072383,0.22642833,0.22830744,0.0128008425,0.31951627,0.2532991,-0.122306325,-0.18775955,-0.14341888,-0.23482655,0.24393325,0.010858697,0.18591678,0.29187697,-0.45390308,-0.26506263,0.47896934,0.0051093465,-0.6723236,-0.45982054,-0.15830189,0.48333237,0.08158835,0.31410453,-0.00997867,0.12709533,0.08178914,-0.08888126,-0.029907184,-0.17285332,0.14463195,0.3720851,0.14234966,-0.08906656,-0.17567775,0.96069455,0.19607142,0.22440447,-0.14110765,0.106546886,-0.110708624,0.6272774,-0.18263316,0.0126253385,-0.12673815,0.31019095,-0.016328592,-0.15936553,0.4691614,0.14920251,0.20711647,0.36762115,0.04764899,0.3085976,0.15230441,0.23439746,0.116766855,0.041706577,-0.82179034,0.31701186,-0.032591056,0.15314542,-0.55423534,0.18229972,-0.54893535,0.07441781,-0.2191883,-0.3168263,0.22524297,-0.09498421,0.45408982,-0.17949796,0.4180416,-0.57458484,0.22556423,-0.3850451,0.8596852,0.15491678,0.045154236,0.2057854,-0.01830746,-0.017925413,-0.4465013,0.020052727,-0.061159234,0.31879568,0.40441993,0.021391137,0.17293413,0.6205036,0.1381307,0.14257996,-0.26915365,0.23355152,0.18342817,0.10445156,0.10291115,0.23091581,-0.23678601,-0.43649572,0.30485106,-0.2347152,-0.093154356,-0.05682173,-0.46795714,-0.12616459,-0.029162586,0.54042566,-0.24376047,-0.16323586,-0.011933966,0.06771605,0.33574218,0.13944173,0.5586478,0.117506795,-0.5777276,0.6884604,-0.09859983,0.63973397,-0.033908475,0.26070848,0.11945326,-0.0029480094,0.011361165,-0.32933044,0.16266705,0.28279743,0.053490553,0.5962823,-0.34346366,0.21414167,0.19192909,-0.15469086,-0.10288363,0.18080169,-0.05652017,-0.050916903,0.06637121,0.105725415
P33992	0.7401991,-0.76819545,-0.04292029,0.053224508,-0.02397701,0.43405297,0.38843423,-0.19178967,-0.13809216,0.024520716,0.04845481,-0.20734413,0.085062474,0.15860781,-0.20288064,0.34239373,0.10359453,-0.23190069,0.40510538,-0.6632414,-0.48701897,0.26999873,0.24622959,0.3107517,-0.2267401,-0.58366174,-0.2712053,-0.22702079,0.15193284,0.45211485,0.14078306,0.079441346,0.2010199,0.5214924,-0.043321192,-0.29335272,0.18812124,-0.20297892,-0.5163878,0.1828878,0.42127323,0.2510935,0.056845047,0.3345418,-0.0023388742,-0.6936778,-0.35642123,0.33459675,0.014356789,0.5557149,-0.64971143,0.14345695,-0.11397674,0.2321739,0.2517313,-0.060413532,-0.030508934,-0.20888054,-0.12690671,-0.18926951,0.5299445,0.18825817,0.27533403,-0.25768948,0.14510141,0.10411033,-0.11554772,-0.09233345,-0.4833109,-0.2809081,-0.0038930515,-0.16252117,0.10544068,0.78630936,-0.07370272,-0.305588,0.77935994,-0.2874079,-0.5579165,-0.15156536,-0.14526875,0.14606574,-0.12789467,0.006555028,0.06491292,0.3428699,0.3352424,-0.24450995,0.34083173,-0.10591066,0.184908,0.5427197,0.16499211,-0.30743963,-0.021105872,0.7506095,0.10248645,-0.2502338,-0.082134135,0.28739586,-0.15585214,0.39340153,0.12249588,-0.032671917,-0.049994744,0.104072616,-0.07793653,-0.29582134,-0.055127148,0.03759239,0.1854579,0.6283133,0.26966885,0.24876462,0.04693203,0.2797939,-0.07579885,0.060275346,-0.39080572,0.5762793,0.25048777,0.22777238,-0.2796248,-0.05411299,-0.5312392,0.13872434,-0.07175054,-0.121749386,0.64411855,0.33457798,0.30590495,-0.036708802,0.21228836,-0.53235364,0.20349313,-0.4725873,0.70772123,0.04816103,-0.2800424,0.24992618,-0.11480636,-0.13616255,-0.6281774,0.28016207,0.13162479,0.74894667,0.19250135,0.11068664,-0.11783124,0.123615324,-0.054551173,0.4441023,0.023868525,0.3720742,0.16657569,0.08634515,-0.10775872,0.19594842,-0.40676892,-0.35419077,-0.36922005,-0.017581243,0.36322653,-0.028158521,-0.47360626,-0.25703034,0.265896,0.363249,-0.14833963,-0.30657434,0.20430472,-0.4357181,0.3105166,0.06109234,0.19496801,-0.009513348,0.07132103,0.45684296,-0.46468374,0.46120712,-0.22172493,0.08026339,-0.03711726,-0.086407535,-0.099948615,-0.43258214,0.08700194,0.26845863,0.27100334,0.6447208,-0.46418247,0.119480886,-0.03515934,-0.022518458,0.16260383,0.07053798,0.20275554,-0.20966932,0.20480256,0.38203442
O15371	0.44942597,-0.5211763,0.23362495,0.078747876,0.21117696,0.13539179,0.5001521,-0.23599638,-0.057082158,-0.38741282,-0.014937332,-0.12546149,0.23040198,-0.5554504,-0.096806586,-0.17649205,-0.40423387,-0.5076025,-0.049165197,0.22022411,-0.20372012,0.3015426,-0.015731683,-0.091753125,-0.26658472,-0.6585483,0.28308037,-0.4024998,0.6073753,0.15779644,-0.0077854353,0.49569494,-0.007655295,0.59391737,0.07317619,-0.3496425,-0.1401749,0.53721744,-0.49111694,0.7404084,-0.15462914,-0.15445945,0.346091,0.5357423,0.14271717,-0.19958627,-0.106901154,0.071974486,-0.587039,0.15727195,0.055771448,-0.5709091,-0.27169946,0.4041014,-0.7997035,0.11720133,0.11609236,-0.96539783,-0.64373744,-0.4102972,0.1904629,0.07424409,0.15696396,0.64206153,0.054922447,-0.21529119,-0.18904196,0.22932562,-0.033491727,-0.2581076,-0.42146012,-0.31732756,0.12957656,0.27748647,0.033563532,-0.24562262,0.4757428,-0.037952296,-0.95244557,-0.6510671,-0.15075777,-0.15342458,-0.15885496,0.2757204,0.30129287,-0.36184955,-0.04672406,0.31640097,-0.21712159,-0.38039464,0.17852247,0.58223116,-0.4120146,0.1415642,-0.15187897,-0.059010085,0.36038318,0.1733071,-0.09608267,-0.15642658,-0.5864509,0.32572314,-0.49642023,-0.5876498,0.01914038,0.13620679,0.15746681,0.16870864,0.16694723,0.5722729,0.40651223,0.62531084,0.34965196,0.70483387,-0.423459,0.55608743,0.48088259,0.13366129,-0.39654136,-0.09096943,-0.09176755,0.69796854,-0.34155926,0.7472422,-0.28127638,0.07198524,-0.4139849,0.074737355,-0.22592455,-0.13807926,0.2887829,0.115511194,0.096232176,-0.34656858,0.11975979,0.02550052,0.78961,-0.077929445,-0.33027017,0.48267877,0.04622542,0.28953913,-0.3658424,0.098481745,0.546795,0.22311974,0.08061677,0.2573212,0.2489111,0.76813555,0.03338458,0.48051313,-0.32568848,0.74004227,0.46285412,-0.3236464,0.2102316,-0.48205203,-0.20479298,-0.5520734,0.14154138,-0.08062986,0.0525239,0.23516107,-0.21529548,-0.40180507,0.1160147,0.20989539,-0.31673685,-0.03989192,-0.7537572,-0.47297576,0.10399743,0.61703473,0.27373365,-0.06183423,-0.13060729,0.5947605,-0.571093,0.37946108,0.24955222,0.15388548,-0.20951624,-0.50515383,0.09789116,-0.4663615,-0.55618685,-0.66314995,-0.046148688,0.02966081,0.16330282,0.3384321,-0.018440431,0.07102065,-0.19143672,0.35397407,0.13656013,0.24704306,0.065228984,0.44895893
P62877	0.7441477,-0.5053875,0.0046667554,0.2629519,0.31783047,0.14035349,0.25317016,-0.123120375,-0.3140781,0.08785233,-0.20190279,0.3247985,-0.11623294,0.28347644,-0.26548678,0.100132346,-0.30887452,0.06987216,0.18108112,-0.09296658,-0.44251236,0.28827837,0.10870952,0.6105164,-0.30833364,0.044317693,-0.03536277,0.2635685,0.039788596,0.29268488,-0.09538228,-0.16792755,0.22837071,-0.23699376,-0.09090378,-0.433142,0.48404896,-0.08285014,-0.6631129,-0.39882243,0.40492004,0.53847164,-0.100115985,0.35762006,-0.35573748,-0.9694016,0.20994522,0.007648847,0.11303977,0.8309523,-0.34527263,0.26358283,-0.013642284,0.4450303,0.51540136,1.0199035,-0.20835811,-0.38505524,-0.4112507,-0.4855707,0.35214564,0.065930106,0.42957726,-0.09213099,0.017598255,0.8553937,0.23138013,-0.3695019,-0.2399127,-0.09182323,0.35793328,-0.17032251,0.19827996,0.7999085,-0.3274112,-0.52371144,0.09996483,0.5027423,-0.4803673,-0.71903753,-0.60734993,0.20067173,-0.5485641,0.12721078,0.15400352,0.22524458,0.19182457,-0.5066427,-0.35757717,0.3657024,0.5277253,0.58631337,0.041992642,0.40899193,-0.058911853,1.1138914,-0.1746543,0.024944399,-0.15898797,0.22730173,-0.19081813,0.45590395,-0.32850355,-0.061452087,0.18259908,0.3583079,-0.20290923,-0.279195,0.12037485,0.0116994195,-0.16795525,-0.15106578,0.6343277,0.0020769553,0.1545142,0.05612333,-0.04363307,0.29912245,-0.5726966,0.25938502,0.41408136,0.1067118,-0.46649483,-0.054420616,-0.60699636,0.3252593,0.056449994,0.051262632,0.0016737182,0.2836043,0.20110238,0.58522993,0.5383631,-0.14914797,0.2017767,0.061251167,0.7335192,0.092996374,-0.23781732,0.100357905,0.37225908,0.30576354,0.09628007,0.30065975,-0.30815762,0.86632425,0.47788402,0.48856926,-0.06784389,0.32941267,0.39625922,0.076497525,-0.22895752,0.28728005,-0.009997352,0.12452496,0.22016926,0.15302736,-0.20158076,-0.09702927,0.047543157,-0.19978584,0.35888174,0.05096296,-0.54744595,-0.32023397,0.13837913,0.044830598,0.08070587,-0.2039914,0.13537928,-0.15632975,0.22357818,-0.13818373,0.2831869,0.21868879,-0.42732087,0.3117087,0.22054319,0.7463329,-0.25711367,0.29122517,-0.35462952,0.12468183,-0.40725696,0.0029526171,0.34753117,0.24614727,0.42257568,0.2056956,-0.44452724,-0.058153182,-0.33633044,-0.41286752,0.3085672,-0.1655591,-0.36012086,0.067634515,0.3044386,0.43384358
P10144	0.2881908,-1.1594509,0.110658124,-0.13716385,0.3152782,0.31824285,-0.18070221,0.021117851,-0.1368,-0.00054999493,0.1745061,-0.22042963,0.55555606,-0.12923858,0.06325298,-0.036494236,0.1077282,-0.39076722,0.12033946,0.038222175,-0.2375577,0.33531925,0.09200413,0.8029274,-0.32669935,-0.47900698,-0.25417072,-0.17540514,0.35438362,0.12858932,0.090771295,0.20694341,-0.23873484,0.29406393,-0.11407761,-0.8403784,0.06530734,-0.004542558,-0.16591504,0.5292591,0.25473794,0.119587414,-0.0388611,0.33792627,0.20536225,-0.5517054,-0.39589462,-0.05603875,-0.08814955,0.60625577,-0.42494053,-0.3062499,0.018049836,0.51180255,0.012644668,0.24789093,-0.28410015,-0.31198514,-0.46161628,-0.38418728,0.669628,0.21048355,0.12662956,-0.08984598,-0.019056179,-0.20045726,0.21175018,-0.29325554,-0.15360047,-0.11654284,0.30069923,-0.043288574,0.21901117,0.44559523,0.093277864,-0.14731887,0.45283678,-0.08754536,-0.34983346,-0.44099718,0.3719478,-0.103423275,-0.12108612,0.73187953,0.11659677,0.038310964,0.034507453,-0.25141796,-0.14384307,0.0077680936,0.23493545,0.53360033,0.020144833,-0.27693695,-0.58366024,0.5991,0.4029327,-0.15700963,-0.11361732,0.13043715,-0.21021971,0.45872638,-0.07188322,-0.47934228,-0.2312881,0.41111162,-0.2867845,0.05068234,-0.16088453,-0.4281851,0.37334058,0.49267069,0.36206806,0.10927355,-0.36100057,0.083866306,0.5036755,0.39657053,-0.09280705,0.394247,-0.25394952,0.12264781,-0.32329592,-0.014156961,-0.10219547,0.101698354,-0.279185,0.13422817,0.15159437,0.37321883,0.12066074,-0.1377915,0.3243542,-0.007393545,-0.006073963,-0.20051081,0.6166736,0.063844755,-0.33728635,0.4822604,0.4302783,-0.16309635,-0.10578452,-0.17181745,-0.22138955,0.5428141,0.5646855,-0.2789041,0.2180872,0.022376474,-0.1590144,0.1610479,-0.31894216,0.14069642,0.2622079,-0.091574416,-0.20801726,0.36006847,-0.28118086,-0.7254576,0.26819006,0.1172567,0.17726648,0.025746215,-0.09441318,-0.5423966,0.08803929,-0.014312895,-0.19997057,-0.37890154,-0.043016218,-0.54604703,0.30131283,0.26306993,-0.006039453,-0.0905096,0.09884906,0.4208561,-0.5236434,0.2787058,0.080635235,0.46953177,-0.08170191,-0.070482016,-0.23311989,-0.022057423,-0.3940076,-0.23793231,0.49526614,0.052008856,-0.6293672,0.09225122,-0.09711307,-0.26578623,0.17109896,0.11409996,0.13078447,0.15978889,0.09175253,0.1392824
P25788	0.35058475,-0.37998912,0.22081874,0.25817123,0.17858481,0.562003,0.11205258,-0.16075815,0.0941133,0.051530536,0.26946026,-0.028942294,0.09287488,0.031932026,-0.23754132,0.17725863,-0.5636023,-0.040321607,0.1722853,-0.5686629,-0.5435733,0.57880294,0.22868167,0.6749254,-0.18568671,0.17510006,-0.04800425,0.047051582,-0.12419576,0.21564327,-0.48704958,-0.21404359,-0.16993989,0.040138494,0.2040002,-0.5461899,0.15165749,-0.030789647,-0.6067163,-0.17595726,0.3801495,0.39414695,-0.021308683,-0.09873992,-0.07116328,-0.8443786,0.06431235,0.19009781,-0.06919516,0.56244296,-0.36976516,0.59678864,-0.14514208,0.06398818,0.29521558,0.5692188,-0.10026567,-0.3340864,-0.6310797,-0.43090913,0.32162407,0.09163927,-0.08669472,-0.019614808,0.16570003,0.88408566,0.14588772,-0.4153501,-0.61882466,-0.22759095,-0.09727278,0.18063697,0.076162286,0.7720828,-0.44024548,-0.269469,0.29762775,0.024448078,-0.59113544,-0.027260244,-0.15704376,0.43660638,-0.53602356,0.32680738,0.020806491,-0.10955619,0.1429409,0.0421693,-0.34831867,0.07575859,0.12450412,-0.048124958,0.18086912,-0.16522375,-0.13396259,1.067576,0.013795768,-0.14115195,-0.07050247,0.08070736,-0.2911844,0.01640461,-0.42232466,-0.089545846,-0.1341701,0.13779566,-0.22577207,-0.27607894,0.059179492,0.18589997,0.012531769,-0.3189146,0.35108423,-0.09785634,0.2570625,0.1239856,0.053845458,0.12434515,-0.5494682,0.51350826,0.3223132,-0.24524945,-0.187379,-0.06802544,-0.28606197,-0.1266315,-0.39672327,0.34165242,0.22148475,0.30662262,-0.06261722,-0.0755543,0.86496663,-0.17102286,-0.035319824,-0.18931329,0.92747563,0.23819853,-0.034186903,0.12078126,0.43319473,0.0543378,-0.14705855,-0.08709391,-0.031981286,1.010906,0.35633078,0.22616036,-0.4535352,-0.060212135,0.30044046,-0.058961462,-0.48430228,0.39211747,0.06820195,0.017673409,0.39666113,0.31828398,-0.032901872,-0.10993984,0.15264605,-0.43026432,0.35944816,0.0024884213,-0.3898596,-0.5220987,-0.2927922,0.19642423,0.39820778,-0.00801967,0.6976622,0.1214039,0.40919292,0.08993258,0.19605117,-0.22961216,0.110068835,0.26027906,-0.06790673,0.67500836,-0.082182534,0.025637215,-0.24793345,0.5163882,-0.053812835,-0.20656264,-0.025535978,-0.44548172,0.59194696,0.45377308,-0.45922422,0.08552322,0.021277705,-0.49332008,0.09517405,-0.11246699,-0.15607008,0.23740996,-0.010180112,0.033857558
O14965	0.26087338,-0.17065838,0.40438923,-0.11669815,0.29135802,-0.18907085,0.504075,0.0906919,0.27280945,0.21377876,0.055535607,-0.47109365,-0.14948538,0.35015452,-0.2681265,-0.29903156,0.23361805,0.4726516,0.11995939,-0.6347451,-0.43155286,0.55681807,-0.14351813,0.28456476,-0.6370773,-0.21226785,0.08994407,0.23997174,0.45664126,0.8228438,0.11898111,-0.1086269,0.43254098,0.3845715,-0.23209096,0.3340027,-0.07603392,-0.35590667,-0.4249852,0.5233988,0.23835078,-0.04255493,0.04281216,0.21224464,0.2723505,-0.7182736,-0.24389246,0.31944373,0.03057768,0.63621235,-0.53491926,0.25678313,0.073892094,0.7294323,0.19767733,0.24782681,-0.1333809,-0.26686355,-0.33623853,0.020713724,0.9684946,0.33065245,-0.09225616,-0.54035604,0.323091,0.6187312,-0.0834982,-0.34332344,-0.19814046,-0.1566978,0.29122064,-0.088618234,-0.21379784,0.34107774,-0.34850937,-0.4384013,0.704476,0.18707713,-0.97504675,-0.35949093,-0.30189228,0.44599777,-0.63975275,-0.075889036,0.09367723,0.32352972,0.37029088,-0.55927634,0.32210845,0.18777326,0.21510062,0.25059864,-0.18446428,-0.17860928,0.24288037,0.73160785,0.14872435,-0.348966,-0.16770004,0.18227814,-0.10194893,-0.1442631,0.18857887,-0.5179584,0.21394524,0.12169018,-0.08027232,-0.42418468,0.17410234,0.13016476,0.3832603,0.21858682,0.49439248,-0.21602619,0.16614692,0.08390531,0.118225835,0.21624285,-0.5755769,0.49711677,-0.2144606,0.023641076,0.2241607,0.12157667,-0.7908517,0.20274097,-0.25901288,-0.40798333,0.14285187,0.11208562,0.4805894,0.47893244,0.1180372,-0.24846897,-0.11852022,0.09759334,1.3719593,0.16510876,0.049964882,0.14368527,0.07847567,0.1785549,-1.0169573,0.7667736,-0.047330406,0.31415093,-0.19466168,-0.09173617,-0.18084595,0.09102983,0.19861002,-0.24073008,0.13384472,0.22604485,0.06068441,0.098955795,-0.10449435,-0.11272838,-0.5838381,-0.2094439,-0.03033036,-0.4415573,0.00052621163,-0.45403394,-0.30567014,-0.23303874,-0.30646914,-0.07839485,0.0009012465,-0.17383808,0.3692742,-0.10169683,0.52088064,0.13670667,0.46246183,0.42408475,-0.092693344,0.85508573,-0.43422678,0.22435808,-0.041632395,-0.0029936405,0.13446368,-0.14906116,-0.5568043,0.16769941,0.12186324,0.0030560333,-0.2202049,0.58700716,-0.7419954,0.025539372,-0.28189275,-0.0220551,0.0012175154,0.1188653,-0.0051967474,0.29356962,0.3327363,0.141888
P68400	0.55921596,-0.6119923,0.2617426,-0.061259348,0.091224305,-0.061386645,0.41067815,0.012884482,0.16687666,0.024492426,0.42191777,-0.32158595,0.24608609,0.32127163,0.095970936,0.26252624,0.0069065937,-0.07700365,0.58359426,-0.31398624,-0.28810745,0.44484127,0.14787273,0.3615329,-0.30683854,-0.6275769,-0.38113207,-0.114573285,0.49667263,0.20147723,0.09423896,0.0120413,0.23399422,0.3045256,-0.009628234,-0.2693391,-0.29695812,-0.46825522,-0.80955595,0.5896447,0.52400434,0.08688444,-0.18479012,0.13747124,0.14490438,-0.7342201,-0.27097288,0.58829844,0.09247753,0.5463427,-0.47925937,-0.091254525,-0.16817209,0.51975435,0.048223693,-0.001346713,0.25641966,-0.50343746,-0.23769405,0.052759387,0.3903635,0.20108648,0.14919625,-0.45743307,0.10006022,0.30781412,0.10650115,-0.04598267,-0.61602026,-0.3687765,-0.017710231,-0.5139758,-0.04831695,0.2608381,-0.20131297,-0.45560542,0.40402642,-0.08845245,-0.77619755,-0.0850305,-0.25692457,0.15816852,-0.24417357,0.0606977,0.04968205,0.34124658,0.36506963,-0.31210423,0.44970194,0.066646434,0.5748178,0.25188178,0.29530385,-0.47774425,0.10861595,0.8775521,0.26852483,-0.38194227,-0.25770965,0.5738546,0.101921394,0.029656168,0.21372405,-0.42748907,0.10855944,0.28507257,-0.23072292,-0.63817364,-0.039146908,-0.2062144,0.3464329,0.14093126,0.6451447,0.037307035,-0.250453,0.5064097,0.007559254,0.2360424,-0.2253877,0.4675502,-0.263282,0.10379517,-0.09248502,-0.37484556,-0.4051881,0.2134836,-0.26410088,-0.1770522,0.24909268,0.223385,-0.26707536,0.25548413,0.43628785,-0.22713882,0.0694376,-0.09065819,0.6882944,-0.040693708,-0.38944608,0.25750515,0.041964956,0.29595956,-0.8259841,0.6162614,-0.060880847,0.57661647,-0.29241538,-0.23724413,-0.1874362,0.08329827,0.12689824,0.017673628,-0.18561928,0.24231888,0.3954974,0.06463076,-0.47777945,0.16241144,-0.22254181,0.011149762,-0.32811284,0.1499911,0.36517987,-0.35885295,0.019318132,-0.3456908,0.15886937,0.07744279,-0.05340087,0.0029829713,0.0657757,-0.32249445,0.54790497,0.18799454,0.20680788,0.6796847,-0.26906165,0.178573,-0.11915766,-0.06781642,-0.159009,0.11677547,-0.14889008,-0.21357593,-0.7168563,0.119915195,-0.2976452,0.08528106,0.059826672,0.57392937,-0.6463958,0.16735084,0.032538854,-0.16682087,-0.004649021,0.27703047,-0.030073194,-0.07178138,0.7472902,0.242753
Q9H444	0.5274706,-0.5843681,-0.17497317,-0.05655683,0.37521923,0.5622535,0.12687418,0.22211064,-0.05570456,-0.15956089,0.28996357,-0.6362005,0.3864838,-0.07751579,-0.52640533,-0.22600347,-0.14625558,0.08112955,0.0056101414,-0.0902705,-0.37408504,0.17945413,0.07366476,0.61918086,-0.018686377,-0.45213497,-0.14550082,-0.0080966735,0.21059787,-0.23230314,-0.39105728,0.046822127,-0.037120696,0.05603128,0.06538847,-0.31001508,0.10472873,-0.17901205,-0.5034681,0.09257861,0.44274682,0.36888847,0.13968033,0.048120618,0.31146753,-0.17839694,0.15581949,0.53878754,-0.30723348,0.50453806,-0.27724496,0.016617702,-0.36824036,0.07877122,0.3697522,0.037648875,-0.124332905,-0.581502,-0.65490913,0.10529093,0.44573689,0.6011038,-0.27709857,-0.28198546,0.052198563,-0.04209838,0.14948739,-0.47082222,-0.6445298,-0.31905046,0.2724848,-0.10006833,-0.11886379,0.33819357,-0.38006264,-0.2448657,0.69896215,0.02014703,-0.7477304,-0.19518791,-0.026212329,0.2277987,-0.26481193,0.5535589,-0.075962745,0.38717237,-0.210617,-0.10957673,-0.508872,0.27303213,0.49792618,0.13518772,0.13900235,-0.20349939,-0.33913597,0.6725158,0.57923114,-0.36876398,-0.19490348,-0.20818993,0.08352477,0.15707661,-0.31541777,-0.16741513,-0.190829,0.1999933,-0.27058563,-0.32917708,-0.19376394,-0.32234472,-0.010949051,0.30610538,-0.09149913,0.15032943,-0.039995927,-0.12405324,0.15875302,-0.15031406,-0.1429078,0.09330494,-0.31890902,-0.24383946,0.17143881,0.030786827,0.3994887,0.21034196,-0.54052716,0.05825769,0.19794609,0.20168975,0.10262762,-0.44504482,0.8637404,-0.49815914,0.31648102,0.09494349,0.75508505,0.37479958,0.2522403,0.17229934,0.39523432,-0.010239536,-0.39615792,-0.15965612,-0.34016347,0.7911192,0.5416055,0.2392236,0.1834488,0.13050511,0.022982404,-0.085261956,-0.46008447,0.5000018,0.058151696,-0.50897336,-0.052023012,0.045376766,-0.18574126,-0.23832305,0.48230416,-0.47789946,0.07544992,0.14259753,0.129824,-0.3598346,-0.25900137,-0.20062336,-0.45000666,0.06809727,-0.02875144,0.07065669,0.4293943,0.26550922,0.2367172,-0.09012984,-0.122845285,0.36340678,-0.4699816,0.48849037,0.29859966,0.5972324,0.1518866,-0.027482543,-0.12368334,0.054929685,-0.11323393,-0.0011537027,0.32391492,0.13481455,-0.7131277,-0.03024166,-0.022406964,-0.4908867,0.29051802,0.13134554,-0.11637602,0.40693864,-0.11092477,-0.13208844
O75832	0.3807668,-0.746194,0.16735198,-0.16606046,0.16512968,0.35351694,0.29612842,-0.34067264,0.18948217,0.28774226,0.14763376,0.020064631,0.1976691,0.09779412,-0.046310347,-0.16746867,-0.41805786,0.25941348,-0.09495826,-0.11771154,-0.49640515,0.57504505,0.28644913,0.64056295,-0.5599429,0.03186134,-0.36859494,-0.078036934,0.4108729,0.4659353,-0.39358664,-0.1485102,-0.109179385,-0.12841311,-0.12923077,-0.7045972,-0.15424797,0.04713001,-0.31149107,0.36760086,0.3017865,-0.06827177,0.20803,0.11548909,0.24436614,-0.71001965,-0.05853358,-0.33236042,0.06441228,0.46695384,-0.12927273,0.12582377,0.028374942,0.6648091,0.1392597,0.6342722,-0.04265591,-0.22322729,-0.7579127,-0.48789206,0.7087654,-0.3101184,-0.06527791,-0.25382057,0.17864904,0.8024287,0.42436615,-0.32205856,-0.37160176,-0.1374537,0.37287357,0.405204,0.06006912,0.5551848,-0.30627388,-0.22139469,0.19750126,0.20018335,-0.6704017,-0.3181316,0.017578231,0.33803087,-0.385742,0.515069,0.13940719,-0.083215564,-0.11327805,0.029830739,-0.21478203,0.20592473,0.36402944,0.24461505,-0.118353605,-0.4195778,-0.4227287,1.059819,-0.14987105,-0.28094015,-0.21532002,0.27104285,-0.26166898,0.13820547,-0.058159374,-0.4243711,-0.17827764,0.082291044,-0.29968226,-0.095140085,-0.13102107,0.25506064,0.25583392,-0.23806031,0.501354,-0.2256389,-0.0627108,0.24935329,0.37141114,0.31037924,-0.5762514,0.6333452,0.18065931,-0.063594215,-0.54263246,0.22637653,-0.67891467,0.05333621,-0.29298344,0.12407484,0.053870812,0.16920686,0.28781044,0.6314438,0.3324961,-0.34278977,-0.10281944,-0.026199535,0.8433428,0.47925824,0.11638111,0.4464202,0.64953524,-0.03417457,-0.23993023,0.37126318,-0.004745453,0.9348868,0.1057858,-0.13194403,0.008196093,0.053053103,0.19473152,-0.010554986,-0.3381121,-0.053275097,0.17131156,0.37806225,0.03957864,0.23882103,-0.25380582,-0.035022717,0.32299066,-0.1910471,0.2761035,-0.31872973,-0.366618,-0.6977185,0.19117653,-0.097803466,0.31650737,-0.53388923,0.32373536,-0.3957841,0.5050537,0.0487694,0.2219653,0.0047851796,0.0631658,0.53445876,-0.122367844,0.60770404,-0.15803106,0.25414416,-0.013309992,0.03281347,-0.5293624,-0.08267471,-0.2762447,-0.24112196,0.3990624,0.3544171,-0.58421695,-0.20842533,-0.14749362,-0.21182233,0.065787405,-0.03750502,0.04449128,0.5039779,-0.06589076,0.014923798
Q9Y5N6	0.85812706,-0.48872077,-0.34296307,0.38828465,0.00039852102,0.496417,0.3465434,0.15085888,0.05479272,-0.011996573,0.16143662,0.22276768,-0.26762328,0.040019687,-0.010420237,0.24951981,0.28545675,-0.26058957,0.8054088,-0.16558534,-0.71054584,0.7226895,-0.17030765,-0.55655843,0.023395777,-0.7162062,-0.12014049,-0.7468872,0.49318495,0.31075346,-0.086087614,0.07202388,0.25185132,0.5630665,0.05828933,-0.24274799,-0.0059997453,-0.23500344,-0.33772475,0.16216815,-0.033646654,0.28047812,-0.18798852,0.571675,0.030646976,-0.4212327,0.003901071,-0.166886,-0.10149719,0.51684296,-0.75067616,-0.3098174,0.38213596,0.5641445,0.06820479,-0.20879278,0.38837698,-0.102290116,0.03099942,-0.034857526,-0.31998858,-0.2535809,0.32268202,0.12583962,-0.17475586,0.51111346,-0.35312656,0.37500307,-0.3777029,-0.3998031,0.065668344,-0.2733069,-0.38047114,0.49503788,-0.17739837,-0.39054057,0.9153954,-0.5341522,-0.8754996,-0.0472311,-0.5023203,0.3366868,-0.31806773,0.14410555,0.27516678,-0.024416257,0.69686556,-0.15376805,0.24647596,-0.39739475,0.17290343,0.35337704,0.154324,-0.49917293,-0.66149086,0.79631174,0.11898045,0.36344954,0.07877295,0.008274314,-0.048480373,0.17915845,0.09572772,-0.09317966,-0.50300974,-0.13248394,0.17529975,0.6328691,-0.27996445,0.69600713,0.31447458,0.5501437,0.24718234,0.3218609,0.45504326,0.09117613,0.24408823,-0.43185958,-0.7033503,0.55715495,0.21642952,0.27838975,-0.5735534,0.35173434,-0.72481996,-0.121088125,0.7203499,-0.21656375,0.32468557,-0.34357902,0.12464886,-0.24178125,0.35325745,-0.04724707,0.011572082,-0.28820187,0.56614566,-0.41042474,-0.34011173,0.089776054,-0.5898006,0.17066808,-0.24870396,0.49156132,0.7086271,0.3953711,-0.36156607,0.1489059,-0.081487074,0.08443359,0.2592665,0.53212196,0.32782045,0.45047393,-0.12648968,0.33394834,-0.034412865,-0.0502056,-0.055111133,-0.40360066,-0.4749699,0.116166845,0.1692067,0.11105919,-0.21541823,-0.38679358,0.3103776,0.28756678,-0.6502501,-0.23003094,0.32258534,-0.55461997,0.39513248,0.18193132,0.37501833,0.17285693,-0.044898212,0.66632724,-0.29989907,0.066703975,-0.1501659,-0.010642453,0.12322118,-0.065007955,0.1309292,-0.42998588,0.33921805,0.26796257,0.500476,0.48305053,-0.25802028,0.33761936,-0.5024471,0.060498882,-0.20692283,-0.0896064,0.57903713,0.08692642,0.3147254,0.7498345
P61970	0.7433504,-0.51289535,-0.47874445,0.13038167,0.38373005,0.13908067,0.5921848,-0.112394266,-0.007400981,-0.22561479,-0.04250339,-0.20903447,0.18655138,0.110771276,-0.23835461,0.3775883,-0.60862166,0.07322609,0.03464649,-0.44769853,-0.6651534,0.5480533,0.3782784,0.078585714,-0.28548416,-0.31273338,-0.11138253,-0.6138431,0.32888657,-0.319069,-0.41514313,-0.10274451,-0.02813359,0.01297427,0.43556714,-0.2819511,-0.05256343,0.1628729,-0.6162948,0.4748345,0.3612641,0.12593271,0.033300992,0.30754685,0.115546085,-0.48384038,0.31909752,0.42576078,-0.26477692,0.67629707,-0.46931455,0.18810478,-0.36630198,0.09558444,0.35188022,0.21054333,0.19499622,-0.58772856,-0.39398864,-0.25873742,0.1779825,-0.04087581,0.17702344,0.29128397,-0.1603153,0.3448464,-0.023568735,0.05903639,-0.6385288,-0.28540155,0.18082477,-0.16330077,0.17273988,0.45408764,-0.17774206,-0.183123,0.44452876,0.1417887,-0.89489496,0.020581864,-0.2584457,0.43085882,-0.13609764,0.38315922,-0.16792546,-0.14160307,0.11662651,0.10504778,-0.34108424,-0.20825185,0.21058662,-0.009850181,-0.010066135,0.118493006,-0.18128973,0.7228778,0.3332059,0.42505956,-0.35416728,-0.4032812,-0.33711508,0.031695202,-0.39004827,0.026505651,0.15573959,0.021549476,0.34445682,-0.5280522,0.32235548,0.36668378,0.28339058,0.34380576,0.07957825,0.04652492,0.01777787,0.41165173,0.12797068,-0.15474445,-0.16837873,0.20895234,0.44893828,0.095800616,-0.14316244,-0.034575254,-0.038576968,0.045336988,-0.4136506,-0.16760047,0.4154142,0.3765516,0.09480015,-0.40979007,0.5908211,-0.35008603,0.03676787,0.21071735,0.6770315,-0.051561,0.21884486,0.2594569,0.36347824,-0.010152621,-0.7876156,0.24036394,0.27862027,0.7612167,0.13205135,0.35225904,-0.544489,0.20183572,0.27933592,0.061945736,-0.53389376,0.46235335,-0.057008598,-0.20354359,-0.27187485,-0.05057444,-0.0264528,0.48293298,-0.03408365,-0.18910055,0.09701294,0.48565668,-0.1689216,-0.23114108,-0.28702173,0.2995977,0.058838032,0.05407465,-0.07930267,0.04143904,0.29073116,0.08747247,0.33796796,-0.41928053,-0.026014872,0.7112963,0.016320465,0.44087,-0.030163037,0.13667057,-0.15234831,0.2100286,0.19407335,-0.0486475,0.057481993,-0.3469874,0.15192582,0.14683737,-0.50212073,0.39584014,0.27676263,-0.6141418,0.39772463,0.11906181,0.029503578,0.0822126,-0.5156545,0.43681392
P19387	0.646631,-0.5072038,-0.08183714,0.037291158,0.15974447,0.11224148,0.32239643,-0.16729523,-0.33885616,-0.022481484,-0.277997,-0.11988592,-0.043811366,-0.2109767,-0.47528875,-0.24020264,-0.013758267,0.016194912,0.26015547,-0.27813527,-0.5287746,0.42044643,0.071297534,0.007346222,-0.39605847,0.066738605,0.19634521,-0.12477775,0.050434552,0.47009397,-0.10544466,-0.14862426,0.22982249,-0.16369721,-0.17561881,-0.1645468,0.058474932,-0.11919981,-0.46024272,-0.17331037,0.48738292,0.42269325,0.08156724,0.4426126,-0.006080944,-0.41842782,-0.14919908,-0.14360052,0.03975134,0.62076217,-0.12781784,-0.026361573,0.40481806,0.316807,0.27193424,0.044739794,-0.2289486,-0.5254665,-0.38200513,-0.19290279,0.27310917,0.1772824,0.16593398,-0.120571226,-0.045149684,0.29477456,-0.09134495,-0.26777127,-0.08981027,-0.3070438,0.2552219,0.20161207,-0.06008924,0.46794742,-0.36188892,-0.34327486,0.6353186,0.20750009,-0.8502742,-0.28398335,-0.64757377,0.66054314,-0.2103741,0.1293077,-0.030151734,0.2714213,0.17738868,-0.3481726,-0.16536051,0.18806665,0.38093984,0.54019517,0.04290346,0.0171576,-0.46748564,1.0481582,0.025896037,-0.022875166,-0.090700805,0.07956496,-0.44723526,0.7057364,-0.20378342,-0.36263704,0.041646954,0.16209228,-0.14400348,-0.010039529,-0.06277854,0.013829396,0.014099604,0.48177764,0.36904094,0.30532324,0.22113283,-0.030896155,0.2949935,-0.045941543,-0.8469495,0.26908827,-0.10022995,0.038021427,-0.23499188,-0.09969004,-0.26851806,-0.025114816,0.1460701,-0.4242412,0.27571854,-0.025447367,0.68884754,-0.048920255,0.229741,-0.1921822,0.34981808,-0.32190105,0.73635435,0.15808773,-0.049932405,0.13907419,-0.19625144,0.27119964,-0.39489093,0.21968868,0.08803459,0.5817566,0.1899597,0.0972281,0.16820517,0.45314842,0.3068198,-0.04855237,-0.09237838,0.3469397,0.067950904,0.21867378,0.18657774,-0.0685595,-0.4729111,-0.24629651,0.11193421,-0.33078235,-0.14144304,-0.03837756,-0.55774295,-0.32599974,-0.071358494,0.08854571,-0.21111567,-0.43648455,0.07314981,0.050568517,0.23189199,0.35083652,0.4761127,0.13785534,-0.68052423,0.7719799,-0.2080995,0.6010363,-0.17003591,0.33225688,0.30565614,-0.10116597,-0.012672375,-0.21022896,0.43539146,0.025815262,0.20214112,0.40390235,-0.60619456,-0.008307327,-0.3752181,-0.18787625,-0.027716655,0.11497986,-0.099641055,0.2736822,0.24815172,0.33958048
P51665	0.30810767,-0.81941265,0.13942654,0.40454948,0.36021528,0.6669833,0.15111992,-0.065566994,0.024680797,-0.13928193,0.5670093,0.31518877,0.062336706,0.16316138,-0.015668621,0.6485333,-0.4155862,-0.11161703,0.28524742,-0.20842546,-0.5177598,0.2702026,0.19418158,0.40893617,-0.2943445,-0.3407826,-0.24174516,-0.19963346,-0.06544575,-0.026876437,-0.29085878,0.046799496,-0.15403593,0.19065878,0.088355675,-0.66529465,0.050927423,0.028986592,-0.40438786,-0.20513606,0.5549767,0.46150059,-0.08645338,0.43986532,0.21834151,-0.76958877,-0.054054495,-0.19771503,-0.21802697,0.65368575,-0.48035634,0.59102476,-0.36535078,0.27354023,-0.17656466,0.5971469,0.12718268,-0.7418245,-0.5651286,0.05615161,0.4532158,-0.054043386,0.17656653,-0.15399282,-0.08640396,0.65583736,0.20692076,-0.43594682,-0.60648245,-0.12337873,0.12006389,-0.16641216,0.17693952,0.8484396,-0.25805852,-0.27767232,0.19382164,-0.18153663,-0.7291964,-0.16214658,-0.049412787,0.30179393,-0.39080077,0.69598055,0.044262834,0.4463277,0.16809368,-0.008976962,-0.17489699,-0.074491955,0.4157485,0.288628,0.502188,-0.5005285,-0.10559274,1.3005193,-0.0017024913,-0.36709204,-0.24849541,0.06490523,0.07723608,-0.0070580705,-0.42069244,-0.30406794,-0.6078017,0.41536608,-0.07673812,-0.34217352,0.30061105,0.046627056,-0.03744903,-0.009129821,0.044809867,0.012275917,0.050270647,0.17174299,0.20083164,0.2723378,-0.7330113,0.7125383,-0.09838451,0.10281237,-0.56058204,-0.03482885,0.15012205,-0.16780455,-0.44272026,0.2528749,0.48606658,0.29609308,-0.12699911,0.07797661,0.92222434,-0.30712724,-0.059356768,-0.06933268,0.7980196,0.49122632,-0.14208582,0.039041296,0.43403274,0.3115845,-0.4398139,-0.1384194,0.33251703,0.8188034,0.30051923,-0.22237957,-0.015203558,0.12288727,0.3631703,0.10936842,-0.18786654,-0.01516936,-0.11895159,0.0057511013,0.080550596,0.27638322,-0.025407242,-0.0031837437,0.16116829,-0.41522622,0.46475634,-0.111575976,-0.14886862,-0.28237996,0.059924588,0.37777206,0.63319093,-0.12921624,0.13924564,-0.03539953,0.83830595,0.0032264704,0.098248415,-0.18636659,-0.16377315,0.6015517,0.05145534,0.31835124,0.068694465,0.22855833,-0.07578455,0.26289427,-0.0406541,0.06986234,0.024122266,-0.070316836,0.44273716,0.19256248,-0.08647961,-0.40396672,-0.06818341,-0.26040614,0.5744765,0.03456422,-0.07324315,-0.13177791,-0.041811664,0.12728867
Q9P253	-0.007291512,-0.3868744,-0.008203464,-0.20472313,0.50573975,0.30327776,0.050577573,0.74874264,-0.20538014,-0.3169874,0.3170935,-0.5284863,0.037560754,-0.050515853,-0.2785014,-0.43199015,0.4180704,0.020275237,0.14057684,-0.3935728,-0.22873169,-0.32261485,-0.51126736,0.40087062,-0.40244865,0.2477566,0.059606694,-0.42100143,-0.05600688,-0.2204729,0.040091388,0.08493457,0.46535712,0.694258,-0.15674865,-0.24784349,0.6640267,0.32390356,0.33431968,-0.60880786,0.29307815,0.5958955,-0.44032338,0.0030539522,0.0512758,0.36510566,0.86112,0.3016865,-0.23210715,0.52459055,-0.11812903,0.49924332,-0.6137609,0.27662298,0.48184216,-0.33397356,-0.7146908,0.5039368,-0.25024548,0.35791093,-0.001208628,1.116979,-0.0627623,0.30087018,-0.2764897,0.23866186,0.11694607,0.25028628,-0.26408687,-0.16894177,0.305684,-0.81742644,-0.084814444,0.8833853,-0.4126058,-0.30159265,0.696642,-0.47561347,-0.7635702,-0.5118853,-0.6966044,0.29546645,-0.32738593,0.06192735,0.09874562,0.14056201,-0.88161683,-0.19013983,-0.021272,0.12621908,0.7724613,-0.15881692,-0.50852466,1.0060849,-0.8755262,0.069040745,0.5651967,-0.4902603,0.61352146,-0.5577928,-0.015012089,0.16332392,-0.43689442,-0.39605263,0.7392629,-0.43016824,-0.9731578,0.047736388,0.36580363,0.088959016,-0.64130753,0.48974925,0.5506178,0.55730367,-0.3961954,-0.14350985,-0.15775302,-0.34980068,0.21811908,-0.36682186,-0.07097715,0.08714976,-0.0625749,-0.038568866,-0.28348735,0.4067572,0.0044708266,-0.026335226,-0.84712297,-0.14620581,0.21560231,-0.8015844,0.6433795,-0.09412448,0.13138485,-0.0013996961,0.13053459,-0.6845596,-0.1625472,0.54343927,0.2845104,-0.058530327,-0.71360284,0.12578453,-0.1488477,0.83493495,0.009917931,0.56464726,-0.9020799,0.51018095,-0.29742944,0.077335574,-0.16888544,0.6815289,0.43361107,-0.31061083,-0.13141192,-0.5517458,-0.6440462,-0.020739062,-0.1127941,-0.041030813,0.32102108,0.31731927,-0.003220419,-0.485092,-0.3501225,-0.3843519,-0.76287854,0.019074589,-0.17812924,0.2464045,0.10128595,0.42452806,0.51681364,-0.49692965,0.4104578,-0.6579819,0.009643074,0.52485114,0.73798674,0.506169,0.5755348,-0.6639844,0.22024655,-0.0077207736,0.0063135414,0.32794735,0.42575,-0.095968224,0.023468733,-0.07976442,-0.36905643,0.021554101,-0.47377765,-0.05175538,0.09671673,0.4226847,-0.47437096,0.3364068
Q9UKV8	0.280611,-0.80287015,-0.0058568106,-0.1168056,0.031902935,0.40507308,0.28717846,0.04559304,-0.23801586,-0.075949624,0.20664598,-0.38233653,0.47288594,-0.15141043,-0.1550638,0.27915013,-0.20660399,-0.19293195,0.09238783,-0.20950593,-0.40323567,0.11927364,0.43366972,0.68208003,-0.33462086,-0.15188879,0.34240627,-0.19216506,0.19967644,-0.0854417,0.014149146,0.40762165,-0.065458745,0.39991304,0.24811879,-0.43637007,0.31688216,0.51499426,-0.4768042,0.2222242,0.2535155,0.09967976,-0.18610567,0.14809704,0.10018084,-0.41136777,-0.12986632,0.11038294,-0.09441168,0.6567134,0.09985187,0.11968393,-0.439882,0.10076919,0.15261306,0.16062945,-0.041947395,-0.50181425,-0.53999627,-0.118041016,0.12184867,0.12914398,0.29183987,0.13022575,0.30840752,0.27119127,0.027578238,-0.4165182,-0.3820774,-0.23839124,-0.3185243,-0.1251236,0.20480284,0.887735,0.05901707,-0.20082702,0.3475924,-0.03449149,-0.60553443,-0.26220992,-0.2263971,0.33190778,-0.21344186,0.13315459,0.05045234,-0.11181901,-0.026136793,0.11029488,-0.0056684455,-0.17928377,0.039083038,0.046113733,-0.2414516,-0.34941223,-0.7245587,0.40159294,0.5203252,-0.13465124,0.10932069,-0.18854925,-0.37342447,-0.2766845,0.2000315,-0.22060783,-0.21969719,0.28029168,-0.25458285,-0.12886192,-0.053940106,0.29380086,-0.058830783,0.41092905,0.110810935,0.10641032,-0.16631159,0.60312754,0.38076213,0.18832459,-0.31178972,0.25726667,0.31897113,0.15753494,-0.5028865,0.0067105237,-0.5108824,-0.28613874,-0.40060088,-0.04479453,-0.027397053,0.14607646,-0.1933071,-0.38333812,0.7322662,-0.42149186,0.081321076,-0.44157642,0.6750407,0.09795897,0.3043049,0.49543762,0.28633982,-0.13495679,-0.47841948,-0.02409278,0.23203047,0.4448013,0.42784384,0.16954939,0.24934676,-0.06250366,-0.088994056,0.029097108,-0.18654978,0.50712144,0.48737404,-0.32040167,0.28623718,-0.24608131,-0.16249761,-0.34766972,0.19951306,-0.5032875,0.085680254,0.27146164,-0.32248852,-0.32703006,-0.1401181,0.46091935,0.023983108,-0.035827454,-0.03743496,-0.06336881,-0.023998858,0.46849635,0.12289413,-0.091425486,-0.1697774,0.1986612,0.11253773,0.32019934,0.265551,0.19158578,-0.13778588,0.2467523,-0.12641294,-0.41631266,-0.34137744,-0.43637097,0.16707718,-0.18775448,-0.3507489,0.133408,0.06172019,0.09595562,-0.2930953,0.09565562,0.091874875,0.18787552,-0.31633335,0.16828583
P60228	0.23858254,-0.79851013,-0.012009241,-0.026168225,0.1767972,0.46743128,0.28540483,-0.27921984,-0.24235465,-0.14847194,0.091105685,-0.27326882,0.122558326,-0.12775937,-0.25560337,0.07686979,-0.31077635,-0.13647217,0.32722327,-0.3118811,-0.4840424,0.23230499,0.32365775,0.16516778,-0.017883178,-0.5414164,0.19470961,-0.3231867,0.38301364,0.087948926,-0.3385932,0.046529192,-0.11573553,0.32243684,-0.012024455,-0.48469132,0.082708485,0.09525524,-0.49941015,0.22775851,0.39374372,0.171611,-0.06722369,0.4003046,0.046577178,-0.4316077,-0.2653952,0.12733576,-0.22347829,0.4633519,-0.36060533,-0.080554835,-0.13392568,0.28300807,0.26366824,0.018386928,0.15008199,-0.5566341,-0.3245607,-0.1452743,0.23004572,0.08980606,0.18705207,-0.15395808,0.11358297,0.20508596,-0.11450401,-0.24976994,-0.3170227,-0.34311983,-0.09677326,-0.07850907,0.2357669,0.6723712,-0.110460855,-0.22327551,0.5399218,-0.095839724,-0.7252134,-0.09973522,0.038687434,0.38455355,-0.114110954,0.17454103,-0.042423014,0.022775771,0.22675593,0.0580468,-0.16986674,-0.22374213,0.01500208,0.24784265,0.020052204,-0.44015026,-0.41542506,0.7432729,0.25936067,0.10151137,-0.263311,-0.16854453,-0.13169172,0.30414498,0.11457353,-0.23738198,-0.20768861,0.51159,0.07758864,-0.101931654,-0.092463,-0.039180886,0.1922089,0.40218568,-0.07892198,0.21218698,-0.03728168,0.5183375,0.6268015,-0.16146234,-0.5502178,0.44392878,0.18044856,-0.03657572,-0.3934798,-0.07499263,-0.18383953,-0.26567194,-0.3151252,0.087775126,0.5137145,0.24876136,-0.17536819,-0.3525208,0.47069255,-0.43116206,0.0668708,-0.40691558,1.0192075,0.24042256,-0.12477994,0.26781332,-0.035356596,0.07354173,-0.17796029,-0.009921142,0.37149024,0.58303964,0.17325088,-0.09431774,0.16595241,0.015719604,0.2072264,0.24280381,-0.12536615,0.46397376,0.25290447,-0.38180864,0.16604237,0.23957896,-0.14050879,-0.49579176,0.17849308,-0.38348308,-0.033375442,-0.025480058,-0.135195,-0.44692993,-0.10817741,0.5089417,-0.005464264,-0.14867233,0.09536956,-0.33832034,0.3252867,0.42154866,0.12794346,-0.20861551,-0.20880051,0.54275084,-0.40758586,0.32919177,0.099199794,0.30222517,-0.09198458,-0.014667582,-0.02899177,-0.1882547,-0.082376234,-0.20537566,0.29844952,0.31319028,-0.39743564,0.2445309,0.15128738,-0.18647005,0.124840185,0.18523325,0.078870825,0.073189825,-0.12877177,0.117330134
Q15006	-0.12058181,-0.41608447,-0.23756601,-0.5651291,0.0051409286,0.6377053,0.052024778,-0.2648798,0.23940143,0.18319763,0.24579999,-0.93106836,0.45394954,-0.39781597,-0.18834524,-0.7711993,-0.4152546,-0.09450161,0.45247644,-0.05856244,-0.31494734,0.5255091,-0.08810871,0.4785702,-0.2317762,0.13478214,-0.042572204,-0.28789607,0.15072636,0.32135624,-0.6535817,0.10242579,-0.42868114,-0.049896862,0.07609793,-0.4114643,0.09283666,-0.04698832,0.36818647,0.17457059,0.04180736,0.31688082,-0.10670019,-0.28687587,0.10863299,0.14857079,-0.49017602,-0.38415673,-0.16601591,0.3684508,-0.44990963,0.005185251,-0.5312894,0.6839354,0.517426,0.11808128,-0.6936422,-0.13492158,-0.5892647,0.028146166,0.4813217,0.57972914,-0.18155001,-0.13979931,0.071877226,0.065934435,-0.13117203,-0.4611864,-0.09247384,-0.31508595,0.0052309404,0.37388286,-0.2473234,0.5227651,-0.067838475,0.002814394,0.9117246,0.036793817,-0.656185,-0.4464807,0.105714776,0.25145787,-0.25752348,0.5835519,0.025080757,-0.0061051846,-0.36752364,0.14935078,-0.08525794,0.08442541,0.15194558,0.09966764,0.17819153,0.090768084,-0.5689448,0.7802276,0.28808978,-0.3507334,-0.15433651,0.091733456,-0.07255337,0.22932698,0.004490523,-0.49001005,0.15816599,-0.030754916,-0.628446,0.20133217,-0.0007016694,0.019996934,0.70292795,-0.089289375,0.13601847,0.38900968,-0.18350612,-0.25657552,0.36412805,-0.33394128,-0.19811513,0.28025863,-0.46926036,-0.4671856,-0.36869165,0.05908723,0.15341057,-0.20865339,0.22825433,-0.33038932,0.24461414,-0.17514706,0.863034,-0.47846702,0.1314516,-0.36553314,0.21394464,-0.56263435,0.5523901,0.484377,-0.38818797,0.09092311,0.19982661,-0.24453793,-0.1161759,0.12566881,-0.46691903,0.49704197,0.12460683,-0.09072506,-0.31949386,0.09768595,-0.370725,0.22498429,0.12512344,-0.053972755,0.29892883,0.09076775,-0.23525135,0.6497327,-0.24532236,-0.7161233,0.69367504,0.11554018,-0.1691043,-0.47746778,-0.2859126,-0.5989198,-0.38446665,0.39235052,-0.4452863,-0.442908,0.42449299,-0.379771,0.06125595,0.19352151,0.2050977,-0.47490662,0.17322508,0.34846646,-0.57309556,0.40996936,0.191739,0.3889504,0.23101726,0.10198529,-0.2479001,-5.6934812e-05,0.6093343,-0.14079654,0.707582,0.55586857,-0.6890733,0.0873502,-0.0013705178,-0.40761298,-0.16484621,0.20209321,0.83716285,0.40920666,0.067867436,-0.25246018
Q9NRG0	0.37938356,-0.70952725,-0.31847686,0.11659709,-0.025633596,0.3073106,0.16461696,0.58249223,-0.092136554,-0.19734138,0.017850073,-0.4443245,-0.4945066,-0.50293326,-0.54215705,-0.71936077,0.0026146297,-0.11551427,0.5324591,0.28116167,-0.21720351,0.32589236,-0.64379686,-0.06455088,-0.24443395,-0.259747,0.19591022,-0.3815472,0.45163444,0.17475326,-0.124840915,0.16651087,0.10800545,0.20615815,-0.22815776,-0.10859531,0.045623977,-0.30928227,0.12251048,0.3818153,0.5953216,0.77228034,-0.3335044,0.3156718,0.30389154,-0.01707285,-0.039024077,-0.30449036,0.34253,0.7484049,-0.29328325,-0.47968674,0.4767592,0.65464455,0.25425082,-0.1620733,-0.3411023,-0.6377028,-0.523329,0.26533678,0.2097847,-0.016951539,-0.25977123,-0.46248156,0.16490938,0.26844794,0.061573263,-0.19771239,-0.115996495,-0.07188798,0.22866768,0.22220458,-0.17499605,0.009029921,-0.18506312,-0.44247285,0.76318187,-0.3553994,-0.75950027,-0.27867788,-0.5074151,0.28111345,-0.50758344,0.16034703,0.30401695,-0.04722213,0.24538675,-0.16750078,-0.27279958,0.20344867,0.25396726,0.34025875,0.023985725,-0.43095237,-0.6659366,1.193003,0.30844092,-0.3072482,0.09118556,0.26031572,0.31012735,-0.10157143,-0.03909029,-0.5911939,-0.39343023,0.17931372,-0.5539159,0.5579631,-0.45393807,-0.33784723,0.33712235,-0.07068163,-0.4618916,0.510775,0.21675698,-0.30899945,0.26006013,-0.29697293,-0.7959397,0.74579316,-0.7955445,-0.4168615,-0.2717099,0.09209131,-0.1142118,0.14052461,0.42315435,-0.42434898,0.011478757,-0.43164355,0.8165473,-0.22026916,0.48794734,-0.3366581,-0.13440406,0.14462088,0.5856326,0.24468467,0.03404259,0.28563794,-0.211911,0.22772157,-0.10013539,-0.12780626,-0.1870805,0.39838782,0.5360502,-0.3198701,-0.046761245,0.39360964,0.0065899957,0.369114,0.57985395,-0.40005738,-0.29379377,0.19900325,0.19620906,0.13692766,-0.28801972,-0.6155182,0.033031713,-0.100691326,-0.25496945,-0.58665127,0.15381268,-0.31590554,-0.41376603,-0.5712958,-0.76579064,-0.23873614,0.5438808,-0.8031873,0.13026832,0.4829753,0.4446027,0.03038006,-0.0645313,0.35318708,-0.5361972,0.32350174,0.25675383,0.3826913,0.115372546,-0.3481139,-0.24348512,-0.3647639,0.19345424,0.14057168,0.49659425,0.26640785,-0.46106693,0.23404823,-1.0696031,-0.21881588,-0.2524104,-0.3635613,0.4722097,0.45645422,0.3081628,-0.10592463
P14866	-0.07041766,-0.5408756,-0.36060277,-0.113862425,0.08538314,0.64786613,0.1876771,-0.20612757,-0.17462146,0.12096537,0.15165634,-0.4066155,0.3154819,-0.06974325,-0.20968993,0.0043982225,-0.54401594,-0.11805495,0.5173632,-0.08552456,-0.50315964,0.1268071,0.05195369,-0.014409377,-0.045184094,-0.16156055,0.2884405,-0.41286907,0.3452662,-0.1481352,-0.5159467,0.20225449,-0.13934007,-0.042411715,0.17094664,-0.50565064,-0.11190952,0.22707513,-0.34589097,0.24587956,0.29938683,0.22163168,-0.17243548,-0.25825348,0.26497015,-0.45859295,-0.21181737,0.008518695,-0.16481444,0.6436649,-0.2341558,-0.21542847,-0.48576906,0.05819359,0.61493623,0.07135127,0.0059380904,-0.31466433,-0.37352663,-0.13199916,0.059265237,0.046908822,0.182914,-0.18034406,0.094615795,0.42252117,-0.012498741,-0.09896317,-0.38553685,-0.3302576,-0.23979418,0.021905893,0.27812448,0.5900662,-0.00054401596,-0.47808194,0.4103473,-0.24793218,-0.6370284,-0.08124935,-0.07140676,0.705525,-0.14055736,-0.10516521,0.04096068,-0.08219733,0.21027942,0.30966786,0.119903415,-0.27595386,-0.08492822,0.2880945,-0.13422288,-0.62582237,-0.5911706,0.8130135,0.20790976,0.07335794,-0.065716356,-0.26352233,-0.15322524,0.061142385,0.46378598,-0.2737441,-0.33565518,0.18994465,-0.026171269,0.038902745,-0.09298218,0.2258494,0.43160212,0.17681436,-0.18885101,0.16766942,-0.23088036,0.6520064,0.42220163,-0.3985113,-0.6718304,0.37222376,0.2938095,-0.060260683,-0.75213295,-0.07010164,-0.1552525,-0.31833038,-0.08344431,0.16423582,0.41941312,0.042552803,0.07211829,-0.7436464,0.7065886,-0.4293286,0.15310182,-0.30362517,0.7514804,0.30387208,-0.0007846725,0.37422502,0.05334091,-0.25497162,-0.0145355305,-0.22847517,0.16840766,0.7596636,0.011091638,-0.034402564,-0.008348594,0.15483081,0.18412325,0.24408682,0.19279762,0.2440342,0.40425923,-0.29464898,0.46036324,0.33905056,0.12827553,-0.66686064,0.4136106,-0.5747717,-0.43877792,-0.06251009,-0.21110144,-0.82201767,-0.10749521,0.58754677,-0.2589468,0.039999105,0.33734643,-0.275476,0.09735979,0.36997956,0.33876508,-0.18166368,-0.30333573,0.2809201,-0.3594098,0.43687847,0.2742111,0.37289748,-0.15178263,0.297225,0.027043117,-0.2799032,0.23449835,-0.23046578,0.3418875,0.4025821,-0.4205737,0.42302206,0.23677692,-0.26995644,-0.04473454,0.16233623,0.3513335,-0.004129094,-0.21788822,0.25829288
Q15428	0.3732582,-0.77237177,-0.109319374,0.2702941,0.32349363,0.30994526,0.07975614,-0.038198307,-0.4960078,-0.022614446,0.028271072,-0.27611268,-0.02356016,-0.39351055,-0.060870863,-0.17164886,-0.37534922,0.20846193,0.6972846,-0.26803288,-0.803678,-0.124456525,0.10695289,-0.112337716,-0.5505196,0.040286526,0.6467986,-0.40511397,0.10063689,0.19208725,0.071939886,-0.16258985,0.2474712,0.10572873,0.029368531,-0.57706916,0.38744953,0.25239184,-0.17031585,-0.02231913,0.53431815,0.67087364,-0.4759678,0.31055316,-0.40451217,-0.12444655,0.15328282,-0.31158847,0.46329233,0.8346224,-0.3895241,-0.23295805,-0.18110362,0.58195955,0.6197794,0.07747769,-0.4929028,-0.38932243,-0.19605868,-0.044126425,-0.13866866,0.05440905,0.31296298,-0.17413573,0.015096135,0.68359506,-0.019525189,-0.2962014,-0.14910723,-0.04044561,0.08627968,0.04543496,0.11182628,0.5320446,-0.46443477,-0.32805482,0.14410092,-0.23635152,-0.24907623,-0.2620426,-0.014151759,0.6446822,0.07363242,0.003894663,-0.018831994,-0.038505193,0.024190957,-0.16807963,-0.15211691,-0.36802128,0.040672716,0.20678993,-0.15490225,-0.020763492,-0.5626805,0.90894914,0.38709775,-0.1811221,0.123591565,-0.23749343,0.25958303,-0.014345811,0.24438325,-0.2397567,-0.27652982,0.31653258,-0.2814174,0.1095559,0.25182238,0.37800407,0.04226149,-0.072607666,0.1251818,0.26138106,-0.33039805,0.3068263,0.4495619,-0.28536978,-0.7136141,0.43789625,-0.036826845,-0.034891807,-0.967773,-0.09572369,-0.39639962,-0.15048628,0.35396674,-0.23273043,-0.4632687,-0.13461229,-0.042554464,-0.39905903,0.9096781,-0.18777516,0.11676717,-0.6189351,0.6090027,0.12975046,-0.08740504,0.50200874,0.21883462,0.04794196,-0.32951337,0.09612184,0.10872069,0.54361254,0.22182332,-0.13216388,-0.13378118,0.3402828,0.1627613,0.29961494,0.38077286,0.18678719,0.3150905,0.15841682,0.29285404,0.36550793,-0.03672443,-0.4128779,0.43631265,-0.0885157,-0.50639266,0.041628804,-0.36099225,-0.3992715,-0.3291749,0.6079483,-0.17343217,0.055314355,0.12339252,-0.02564309,0.20020542,0.3621945,0.45218256,0.036190223,-0.7505073,0.29936343,0.053415142,0.27854112,0.083506845,0.20433833,-0.19987899,-0.08043468,-0.32993722,-0.2885283,0.33800146,0.41480923,0.13231096,0.347437,-0.15661126,0.23108517,-0.120956205,-0.088373505,-0.18894725,0.09504163,0.14572226,0.31896603,0.28247312,0.10332457
P22087	0.08567385,-0.79415894,-0.16033258,0.23668973,0.14464416,0.4600893,0.08034411,0.1305168,-0.29662994,0.12061091,0.21263675,-0.22085595,-0.49129584,-0.020238452,-0.18331017,-0.03885423,-0.19172905,-0.18151502,0.60239613,-0.3073421,-0.5998328,0.21131678,0.062480412,0.120951094,0.041975208,-0.7426333,0.11618782,-0.5215246,0.22596373,-0.13631585,-0.42290512,-0.13364649,-0.10247397,0.491812,-0.07381052,-0.4520813,0.4524581,0.05295407,-0.13552664,-0.096433684,0.3847565,0.49518326,-0.501519,0.13748415,0.13092995,-0.35519052,-0.11239901,0.0025236537,-0.061881006,0.63397753,-0.4382742,0.15353301,-0.28591803,0.6361582,0.55012685,0.023217587,0.21396855,-0.44766775,-0.26933202,-0.018555468,0.24854818,-0.13422404,0.32819307,-0.18229878,0.03387682,0.30190477,-0.272477,-0.031955026,-0.37601998,-0.28419536,-0.25144458,-0.20704913,0.10517435,0.8096652,-0.07077632,-0.37936962,0.47605133,-0.2720813,-0.70405734,-0.11828634,0.025318839,0.5141172,-0.24970782,-0.101784594,-0.01229003,0.024975047,0.4534229,0.067320235,-0.09648619,-0.31596032,-0.13753374,-0.048146643,0.32029,-0.5015403,-0.25502896,0.85015225,0.46832862,0.23977086,0.035159793,-0.3237611,0.33901992,0.053475935,0.345643,-0.09041951,-0.73160166,0.49651638,-0.1401867,-0.015645923,0.03266541,0.37190837,0.086178266,0.49924004,-0.45998156,0.12617688,-0.103207394,0.5008581,0.5629958,-0.26700303,-0.99726313,0.6136861,0.05259779,-0.1129059,-0.6761716,-0.094149455,-0.0048005185,-0.31934845,0.03781805,-0.18622075,0.29505223,0.18000263,-0.17379518,-0.64833504,0.83541995,-0.45070088,-0.03938971,-0.36568713,0.84444636,0.033048335,-0.030013055,0.2736445,-0.26899582,0.22342928,-0.37189022,0.03810818,0.21493965,0.3609235,-0.028538186,-0.2253188,-0.07512276,-0.07924737,0.11070548,0.34441966,0.17547022,0.053292833,-0.21157405,-0.33975866,0.12599762,0.18339097,0.13379079,-0.38195258,0.2204482,-0.5383864,-0.17922246,0.04816729,-0.027525535,-0.4358578,-0.21692559,0.65662277,-0.014737572,0.057994854,0.37836853,-0.5942393,0.12895367,0.11086655,0.40344748,-0.21669008,0.113400556,0.46544778,-0.08383405,0.061363216,0.18377212,0.26432687,-0.11225734,0.16091357,-0.024762927,0.054826997,0.24320158,-0.03192729,0.4015853,0.34071708,-0.25780714,0.5090451,0.125472,-0.18729621,0.24576178,-0.008955203,0.2808557,-0.17937309,-0.14697489,0.16093235
P36954	0.2977314,-0.5064341,-0.17276022,0.21266574,0.23451132,0.06258674,-0.122469865,0.17272544,-0.5699004,0.58902735,-0.20721237,-0.22519885,-0.5008016,-0.15487039,-0.3944454,-0.27592924,-0.08927972,-0.025468716,0.6302127,-0.14724776,-0.7337872,0.062139407,0.02940801,0.009388286,-0.26402587,-0.16966373,0.45374066,-0.3395502,-0.16082686,0.14787312,-0.13689077,-0.3225733,0.22581209,-0.014539196,0.09820207,-0.3176539,0.47670662,0.00081518205,-0.104025446,-0.3566968,0.23528406,0.5989032,-0.5983668,0.17029282,-0.22060177,-0.41834337,-0.08177453,-0.4372844,0.5584543,1.077881,-0.28754807,0.1426497,0.08695698,0.96758074,0.82817423,0.23755272,-0.46902546,-0.321882,-0.33818805,-0.053309556,0.13584639,0.05440071,0.23632126,-0.25162274,-0.09714807,0.69633085,-0.17494448,0.077458255,0.11619296,-0.32007876,-0.020846765,0.021682754,-0.33891025,0.78813434,-0.22088698,-0.49492583,0.3071349,0.039335325,-0.29144156,-0.31789133,-0.40924057,0.4431326,-0.15803452,-0.5587172,0.4024584,-0.11963088,0.36761433,-0.41470352,-0.03179569,-0.025664132,0.1235879,0.26177487,-0.09281684,-0.07985055,-0.56376624,0.8069013,0.29412922,0.15370607,0.124072455,0.01223271,-0.03674875,0.32649732,0.3794213,-0.09319056,-0.21869509,0.4779316,-0.2608818,0.032969557,-0.07937932,0.42225027,-0.080475435,0.14352372,0.37759104,0.18947749,-0.043703254,0.25266954,0.30725577,-0.13952605,-1.1189339,0.11040858,0.24919206,0.0282033,-0.80616534,-0.038143978,-0.398383,-0.18195094,0.44615865,-0.5029157,-0.48773766,0.019358704,0.26186857,0.013038873,0.698514,-0.08833482,0.25803995,-0.38778955,0.77026147,-0.16484696,-0.19013421,0.44794554,-0.034293108,0.05866753,-0.33766064,0.26459607,-0.102869906,0.5044442,0.3030789,0.15851687,-0.079204105,0.50266385,0.34110886,0.04296789,0.26075703,0.17075992,-0.026457177,0.17464596,0.2617325,0.021675967,0.026500912,-0.12558785,0.07072361,-0.16717018,-0.36441562,0.11341386,-0.68481296,-0.47530675,-0.27136806,0.29558995,-0.43603808,-0.120336324,0.33307067,-0.037542313,-0.18171741,0.23252304,0.6996848,0.08721028,-0.46894366,0.25810587,0.07384979,0.4428293,-0.2542935,0.14139247,-0.19638294,-0.093822345,-0.419624,-0.3330184,0.5296416,0.19124144,0.2323747,0.58333635,-0.34771812,0.7400571,-0.40211773,-0.18481877,-0.015217128,-0.0767224,0.11054984,0.09922294,0.5063282,0.52329564
Q02543	0.53974473,-0.6266891,0.1319107,-0.08205614,0.26019102,0.24458306,0.33341625,-0.23276813,-0.2564657,-0.67986655,-0.0036071683,-0.15829544,0.031843238,-0.6684518,-0.1965372,-0.038885165,-0.5128329,-0.5306015,0.27609938,0.0041640666,-0.23954476,0.26528418,0.26227966,-0.045848448,0.012210573,-0.7678929,0.10315814,-0.31340045,0.27931952,0.19763118,-0.0076119383,0.43283117,-0.35387218,0.29523745,0.20868419,-0.6089542,-0.10735786,0.20063291,-0.70347035,0.31392047,0.081074946,0.09516536,0.3525593,0.61426854,0.24679261,-0.47192445,-0.17825752,-0.14971198,-0.5259392,0.3280581,-0.28158814,-0.13673778,-0.012835385,0.60958016,-0.30991608,0.009858005,-0.109460704,-0.6513907,-0.5614968,-0.7722611,0.26116678,0.043510493,0.04186597,0.47125503,0.19481665,-0.23123558,-0.2134004,0.41730982,-0.28463984,-0.2678278,-0.27684385,-0.26221007,0.26121202,0.36844632,-0.09454801,-0.11980194,0.3644673,-0.009717459,-0.46612328,-0.44943354,-0.005629256,-0.23040697,-0.14360817,0.31563473,0.48650545,-0.4151119,0.2501464,0.577351,-0.2983437,-0.23507899,0.07302674,0.4233858,-0.13273096,-0.037909914,-0.17266655,0.37327808,0.18685052,0.26904193,-0.13472232,-0.21245039,-0.5255359,0.5677424,-0.68137074,-0.12098052,-0.09187001,0.17010961,-0.008366136,0.4986727,0.00084704254,0.4262544,0.35211945,0.26977536,-0.030498682,0.5055376,-0.05095579,0.28164956,0.4039636,0.15437423,-0.3891753,0.12658037,0.16663079,0.27011427,-0.30755633,0.7797979,-0.2679514,0.045058306,-0.4755819,0.0770521,0.19966494,-0.075778954,0.06237185,-0.1753463,0.05629127,-0.42531255,0.15375008,0.068131186,0.67713094,0.024944644,-0.20748076,0.51600343,-0.013863874,0.045668297,-0.40904012,-0.20724584,0.36314732,0.57449144,0.4247888,0.34892923,0.26997712,0.5952644,0.038466327,0.53579056,-0.412874,0.69343334,0.3913569,-0.14057897,0.044890653,0.008344401,-0.24679817,-0.57849014,0.13771711,0.04866378,0.42159274,0.3072291,-0.055449825,-0.39439195,-0.07226935,0.14365266,-0.26486441,0.018289248,-0.40791136,-0.3423948,0.18796013,0.47750276,0.2586669,-0.17801213,-0.30484557,0.48284718,-0.4529846,0.43115866,0.3099035,0.044823743,-0.04822537,-0.36608317,0.3450606,-0.5207049,-0.30272686,-0.5718836,0.16914296,0.19169225,-0.10434781,0.4846007,0.08275695,-0.18608129,-0.16470954,-0.07480075,-0.09186073,0.15227316,0.21036588,0.2675874
Q3B726	0.6778775,0.14182098,0.17705108,0.45853797,-0.38082755,-0.13771753,0.17309606,-0.0519719,-0.42643005,0.65998673,0.016858872,0.013255265,0.06466454,0.082875766,0.19925538,0.87716895,-0.10435703,0.004089508,-0.27362335,-0.18647997,-0.6483361,0.8301939,-0.46852332,0.1845359,-0.014008508,-0.0776496,0.32301077,-0.6367768,-0.11916457,0.34417412,-0.39109397,-0.20998225,0.005230409,0.41722152,0.34520447,-0.24324052,-0.3373812,-0.10293396,-0.074456565,0.41315997,-0.06368461,-0.55998755,-0.61804014,-0.3064421,-0.9264326,-0.15889034,-0.36673212,-0.38442773,0.21986674,0.7891551,-0.20341785,0.37565455,-0.14074859,0.73043454,0.72085935,0.1820968,0.7491344,-0.58104897,-0.23012085,-0.19322862,-0.25150615,-1.1423937,0.9306696,-0.076661676,0.025174538,0.9546768,-0.022548938,0.35577327,0.23348793,-0.6424661,0.23547614,0.36065787,-0.31535855,0.23069602,-0.16458368,-0.27587932,0.49915287,-0.00072140835,-0.97158796,0.753044,-0.4838733,0.31373242,-0.011167477,0.13903777,-0.32697374,-0.25823927,0.16899303,-0.4624082,-0.26514155,-0.2539838,0.09105262,0.18133341,0.094060816,0.10416901,-0.64476794,1.3396409,0.35922366,0.15183946,0.34285885,0.06732888,0.096484214,-0.07558828,-0.15376598,-0.2237438,-0.28080767,0.13425417,-0.27327633,-0.43570286,0.21144928,0.36474162,0.16855651,0.5951137,0.6527537,0.08603777,0.026120536,0.21098791,-0.16953559,-0.5160683,-0.7898708,0.23033845,0.2641091,0.2741627,-0.5431075,-0.0551702,-0.8538383,0.32527715,0.42016378,-0.37557358,0.48496565,-0.2447918,0.17488223,0.16639541,0.704626,-0.075408734,0.26847267,-0.41968793,0.22872786,-0.39431745,0.4625562,0.053487748,-0.044736873,0.4403203,0.10436261,0.4961048,0.5537466,-0.15832567,-0.50360054,-0.028394286,-0.3001241,0.45072928,-0.20553868,0.54750866,0.41395235,0.170223,-0.12512724,0.591,0.2126238,-0.4340945,0.26524848,0.32191062,0.44736072,-0.5993181,0.2804349,0.035141353,-0.10497618,-0.7561404,0.10142893,0.66494477,-0.26593295,-0.018357018,0.2443731,0.09524221,0.37268725,-0.08939875,0.9920144,0.29218006,-0.42675555,0.8643221,0.6474986,-0.4334632,-0.5705222,0.080740616,-0.34872764,0.5354896,-0.21772929,-0.57775086,0.16243006,0.3277378,0.42129615,0.20150015,-0.38432062,0.30608425,-0.3082188,-0.014241836,0.010853522,0.17048238,0.29827127,-0.027298559,0.21198364,0.60335
