Q16850	-0.06401892,-0.09759221,0.08625977,-0.7301062,-0.24906237,-0.26002055,0.10849235,0.3956846,-0.07707875,0.27363396,-0.43275702,0.42546916,0.040547445,-0.8522978,0.36969706,0.6743762,-1.1930221,0.13203377,-0.20277467,0.22047554,0.12147491,-1.1265469,0.3225859,0.41111505,-0.10489408,0.11270477,-0.17095076,-1.1014819,-0.7709528,-0.5893908,-0.02390783,-0.04659305,-0.04730381,0.01018725,0.074733846,0.17067377,0.077032134,-0.033041928,-0.65961033,0.26144454,0.57580656,-0.38258,0.08083191,-0.20852143,0.27402085,-0.16239291,0.1264988,0.10819029,0.1334734,0.13103789,0.84752756,0.19726723,0.033877462,0.2425893,0.22133406,0.5110317,-0.06351169,0.06798683,0.3883025,-0.4607405,0.08347788,-0.26313344,-0.47590125,-0.21160908,0.6917725,1.0634817,0.6195415,-0.2141233,-0.20941214,0.3856646,0.11019755,-0.10515907,0.43952575,0.4929648,0.349901,0.37642696,0.6327175,-0.1469991,0.52720815,0.22875524,-0.10888506,0.5977145,-0.5878267,-0.077340916,-0.22446561,0.14697182,-0.2002321,0.040621445,0.50134045,0.6130311,-0.14406952,0.018482914,0.29929978,0.47214663,0.6453809,0.30963954,-0.2926624,0.48109448,-0.08814507,-0.14142944,-0.7317596,0.44449964,-0.31721255,-0.05740107,-0.2704244,0.4150295,0.20020361,0.44493222,-0.4624101,0.6171043,0.9659423,0.3017165,0.0017127945,0.35697252,0.2970288,0.44298068,-0.13689934,-0.3526696,-0.5563807,0.60837805,-0.16135459,0.006397371,-0.65016305,-0.5972029,-0.41324794,0.6963538,0.019497367,0.008913771,-0.07260856,-0.38824785,-0.014789496,-0.18302318,-0.0012938804,-0.05076242,-0.12511948,-0.5501726,0.2769716,-0.051954046,0.05733886,0.27322903,0.14300577,0.08090812,-0.06982293,0.6258336,0.3875869,0.064169,-0.19633888,-0.4836035,-0.26338506,0.17710502,-0.0485173,-0.3283157,0.2887669,-0.5772708,0.1241718,-0.2801393,-0.45039362,0.32882282,0.2740736,-0.15811701,-0.31502894,0.045488045,0.4854802,0.25741926,0.25745964,-0.08321111,-0.22747031,0.684227,0.2607765,-0.34935606,-0.029646695,-0.24930614,-0.060280893,0.1669357,-0.22810258,-0.028300513,-0.6939819,0.20097846,-0.2952767,0.13947614,0.31805623,0.12702285,-0.20616323,-0.63656455,0.2992995,0.23289943,-0.088090196,-0.084094614,0.15758236,1.1617849,-0.18049835,-0.23965295,0.25183558,-0.06026041,-0.039753705,-0.6331236,-0.07705703,0.15626687,0.26709473,0.1770377
O75865	-0.14499252,-0.11817565,-0.36140323,-0.10333692,0.3537223,0.13567561,0.068975545,-0.031650063,-0.36795512,-0.103172205,-0.4886668,0.26297033,-0.34604686,-0.42727375,-0.10158909,0.606178,0.6686688,-0.8187264,0.02550002,0.67954963,-0.51021194,-0.119874515,0.43449295,1.1153896,0.26395205,0.06036028,0.42933232,-0.8263142,-0.20549423,-0.45293292,-0.04205801,-0.5151939,-0.21164857,0.02832886,0.10307194,0.35789332,0.17409056,0.5865439,-0.53051466,-0.71243167,0.56881374,0.035181418,-0.5293536,0.5629802,-0.22584824,0.07892676,-0.07079124,-0.031723253,-0.5633651,0.6373839,0.051622804,0.20191376,-0.21135388,0.2642218,0.39035565,0.8660319,0.29992393,0.10255318,0.22623406,-0.4705503,0.5373376,0.30091706,-0.3936093,-0.016931962,-0.36001995,0.2933119,0.63251144,-0.30042106,-0.1672552,-0.58129054,0.0381301,-0.38583237,0.6840677,0.6151541,-0.023062939,0.5604212,0.828109,-0.24611858,-0.16495647,-0.060482174,0.2872769,0.23516378,-0.20796743,-0.5961033,-0.12518214,0.1894498,0.10832138,0.25209752,0.28786844,-0.30260742,-0.048854023,-0.2583308,0.47557423,0.5101066,-0.2847559,0.12716785,-0.30028164,0.4408133,-0.35389805,-0.14203377,-0.19559518,0.24279682,-0.5403176,-0.032715704,-0.41835433,0.704983,0.4083219,0.5195113,-0.43827227,0.43678352,0.73633856,-0.085749544,0.53071725,0.6787138,0.5507249,0.050921056,0.48345545,-0.15772182,0.1304966,-0.008704383,-0.3277212,0.3451677,-0.078240514,0.07495679,-0.02317334,0.8201321,1.1525772,0.57769495,-0.20183821,-0.4390115,-0.19496739,-0.20734407,-0.09176729,0.44478965,-0.11022254,-0.0069473465,-0.123956,-0.3255459,0.14972755,0.5218204,0.18384041,-0.18029808,-0.25906354,0.20978326,0.065848015,0.94120127,0.12948374,-0.5623754,0.40667892,0.33862117,0.038325254,-0.13749775,0.51308477,-0.38138372,0.027568331,-0.4853942,-0.38082492,0.22870985,0.11193478,-0.40855178,-0.6342751,-0.3760236,-0.05065777,-0.30725488,0.10374273,0.1079773,-0.37112442,-0.44835132,-0.11857904,-0.06864475,-0.18210009,-0.14406113,-0.19645327,0.4705792,0.44652772,0.22603565,-0.3662819,0.88173634,-0.83346283,-0.1029749,0.2058102,-0.50116354,0.063184276,0.2264606,0.051353686,-0.24384594,-0.27450728,0.017393647,0.13626365,0.76787907,-0.39813197,-0.25730407,0.23837599,0.36295342,0.36552688,-0.106744446,-0.2384584,0.1909853,0.3367749,0.14406735
Q16526	0.26377994,-0.21014695,-0.10500289,-0.53385764,-0.19067106,0.0073460764,-0.25003448,-0.33582756,0.31080538,0.50738263,-0.093786605,0.425777,-0.05712581,-0.32346848,-0.049223065,0.18218835,-0.5384631,-0.3386901,0.30504748,0.08106065,0.24471344,-0.7190254,0.064633496,-0.23734292,-0.23477332,-0.19735223,-0.25588945,-0.23043165,-0.29379007,-0.35920745,0.40466034,0.24441582,0.35419348,0.007691654,0.17238142,-0.04867833,0.20436762,0.63335085,-0.37944692,0.40658057,0.88198125,-0.14965768,-0.6510197,0.07373181,0.72220904,-0.07749567,0.27819288,-0.14667727,-0.1530368,-0.31837124,0.24810408,0.18111451,-0.10249306,-0.11856237,0.06275878,0.03752059,-0.26078925,0.58653,0.41283917,-0.535576,0.11903545,0.12544826,-0.28330427,-0.064839385,0.80707335,0.12499196,-0.13887851,-0.0070614796,0.052510925,0.2669103,-0.017378861,-0.43836176,0.27199948,-0.30889195,-0.30916867,-0.10087445,0.113967866,0.024191687,0.17517507,-0.08114644,-0.14842187,0.40978792,-0.06536949,0.7440823,-0.003612419,-0.17353696,0.13492683,0.033092514,-0.23703021,0.26260358,-0.21300592,-0.3592794,0.19533198,0.50984347,0.79673207,0.12619904,-0.467351,0.4530283,-0.22011231,-0.20936546,-0.12624988,0.024677042,-0.8311673,-0.11892366,0.41555673,0.2534132,0.065313555,0.21208073,0.043947626,0.15414187,0.42198583,-0.20073622,-0.19498423,-0.13399552,0.47951844,0.18075226,0.32847202,-0.30346546,-0.53223336,0.6364423,-0.27043068,0.043355986,-0.5688882,-0.43461624,-0.057595637,0.5073538,-0.2830185,-0.15323098,-0.28075764,-0.10684501,0.06957448,0.03006921,-0.27360848,0.058932204,-0.2196393,0.1896264,0.22632186,0.17954385,-0.18555135,0.6020904,-0.14279926,0.14712295,-0.17481631,0.46559164,0.03315377,-0.2760631,-0.21254909,-0.54998213,0.15474202,-0.31008804,-0.40923172,-0.061529934,-0.12325951,-0.7800649,-0.22253108,-0.042337693,-0.4340879,0.21097139,-0.6539806,-0.06260831,-0.051701237,-0.21412563,0.9718556,-0.03383634,0.721081,-0.22238141,-0.17285746,-0.20780344,0.785986,0.0045949114,-0.547756,-0.0411351,-0.10267617,0.6703987,0.07597117,-0.41571623,-0.3501627,0.015400663,-0.23512936,0.8354152,0.026501633,-0.7084152,-0.8438976,-0.92826605,0.2560604,-0.17680882,-0.30273494,0.6189802,0.112396464,0.47075483,-0.38414633,-0.024660913,0.26174623,0.7591142,0.15752986,-0.21343915,0.18956755,0.31456822,0.47839415,0.42240193
P07992	0.304933,0.10285955,-0.008936049,-0.1710009,-0.13025285,-0.057362862,-0.6817022,-0.4007912,0.107198164,-0.003008848,0.15831758,0.13320956,-0.07783138,-0.026299084,-0.166666,-0.19816586,-0.042925045,-0.19362383,0.39510688,0.20072244,0.37790003,-0.7248006,-0.1926501,0.09037346,0.027516631,0.08279434,0.32756928,0.16329613,0.30753034,0.05272617,0.2953187,-0.19191712,0.08085593,0.15170906,-0.09709857,0.31019542,0.22829437,0.3739542,-0.37379703,0.017244508,0.426057,0.30065593,-0.6128079,0.14229032,0.32318857,-0.32489467,-0.26227948,0.3485163,-0.40030077,0.21312985,-0.057816576,-0.03852135,-0.0583245,0.16299437,-0.15117933,-0.22984916,-0.035240818,0.23021434,0.6175919,-0.08421364,0.08675665,-0.19972931,-0.58178383,0.013243164,-0.05916785,0.19204159,-0.21564955,0.29582658,-0.45632753,0.20965672,-0.016584096,-0.3534141,-0.08110837,-0.019880213,-0.16682982,-0.2970705,0.057199024,0.07356705,-0.016882654,0.26051855,0.26093754,0.3842326,-0.15545517,0.7936043,-0.017752927,-0.11037398,0.06542761,0.20815024,0.015760377,0.33395433,-0.011996719,-0.6565574,-0.30354443,0.27995506,0.6426218,-0.0011472717,-0.70626724,0.6820493,-0.18195188,-0.5197788,-0.34028858,-0.070305005,-0.17869869,0.15879603,0.21985906,-0.29412133,0.51066536,0.6631364,-0.20771724,-0.013305128,0.2511625,0.029210763,-0.21599971,-0.15516634,0.810661,-0.18941192,0.41813475,-0.08148206,-0.27415407,0.40061623,-0.21456328,0.3508778,-0.37305784,-0.37410793,0.037561845,0.63826215,0.10864793,0.61137265,-0.44386438,0.4380799,0.5415645,-0.09982966,0.79411894,0.16286929,0.03440299,0.12719296,0.14271188,-0.10100529,-0.6503171,0.75448656,-0.629347,0.36058247,0.25018492,0.050450068,0.4666662,-0.20963605,0.29370624,-0.18009464,0.25761703,-0.010121546,0.13137099,0.16815428,-0.25918064,0.10304305,-0.47540653,-0.56419784,0.19028199,0.47481504,-0.35609937,0.34376526,0.1968937,-0.25124207,0.22530739,0.28574985,0.21750316,-0.47997272,0.2395876,-0.7514805,0.6082111,0.21293695,-0.40109596,0.04564331,-0.4638106,0.8352986,0.47180015,-0.1545166,-0.10835638,0.2676761,-0.31942546,0.46571115,0.047229223,-0.5557162,-0.4350171,-0.23136896,-0.30015665,-0.07791882,0.011600628,0.5825997,0.30720505,0.6221906,-0.4141672,-0.3564393,0.14211458,0.37400064,-0.20491229,-0.60716206,0.35450357,0.26330712,0.655147,0.2858291
P00480	-0.15980174,-0.100099005,0.11550224,-0.34751442,-0.5188718,-0.0067616934,0.004365683,-0.28704137,-0.05060219,0.4181806,-0.3123186,-0.14821862,0.04518906,-0.74990666,-0.21675466,-0.12667492,-0.35842693,-0.1528995,-0.013580287,0.18114498,-0.09146453,-0.5504162,0.13068503,0.14747289,0.21668229,-0.054532576,-0.07575793,-0.2502263,0.24181867,-0.39521676,-0.022757705,0.6273282,0.051150244,-0.08774056,-0.13980752,-0.37073752,0.26410303,0.051220134,0.19678059,0.28970876,0.7443469,0.023457542,-0.4581995,0.39275172,0.034741193,0.13581842,0.19895448,0.1237909,0.3860478,0.08165501,0.20861532,0.30657288,-0.17029774,-0.139815,0.38224405,0.1338755,-0.3767917,0.6890181,0.60278356,-0.6491085,0.3819922,-0.4286445,-0.6171662,-0.62917346,0.168654,0.5027563,-0.00434616,-0.31820357,-0.23307317,0.6239418,0.40028474,-0.60871524,0.5386348,0.78790575,-0.63158375,0.15504435,0.15606633,-0.003357961,0.5629267,-0.17672232,-0.34193197,-0.020506186,-0.14167073,0.48924062,0.17926139,0.081543535,-0.5547792,0.3728717,0.4355222,0.6221361,0.26304454,0.040385548,0.037249718,0.61161053,0.32015383,0.31388304,-0.37136766,0.85630095,-0.46358517,-0.4656698,-0.8871407,0.009870876,-0.5682068,-0.11752746,-0.7322109,0.71307045,0.4086564,0.4229064,0.004405931,-0.46989816,0.962963,0.28282383,-0.033828236,-0.17254923,0.80137193,0.1902718,0.115105666,-0.03278412,0.08402149,0.41011727,0.14200239,0.28305283,-0.7344655,-1.0073098,-0.13460943,0.2943146,-0.32190073,-0.07794825,-0.13537729,-0.019647151,0.052890204,-0.0048039746,0.27234143,0.048291884,-0.3570665,-0.12849925,0.30654085,0.21044505,0.17384563,0.99666536,-0.013566698,0.17570408,0.08396514,0.41570798,-0.27263874,0.6252972,-0.03440742,-0.2275257,-0.019574791,-0.5105465,0.13501903,-0.29542744,-0.13957705,-0.39181215,0.21652965,-0.24707709,-0.555093,0.5881875,-0.33717504,0.075851716,-0.5224267,-0.23569775,0.6987855,0.20585303,0.40572432,-0.21335408,0.027337207,0.13599531,0.7441687,0.12107284,-0.19175386,0.0742577,0.37614813,0.8782691,-0.3301253,-0.16127974,-0.4990162,0.209964,-0.53111154,0.30498716,-0.6143015,-0.3310258,-0.2673042,-0.45958492,0.15162241,-0.14310539,-0.18444507,0.40997607,0.26873928,1.0048661,-0.83859086,0.21570815,0.60629034,0.28618783,0.46519357,-0.4391414,0.499896,-0.16767834,0.8028014,-0.2886391
P25789	-0.28590304,-0.002410591,0.4755321,-0.21504898,-0.1986645,-0.34906244,-0.42091277,-0.5860595,-0.17475441,-0.15987526,-0.24888097,-0.28432813,0.11983566,-0.48892245,-0.6142911,-0.19278783,0.24294287,-0.14670832,0.25757778,0.121672474,0.08087344,-0.11133099,0.5385176,0.33549553,0.14279023,-0.20797984,0.15709156,-0.33232108,-0.25541037,-0.30584913,0.10911313,0.18579422,-0.26914772,0.09522275,-0.18633483,-0.06521121,0.41157782,-0.10525457,-0.31568804,0.018604074,0.8638222,0.38535592,-0.9751058,0.26998168,0.38377184,0.14343359,-0.4251946,-0.031514898,-0.51097834,0.95622265,0.33765075,-0.8226313,-0.15456146,-0.5023661,0.57458663,1.0573071,-0.33265123,0.23970504,0.70650595,-0.357234,0.7657838,0.6420686,-0.08092873,-0.14240819,0.2829886,0.37778366,-0.5295427,-0.20437369,-0.11229552,0.23966356,-0.55268157,-0.39592746,0.11080843,-0.27322066,-0.3451154,-0.17007028,0.6551258,-0.21446036,0.51944786,0.06431286,0.1331497,0.12698701,-0.6051935,0.35554364,-0.050375264,-0.03572148,-0.36094227,-0.16777582,-0.3652614,-0.035942897,-0.3944982,-0.40354082,0.28232196,0.26982626,0.50783896,0.65589786,0.43978077,0.08947519,0.3536889,-0.2932705,-0.021188874,-0.13391694,-0.46333638,-0.46840295,-0.4755489,0.7940714,-0.26946718,0.004178686,-0.36526716,0.06453597,0.581215,0.034150224,0.25403503,0.36791027,0.5835244,0.05124722,-0.07182787,-0.39045155,-0.7628993,-0.064344026,0.29743984,0.076501586,-0.5046053,-0.035058923,0.13702217,0.22480837,0.3301924,0.14528286,-0.20745154,0.22042377,-0.14580856,0.11411175,0.08117384,0.19006692,-0.43466002,0.27926725,0.47287098,-0.36881593,0.012605657,0.8340749,-0.024126165,0.7457243,-0.14974718,0.12347188,0.54209733,0.7117348,-0.041379195,-0.0754036,0.6475837,0.036641967,0.32653964,-0.2051326,0.099183604,-0.580021,0.17581946,-0.044518087,-0.5937114,-0.3792097,0.59340346,-0.17663264,-0.27075475,-0.6954715,0.29589304,-0.24765864,0.22948207,-0.09585201,-0.6775081,0.48953614,-0.21983545,0.059953924,0.17381811,-0.27495578,-0.13262978,0.43291792,0.25057656,-0.24257489,-0.1235584,0.11600121,-0.46280447,0.6783657,0.4335695,-0.20249842,0.12748274,-0.16925836,0.020238161,-0.15893812,-0.5413146,0.5479048,0.3662725,0.53527373,-0.6483043,0.092196904,0.25086933,0.5543277,-0.08978125,-0.096224144,0.5849732,0.3759742,0.09937418,0.24271347
P35250	0.4620644,0.48189595,0.011018574,-0.18152376,-0.04525021,-0.5025976,-0.46064335,-0.12311049,0.7217639,-0.11836548,-0.57939196,0.20746538,-0.15459476,-0.6526295,-0.754911,-0.550864,-0.41454688,0.22376858,0.43272576,-0.1204018,0.07915501,-0.6714623,0.30336607,0.03277196,-0.5995872,-0.3048855,0.09944202,-0.26373526,-0.23198242,0.096756645,0.10339909,-0.2769636,0.05766885,0.1429652,-0.4550176,0.26120844,0.376986,0.042587183,-0.18668436,0.35085827,0.66063374,0.50200224,-0.9787394,0.2417127,0.25512472,-0.1499951,-0.61965245,0.13157476,-0.22237267,0.40691957,0.5559937,0.18336035,-0.27626148,-0.43133742,0.23363417,-0.3684524,-0.18977922,-0.18513668,0.90029013,-0.42427048,0.09959855,0.0036967006,-0.4490901,-0.05965509,0.2625021,0.5300896,-0.30322447,0.124220885,-0.48151177,-0.022022778,0.26662287,-0.18998252,-0.3063736,-0.40647322,-0.38828665,-0.2775006,-0.3911879,0.1425949,0.35683608,0.11203268,0.55367357,0.32624575,-0.50550765,0.58750665,-0.0149799995,0.029269144,0.30988964,0.8329118,0.12730978,0.6727254,-0.25763768,-0.9156411,0.2187764,0.63557005,0.9228172,-0.066184625,-0.49916837,0.33515173,0.162017,-0.6406529,-0.1283927,0.26393226,-0.29434133,0.17929372,-0.24003537,0.04516509,0.4534952,0.4135944,-0.09450859,0.08936054,0.8144295,0.17068528,0.09061922,0.5652778,0.7277607,0.07138384,-0.30782947,0.2604897,-0.07584466,0.41092145,-0.057158064,0.30949315,-0.41001332,-0.23438866,0.7214088,0.48293886,0.029160354,0.4266904,-0.15053718,0.5634484,0.6776039,-0.052318133,0.27401447,0.504191,-0.08264399,-0.2208869,0.060311694,-0.32258335,-0.31894708,0.58555776,-0.53653324,0.09315109,-0.09357357,0.882852,0.6479939,-0.033273637,0.28155157,0.003999763,0.45385772,-0.049039405,-0.1807244,0.3230758,-0.2811775,-0.11942264,-0.14887396,-0.19015868,-0.19840617,0.65383464,0.27314696,0.2008442,-0.12952308,-0.4810588,0.527226,0.06380116,0.20224996,-0.31341305,-0.16294605,-0.10617435,0.15450421,-0.0887072,-0.35005865,0.010556905,-0.07461886,0.5191191,0.55055046,-0.4138877,0.020197637,0.39837077,-0.41025284,0.668714,0.11306731,-0.45229572,-0.14299232,-0.52922267,-0.3237156,0.028561627,0.40768585,0.6919685,0.033149015,0.4876023,-0.6099281,0.15617588,0.046806265,0.07005268,-0.02845581,0.0818722,0.47471213,0.43369094,0.6208553,0.06609709
P82673	0.22491999,-0.40598688,0.06826547,-0.21629855,-0.5763911,0.08799071,0.9167444,-0.11551413,0.8249506,0.35213414,-0.53076994,-0.09382149,-0.2025493,-0.5843563,-0.28964692,0.014767839,0.10828924,-0.27798083,0.12662058,0.15358657,-0.24145266,0.14922935,0.4316059,0.534463,-0.12408097,-0.32662272,0.121193685,-0.69702876,0.13854162,-0.13313755,-0.19399022,-0.034534767,0.21790682,0.13532163,-0.31778565,-0.45784873,0.52464014,0.2831241,-0.47175756,0.33879447,1.1136272,0.034361012,-0.6850382,0.18688007,0.21597467,-0.3163408,-0.3341312,0.043473184,-0.46965197,0.58584774,0.08337702,0.23704238,0.050106484,0.07442418,0.3215428,-0.012322304,-0.008803399,-0.11669001,0.33990106,-0.08010914,0.4348507,-0.46323633,-0.44719642,0.116992325,0.09013711,0.49153847,0.3375106,-0.08400764,0.11932688,-0.040766314,0.3600932,0.015888656,0.6307031,0.4022211,-0.09686843,0.84777343,-0.09390205,-0.11675784,0.23579437,0.086018935,0.2934109,0.12499773,-0.7706392,-0.39173037,0.105675235,0.32310742,0.2554001,0.39923263,0.35190377,0.6943744,0.4326876,0.0074023334,0.30020723,0.52561903,0.5835418,0.20276564,-0.39761782,0.39335078,-0.10897275,-0.14459823,-0.62970597,0.06957397,-0.4534847,0.23308896,-0.3859034,0.1592639,0.080181286,0.29311773,-0.3004676,0.31638286,0.8583132,0.5399682,0.07105053,0.5798901,0.70782924,0.21401238,-0.06146182,-0.43073785,-0.02284155,0.30771813,0.09001514,0.1809857,-0.2742597,-0.36998412,-0.39435396,0.46443975,0.082238115,0.037607145,-0.18463492,-0.33438706,-0.20503524,-0.38428304,-0.5225847,0.03891549,-0.11191292,-0.5632866,-0.07743891,-0.5221394,0.7167506,0.82231724,0.19182451,0.2900637,-0.22603336,0.49933323,-0.11738253,0.7737173,-0.108503975,0.16205765,0.66046983,-0.01196595,-0.17910449,0.42081478,-0.7407341,-0.8496736,0.23933363,0.4438808,-0.7327188,0.31211933,-0.15244931,0.2975739,-0.68101805,-1.0124829,0.10491396,0.031677675,-0.23066133,-0.5351535,0.2254065,0.191974,0.6984167,-0.10801901,0.32834047,-0.26034844,-0.14017907,-0.030100785,0.26160726,-0.7464014,-0.8641652,-0.1826682,-0.5389942,0.044094864,-0.22984432,-0.4980071,-0.13432574,-0.47130555,0.035558704,-0.12477663,-0.044762813,0.9906078,-0.14257726,0.7641166,-0.46558118,-0.26816475,0.7743019,0.10671737,0.21234486,0.18419759,0.12571383,-0.07294458,0.21281204,0.11714903
P43686	-0.31354925,0.2246771,0.3355637,0.00197081,-0.35727152,-0.3147541,-0.4949666,-0.53700066,-0.17244989,-0.0651712,-0.32427388,-0.29033324,0.37825605,-0.30301464,-0.30640128,-0.08027401,-0.013835675,0.060920637,0.21492584,-0.15068783,0.07471102,-0.16598618,0.46869287,0.34512696,-0.028046302,-0.025510944,0.017230676,-0.32042176,-0.2731344,-0.662542,0.06376567,0.37627476,-0.20847674,-0.10370395,-0.073006585,0.038125336,0.34952348,-0.33787066,-0.57362944,0.21709529,0.59394467,0.16511962,-0.7151554,0.18994956,0.089703746,0.10834292,-0.30059904,0.07792414,-0.64281285,0.8023337,0.2201795,-0.43313414,-0.27185553,-0.5182427,0.24197342,0.93183386,-0.2295357,0.02800043,0.76962775,-0.14356992,0.59581953,0.4770752,-0.32603756,-0.41479835,0.41365463,0.5292084,-0.4215219,-0.09568234,0.11916402,0.056717955,-0.50294983,-0.6022319,-0.059897147,-0.35705572,-0.41933122,-0.14815283,0.19660132,0.11088033,0.5023695,-0.0036946672,0.2803621,0.31898034,-0.86038655,0.46397623,-0.04260256,-0.08104424,0.025269827,0.20634216,-0.16513628,0.26433656,-0.7022977,-0.63099045,0.21045397,0.22278096,0.5467153,0.69752586,0.13406694,-0.019669807,0.21771379,-0.16785496,0.035905197,-0.12872046,-0.2858951,-0.21779677,-0.5015259,0.44227067,-0.49024537,0.26865515,-0.59956515,0.0999509,0.70080763,0.13703696,0.009809903,0.40672016,0.6806304,0.1278622,-0.13679421,-0.4145825,-0.7228556,0.122001156,0.3903558,0.07683868,-0.35444254,0.23655021,0.059898473,0.35837448,0.37365147,0.28208363,0.025748543,0.42360684,-0.22139762,-0.023636231,0.07546591,0.22356865,-0.3748571,0.19865961,0.5939582,-0.39831313,0.10714785,0.9490512,0.12421416,0.78234726,-0.1685918,0.21851392,0.6359094,0.73644096,-0.14586966,-0.12851954,0.5612911,0.19944264,0.4068466,-0.116825424,-0.061149284,-0.3824646,-0.023793506,0.23492263,-0.55830586,-0.18741693,0.87145305,-0.07092233,-0.23807941,-0.65895915,0.26068002,0.023738237,0.108063065,-0.47220206,-0.53823644,0.54043436,-0.023394957,0.059225332,0.1503374,-0.47864527,-0.15154359,0.24312551,0.48250756,-0.28443292,-0.08447428,0.06210914,-0.2846738,0.76334846,0.4950057,-0.20207824,0.49611256,-0.07469694,0.028305106,-0.1681829,-0.52855,0.3011879,0.15424779,0.2744529,-0.44912183,-0.19324893,-0.05434898,0.20608178,-0.32947883,-0.0071331537,0.5558231,-0.15921171,-0.06834906,-0.01995106
O95168	0.07804508,-0.29899606,-0.10107785,-0.45307803,-0.7332614,0.28766844,0.42658654,-0.5736815,0.52381396,0.3925368,-0.08300339,-0.21552949,-0.23933227,-0.41915774,-0.7768816,0.28632563,0.094267644,-0.7035276,0.23891142,0.12998159,-0.08465698,-0.0836269,0.4470259,0.31322813,0.033870842,-0.2251058,0.17850173,0.09128389,0.38974065,-0.2740314,0.32210106,0.005654976,0.1920177,0.24040402,-0.014675061,-0.30032784,0.31014514,0.1075703,-0.73723435,0.41047502,0.6776331,-0.14220855,-0.83243024,0.5291393,0.05933684,0.4171071,-0.5121243,0.1650594,-0.59325695,0.34990597,-0.50028807,0.046439935,0.3603417,0.07717305,-0.18917385,0.32722327,-0.03545095,0.38360098,0.8543613,-0.41384998,0.47556597,0.3001012,-0.066760026,-0.24224083,0.12120757,0.7713483,0.090176985,0.10070002,-0.0023207373,0.0677976,-0.1824834,-0.7680422,0.3567549,0.29893643,-0.58444285,-0.1168161,0.24755013,-0.13590968,-0.106195986,-0.015207873,-0.31135452,-0.20526902,-0.57620627,0.016880602,0.43296704,-0.22830395,-0.0696262,-0.042005856,0.24054559,0.3902237,0.052725445,-0.055018246,0.0789859,0.28247702,0.56300265,0.53636897,-0.037923906,0.5295067,-0.30489865,-0.25147045,-0.08586642,0.36123893,-0.39493582,-0.0919512,-0.53334254,0.36285233,0.28740698,0.15974939,-0.7375012,0.26149812,1.3091773,0.18593426,-0.07221094,0.47790575,0.886942,-0.43006787,-0.25680178,-0.23939583,-0.27073726,0.37897468,0.046184834,0.27364653,-0.38317686,-0.37962916,-0.26338094,0.159699,-0.32450774,0.536953,-0.1096035,-0.24016571,-0.3856068,-0.37727255,0.08335214,0.50058514,-0.1769437,0.0586268,0.18586707,-0.36964312,0.26926607,0.6824545,0.048746962,0.4416243,-0.15762325,0.36985415,0.23227672,0.10993159,-0.32695067,-0.045246568,0.33948052,0.046701044,-0.14512235,-0.016780075,-0.33884346,-1.1168433,0.27731502,0.7257115,-0.89174336,0.5488054,-0.60681134,-0.29846215,-0.77988607,-0.8043598,0.47552654,0.030037904,-0.024930779,-0.6054235,0.034650244,0.40620664,0.98303986,-0.120965295,0.09482539,-0.6670425,0.15084836,0.4817833,-0.1943208,0.11844102,-0.4767104,-0.07549765,-0.38939056,-0.28927958,-0.32564685,-0.36885574,-0.642906,-0.8763367,-0.16362932,0.048629757,0.17558546,0.9813719,0.099057294,0.10717514,-0.87180156,0.36239675,0.43264276,0.77605015,0.21972072,-0.33990285,0.001984354,-0.49926925,0.49682376,-0.13610631
Q9NW64	0.6821528,0.06746068,-0.320323,-0.52942914,-0.10162094,-0.06235961,-0.22107427,-0.61802155,-0.00072931533,0.05681261,-0.22681849,0.15115103,-0.46607584,-0.12815285,-0.34048897,-0.18648805,0.10074608,-0.6133152,-0.09188031,-0.09017792,-0.05212247,-0.5024967,0.17290604,0.21970642,-0.16000006,-0.16186246,0.14699477,-0.5797324,-0.55317837,0.038939305,0.51117426,-0.15330447,0.33315554,-0.2232653,-0.4873835,1.007263,0.27197087,0.22757788,-0.5346857,-0.29125068,0.44630376,0.3051734,-1.1190805,-0.37888175,0.009765511,-0.27636114,-0.5088209,0.21329242,-0.6684261,0.32716182,0.4088984,-0.38614118,-0.3139803,0.048252344,0.18549678,0.5881724,-0.045672145,0.19457811,0.4228138,0.18478358,0.06439802,0.26700175,-0.5258138,-0.08489234,-0.19421616,0.5053603,0.47276157,-0.28499344,0.1365889,0.18086506,0.14451508,-0.061893173,0.026620913,-0.09098704,-0.45109704,-0.17967422,0.04892724,-0.04316612,0.6904928,0.47039714,0.44036195,0.5653651,-0.5828434,0.43608737,-0.14812234,0.15623407,-0.017454104,0.27603272,0.44373068,0.278769,-0.23036377,-0.031217327,-0.31264332,0.11989917,0.5606656,0.078287326,-0.39849767,0.27862465,-0.19876646,-0.16763453,-0.2650103,0.004629378,-0.63022727,-0.044472434,-0.3225731,-0.25794518,0.13920555,0.35610062,-0.1407528,0.22606514,0.55227315,0.093655914,0.16982345,0.0824204,0.56290555,-0.09003696,-0.214282,0.51366335,-0.59362096,0.62243396,-0.50307703,0.21766657,-1.0126643,-0.52119076,0.037062813,0.45209214,0.088795505,0.94584346,-0.15807433,0.009332621,0.3122965,0.19578768,0.28782114,0.32643276,-0.09885575,-0.29299238,-0.23998792,0.069204725,0.20068188,0.37451857,-0.14982592,0.5606153,0.16730922,0.36564037,-0.10888928,-0.20070055,-0.14223985,-0.1922103,0.79170424,0.41793495,-0.091107436,0.29747507,-0.05100061,-0.29650742,0.48312548,-0.24063976,-0.21356907,0.5662037,0.22902581,-0.19702809,-0.34897566,-1.0006866,0.13220839,0.055875756,-0.36254153,-0.0111119775,0.031976365,-0.4161341,0.2250901,-0.092835166,-0.23983756,-0.53835636,-0.44998947,-0.05345745,0.70319587,-0.26002392,-0.029340992,0.050019313,-0.2414,0.25337628,0.15770297,-0.93638134,-0.28376392,-0.7184726,0.35476312,-0.2547879,-0.122561306,0.7241267,-0.1802204,0.11626972,-0.34749088,-0.38479903,0.07816386,0.2633445,0.1994955,-0.48341766,0.3320079,0.3481801,0.030732585,0.19797225
P31930	-0.54416394,-0.04717852,0.58478314,-0.25986737,-0.8345285,-0.23460335,0.1953881,-0.37542146,0.37379846,0.012906993,-0.6569187,-0.02474898,-0.12788428,-0.25418112,-0.4224516,0.21983942,0.24375398,-0.35472605,-0.40116078,0.6197478,-0.13047162,-0.29338723,-0.017441528,0.004435081,-0.18283992,-0.24697982,0.080170795,-0.24861799,-0.11631729,-0.44914308,-0.61096805,0.07552434,-0.35745043,-0.17214781,-0.29275286,-0.16855496,0.4492174,0.2385255,-0.8601201,0.44554743,0.9999845,-0.1870698,-0.6734078,0.4118211,-0.13342042,0.18293735,-0.60418475,0.5973793,-0.0711716,0.06380038,0.37812975,-0.41821912,0.12665157,0.024559673,0.6844391,0.5001354,-0.33765844,-0.12415927,0.50853246,-0.5908937,0.75972193,-0.074483745,-0.51144993,-0.59395593,0.77043056,0.2568741,-0.123060286,-0.25494033,0.13921842,0.06210731,-0.18732072,-0.058206763,0.24470888,0.29735515,-0.068764776,0.50828105,0.10518489,0.001981628,0.3053856,-0.27005336,-0.14161931,-0.2979592,-0.15106505,0.09411435,0.024467647,0.1352374,0.11353417,-0.055497147,-0.4183191,0.54187846,0.08286418,0.28934377,0.23103158,0.3652771,0.42712656,0.41872346,-0.2585539,0.4717122,0.07087042,-0.60868275,-0.14701125,0.22120118,-0.41059437,-0.23005137,-0.85046583,0.6410143,0.46657014,0.40363345,-0.28828785,-0.3948788,0.73994136,0.47646263,-0.19447,-0.06368104,0.7667244,0.22241563,0.04999758,-0.31331056,-0.54349893,0.36160356,-0.046101782,0.4035855,-0.14779428,-0.48200798,-0.53726673,0.33293867,0.0009128757,0.42161056,-0.18777514,-0.14121427,0.24565023,0.12169894,-0.3595988,0.22625375,-0.2302481,-0.14348328,0.87958443,-0.23884816,0.47766793,0.5814736,0.39990753,0.3532593,0.048172366,0.037415847,-0.14355068,0.71932673,-0.44323224,-0.71567076,0.41459784,-0.25479224,0.2886714,0.07109146,-0.106862664,-0.8368495,-0.05585513,0.057017732,-0.6795078,0.22898895,-0.107428454,0.45513147,-0.8028169,-0.5169666,-0.063165225,0.003996941,0.7882226,-0.24801385,-0.34625655,0.008950354,0.62903935,-0.045841604,0.13153577,-0.49178886,-0.06623429,0.5823295,0.25180122,0.5402861,-0.5205762,0.17907254,-0.34485614,0.12046151,-0.09992716,0.19779558,-0.32334915,-0.71654993,0.097920224,-0.09107606,0.106581405,0.6415076,0.023967685,0.5693581,-0.65205413,0.25383908,0.14345242,-0.019198434,0.37626323,-0.21271864,0.06355839,-0.0057021063,0.3368271,-0.3772352
Q99741	0.042382255,0.429523,0.12964241,-0.3191627,-0.6795663,-0.06802437,-0.2177113,-0.36762553,0.2747851,-0.39233097,-0.36829406,0.25569487,0.21871383,-0.33519515,-0.5185057,-0.2954481,-0.077818304,0.0569398,0.2640061,0.063141264,0.416744,-0.6749958,0.19494957,-0.16749434,-0.47215623,0.028824028,0.09916712,-0.09352144,-0.18683912,0.18245749,0.37088567,0.06865783,0.14123738,0.39943558,0.028021395,0.020003216,0.4547759,0.042640302,-0.7020432,0.32564148,0.4068099,0.42644128,-0.8943031,0.13239917,0.5537061,-0.27934283,0.08669312,0.04414777,-0.20245194,-0.024542,0.57660353,-0.3676915,-0.2813146,-0.13348006,-0.015013459,0.2700404,0.001374976,-0.49016255,0.5230939,-0.1265471,0.0022752122,0.13592446,-0.74822277,0.012081302,0.61902606,0.17392048,-0.4360042,0.26973867,-0.505273,0.17225714,0.050133258,-0.15574412,-0.42862487,-0.8260447,0.009599827,-0.07439437,-0.044481345,0.3885618,0.07889012,0.088935845,0.68193114,0.38744098,-0.12077527,0.887579,0.079336084,-0.3509902,0.2742306,0.503486,-0.32391688,0.505701,-0.21019469,-0.61230075,0.3080941,0.49520048,0.7013207,-0.27424493,-0.4002476,0.59997153,-0.1568878,-0.73492634,-0.15766983,0.16282508,-0.45379913,-0.13362017,0.107595645,0.15127455,0.59166396,0.4959603,-0.5252132,-0.18658537,0.12830524,0.2530248,-0.30138898,0.16109955,0.6889277,-0.32728046,0.0055735516,0.053575702,-0.886348,0.67158574,-0.1297378,0.14931087,-0.66473454,-0.21073572,0.2648589,0.52467227,0.1087118,0.010450856,-0.3331766,0.8137569,0.36327156,-0.23298283,0.18626738,0.22955532,-0.1461964,0.16898729,0.48682544,-0.41438696,0.3162085,0.5818719,-0.3838917,-0.03391184,0.29398662,0.5346096,0.531276,0.12918887,-0.0019244808,-0.5184849,0.22698951,-0.0016254607,0.4369501,0.29738885,-0.23246479,-0.07550759,0.25095752,-0.5714346,-0.116716385,0.05630688,0.16452959,-0.0072221826,-0.10793759,0.07194151,0.5730128,-0.21150501,0.5184075,-0.015887557,-0.03654302,-0.24266164,0.3395511,0.26942813,-0.11431671,-0.11427995,-0.20407678,0.621911,0.317736,-0.30374548,-0.123925954,0.20318896,-0.31735134,1.0050232,0.7182182,-0.49442887,-0.48677123,-0.6672093,-0.26912072,0.09563529,0.023458738,0.5500536,-0.19177002,0.35550374,-0.47168025,-0.15474688,0.03632143,0.32728693,-0.08984375,0.2725915,0.4350536,0.14633323,0.25135878,0.083590485
P18206	-0.34836018,0.2056024,0.2778176,0.11173975,-0.34982294,-0.3778704,0.06633229,-0.45058954,-0.39597768,0.039093092,-0.47537598,-0.1797792,0.020849256,-0.52433133,0.17515041,-0.21315825,0.2389271,0.38438505,-0.43421492,0.464974,0.29063737,0.29169747,0.09261887,0.34947672,0.3102929,-0.18768115,0.3305579,-0.33741292,0.2571518,-0.6227151,-0.23206155,-0.12374221,0.35616425,-0.08938151,-0.051731713,0.17990102,0.28489482,0.3438711,-0.56995386,0.15200853,0.51878756,-0.106891364,-0.35011408,-0.16320099,-0.07323253,-0.42681998,-0.30292413,0.111460954,-0.08362129,0.50029296,0.49228454,-0.9909455,-0.38978708,-0.40783638,0.27099606,0.15268363,-0.4082972,0.042906407,0.09112114,-0.06034441,0.4200575,0.41540334,-0.74103016,-0.23921563,-0.10688303,0.27169454,-0.19131388,-0.032742996,0.014796771,-0.015507768,-0.85582423,-0.1484207,0.4688175,0.5600432,-0.41326535,0.123953156,0.39540282,-0.018279834,-0.057173576,0.058154833,0.51400554,-0.19557445,-0.21474047,0.10531873,0.081924416,0.75816965,-0.13180023,0.015347963,-0.25451264,0.4671224,-0.28756413,0.19288047,0.2531801,0.025629226,0.17428586,0.94896865,-0.28183028,0.41097075,-0.16038169,-0.42050195,0.047320552,-0.5955519,-0.25840715,0.027035987,-0.9485264,0.01598863,0.22443163,-0.06737736,0.074615166,-0.6808797,0.23541887,0.47812554,-0.15910149,0.2900051,0.09860242,0.010570866,0.09077324,-0.32892552,-0.78821003,0.10661142,0.14005314,-0.18967906,-0.36909539,-0.4389677,-0.26132175,0.46921274,0.5014747,0.049099,0.37628815,-0.18788528,0.17564967,0.38840228,0.28065497,0.5017689,-0.30929342,0.015957199,0.67299443,-0.27044576,-0.31269738,0.361518,-0.34598094,0.116975166,-0.08329654,0.025480542,0.35176358,0.96438104,-0.07743575,-0.29760063,0.37392166,-0.8060831,0.21021183,0.7406326,-0.05209246,0.02719033,-0.031167338,-0.27980754,-0.015629724,0.0298384,0.25505674,0.45969608,-0.092156895,-0.47894993,-0.29748386,-0.22682856,0.49140474,0.051673997,0.07890492,-0.974911,0.22695458,0.36860722,0.2721331,0.06600302,-0.39759988,0.12770231,0.31554753,-0.06832118,-0.5175532,0.26384664,-0.17581224,-0.079632804,0.31224516,-0.32598552,-0.11959739,-0.14787331,0.085198395,0.5461765,-0.71586746,-0.18129374,0.40275598,0.19017062,-0.41435605,-0.07564329,-0.17993575,0.048815675,-0.00026198925,-1.0051806,0.40248346,0.38173157,0.31497484,-0.07515313
Q96EB6	-0.18916126,0.52715546,0.0915867,-0.19006234,-0.37329385,-0.31051475,-0.6365828,-0.2828835,-0.008358879,0.056915626,0.21760878,-0.2035786,-0.013586998,-0.13608561,-0.08997303,0.11310991,-0.05716921,-0.26509213,0.34781057,0.25174454,0.16388032,-0.3945848,-0.060930137,0.02083616,0.1661272,0.25642064,-0.28135982,0.14787954,0.025533624,-0.23667182,0.2909575,0.13641754,-0.01574526,-0.10561559,0.12028573,0.07948272,0.06509161,0.36743134,-0.5144475,0.23645443,0.22864346,-0.029958088,-0.34701625,0.15723304,0.16888866,-0.21136002,-0.12197058,0.19052702,-0.06908795,0.061791472,0.046880223,-0.1817015,0.115342684,-0.016475437,-0.07359908,0.15601608,0.21953833,0.30499884,0.3423533,-0.2834544,0.31412244,0.17594428,-0.14883988,-0.059127174,0.47192815,0.13910146,-0.19228324,0.544396,-0.07551518,0.3827923,-0.33744162,-0.26933938,-0.03624723,-0.22572178,-0.27022108,-0.19772618,0.068283714,-0.13359591,0.26207653,0.0065060435,-0.1762662,0.13992277,0.05148639,0.6065341,0.23214884,-0.24711001,-0.09198254,0.002522625,-0.022107502,0.11276258,-0.04437234,-0.11148643,-0.046290662,0.36489895,0.7082465,0.33525908,-0.3836833,0.44489777,-0.09530362,-0.3951801,0.023111358,0.08741838,-0.5433389,-0.19874685,-0.39330986,0.30252588,0.38513908,0.30273342,0.028493622,0.13233091,0.39179096,-0.03967373,-0.1528938,-0.0540359,0.5136933,-0.09918876,0.23943175,-0.2184995,-0.4044197,0.44854957,-0.21515954,-0.05787081,-0.60818374,-0.30960053,0.05558103,0.36754864,0.043264464,0.3951671,-0.07037847,-0.10323877,0.3757624,-0.10555205,0.12369995,0.2327961,0.005356651,0.22818789,0.47153154,0.12437972,-0.22808003,0.50411403,-0.15342462,0.2401445,0.31154096,0.12825029,0.48512125,-0.23518854,-0.07180737,-0.084093876,-0.19642624,-0.088439345,0.0042748214,0.029391019,-0.05437717,-0.10740661,-0.29603955,-0.26688534,-0.100828156,0.198155,-0.12561527,0.26815945,-0.18414816,-0.103094794,0.5057534,0.19409755,0.27541977,-0.43756008,-0.12500426,-0.20043784,0.4456711,-0.13637999,-0.52369565,-0.12255252,-0.18285629,0.36600918,0.2955401,-0.18743837,-0.03157838,-0.06103149,-0.11541187,0.42172936,0.010616306,-0.09198381,-0.28246555,-0.42325297,0.14007273,0.11084129,0.036015496,0.467271,0.10823993,0.4426109,-0.17820776,-0.30299842,0.28651538,0.45474583,0.088010214,-0.22183748,0.18504505,-0.1466583,0.3607061,0.21966101
P48556	-0.32093668,0.19580266,0.4427979,-0.28059223,-0.1889106,-0.30445963,-0.5169849,-0.6511117,0.060487248,-0.20469792,-0.5292538,-0.24661013,0.09350199,-0.34926185,-0.70123005,-0.24701513,0.26177615,-0.23470622,0.19462708,-0.047583167,0.1280983,-0.024504362,0.6229464,0.23009965,-0.122033864,-0.3306099,-0.017750677,-0.32475057,-0.26291314,-0.40861398,-0.12824748,0.1568003,-0.21409403,-0.007942422,-0.15805197,0.1625684,0.49998003,-0.24276467,-0.62374747,0.10634579,0.97134054,0.28616494,-0.9640516,0.3029201,0.501463,0.19356546,-0.4534425,0.053238787,-0.9025059,0.8443166,0.24600026,-0.60955626,-0.23464262,-0.2874116,0.60793215,1.0008366,-0.20260558,0.19519448,0.757268,-0.37433642,0.65246576,0.56385326,-0.23578827,-0.3321309,0.45712203,0.35820395,-0.7552727,-0.076732285,-0.07669096,0.009963212,-0.41453615,-0.5426264,0.12418479,-0.4360448,-0.3985246,-0.1973376,0.39880937,0.066214755,0.5129482,0.0026494036,0.31927997,0.22948556,-0.6709098,0.46236223,-0.015285944,0.054949373,-0.0013620836,0.23903984,-0.268014,0.2253559,-0.7265196,-0.53152597,0.021244407,0.19170891,0.4775631,0.57857686,0.20092638,-0.0029388557,0.34150735,-0.2979136,0.32464874,-0.07744489,-0.2480162,-0.32823193,-0.39311147,0.59920704,-0.32094327,0.07103623,-0.5391695,-0.010922286,0.612152,-0.002513561,0.060329106,0.44576147,0.9437601,0.16989441,-0.050901443,-0.40039623,-0.6505894,0.037984625,0.5468482,0.101756826,-0.2977526,0.25685653,0.3957698,0.46173856,0.32886115,0.35217762,-0.12616874,0.28361493,-0.15981196,0.084727004,-0.009099868,0.34932894,-0.27848566,0.0734104,0.50786024,-0.49935126,0.054705326,0.8911283,0.10639321,0.72716945,-0.18792465,0.15168808,0.39350605,0.6390149,-0.102589875,-0.15044867,0.9262128,0.25982442,0.25348786,0.07802157,-0.0970411,-0.54981154,-0.118642,0.14019425,-0.7519285,-0.3598871,0.68945146,-0.068943664,-0.31341052,-0.9534412,0.097478956,-0.3082639,0.19383879,-0.35363984,-0.6786277,0.50627434,-0.18747726,0.090688296,0.06795439,-0.37075016,-0.17431256,0.2847975,0.47919762,-0.17285864,-0.12490311,0.20339341,-0.2242708,0.6788744,0.31875658,-0.29370633,0.16179799,-0.12580435,-0.12594835,-0.27961856,-0.4478122,0.5174943,0.034627825,0.30574942,-0.5762955,-0.03805547,-0.118032664,0.4251343,-0.15900129,0.053813417,0.5353382,0.22046019,0.12508596,0.11026769
P30049	-0.24405727,0.21332948,0.39550933,-0.0685949,-0.54214805,-0.43628597,0.22174218,-0.37326893,0.33278236,0.22529183,-0.7287481,0.11931708,-0.27845395,-0.83298874,-0.53008175,-0.18750788,-0.12118137,-0.09543515,-0.16181618,0.4967948,0.068579115,-0.3247332,0.41279915,0.67542946,-0.094839886,-0.35864222,-0.16601217,-0.29912332,-0.07068584,-0.27697018,-0.23740053,0.0117614195,-0.061289128,-0.40423712,-0.4952135,-0.15339158,0.818402,0.27525127,-0.17552623,0.09463275,0.88288,0.15529622,-0.6073532,0.2543228,0.14190952,0.036301784,-0.7588912,0.17988569,0.15218283,0.17340633,0.25790334,-0.11556328,-0.022877056,-0.8231196,0.35464638,0.10554841,-0.74323714,0.072152436,0.6012146,-0.22787355,0.59631217,-0.24447198,-0.21469468,-0.370982,0.5420115,0.81085813,0.44715825,-0.43143243,0.14593582,-0.20554449,-0.08325955,0.010276017,-0.06829592,0.5275178,-0.49826935,-0.008951004,-0.2874076,0.09598083,0.34826598,-0.12212102,0.22382927,-0.20809188,-0.45023614,0.18549347,0.1059541,-0.04352492,-0.28408504,0.5514373,-0.026723247,0.6113746,0.39842156,-0.21185979,0.28298852,0.7101222,0.7444303,0.72246,0.0034939684,0.7131151,-0.07773442,-0.51275384,-0.38416958,0.23462234,-0.42458367,0.023008453,-0.92694,0.44968742,0.16318649,0.035643887,-0.21356034,0.23025337,1.1764156,0.03468381,0.33706307,0.5734628,0.5816568,0.34614277,-0.5292586,-0.4665233,-0.508747,0.5786002,-0.29677314,0.004760097,-0.35889167,-0.5279823,-0.059068773,0.24889189,-0.2604184,0.14045279,0.28493834,-0.025612282,0.2570829,0.22327347,-0.017840223,0.15769272,-0.4345277,-0.03546981,0.21594307,-0.16213942,0.7179919,0.64932936,0.17356539,0.095152944,-0.32438743,0.8049389,-0.05797703,0.45298862,-0.33049643,-0.006123329,0.27790344,-0.17360622,-0.32254222,-0.03628237,-0.14913912,-0.36957508,0.3091725,0.14394933,-0.63821435,0.5739073,0.065560326,0.35778725,-0.66295964,-0.26633587,0.49656552,0.0055482136,0.44994467,-0.1405231,-0.31841967,-0.23772545,0.26431185,0.029263822,-0.2947124,-0.23827228,0.50522065,0.46700415,-0.1203979,-0.5264664,-0.03475713,0.6241473,-0.8189263,0.31742817,-0.5282704,-0.34136486,-0.2044829,-0.608677,0.0077326973,-0.23455764,0.08940864,0.3107449,-0.098655626,0.86810243,-0.63656265,0.45332688,0.32908195,-0.12228323,0.6218722,0.029655263,0.096765235,-0.11206105,0.2397974,-0.21858671
P17568	-0.16897409,-0.11451997,-0.044749968,-0.4571089,-0.2722941,-0.056487408,0.53868765,-0.69918525,0.31202558,0.39964682,-0.23226276,-0.21505988,-0.17268579,-0.4707829,-0.6810631,0.15703925,0.22965892,-0.8034253,-0.040030293,0.3863478,-0.24120727,0.010308291,0.60041356,0.8309101,-0.07585356,-0.153084,0.19558737,-0.18317111,0.5065253,-0.5905258,0.17370336,-0.06703005,-0.041323505,-0.17339073,-0.35331827,-0.15327023,0.60408825,0.21138045,-0.6091891,0.2732601,0.6538694,-0.13855773,-0.906101,0.507319,-0.014962632,0.06444811,-0.68641645,0.11818192,-0.4887257,0.1717273,-0.1568104,-0.32442603,0.2290427,-0.015532334,0.48681036,0.22250386,-0.24731387,0.040237494,0.7859289,-0.69871444,0.82254,0.025014412,-0.33006904,-0.2229192,0.13367023,0.6562229,0.4241718,-0.06926688,-0.105436936,-0.139344,-0.23753947,-0.24327645,0.45072696,0.5578826,-0.6234691,0.0060699186,0.6652955,-0.0069240886,0.09094801,-0.27588362,0.059487805,0.0788333,-0.60487574,-0.112518735,0.4291725,-0.25698385,0.13100718,0.29112074,0.10351738,0.40578339,0.2900825,0.13971935,0.029206231,0.39398023,0.4584512,0.3929843,0.013904263,0.67085767,-0.03521037,-0.44961503,-0.1843628,0.29300168,-0.59107953,-0.15539488,-0.86787355,0.36488408,0.22732504,0.3879593,-0.5738744,0.23098388,1.176288,-0.08779434,0.21349758,0.36201566,0.90640074,0.20133232,-0.24834716,-0.670818,-0.07554279,0.46129107,-0.35896975,0.1974888,-0.41047493,-0.34719178,-0.19832359,0.401067,-0.42892385,0.6110339,0.16033705,-0.17312387,-0.16277796,0.03327603,-0.1846798,0.46513537,-0.31008646,-0.08446921,0.37104222,-0.28773275,0.6846994,0.5476068,0.19015512,0.1680495,-0.5927252,0.44918326,0.2590067,0.5072194,-0.122567594,-0.2213845,0.34260195,0.26252374,-0.28799343,0.030667495,-0.22104408,-0.777281,0.4670658,0.45776048,-0.93759376,0.53743935,-0.32172135,0.22974662,-1.0163116,-0.5080025,0.21253935,-0.23355797,0.16112752,-0.38092262,-0.14788043,0.38592997,0.5659095,-0.1623988,0.15117474,-0.6004644,-0.19368714,0.7451833,-0.1240581,-0.09798331,-0.39859462,0.25429043,-0.7343829,-0.30792758,-0.38410625,-0.3377773,-0.57092,-0.7066951,-0.08527452,-0.19230318,0.18651883,0.5786967,-0.0775776,0.28031504,-0.6086081,0.42078766,0.5100021,0.42622098,0.25461403,-0.26013058,-0.07242716,-0.21314752,0.5113594,-0.047332574
P62318	0.23640229,0.038498946,-0.51740706,-0.57484084,0.042731468,-0.48583093,-0.15673317,-0.48130625,0.23650588,0.01543893,-1.0274009,-0.13838877,-0.25909996,-0.09620027,-0.41981557,-0.24642277,0.581182,-0.6422671,-0.16271852,0.08985354,-0.021866431,-0.4955584,0.57788545,0.45599896,0.21744889,0.3547589,0.40348274,-0.30228287,-0.5869969,-0.12236961,0.34037244,-0.11494146,0.24415705,-0.27160776,-0.39426687,0.8055775,0.592625,0.53029746,-0.6147833,-0.23293762,0.468301,0.5812958,-0.53529364,-0.10973299,0.12725374,-0.0837694,-0.35642207,0.47964275,-0.48373953,0.5791121,0.831776,-0.22293633,-0.44224355,0.011184417,0.61868995,0.58153933,-0.18943976,-0.08124771,0.3739285,-0.06613364,0.2294922,-0.17465301,-0.67516315,0.08769566,0.07543413,0.58220786,0.70677006,-0.18692811,-0.23563337,0.17411138,0.1595826,-0.14704166,0.27085835,-0.2288902,-0.022026338,-0.25566754,0.09663846,-0.08959681,0.65805614,0.13327917,0.51240987,0.6567531,-0.5607938,0.07502224,-0.21537867,-0.12292131,-0.07897338,0.5925472,-0.11196988,0.26621827,0.08856373,-0.4995079,-0.3416458,0.27494675,0.295275,0.17883268,-0.32651627,0.09790052,-0.14506744,-0.42878047,-0.64740366,-0.052845754,-0.5480423,-0.06591539,-0.39038172,0.039550845,0.2622351,0.27850866,0.010019201,0.23252852,0.6438389,0.071275495,0.1519515,0.2695157,0.79926825,0.11458259,0.2827033,0.1647669,-0.46934682,0.44456753,-0.50722116,-0.047979888,-0.8841804,-0.34135953,0.04671789,0.41644996,0.47238728,0.5578107,-0.1707854,-0.024532592,0.3776326,0.106348,0.08290116,0.2901044,0.1219107,-0.36159068,0.16568759,0.09545423,0.31168053,0.61117816,0.087847084,-0.023069559,0.14518487,0.25577196,0.04486282,0.13269106,-0.094233066,0.07109096,0.67483133,0.3691773,0.2816114,0.16977242,-0.0627147,-0.08565091,0.24025579,-0.36610872,0.08920545,0.05389101,0.04551083,0.032764908,-0.16555688,-0.34135884,0.0006913235,-0.086499736,-0.3341919,-0.11561549,-0.03436144,-0.85522336,0.069877416,-0.13367338,-0.055758476,-0.15755603,-0.7174469,-0.14170384,0.5730963,-0.2772433,-0.26686445,0.06808611,-0.16959104,0.05891653,0.16086331,-0.7465661,-0.44210842,-0.3033635,0.24011303,-0.76199734,0.1256201,0.458606,-0.20265283,0.11684164,0.14377463,-0.21684626,0.0015516384,0.06152324,0.36521626,-0.56719214,0.16647498,0.40738994,-0.1366398,0.32049468
P33992	0.48773786,0.23591344,-0.036283948,-0.53718555,-0.63906616,-0.32134235,0.26437223,-0.015954033,0.5680622,-0.279799,-0.5075159,0.2220371,0.26556575,-0.34163594,-0.48379213,-0.5911717,-0.33779943,0.37709224,0.30457357,-0.3594254,0.2088689,-0.63371456,0.4522818,0.02522099,-0.5707978,-0.19670378,0.012232184,-0.4424549,-0.20430008,0.007962659,-0.12839171,0.054945607,0.19539696,0.3544224,-0.19857822,0.047206845,0.40765736,0.2613283,-0.7457319,0.20810279,0.4991529,0.36717302,-0.41150466,-0.14112435,0.17973107,-0.07293307,-0.18881887,0.2984302,-0.4217482,0.20291492,0.72002894,0.25859022,-0.3326544,-0.17965618,0.007939296,-0.36480588,-0.18436925,-0.35620847,0.75564355,-0.21625876,0.050801873,0.08788814,-0.87659293,-0.4094633,0.01823589,0.831009,-0.29794577,0.16549134,-0.60729444,0.004249147,0.23940594,-0.21981227,-0.2426618,-0.48376325,-0.26653838,0.012617206,-0.36919683,0.22435798,0.07478966,0.48301083,1.0069635,0.49354243,-0.19001982,0.4497257,0.24593464,0.0107962955,0.59934914,0.64324594,0.3131456,0.69281906,-0.48741713,-1.0426399,0.35875687,0.37811664,0.6766349,0.19866054,-0.88080126,0.24128622,-0.16608448,-0.847272,-0.07180017,0.16164619,-0.22967082,0.07053975,-0.32411072,-0.34082347,0.43382007,0.7219299,-0.64763325,0.14149551,0.63005954,0.27288583,-0.0533073,0.5176159,0.62206846,0.027629003,-0.1682817,0.0590887,-0.4529744,0.6100246,0.103833005,0.30202147,-0.20369491,-0.28526708,0.30418777,0.7559045,0.50482625,0.46640688,-0.13487594,0.8088607,0.32242742,-0.4498585,0.096347764,0.3197726,0.030385777,-0.23326492,-0.06264079,-0.5809133,0.2320873,0.6774347,-0.2515419,0.019093929,-0.25684464,0.7186051,0.5571696,0.20322981,-0.035155267,-0.15579322,0.5340477,0.020324083,0.15085773,0.30484435,-0.29423675,-0.11250406,0.15189621,-0.2097591,-0.12862004,0.34150195,0.14904638,-0.11526348,-0.21399607,-0.3737249,0.24916784,0.06828843,0.1506063,-0.44299918,0.057310272,-0.09286254,0.12862661,0.024608083,-0.10156601,-0.15473028,-0.08457187,0.79632384,0.4645816,-0.50109947,-0.41371825,0.14701492,-0.3155276,0.43734467,0.7640774,-0.3692844,0.30115783,-0.22676764,-0.26334795,0.034933157,0.052615494,0.47688714,-0.10989667,0.19916426,-0.7909767,-0.25640824,-0.15880296,-0.058967933,-0.49165177,0.18295226,0.5039305,0.12777042,0.48202726,0.12670602
O15371	0.02440121,-0.29898474,-0.2960115,-0.072412916,-0.52641344,-0.2696776,0.21734162,-0.2325011,-0.095712595,-0.101031184,-0.15678436,-0.10236584,0.18844163,-0.13504879,-0.4111322,-0.20370148,0.54945236,-0.17053652,0.154095,0.34054396,0.11824301,0.38562548,0.2636807,0.39429894,0.12396756,-0.24814634,-0.2020701,-0.27478114,-0.059943132,-0.4843247,0.04309477,-0.6385196,0.35975948,-0.028926067,-0.34009126,-0.32136205,-0.025833912,0.73871315,-0.3044928,0.2546767,0.14594284,0.19280438,-0.58992934,-0.6662606,-0.10585593,0.016924705,-0.34787306,-0.030765247,-0.766575,1.0742368,0.19160959,-0.044315424,0.31831628,0.23624785,0.34826735,-0.061814584,0.23089352,0.12290887,0.7131504,0.25243604,0.5903219,-0.5843,-0.56966317,0.45521215,-0.38316464,0.69304025,0.19090606,-0.18860082,-0.58081204,0.109220006,-0.29564407,0.025289817,0.5077174,0.06782042,0.26049054,0.74316126,0.46088633,-0.1178656,0.1322203,0.09491417,0.54157645,0.7014308,-0.7058839,-0.32144788,-0.4486407,-0.081488594,0.053835593,0.2012304,0.28663015,0.38346243,-0.0705841,-0.31450734,0.018141933,0.34752944,0.31077924,0.067899495,-0.025280368,-0.20846745,0.15221556,-0.086010836,-0.3276189,0.25489885,-0.050743543,0.29546088,-0.43570107,-0.029045487,0.11406454,0.4404047,-0.46287772,0.63791007,0.4494751,0.25765377,0.34834266,0.7683155,0.46427992,-0.22502002,0.5001591,-0.16921316,-0.53866917,-0.017604511,-0.24840243,-0.08414931,-0.28590086,-0.08358923,-0.47009104,0.4781094,0.8372534,0.049421653,-0.05214746,-0.23504534,-0.015180883,-0.09540633,-0.022067001,0.2203388,0.1433358,-0.11144152,0.17080168,-0.7961091,0.42931327,0.685602,0.10779805,0.4218985,-0.08702362,0.33794835,0.8160264,0.6307724,0.35276884,-0.094400294,0.47612998,0.54214185,0.23291653,0.63482887,-0.09939523,-0.7783316,0.22138849,0.017539198,-0.17313872,-0.2881311,0.26694012,0.024840355,-0.30999622,-0.20732355,-0.26914224,-0.3218457,-0.32183704,-0.37896994,-0.26549718,-0.026090998,0.53922296,-0.055413608,0.11100362,-0.2996772,-0.6096544,0.030576833,0.6961635,-1.1001992,-0.85974115,-0.057273574,-0.5683211,0.2157931,0.36017945,-0.37825346,-0.021526154,-0.31452325,-0.06487571,-0.20995452,0.16396104,0.3342995,0.3785618,1.3582355,-0.036023878,-0.9004816,0.629685,0.11875496,-0.07108763,-0.32429355,0.25277156,-0.03864601,0.083824106,0.39195007
P62877	0.046527144,0.15793236,0.20829853,-0.19929653,-0.30971038,-0.60848886,-1.0840635,-0.40105093,0.13511424,-0.2696745,-0.40242207,-0.44603387,-0.468647,-0.4240349,-0.543729,-0.056926686,0.1276482,0.0524281,0.3294659,0.10306648,0.15521768,-0.44575164,0.4691165,0.11968,-0.13327752,-0.06412892,0.2553057,-0.15785877,-0.12872337,-0.37240314,-0.0028113734,0.03636516,-0.49114865,-0.11471609,-0.31874433,0.33248898,0.42628327,-0.15209253,-0.19646639,-0.11131355,0.46669012,0.0905094,-0.67797256,0.37073597,0.0692574,0.12358665,-0.72595644,0.45601782,-0.42778087,0.6172459,-0.037042893,-0.4652689,-0.23507449,-0.26195136,0.62150836,0.4984734,-0.08707258,0.45208135,0.8699683,-0.6967193,0.7508657,0.25500673,-0.44850987,-0.5985388,0.37578604,0.47615847,-0.45906022,0.15106691,-0.24096142,0.42770797,-0.3494097,-0.4138498,-0.16855566,0.09845904,-0.52517146,-0.6367441,0.200516,-0.14473288,0.63469523,-0.094469376,0.07177325,0.07724558,-0.34077418,0.5314723,0.110716715,0.22304738,-0.41726014,-0.23454711,-0.27585936,0.23898017,-0.6408337,-0.76640725,0.14651553,0.08756788,0.6409092,0.7527959,-0.3247517,0.029000351,0.5492245,-0.40264195,0.1179305,-0.000441096,-0.18665896,-0.12830603,-0.3872032,0.36944374,-0.01902111,0.37792286,0.13563317,-0.08421117,0.503709,-0.15061079,-0.031264745,0.3004728,0.94544727,0.023803756,0.11592677,-0.010628174,-0.6335828,-0.23187587,0.095087096,0.38690668,-0.6069509,0.16622043,-0.07231806,0.22624193,0.2821446,0.73500335,0.2348235,0.11800065,0.63724905,0.2018111,0.67712206,0.30316064,-0.23159699,-0.14429797,0.60616565,-0.18693285,-0.604221,0.4808348,-0.29204684,0.7766158,-0.013520626,0.29684275,0.7614198,0.19247088,-0.14506328,-0.006382094,0.48890603,-0.11612866,-0.010908023,0.036204312,-0.056040756,-0.071321,-0.42431605,0.13259926,-0.37731275,0.20008087,0.4115846,0.028083468,-0.21601619,-0.69007313,0.05829243,0.16284297,0.3894769,-0.16062002,-0.5016525,0.012485108,0.1302519,-0.050018396,-0.40302706,-0.36790937,-0.38482478,0.4450646,0.35976398,-0.15505771,-0.092137516,0.0871382,-0.18332021,0.5075209,-0.015254947,0.024543334,0.24642311,-0.128962,-0.2135246,-0.048271187,0.095323764,0.46305686,0.24509828,0.24093163,-0.47756702,0.18666217,0.1087296,0.33185577,-0.072483666,-0.4232976,0.6200362,0.09217046,0.3523022,-0.10513087
P10144	-0.06472935,-0.27856073,-0.018263938,-0.22325034,-0.3635869,-0.04554488,0.052357595,0.31229478,-0.26446128,-0.11655424,0.36716035,0.1723592,0.075954586,-0.22977935,0.38458604,-0.078004345,0.11142532,-0.4542515,0.20290884,0.48156604,-0.16186579,-0.44655558,-0.2665261,-0.09987351,0.10848354,-0.30468234,0.21844666,-0.52186936,0.05451037,-0.41977796,0.36584702,-0.060621098,-0.3735702,0.3252545,-0.39915568,-0.1742918,0.006785189,0.2459971,-0.50782514,-0.04550335,-0.24721819,-0.39815867,-0.7913942,-0.011801031,-0.123241544,0.19892573,-0.12856904,-0.5800535,-0.22783892,0.6126273,-0.12805888,-0.3418907,0.42455295,0.45784473,0.102651484,0.45779574,0.581125,-0.25029954,0.5598512,-0.30599287,0.43674627,0.643544,-0.45328665,0.40306902,-0.22925073,0.30234355,0.37356058,-0.23665328,0.14083536,0.38389412,0.10995146,-0.46702027,0.33187696,-0.08143733,0.07470105,0.27411923,0.38392073,-0.5596623,0.26410562,0.12416678,-0.0299417,0.39463565,-0.4648149,0.44327608,-0.09758997,0.17471415,-0.047502812,-0.5135329,0.38299942,-0.10919325,-0.52652836,-0.06998326,0.5540352,0.39777213,0.5331223,0.2075902,-0.15528505,0.3700946,-0.24907239,-0.0515606,-0.18350837,0.1952962,-0.46819618,-0.014337814,-0.10334606,0.27584723,0.092363454,0.80728674,-0.12807126,0.8142443,0.4955395,0.47932068,0.58709943,-0.007997474,0.18016931,-0.20815088,0.44466493,-0.36024135,-0.46232,0.21378191,-0.24016407,0.31565163,-0.3766279,-0.18956856,-0.5073939,0.31162715,0.5068429,-0.06112253,-0.01856894,-0.2290181,0.040140096,-0.18615392,-0.12019259,0.014571756,-0.61789525,0.2651781,0.47540066,-0.12849736,0.026926763,0.906202,-0.01459334,0.33357444,-0.41859734,0.10505674,0.6910577,0.29578757,-0.05815,-1.3875192,-0.12630127,0.56136036,0.26443467,0.04197034,0.12739661,-0.67425805,0.3411314,-0.058466725,-0.3486274,0.06002943,0.13478026,-0.66715527,-0.19513051,-0.35140383,0.41215533,0.1489739,0.5009503,0.23962817,0.15221491,0.36730984,0.40225378,-0.52753985,-0.17469965,-0.48223296,-0.050120942,0.6978613,0.3925733,-0.62621963,-0.3688253,-0.12226066,-0.25113186,-0.11372501,0.11117089,0.035241187,-0.4163312,-0.36349776,0.18531157,0.16437316,-0.27909136,0.6325412,0.20307636,0.7834094,-0.5658571,-0.44453728,0.6481483,0.38192487,-0.009369586,0.05352792,0.08961904,0.18570167,-0.11202175,0.14174104
P25788	-0.36311498,0.0823919,0.44133994,-0.13049442,-0.4025649,-0.4638558,-0.5207498,-0.5834446,-0.10671652,-0.22696963,-0.3316179,-0.30371702,-0.012947401,-0.34701845,-0.8364182,-0.09029362,0.020688076,0.04822291,0.17673291,0.07283754,0.20624718,-0.0016489406,0.32127902,0.11213705,-0.11486481,-0.08887429,0.22011818,-0.31661403,-0.31662843,-0.3967848,0.04796129,0.20577629,-0.16589369,-0.04875987,-0.0055947388,0.062229536,0.25038996,-0.12568103,-0.40096286,0.16198304,0.76330924,0.41716492,-1.0339475,0.08087657,0.16581054,-0.028236432,-0.55667645,0.19365197,-0.5446754,0.8972345,0.2554939,-0.8415903,-0.17583092,-0.30430183,0.6600159,1.1064907,-0.42763433,0.26613003,0.5543648,-0.12502258,0.93687826,0.5943365,-0.16497597,-0.23727608,0.3414747,0.34562397,-0.59495664,-0.13227504,-0.10134704,0.22054952,-0.7461513,-0.38760397,-0.03649179,-0.18989354,-0.28996953,-0.18267599,0.54529905,-0.11505827,0.43496144,-0.030457614,0.12084722,0.19511218,-0.71641606,0.32553914,-0.1452819,-0.013848911,-0.08755109,-0.059034158,-0.477279,0.05503521,-0.42872295,-0.29458654,0.13728827,0.22162272,0.49243903,0.6106394,0.43208757,0.094254754,0.39848655,-0.339344,0.019766495,-0.023300303,-0.4305847,-0.35347822,-0.61618626,0.587058,-0.31503558,0.04000813,-0.4702326,-0.2237871,0.4841894,0.12034972,0.18242899,0.2907959,0.7595515,-0.05692504,-0.13729359,-0.35123625,-1.0567935,0.043250065,0.27189586,0.03407822,-0.38403645,-0.030281594,0.18112174,0.22681585,0.3516239,0.27548093,0.032779202,0.14537609,0.0019246147,0.28075442,0.21169864,0.16453268,-0.29930064,0.22338207,0.6087176,-0.39016598,0.10634217,0.80708283,0.014168171,0.88076544,0.08186767,-0.015721804,0.56150544,0.7059058,-0.15508537,-0.10766885,0.5942958,0.115569875,0.2938705,-0.20490265,0.014440339,-0.5653731,0.0130993575,0.09816835,-0.50662106,-0.21882457,0.62878853,0.026300594,-0.26926258,-0.54828596,0.12609714,-0.2050973,0.3315775,-0.14847194,-0.5098128,0.1962959,0.046097588,0.10373189,0.28354055,-0.36916155,-0.19317265,0.3195146,0.5832624,-0.1290397,-0.20330085,0.065778926,-0.28400874,0.6172223,0.24610692,0.0505036,0.029402928,-0.46032262,0.18117148,-0.17318381,-0.39397576,0.34756756,0.17292063,0.49818563,-0.5202439,0.06386612,-0.009968393,0.43759897,-0.07929239,-0.30464277,0.71018684,0.08971547,0.026598344,0.25180227
O14965	0.2784129,0.5225505,-0.26487726,-0.4302199,-0.24523012,-0.38920686,-0.5369505,-0.25798216,0.08973406,0.015186692,-0.2381916,0.04841006,0.38624933,-0.1852897,-0.3783515,0.1941747,-0.122381434,0.15591756,0.3983935,0.04637973,0.010887931,-0.09994042,-0.16339822,0.0055825696,0.027256578,-0.1366084,-0.099274464,0.14587961,-0.1110096,-0.13370696,0.22467948,-0.1891116,0.17772326,0.5454553,-0.15968744,-0.07348865,-0.01886204,0.7086534,-0.34692305,0.26186922,0.45621148,0.37989134,-0.5705852,-0.089194275,0.53331774,0.100515805,-0.12189797,0.0929105,-0.14054911,0.30597785,0.8688187,-0.06667181,0.19806305,0.031225054,0.2472475,0.4844367,-0.24206945,-0.036425352,0.525844,-0.48174435,0.36410898,0.46534365,-0.21327095,0.12048875,0.23479787,0.2525743,-0.16761683,0.14559875,-0.03906131,-0.23758776,-0.1152465,-0.48922738,-0.21990778,-0.7767832,0.12588479,-0.20412226,-0.0766132,-0.1041004,0.25510502,-0.1578391,-0.078053676,0.42664313,-0.19289798,0.55713105,-0.061703768,-0.21574862,-0.062450428,0.08189004,-0.31369218,0.2519509,-0.14340502,-0.4275326,0.044937957,0.6360388,0.25166956,0.14851207,0.0143720135,0.4028545,-0.18160263,-0.6388369,0.20726483,0.09261646,-0.6665898,-0.51578164,0.20027612,0.2533157,0.46540976,0.2611962,-0.36793992,-0.080138385,0.50950325,0.7379573,0.07786453,0.3247412,0.28557217,-0.0025026028,0.024152422,-0.2345555,-0.21864656,0.17347986,0.09885501,0.13226649,-0.2821758,-0.13086484,0.24745053,0.580916,0.28679043,0.26500362,-0.113210596,0.23183419,0.41468918,0.2001769,-0.20357788,0.7186632,-0.05476841,0.093888134,0.61752856,-0.2120607,-0.116935566,0.6042123,-0.010080631,-0.05118966,0.18076065,0.3513831,0.9802395,0.11494483,0.3134428,-0.24278359,0.07610211,-0.20298983,0.23879841,0.042594142,0.49505746,-0.13618438,-0.2671133,-0.35987797,0.3941162,-0.21811831,0.24661298,-0.12644018,0.14360164,0.22851132,0.48945192,0.39006707,0.37534544,-0.031948462,-0.41941553,-0.19689596,-0.019386187,-0.13514759,-0.52989715,0.056071088,-0.07481201,0.84188926,0.32339987,-0.105990954,-0.18662894,0.023597712,-0.3595834,0.29481673,0.70206463,-0.4539067,-0.20854507,-0.43527502,0.2823347,0.08287465,-0.40045857,0.20319703,0.093606666,0.2564918,-0.44476214,-0.1341035,-0.061872393,0.5644287,-0.14467116,-0.37397805,0.525348,0.41364354,-0.13804235,0.4866021
P68400	-0.074371204,0.08738089,0.08758271,-0.24648935,0.051843427,-0.56186235,-0.5622862,0.4636761,0.061611198,-0.46691322,-0.31058213,0.18080242,0.38715768,-0.37480712,-0.39521557,0.18312725,-0.3681848,0.11971877,0.6295727,0.123974524,0.06195323,-0.11599838,0.012430585,-0.3746207,-0.050131876,-0.16809025,-0.22199221,0.05935257,0.23960975,-0.050762165,0.09423329,0.033366907,-0.12161218,0.22081868,0.1447751,-0.1781502,0.19906352,0.39822483,-0.41500187,0.17154555,0.15128775,0.43746716,-0.21180889,-0.027698977,0.23810774,0.12769963,-0.1250635,0.16841468,-0.28985435,0.22455654,-0.018344885,0.04464377,0.18198122,-0.10741226,0.25855643,0.13713454,0.35370263,-0.117991194,0.54433525,-0.07731738,0.20025781,0.31394225,0.104201466,-0.1717644,0.203192,0.3012458,-0.32361495,0.18463555,-0.52076465,-0.08634468,-0.12318722,-0.31872186,-0.11829556,-0.46716794,-0.1665381,-0.044705674,0.46201116,0.33599895,-0.011367736,0.042266738,0.3937925,0.26435736,-0.36424658,0.17526865,0.18342803,-0.3379255,0.2322897,0.11010079,0.08597407,0.010233611,-0.57871854,-0.6160395,0.18368672,0.5371022,0.7459317,0.32276168,-0.12428577,0.14153658,0.095620885,-0.51396173,0.40753645,0.4418949,-0.21228974,-0.2408135,-0.4551895,0.17179626,0.22316867,0.17967731,-0.6527601,0.230004,0.55721885,0.28169897,0.47802618,0.45176348,0.0837744,-0.13012269,0.091281354,-0.48655447,-0.91548413,0.6136627,0.12123553,-0.1555424,-0.12105258,0.33954343,0.18997419,0.29546627,0.26309252,0.6901791,-0.15812322,0.4055551,0.42337492,-0.03059522,0.09005829,-0.11049657,-0.029727807,0.35076532,0.5571295,-0.92687696,-0.017504442,0.45523006,0.60227406,0.33077744,0.07713535,0.4007204,0.8575251,0.25778216,0.28623062,-0.5334782,0.10678645,0.07243004,0.28192472,-0.082430445,0.4437566,-0.45253423,-0.15447845,-0.0813127,-0.50190985,0.16795944,0.4204537,-0.38074902,-0.027808357,-0.043976966,0.545399,-0.39985377,0.39033502,-0.21770534,-0.292376,-0.10201327,0.08148345,-0.3322284,-0.5108833,-0.5446506,0.3305497,0.9825348,0.9409294,-0.44223148,-0.11451285,0.3226776,-0.18871975,0.004217267,0.18593979,0.10624501,-0.095270045,-0.43591234,0.37271234,-0.060225464,0.19350275,0.76810557,0.02897424,0.4863055,-0.119578905,-0.05279767,0.43691134,-0.029305905,-0.03703977,0.2182308,0.75844646,0.11516987,0.14663759,0.4912318
Q9H444	-0.51014376,0.10824734,0.21153106,-0.12737216,0.011193412,0.08030963,0.11812428,0.20291674,-0.04092543,0.010707613,0.087003775,0.021638824,0.4587895,-0.5174621,-0.43769282,-0.10944951,0.5768858,0.12928988,0.21327488,0.5972177,0.060587943,-0.001499435,-0.30350232,0.6617494,0.23424447,-0.071745366,0.089625925,-0.15456977,0.32554662,-0.49304006,-0.20893832,-0.024395296,0.06208754,-0.07134519,0.25435433,-0.4316997,-0.45150563,0.78191996,0.012970973,-0.33534205,0.14008392,0.52693385,-0.40499464,0.0019040782,0.40756455,0.14297803,-0.44057298,0.10542687,-0.18244003,0.5566222,0.009219423,-0.1539988,0.10688427,-0.16360442,0.13183731,0.25603092,0.062413402,0.28859228,0.59636533,0.06086105,0.4656303,0.30960074,-0.18724453,-0.1308203,0.4270008,0.4797164,0.3084927,-0.2235132,-0.4755444,0.12551065,-0.591009,-0.31259376,0.22772108,-0.12641859,-0.33860537,-0.013553561,0.23276138,0.0015994882,-0.16683032,0.106304005,0.4618374,-0.08376671,-0.17292963,-0.1216469,0.06796011,-0.31355277,-0.1939533,-0.17153487,-0.59766525,0.15179797,-0.17585415,0.26994666,-0.07105816,-0.10191796,0.31088653,0.5749511,-0.067976795,0.6628787,0.103179105,-0.68796575,-0.19798748,-0.10174338,-0.35654095,0.21303023,-0.5473629,0.19603708,0.4475341,0.022987522,-0.38835368,-0.19131906,0.5406032,0.30161357,-0.04283383,0.8817757,-0.25087807,-0.6159365,0.16333891,-0.46842435,-0.62234366,0.5845111,-0.1282605,-0.41756764,-0.09494876,-0.70545983,-0.23467949,0.6985318,0.2274659,0.6702638,0.23829117,-0.65596724,0.12674089,0.17495367,-0.059759986,0.7027612,-0.43987548,0.39235517,0.4055959,-0.12286399,-0.11338587,0.58618206,-0.10208266,0.5074624,-0.4224814,0.23702987,0.6686507,0.17421953,-0.27181283,-0.10851555,-0.03101033,-0.3830239,-0.15713033,-0.046121698,0.39567018,-0.2535612,0.122832,-0.65369886,-0.046563465,0.009819155,0.14243644,-0.061947484,-0.25347623,0.028666751,0.16846894,-0.026312418,0.057287063,-0.3951907,-0.12714577,-0.47732115,0.12491964,-0.23645365,0.11950136,0.4024744,0.00241675,1.0027534,0.034374423,-0.35332263,-0.5257729,0.13725781,-0.7731963,0.036606368,0.3715644,-0.38810396,-0.29228342,0.07519151,0.057392813,0.53663445,-0.32338506,0.26730862,0.6033248,0.9028098,-0.7205157,-0.2984154,0.44213745,0.5234717,0.34318256,-0.46127093,0.6172538,0.24075079,0.47728074,0.094299935
O75832	-0.18119577,0.07443859,0.39128774,-0.38027388,-0.15671584,-0.19910154,-0.83489054,-0.40409446,-0.20121987,-0.14993386,-0.23590803,-0.056606676,0.20243149,-0.23526981,-0.33545765,-0.17868376,0.18229915,-0.40679017,0.30059922,-0.070002064,0.2056617,-0.15191624,0.2804068,0.09087324,-0.103508435,-0.0027473231,-0.1582001,-0.21242449,-0.13400708,-0.48846555,0.04802454,0.19533688,-0.40829262,-0.064850636,-0.117954016,0.026211722,0.507994,0.039578162,-0.6895225,0.077895194,0.80559504,0.002124401,-0.92472214,0.2794944,0.5106813,0.19111153,-0.14830776,0.16147293,-0.50520337,0.45561522,0.04471383,-0.5168638,0.08591815,-0.2920228,0.39113268,0.955317,-0.113399945,0.31061882,0.43928453,-0.32847542,0.42502594,0.54733145,-0.20113981,-0.15222941,0.36892352,0.0809106,-0.5341331,-0.06607178,-0.050905917,0.05196161,-0.39248168,-0.398173,-0.031694222,-0.5354369,-0.3435715,-0.083955474,0.36745384,-0.13981324,0.4612308,0.06448837,0.24362034,0.2168958,-0.1976317,0.6973106,-0.10931351,0.10848152,0.17278238,0.008894893,-0.17573999,-0.08281907,-0.730531,-0.40053946,-0.0897437,0.36131513,0.5947594,0.6681759,0.071623154,0.22765042,0.2711988,-0.1997406,0.41103292,-0.117685944,-0.5358407,-0.38527805,-0.27566808,0.4475836,-0.48519754,0.1126724,-0.3801256,0.18102813,0.43548137,-0.1447206,0.25041935,0.08411558,0.63333696,0.27148986,0.3624594,-0.4178908,-0.72402704,0.12628745,0.16920453,0.11456622,-0.45964423,0.2728891,0.24902341,0.38179636,0.21663314,0.30782908,-0.16074865,0.09853258,0.19119516,0.22779761,-0.088571034,-0.022798872,-0.345532,0.33071297,0.57484674,-0.2761733,0.0016002435,0.8483782,0.08257089,0.62990165,-0.17185771,0.19058725,0.45923066,0.3318446,-0.0703549,-0.40774062,0.72548854,0.106713064,0.3104365,-0.011798733,-0.012955074,-0.4710106,-0.2151853,0.030113632,-0.72003895,-0.16679578,0.53077394,-0.12094688,-0.23939598,-0.76214135,0.14385182,-0.40385973,0.43663877,-0.38142934,-0.4609408,0.119889,0.036105655,-0.062473502,-0.28143445,-0.44994763,-0.27015907,0.4529685,0.549353,-0.4201087,-0.111462496,0.35169196,-0.32534286,0.6866519,0.2879424,-0.12350904,-0.1324186,-0.38744688,-0.027111687,-0.2743442,-0.50628316,0.65758294,0.045368645,0.39086086,-0.5310586,-0.1420772,0.13937843,0.37620553,-0.0459946,-0.15429328,0.5774061,0.18466923,0.15249643,0.046276174
Q9Y5N6	0.38570088,-0.077170014,-0.31486604,-0.30522177,-0.3102003,-0.0018197735,0.58566004,-0.13515157,0.5227863,-0.27550888,-0.46903196,0.16176791,0.17007133,-0.07311106,-0.44116557,-0.49656135,-0.3733115,0.064989544,0.2763421,-0.33128205,0.33938757,0.021575708,0.31482032,0.13937645,-0.47942308,-0.0263565,0.36687565,-0.25898492,0.26319584,0.18952215,-0.09034761,-0.43882376,0.24028277,0.85527575,-0.43071485,-0.03830175,0.7294484,0.5382228,-0.5877755,0.30117777,0.33152765,0.4713494,-0.35697293,-0.13336585,0.14861287,-0.5163606,-0.27242064,0.3048052,-0.27940217,0.42496458,0.37709758,0.046281826,-0.12359494,0.4019333,0.19396983,-0.38055384,-0.2678419,-0.5402314,0.60818,0.007789218,-0.14521213,-0.2376174,-0.94779795,0.032247737,-0.1846269,0.40085247,-0.50026417,0.3239639,-0.7187823,-0.21036601,-0.013815023,-0.3128757,-0.17812276,-0.3353578,0.24429229,0.26467803,-0.110050865,0.08665546,-0.27384314,0.19695662,0.910535,0.8706127,-0.3768668,0.09376179,0.031052934,-0.27296928,0.8282731,0.47188446,0.32168692,0.5703569,-0.115790926,-0.6916072,0.5026447,0.28524378,0.5237532,-0.08530727,-0.63796705,0.35913986,-0.16801697,-0.71035755,-0.35148776,0.6121176,-0.096358396,0.12055398,-0.23731764,-0.44607648,0.7531823,0.520928,-0.8668279,0.1598342,0.34530765,0.7556236,-0.06876643,0.619779,0.8002943,-0.05121534,-0.25466433,-0.26862064,-0.36069632,0.6188869,-0.20368546,0.4252279,-0.46070305,-0.35628155,0.42843544,0.46413645,0.47517803,0.2613086,-0.27761433,0.4315451,0.11482707,-0.35384145,0.4248173,-0.067079686,0.07341169,-0.18548805,0.20496346,-0.65419716,0.4351376,0.3538046,-0.07070112,-0.0054939054,0.21705905,0.7598326,1.1135563,0.25968292,0.0620114,-0.04780989,0.30723423,0.2264881,0.3113986,0.25657278,-0.42253643,-0.114711374,0.09915991,-0.102474526,-0.11121742,0.3090251,0.12336059,0.46092469,-0.453721,-0.29642704,-0.21512231,-0.20046923,-0.05335345,-0.42479295,0.3438229,0.053511035,0.4680602,-0.11661476,0.10122647,-0.36449906,-0.49590567,0.35273075,0.58665365,-0.16528548,-0.652639,0.1120327,-0.41449794,0.22610778,0.88495904,-0.10001973,-0.20129791,-0.7664269,-0.17212157,-0.013116346,0.5248837,0.454835,-0.16538659,0.28577062,-0.38469946,-0.33477253,-0.06862277,-0.13893351,-0.6647143,0.43136445,0.27676255,0.095322944,0.3007601,0.5760015
P61970	-0.1266485,0.4293878,-0.15876675,-0.34251374,0.022866063,-0.16291346,-0.053657,-0.36026,0.5347801,-0.4857115,-0.7389193,-0.30236605,0.09022563,-0.5199803,-1.0856131,-0.019276168,0.45458886,-0.5192721,-0.026431065,0.16656722,-0.08589608,-0.14152868,-0.32167706,0.19043441,0.17794561,-0.047119245,0.3142253,-0.5017996,0.21337807,-0.013805447,0.20530833,0.42097223,0.3664532,0.04949105,0.18546662,0.43325725,-0.018231096,-0.03240089,-0.44424087,-0.31485936,0.51120985,0.932288,-0.498832,-0.09631618,-0.3289573,-0.24495673,-0.7302424,0.45830712,-0.57067025,1.0277057,-0.021003123,-0.20130217,-0.42020875,0.117551155,0.6458312,0.679655,-0.23403744,0.1820355,0.7386737,-0.07634343,0.34761813,0.035665415,-0.0867665,-0.05222381,-0.055906136,0.71361583,0.22373429,0.35782203,-0.23770195,-0.048514277,0.32509282,-0.32527298,0.27497053,0.35267377,-0.48810184,0.13211612,0.17133118,0.30764085,-0.043495875,0.09254613,0.2895602,-0.15313646,-0.40909538,-0.5001682,0.16586833,0.09887034,-0.04212876,0.26598242,-0.059660133,0.4038667,0.24217252,0.064559534,-0.47666264,-0.061195176,0.16806662,0.34292254,-0.07410004,0.5042082,-0.40182605,-0.7734576,-0.4005453,0.5195889,-0.30093879,-0.06954412,-0.6673536,0.038565632,0.49808824,-0.06542978,-0.5058297,-0.40282705,0.9320226,0.11291652,-0.15445028,0.47729447,0.858999,-0.527194,-0.2307592,0.10988307,0.10238566,0.82199585,0.16502821,-0.12401833,-0.5991944,-0.36143404,0.47499493,0.84808683,0.3099268,0.8229296,0.06269714,0.02013444,0.10059635,-0.21700343,-0.02827875,0.47033215,0.28777462,-0.27694994,-0.062085047,-0.24200946,0.41108724,1.0869075,0.4839368,0.57823443,0.12692338,0.21189865,-0.256176,0.22872013,-0.029429812,0.3452694,-0.25329807,0.26009214,-0.23683754,0.15700379,-0.16986135,-0.3003952,-0.049839813,-0.3255262,-0.1986027,0.39358577,0.3929052,0.22093204,-0.42665073,-0.4149041,0.02128074,-0.046914034,-0.58771306,-0.31749782,-0.117289804,-0.45487842,0.0040772883,-0.11321926,0.14872634,0.17730832,0.30258906,0.34052885,0.9255983,0.2656087,-0.3791156,-0.240849,-0.26218286,0.1754708,-0.12492696,-0.43064526,0.37548375,0.14888902,0.075496614,-0.046613406,-0.4661252,0.73815787,-0.21178117,0.5091576,-0.21587017,-0.25120807,-0.18766546,0.1866501,0.28402358,-0.13965349,0.5244028,-0.063095324,0.48402572,-0.035076838
P19387	0.09338296,0.03873913,-0.28875732,-0.66385245,-0.17000633,-0.37530902,-0.58050895,-0.61445236,0.18386173,0.22025855,-0.22874339,-0.41752702,-0.21324652,-0.93478566,-0.2433942,-0.37701434,0.4724413,0.059270274,0.3475769,0.09436254,-0.22111471,-0.11024722,0.18766205,0.5831494,-0.027113248,0.0154952705,-0.071214885,-0.26596728,-0.10919365,-0.17044082,0.34900296,-0.56333804,-0.31036863,0.16767307,-0.8167986,0.3015263,0.56410897,0.63842595,-0.392666,-0.38145673,0.2858261,0.62991554,-0.5634769,0.04827176,0.52536637,-0.4093834,-0.20144631,0.21343091,0.13877834,0.17260411,0.654076,-0.16370872,0.026087258,0.27442044,0.31169137,0.033530664,0.002362642,-0.2619054,0.2965854,-0.24346338,0.28780654,0.12934545,-0.7690117,0.019217005,-0.08286244,-0.0008358647,-0.31041306,0.20492333,-0.32245395,0.17591707,0.29011792,-0.37934494,0.1102202,-0.25318792,-0.4122303,-0.2457616,-0.16894835,-0.21299441,0.3782474,0.16972862,0.62161994,0.69212574,-0.08106872,0.016287597,-0.14572193,0.47953144,0.3080183,0.19804578,0.40793753,0.123322375,0.24032386,-0.90676385,0.18155345,0.10320495,0.20592915,0.086714,-0.37646633,0.24834622,0.4847151,-0.5236547,-0.08967763,-0.19359903,-0.30819845,0.20049213,-0.4674449,-0.017066078,0.37449828,0.53079915,-0.1083183,0.2239261,0.35848498,0.42890573,0.08016452,0.3131308,0.649415,0.31989446,0.44078743,0.01866178,-0.46059963,0.13052478,-0.35332748,0.17181687,-0.77541286,-0.28606576,0.013641937,-0.0077718385,0.5895037,0.19469388,-0.0987871,0.19683212,0.26567876,0.12313173,0.3119576,0.6664472,-0.20412555,-0.0089251455,0.3762706,-0.35159972,-0.48428822,0.09237393,-0.59118664,0.24479233,-0.23543872,0.39202172,0.7096592,0.5566268,0.48994935,-0.47835544,1.1131667,-0.29053265,0.24863297,0.6598488,-0.20806682,0.00319684,0.6775987,-0.11387852,0.30009964,0.43744275,0.44328475,-0.012642637,-0.78448004,-0.7077049,-0.31556958,-0.21040018,0.032477044,-0.40065268,-0.07423095,-0.6610123,0.5446869,-0.49964505,-0.6885057,-0.30034733,-0.663102,0.17557314,-0.014258866,-0.7339073,-0.46221837,-0.14078833,-0.22555402,0.23538198,0.19839151,-0.70076144,-0.42443526,-0.07561191,-0.20745455,0.07785663,0.102744214,1.075801,0.2168034,0.15140174,-0.34222183,-0.22322936,0.23298219,0.04297344,-0.24824631,-0.28616536,0.5610283,0.9886969,0.5135688,-0.08348769
P51665	-0.5373056,0.18744193,0.5022912,-0.15659502,-0.61969733,-0.31798396,-0.47267863,-0.8023984,-0.3330415,-0.15045601,-0.39721757,-0.2573632,0.3337355,-0.41546562,-0.4898332,-0.34818515,0.10178824,0.013929719,0.15067686,-0.0663551,0.08487806,-0.13566394,0.37517288,0.08962606,0.080697045,-0.26835445,0.12183077,-0.27957764,0.0606977,-0.5046309,0.12279446,0.463172,0.13256533,0.007900538,-0.11262841,-0.1422715,0.5640121,-0.07479637,-0.58376586,0.2459593,0.871908,0.18578199,-0.67585415,0.09149861,0.30284378,0.24336459,-0.4248386,0.097033896,-0.5529207,0.74359906,0.3277399,-0.5588861,-0.2428453,-0.6126156,0.39036864,0.9275049,-0.3550733,0.13422918,0.645101,-0.1598495,0.62968063,0.5732577,-0.3051324,-0.34653434,0.24556065,0.44245347,-0.5895144,-0.21965699,-0.11836036,0.3435166,-0.51846373,-0.50733304,-0.031091446,-0.1908377,-0.5945193,-0.15158689,0.28566593,-0.100109905,0.39500433,-0.00031181,0.40664363,0.13088016,-0.64150345,0.3715255,-0.06366787,0.33873922,-0.29552272,0.21938038,-0.15912578,0.40357086,-0.56705874,-0.4685202,0.048835136,0.23972504,0.6579918,0.88316154,0.3140658,0.017473469,0.122469686,-0.49197686,0.3019142,-0.2547638,-0.42994738,-0.17563768,-0.8074318,0.22993994,-0.2586088,0.22822559,-0.37368694,0.029130349,0.56358004,0.04718483,0.12367095,0.25655186,0.93004173,0.37785035,-0.26891834,-0.43255815,-0.83410513,0.048613083,0.4240997,-0.033293474,-0.43148482,-0.12956324,0.2866144,0.3475555,0.124783136,0.39521712,-0.11031152,0.21806996,-0.32476303,0.20828192,0.34493005,0.21533574,-0.36426106,0.27839848,0.2587979,-0.4230726,0.2677744,0.7805637,-0.049353655,0.84325206,-0.15131341,0.26605773,0.5042099,0.7845162,-0.20807494,0.005454626,0.6134571,0.015851742,0.1449964,-0.13355133,-0.2700655,-0.31622487,0.17760265,0.2530638,-0.63220614,-0.051457588,0.8475105,0.038095534,-0.3402192,-0.7257279,0.104551494,-0.19832265,0.16166134,-0.35991988,-0.55257666,0.23213343,-0.10909557,0.16629782,0.05868842,-0.10865616,0.103774205,0.22183116,0.109290235,-0.39058688,-0.042204835,0.20779623,-0.14755504,0.7496355,0.3223752,-0.16006836,0.38109246,-0.2572463,0.03164463,-0.107444264,-0.62703186,0.39189142,-0.07122958,0.23067878,-0.61902094,0.09213518,-0.1059709,0.34910274,-0.04221369,-0.16873185,0.699091,-0.11404223,0.114681035,0.059279915
Q9P253	0.18815956,-0.30818892,-0.22221734,-0.032399487,0.69347143,0.35648787,0.02806652,0.29950202,-0.23560174,0.387191,-0.49788082,0.4306102,0.19558284,-0.42631516,0.24214002,0.6894955,0.34676126,-0.17075892,-0.12870385,0.34125006,-0.09697732,-0.22463568,0.1066398,1.0253211,0.0399102,-0.54268724,0.53521025,-0.3511961,0.1034444,-0.19987878,-0.08549439,-0.6168618,0.38323775,0.09155502,0.014857593,0.14572653,0.26419622,0.4792145,-0.42639503,-0.2198777,0.22570297,0.19574253,-0.2800665,0.21686094,-0.26527324,-0.28098273,-0.17781268,0.36631966,-0.70327777,0.46631518,0.37929347,0.6111413,-0.6149438,-0.4742303,-0.06804211,0.14905857,-0.059184,-0.1285898,0.4844866,0.004730373,-0.45594683,-0.06296379,-0.66678756,-0.39790273,0.22911748,-0.05075778,0.41452596,-0.41978312,-0.17623803,-0.36290905,-0.12005015,-0.17620215,0.37554994,0.10327964,-0.5464608,0.36195865,0.47600546,0.17246984,-0.44038764,0.20433979,0.83439106,0.18110672,-0.5051811,0.18322374,-0.039482053,0.24646975,-0.019154461,0.26469383,-0.07052406,0.3800752,-0.56161124,0.06438762,-0.04192652,0.630156,0.33123776,0.3316723,-0.69159555,0.3062182,-0.30565766,-0.3937506,0.082835175,0.12143547,-0.07740692,0.542444,-0.68880594,0.07756019,0.18558297,0.53919977,-0.42884755,-0.18680286,0.634612,0.26638904,-0.11324015,0.74771714,-0.24417455,-0.05466379,-0.33975255,-0.23052935,0.049956236,0.54083794,-0.2174755,0.42066363,-0.27566105,-0.6910588,0.044599943,0.55868065,0.24017774,0.8813389,-0.23740618,0.1302705,0.6055682,-0.1712428,0.34730622,0.20711768,-0.20878215,0.018574506,-0.042817336,-0.26539606,0.15194967,0.29272208,-0.315322,-0.06980178,0.08419621,0.21551931,0.35014716,0.55650574,-0.13778745,-0.61234605,-0.0046617747,0.16542333,-0.087969005,0.2390626,-0.034913626,0.34254533,0.027544238,-0.53227836,-0.27804136,0.18131182,0.04087181,0.11763159,0.036259145,-0.54536605,-0.57293624,-0.098461345,-0.1760266,-0.66901374,-0.23696256,-0.36958843,0.23695894,-0.079379216,0.10179299,-0.27128935,-0.21162936,0.30981892,0.2853514,0.20859231,-0.6110448,1.0629499,-0.7471056,-0.028739646,0.44436416,-0.718357,-0.45321628,-0.31778777,0.21163309,0.2930971,-0.41057035,-0.04727358,0.57010597,0.5921365,-0.37821525,0.09424313,0.27472413,-0.20774427,0.43940604,-0.5968314,-0.069549516,0.42813683,0.602225,-0.10834401
Q9UKV8	0.28398246,0.15740658,-0.1320185,-0.047613915,-0.4276601,-0.35812834,-0.19670598,-0.20202689,-0.35417742,0.0933921,0.13159116,-0.05413372,-0.284281,-0.13609573,-0.18925479,-0.16859327,0.0063643004,-0.09183899,-0.2023351,0.22552651,0.33490995,-0.37035245,0.28458807,0.14027527,-0.11432933,0.343416,-0.064170144,-0.72208846,-0.30577245,-0.3213827,0.5607997,-0.13292675,-0.11344234,-0.19292319,-0.0010496747,0.1390875,0.06671414,0.080438755,-0.7385892,0.10430128,-0.021231005,0.11475957,-0.41335168,-0.4098865,0.10158173,-0.7227581,0.04340291,-0.015040812,-0.117287874,0.88897073,0.21903332,-0.5498654,-0.17513017,0.09297186,0.277012,0.23233895,0.020716855,0.24508086,0.34393457,0.0917751,0.263596,-0.10783399,-0.4110881,0.05244724,-0.13323994,0.70088756,0.24741268,0.084161796,-0.040182922,0.4697898,-0.1270908,0.03501589,0.07796396,0.2942074,-0.14110917,-0.19731824,0.31510785,-0.66423416,0.76396924,0.64278543,0.49276006,0.54684985,-0.58899564,0.48845726,-0.3498602,0.23795941,-0.18245073,0.17642128,0.27331477,0.22735448,-0.18200345,0.1362131,-0.052708454,0.19152492,0.8270701,0.26203457,-0.43585652,0.30507797,0.07104601,-0.05181262,-0.34450015,-0.07883414,-0.24686211,0.17154925,-0.48830608,0.24532838,-0.09531674,0.5577176,-0.1338084,0.6227715,0.39048144,0.15836188,0.3966283,0.17398877,0.29265216,-0.41902053,0.3115472,0.015176801,-0.93394667,0.22124478,-0.11109273,-0.14201795,-0.7468427,-0.27341208,-0.39953145,0.45443317,0.1544413,0.10408394,0.15771407,-0.05505521,0.5240883,-0.32703158,0.102929585,-0.083760485,0.18176547,-0.39649284,0.034974687,-0.25669444,0.0884793,0.6787535,-0.4100614,0.42616135,0.27738637,0.32466438,0.58981127,-0.1380584,-0.041802052,-0.30746484,0.34035075,0.54449195,0.3856707,0.42426482,-0.32342684,-0.06836939,0.34292862,-0.1762269,-0.25019756,-0.22482985,0.1380665,-0.38801825,0.2048518,-0.6650368,0.3969376,0.06155766,0.17830579,-0.12693778,-0.01131601,-0.11825852,0.33458802,-0.2570902,-0.030117288,-0.27233177,-0.433407,0.05238226,0.5360863,-1.1962329,-0.5456316,-0.27872705,-0.15298699,0.26873755,0.22285263,-0.30181247,-0.12117563,-0.16885553,0.12041352,0.29748935,-0.2572472,0.36305463,0.42838284,1.011688,0.059915107,-0.81807566,0.33591005,0.061641816,0.030511776,-0.11295779,0.30685782,-0.12145451,0.26304427,0.24025878
P60228	0.46780658,-0.15717295,-0.59022987,-0.30274856,-0.023801917,-0.57657933,0.08878728,-0.064703755,-0.124127135,-0.22313881,-0.34280586,-0.3305529,0.33014014,0.055160187,-0.55444974,-0.6583493,0.273853,0.032432713,0.28298056,-0.04720752,0.08914782,-0.11662348,0.3486233,0.019566998,0.045861587,0.24605234,-0.11102823,-0.33283097,0.09654593,-0.17623141,0.13261706,-0.18448453,0.5708671,0.22919823,0.09362442,-0.21163446,-0.18414095,0.4943483,-0.59946656,0.22397597,0.14166401,0.2571889,-0.8472089,-0.42374015,0.15015075,0.1644738,-0.1617203,-0.012507761,-0.69864196,1.1605504,0.41263363,-0.51222295,-0.05206774,0.049890395,0.46981254,0.11281256,0.07809546,0.09938582,0.66025037,0.33193636,0.3906969,0.14713457,-0.14019501,0.3307823,-0.36844015,0.6130742,0.06690655,-0.11554677,-1.0386697,0.22528787,-0.19171321,-0.014298893,0.44077173,-0.08522544,-0.22468881,-0.22966875,0.4032407,-0.16711225,0.45766568,0.23381312,0.30623463,0.6670143,-0.611151,-0.1390299,0.09138441,-0.16542983,0.37459588,0.098316856,0.36157817,0.032698743,-0.21242757,-0.43358544,-0.19297238,0.06521525,0.5356549,0.42955533,-0.21167998,0.031775683,0.28521624,-0.28451374,-0.29871628,0.13688038,-0.17498411,0.08017188,-0.42432386,0.23751041,0.2692183,0.08812263,-0.23183654,0.47882012,0.639638,0.54141164,0.39714065,0.8387009,0.41718018,-0.29974955,0.4034721,-0.21932921,-0.7927089,0.35607532,0.03332099,-0.30287564,-0.23661801,-0.11354686,0.027163155,0.65647346,0.6935001,-0.043741662,-0.30265224,-0.41864714,-0.1623916,-0.104127705,-0.17730479,0.25965235,0.07329317,-0.013240688,0.1831865,-0.62395716,0.11390104,0.6077018,-0.11182567,0.2189448,-0.12186132,0.21034537,0.8522091,0.032613125,0.24621688,0.100440904,0.4380617,0.5891303,0.39733467,0.52619636,-0.18453684,-0.5568713,0.17050706,-0.08354047,-0.1138644,-0.46869728,0.0073702945,-0.17714715,-0.015073663,-0.20424034,0.21478103,-0.24916855,-0.17054716,-0.20362186,0.057137594,0.137136,0.089408875,-0.09544714,0.30935803,-0.020008389,-0.47153404,0.09120726,0.85495716,-1.3299134,-0.43958485,-0.14707997,-0.2356662,0.061092436,0.54649204,-0.1791211,0.10208704,-0.40623307,0.16199525,-0.1991288,-0.15203452,0.38233995,0.14009897,0.6828214,0.07588611,-0.7555364,0.40652183,0.084881075,-0.5471634,-0.36929333,0.58322704,0.19104563,-0.04058136,0.5737353
Q15006	0.23401219,-0.25746468,-0.30368423,-0.21406358,0.24159107,0.12845315,0.5885472,-0.08359802,-0.00034333311,-0.10825122,-0.25823015,0.105764784,-0.20191187,-0.35660687,-0.25158674,0.15184371,-0.25124717,-0.42031562,-0.112392575,0.4994456,-0.47786647,-0.20508026,0.38168842,0.49393022,0.093032375,-0.3028529,0.3917634,-0.8545949,-0.13905664,-0.4256343,-0.19321129,-0.7184788,0.28189287,0.33786863,0.037218608,0.5257674,-0.102281734,0.52665013,-0.6357784,-0.17934373,0.6548634,0.1715463,-0.7182476,0.31855813,0.16982432,0.035967436,-0.10534024,-0.123721406,-0.15787366,0.0852622,0.70778185,-0.32870975,0.14616655,0.62745184,0.4478666,0.5155187,0.21317165,-0.2945002,0.5714208,-0.35058442,0.609635,0.073698975,0.0046470775,0.2854962,-0.061826985,0.95384866,0.43345138,-0.2438412,-0.045833338,-0.31797948,-0.13578178,-0.21912204,0.74237466,0.38009948,0.06913298,0.69740814,0.75807005,0.1685384,-0.07093975,-0.26131257,0.40345788,0.45342597,-0.33418766,-0.45695853,0.24405482,-0.032310016,0.41061932,0.5744931,0.5223186,0.09664458,0.0012956411,-0.04019311,0.706655,0.42935526,0.171619,-0.14978424,0.06467655,0.5748524,-0.1292848,-0.399201,-0.38006207,0.2752536,-0.71568394,-0.1015133,-0.52126414,0.4228715,0.35730284,-0.06212254,-0.69068235,0.27212492,1.0164217,0.38630217,0.36039296,0.6102874,0.1784036,0.20668031,-0.109921925,-0.28115278,-0.33474535,0.45943713,-0.41663405,0.20102453,-0.11714635,-0.39590803,-0.0050693033,0.52965456,0.38679433,0.54825634,-0.22962858,-0.55404925,-0.54055965,-0.2697001,-0.08762799,0.3640053,-0.52029026,-0.25476652,0.38045508,-0.5568094,0.26970965,0.36147943,0.03631537,0.16892847,-0.5706002,0.3284391,0.5299276,0.33118498,-0.05210023,-0.71642935,0.23731431,0.14937717,-0.20482823,-0.45287216,0.29609856,-0.88490564,0.62608474,-0.17193863,-0.15585648,0.3765619,-0.002193194,0.08129992,-1.0875759,-0.528746,-0.05836805,-0.018904006,0.47886887,-0.10562024,-0.27533942,-0.16381262,0.17957357,-0.442012,-0.028566966,0.021693652,-0.57044226,0.28056237,0.45420134,-0.13677439,-0.089618154,0.3931303,-0.37324968,0.10705656,0.39164716,-0.20036708,-0.41415676,-0.8029725,0.37469926,0.1734189,-0.12312209,0.19439916,-0.23503797,0.4292096,-0.66141886,0.136354,0.35091218,-0.4013301,-0.21002607,-0.00034072663,-0.08193237,0.18720867,0.06120287,0.714263
Q9NRG0	0.291358,-0.35790235,-0.72160417,-0.2613201,0.38046053,-0.10840955,-0.09497512,0.09134805,0.7773107,0.35991046,-0.56423247,0.113305904,-0.032982893,-0.7998304,0.01769903,-0.36742997,-0.28497928,-0.034414794,0.74950683,-0.038963478,-0.37018412,-0.29686144,0.28301388,0.11881015,-0.29193115,-0.07301347,0.4450749,-0.5748069,0.22496554,-0.09631667,0.36996314,-0.5097321,-0.03942781,0.5315154,0.025715606,0.10940366,0.60849947,0.53297496,-0.22562613,0.0478243,0.6091734,0.5693931,-0.7195186,0.30318224,0.24481618,-0.36582947,-0.028455317,-0.00650975,-0.3197867,0.37810686,0.7795258,0.48772636,-0.068464115,0.15717572,0.25725943,-0.3449616,0.037085697,0.01987325,0.37703907,-0.81552815,0.29920694,-0.2830989,-0.24697243,0.0032725034,-0.31811452,0.15165384,0.13191429,-0.29024723,-0.20639177,-0.06954765,0.44598687,-0.3662379,0.43767294,0.062443595,-0.2602965,-0.054851063,0.014471397,0.13626416,0.40035793,0.021809338,-0.11854138,0.46129358,-0.16412263,0.06012981,0.02297314,0.047751557,0.5118731,0.5765049,0.7838348,0.051707037,-0.07579244,-0.5275785,0.28069058,0.64943635,0.3564643,0.0014678473,-0.67314947,0.21885973,0.22602782,-0.44723812,-0.5378663,0.15515393,-0.55035436,-0.2787297,-0.36894786,0.2672512,0.07547064,0.26906577,-0.046325427,0.5913947,0.8386167,0.40581268,0.23223491,0.45516077,0.7743453,0.9330534,-0.010625062,-0.4362823,0.1546678,0.085159354,-0.36612785,0.35688314,-0.07483253,-0.4828082,0.14992496,0.5357796,0.13172093,0.46614495,-0.6117803,0.6108743,0.07551593,-0.14298746,-0.14211433,0.14615865,-0.08617026,-0.12435435,-0.08195711,-0.2969262,0.022217726,0.6477679,-0.07284988,-0.3200634,-0.28371897,0.57779473,0.62522244,-0.031849004,0.41040146,-0.34443176,0.30897406,0.19752458,0.063144065,-0.28810456,-0.12936133,-0.5257784,0.14885567,-0.3064404,-0.386595,0.64989215,-0.01446794,0.16764781,-0.43406156,-0.6337585,0.29360548,-0.11982411,0.3001143,-0.3106337,0.34550256,0.37869552,0.35133377,-0.31120357,-0.2875887,-0.1412244,-0.45177218,0.39347512,0.14710766,-0.3394621,-0.32519513,0.16107549,-0.039186317,0.1518757,0.21090896,-0.48736185,-0.4264929,-0.6457898,0.13053212,-0.6357316,0.2599537,0.65451545,-0.22230259,0.56370354,-0.25518894,0.20554055,0.43289825,0.13899547,0.06553068,0.14868653,0.41312635,0.8958495,0.477367,0.7402795
P14866	0.39701256,-0.19750744,-0.34680903,-0.51413554,-0.35695785,-0.06346386,-0.1285151,-0.685837,-0.11152324,-0.13903002,-0.2852648,-0.15256125,-0.1868566,-0.5248939,-0.7098885,-0.65160817,0.10191005,0.054568086,0.070173636,-0.50497067,0.14625204,-0.13567407,0.232277,0.12734462,0.00028715827,0.260387,0.24819519,-0.7427744,0.010054716,-0.0039595775,0.545362,-0.044606782,0.25372088,0.31035432,-0.20191859,0.34048146,0.2755934,0.48618335,-0.3882648,-0.026881332,0.310902,0.12520012,-1.1557858,-0.26957282,0.23126826,-0.32717648,-0.17434943,-0.2906854,-0.53807795,0.6523061,0.28342384,-0.5088285,-0.40969816,0.01696082,0.30652297,0.19680418,-0.19486168,0.18312031,0.40472943,0.15155882,0.31281322,0.48634568,-0.450732,0.29696018,-0.33824444,0.6549014,0.14843561,-0.023815187,-0.1562132,0.3155204,-0.15554486,0.023735352,0.32138717,-0.096950784,-0.10971842,-0.48791364,0.059209984,-0.73606664,0.57663524,0.47203195,0.3578871,0.7077513,-0.704012,0.20679294,0.037902493,0.091895305,0.0963941,0.24895225,0.35744825,0.1894255,0.035201076,-0.21110569,0.12984604,0.00041717585,0.5103186,0.47175476,-0.30817917,0.32242084,-0.033037584,-0.22551534,-0.4449059,-0.055422723,-0.5537266,0.22875056,-0.38738936,-0.26219428,0.35816532,0.17592679,-0.03555083,0.39068723,0.29837352,0.29472995,0.015585922,0.66204333,0.6282378,-0.2351358,0.028093502,-0.0039937324,-0.7210903,0.3914464,-0.21050505,-0.0005666951,-1.0728167,-0.42074215,-0.12229342,0.2657287,0.5928093,0.004072555,0.087618224,-0.43242168,-0.39599636,-0.19395855,0.038334426,0.5589834,-0.108194664,-0.28483164,-0.0037641085,-0.08767154,0.32784343,0.5030954,-0.47312495,0.23548043,0.07791775,0.5101867,0.35643044,0.09081893,0.16379155,0.57571477,0.6485886,0.11648751,-0.015336524,0.16539098,-0.39893878,-0.27841273,0.36961764,-0.23835063,-0.3096155,0.24193326,0.16367164,0.04898698,-0.506256,-0.5861489,0.39125073,-0.0083262315,-0.46460432,-0.27027833,0.49178216,-0.18812197,0.4911753,-0.09659785,0.3917753,0.07073696,-0.68316483,-0.008516992,0.6126563,-0.9083013,-0.47831178,-0.19612016,-0.31329465,0.16713524,0.4133273,-0.69149137,-0.13614696,-0.59261644,0.074755535,-0.1416295,-0.08486683,0.47958434,-0.07841336,0.42901048,0.11557886,-0.6897797,0.12186888,0.45808503,-0.15021822,-0.35889223,0.3586934,0.1256637,0.077766635,0.748364
Q15428	0.5685848,0.120742194,-0.2942703,-0.5923023,-0.037594527,-0.19712201,-0.08257726,-0.5442223,0.17633797,0.19903485,-0.87662846,-0.3813298,-0.7193619,-0.43673962,-0.49626106,-0.14981264,0.023700386,-0.46092626,-0.11380773,-0.116417006,-0.06992995,-0.4641121,0.60747135,0.7457175,0.04119211,0.21369943,0.3140942,-0.47481698,-0.66648024,0.03455663,0.51092136,-0.22556677,0.20962188,-0.16363312,-0.39100972,0.82139546,0.5914925,-0.154226,-0.79836196,-0.19302821,0.2670485,0.38951766,-0.6630809,0.21756782,0.029974002,-0.4262665,-0.338483,0.18260261,-0.4217635,0.61399573,0.3984765,-0.20492634,-0.5562228,-0.04377606,0.21527156,0.8553208,-0.07568777,-0.2401188,0.48617834,-0.07968479,-0.0029535585,0.36077982,-0.6059813,-0.12106293,-0.06640452,0.5399569,0.6296903,-0.036080115,-0.009501199,0.16350122,-0.03948035,-0.30767265,0.23620485,0.003897175,-0.48329678,-0.42100975,0.13594638,-0.3738378,0.7455049,0.23020604,0.3002757,0.7898793,-0.806641,0.32505706,0.18269563,0.06867181,-0.018931916,0.27353206,0.37295747,0.5559333,-0.12539546,-0.24776705,0.04665332,0.2267786,0.73192924,0.23644021,-0.38386476,0.08266017,-0.084630825,-0.107622266,-0.5317781,0.22044753,-0.35714084,0.111857966,-0.7084149,0.029375302,0.31479228,0.42334628,-0.03796913,0.17708972,1.1143497,0.16586286,0.319086,0.83175844,0.78787947,-0.15961996,-0.19658571,0.094246134,-0.36369562,0.4605327,-0.14296187,0.08049602,-0.8222188,-0.18437706,0.08482439,0.327824,0.2829175,0.66084164,0.05545948,-0.08690921,0.31818414,-0.12831712,0.4209792,0.5125315,-0.052913163,-0.33529553,-0.05057198,0.12727292,0.27859014,0.28687796,0.08044078,0.07858201,0.2708914,0.58300495,0.38305172,-0.075097434,-0.39940405,-0.071595244,0.3689227,0.7261727,0.14534853,0.22360213,-0.07629436,-0.061681595,0.59718674,-0.11908348,-0.35947207,0.50611573,0.07309428,-0.25858027,-0.46394095,-0.7056506,0.21400033,-0.13750254,-0.499541,-0.22620246,-0.0387412,-0.22746076,0.04429943,-0.3425315,0.053116463,-0.6666155,-0.5104462,-0.45012426,0.2859994,0.028485715,-0.11846018,0.2516784,-0.1685501,-0.1672296,0.14092079,-0.6759086,-0.25531325,-0.8463835,0.074887685,-0.27448648,0.33625117,0.47332066,0.023353605,-0.1389961,0.021219801,-0.22545512,-0.0075492566,0.28080672,0.076034315,-0.29617044,0.3856154,0.18885227,-0.06656487,0.056994963
P22087	0.16362649,0.22624286,-0.416613,-0.12465772,-0.46769372,-0.36061457,-0.14176257,-0.60885334,0.011512841,-0.39543277,-0.6051081,-0.4937805,-0.05374886,-0.008923461,-0.64211434,-0.552709,0.20844117,0.34072527,0.3312891,-0.14813177,-0.037977353,-0.37833932,0.188714,-0.24122289,0.54010653,-0.02025088,0.6011152,-0.48385143,0.45441777,0.14758137,0.47133535,-0.1598656,0.4455841,0.3306255,-0.16723432,0.19393966,0.34327868,0.42840543,-0.5176545,0.06259028,0.08170985,0.052758817,-0.40115732,-0.12317421,-0.18909635,-0.053282376,-0.5856832,0.27515134,-0.15582609,0.66165125,0.85017854,-0.13713169,-0.03559062,0.0045955568,0.10064208,-0.047554214,0.1071704,-0.49547678,0.48905212,0.009492424,0.33862785,0.08326828,-0.42329606,0.47895157,-0.36503428,0.58329505,0.33001888,0.32221004,-0.11865981,0.49100357,-0.40089783,-0.26510665,0.31522703,-0.030798968,0.075907215,-0.036779154,-0.008023703,-0.29298958,0.40627727,0.0066132504,0.353922,0.5591357,-0.8345703,0.19443692,0.18944786,0.090013854,-0.04468086,0.31177074,-0.04902191,0.36691993,0.17552637,-0.112707816,0.18686657,0.37361774,0.33851087,0.106717065,-0.3082222,0.09483009,-0.6807543,-0.53779763,-0.35707074,-0.13305934,-0.50245005,0.22378042,-0.5374785,-0.08732926,0.7480805,0.23813595,0.3627581,0.31671184,0.4063157,0.5904481,0.058327068,0.5771642,0.85330474,-0.32095566,-0.21027099,-0.24182752,-0.68623275,0.4296123,-0.3071508,-0.123994224,-0.596125,-0.580329,-0.24644278,0.1953898,0.5283967,0.27320492,-0.0737657,-0.049083024,-0.16972975,-0.28190908,0.7618322,0.60223854,-0.09914907,-0.11274101,0.23817898,0.035503063,0.4368555,0.58348536,-0.2874412,-0.040416453,0.4990767,0.2820158,0.9474001,0.20375147,0.34687433,0.5428171,-0.4889489,0.34561452,0.22031687,0.19731653,-0.46504292,-0.377495,0.30283073,-0.46643722,0.011704168,0.22910361,-0.027528083,0.34548536,-0.17183173,-0.057711884,0.42619187,0.028744252,-0.17164648,-0.26378083,0.4045801,-0.44147357,0.55421317,-0.2997892,-0.07321819,0.019938707,-0.36285228,-0.12411524,0.2872392,-0.20683688,-0.22409208,-0.093362555,0.1158968,-0.010143572,0.20185949,-0.1296338,-0.11307013,-0.5446596,-0.13602132,-0.3764933,0.117014006,0.2501373,-0.26788124,0.28144562,0.006709601,-0.6344636,-0.21010646,0.367876,0.42427105,-0.37916476,0.44501752,-0.34001666,0.043325342,0.8805909
P36954	0.18085217,0.076723106,0.053628836,-0.596505,-0.4043776,-0.42146474,-0.36128858,-0.5461339,0.29686123,0.011989539,-0.040646587,-0.46681675,-0.4337669,-0.8302216,-0.38651803,-0.48981053,0.04941907,0.07670018,0.37271938,0.048944004,0.03179877,-0.34286207,0.6157173,0.50041074,-0.3194715,0.19053721,0.25723684,-0.53365016,0.040159203,0.0023335353,0.40627253,-0.3848504,-0.62497413,0.090996094,-0.6689184,0.33411923,0.77447295,0.28378767,-0.5937562,-0.118887514,0.14886965,0.22840174,-0.63225865,0.43743837,0.33714265,-0.56389636,-0.27642393,-0.15638286,0.079491735,-0.01638256,0.47128022,-0.3730128,-0.13452284,0.20418945,0.2386711,-0.15549578,0.10608099,-0.31845748,0.22836877,-0.24296007,0.26251307,-0.05039913,-0.9575251,-0.022179127,0.1597229,0.35423264,-0.16634747,0.4978906,-0.18083884,0.4850779,-0.08476439,-0.25743344,0.011534934,-0.104539774,-0.27304238,-0.13371114,-0.05132536,-0.546687,0.7165722,0.13074017,0.572839,0.4249905,-0.40068302,0.4929713,0.03379607,0.32636464,0.15282992,0.08054004,0.40987715,0.35455427,0.20047699,-0.65862226,0.31929684,0.10915617,0.709144,-0.0189584,-0.59399647,0.4073198,0.4899326,-0.2822515,-0.38529566,-0.17928712,-0.25911677,0.20053458,-0.509312,0.10334506,0.2954363,0.55248797,0.22857347,0.4600776,0.3380975,0.45000646,0.13288674,0.4731781,0.82799834,-0.028710322,0.23522836,-0.0046525965,-0.75592685,-0.041200623,-0.28045887,0.25290325,-0.99266154,-0.20744073,-0.41622773,-0.0890392,0.18940854,0.29166612,0.041197643,0.16945006,0.3497072,-0.22000864,0.5507845,0.40125397,-0.24042435,-0.22025281,0.312833,-0.19003631,-0.33630553,0.11614551,-0.55421966,0.119362324,-0.0037398203,0.6146852,0.965961,0.3240234,0.23564331,-0.20454012,0.64514816,0.057080574,0.33652532,0.61134577,-0.43894663,-0.13805385,0.5739884,-0.13661963,-0.10671447,0.54348546,0.14971411,-0.09228737,-0.89384604,-0.6927522,0.0766698,-0.11920111,0.022177607,-0.3998946,0.3443317,-0.14866465,0.59907615,-0.61862296,-0.38869768,-0.41724825,-0.67468727,-0.14057808,-0.21841516,-0.51761746,-0.39098155,-0.2885082,-0.4062967,0.2557704,0.111169666,-0.31955504,-0.4610045,-0.411378,-0.47735047,0.0364254,0.53618,1.0557728,0.42486238,0.39607826,-0.2897138,-0.3055289,0.3626793,-0.028242726,0.009379026,-0.10879192,0.4152036,0.69035625,0.5140251,0.11576983
Q02543	-0.108458914,-0.64916784,0.04632638,-0.39247507,-0.5288113,-0.4369724,0.46695322,-0.21091259,0.33436015,-0.23909141,-0.25609848,-0.3241564,-0.14117077,-0.47841546,-0.51205146,-0.09872362,0.11636437,0.25503296,0.18419597,0.3536797,-0.06054457,0.05898921,0.6301201,0.35272908,-0.36532292,0.078563035,-0.08784046,-0.66481787,-0.034237232,-0.14418538,-0.080524996,-0.17430231,0.0006161662,0.15125707,-0.20135047,-0.13717203,0.24352992,0.33377942,-0.8967746,0.2579336,0.47138047,0.06674246,-0.9736336,-0.22492918,0.15789102,-0.13035877,-0.39995834,-0.17342827,-0.6177228,0.9061909,0.459832,-0.37379172,-0.19080226,0.20422556,0.4302085,0.29285708,0.28835264,0.033720423,0.57678676,0.09708056,0.6774164,0.035453323,-0.75214064,0.21827617,-0.0707655,0.3516509,-0.053853825,-0.13436185,-0.27438286,0.18470539,0.14076884,-0.21712953,0.54962826,0.3868231,0.01367834,0.5974224,0.24854797,-0.42119887,0.37893653,0.07044538,0.25695822,0.21894878,-0.6030868,-0.45058104,0.050419863,0.4776602,-0.031881418,-0.3243581,0.2421327,0.5203708,0.09056314,-0.14010413,0.40390122,0.12793607,0.321655,0.2885319,-0.32664737,0.14130335,0.11613679,-0.21131614,-0.45845363,0.06083012,0.042222675,0.19447926,-0.3880542,0.22092131,0.31587732,0.5186241,-0.28940853,0.47860909,0.51304424,0.6724152,0.06961024,0.6127674,0.8410051,-0.2803853,0.20897102,-0.17724149,-0.6993727,0.034697276,0.12621577,0.1036919,-0.5517418,-0.26642132,-0.47763166,0.4438505,0.7837581,-0.08478487,-0.007113964,-0.3223313,-0.32597676,-0.28070349,-0.618466,0.51205105,-0.262181,-0.44424543,0.23471095,-0.52602446,0.19382817,0.24529672,-0.03107484,0.17666961,-0.2737362,0.4135966,0.5755376,0.8151822,-0.11563219,-0.21636814,0.7514161,0.27557242,0.28603217,0.7500741,-0.31884673,-0.9751688,0.5408034,0.0840554,-0.40474463,-0.28130618,0.2346168,-0.21522243,-0.4733984,-0.9755546,-0.04741743,-0.007392351,0.10503072,0.030584438,0.07706881,0.51387656,0.34202898,-0.15455699,0.43072087,-0.4232813,-0.3572061,0.27452493,0.25412086,-0.91508085,-0.9944345,-0.3029507,-0.4787989,0.26666033,0.3299627,-0.25174478,0.07811595,-0.17343314,-0.20420912,0.15213312,-0.04392813,0.7225162,0.42111537,0.7486712,-0.2281188,-0.63236076,0.7577089,0.49697828,-0.31657442,-0.34592864,0.15985164,0.21375157,0.09496301,-0.010702599
Q3B726	-0.45581752,0.7406426,0.02083265,-0.2979243,-0.80271834,-0.5004003,-0.09611206,-0.71568567,0.10733256,-0.30237585,-0.19323371,-0.8907983,-0.7714548,-0.46389613,-0.59704256,-0.42050427,0.49314123,0.058682065,0.42253467,0.2271702,0.11038937,-0.1358645,0.4757908,0.35212442,-0.06821412,-0.05752517,0.30750212,-0.13477214,-0.044509333,0.37967703,0.028029718,-0.3663724,-0.46599612,-0.064674936,-0.7713828,0.11122352,0.8842765,0.42222017,-1.270646,0.10077296,0.13623239,0.58372873,-0.08895422,0.83952004,0.18627158,-0.66934466,-0.59906644,0.4893673,-0.2139313,-0.038494736,0.35017246,-0.38495737,0.26565573,0.43077976,-0.1247045,0.1358112,-0.280737,-0.5291523,0.26919124,0.052408796,0.49115014,-0.29938895,-0.5552213,0.21026589,0.0281694,0.080819294,-0.055347964,0.587282,-0.3073158,0.36996603,-0.18093432,-0.16360809,-0.11034233,-0.019458592,-0.12395714,0.29221034,-0.25178394,-0.2367238,0.09812064,0.2440666,0.4143358,0.32128543,-0.17266478,0.3978366,0.34923914,-0.13808735,0.52223694,0.53722113,0.3260889,0.33962744,0.11536409,-0.9862589,0.24773669,0.30422905,0.6302068,0.26495263,-0.47735506,0.24725513,0.52444327,-0.53156465,-0.54573643,-0.50016016,-0.28402528,-0.028454537,-0.5046601,0.002524444,0.48899487,0.22676054,-0.05896629,0.31391364,0.85946953,0.47038996,0.26151294,0.20465425,0.977803,0.12985039,0.37738904,-0.38307473,-0.32285538,-0.049049195,-0.4462356,0.3768593,-0.31031424,-0.26813915,0.024617763,-0.18607031,0.33523554,0.3046322,-0.08091038,0.32993606,0.6844167,-0.4495645,1.0409024,-0.020912793,-0.08241005,-0.035852123,0.14236744,-0.49919128,0.16802236,0.49990934,-0.17592208,0.41844904,0.11150312,0.023583481,0.9754052,0.83521473,0.087695114,-0.3861558,0.3806907,0.2171566,0.5553835,0.10867513,-0.4680518,-0.1726276,-0.1948902,0.24956182,0.29345274,0.70568115,0.14987385,0.43999928,-0.92700356,-0.57287,-0.24007858,-0.09765397,0.60476476,-0.7004703,0.41518155,-0.6042311,0.52560294,-0.4647662,-0.29831484,-0.45163327,-0.7537989,-0.113243856,-0.14189526,-0.13206987,0.20265204,0.09438793,-0.23523724,-0.18606949,-0.42114362,0.10490166,-0.09833317,-0.4085391,-0.36466408,-0.29632568,0.3676672,0.93097055,-0.028072331,-0.1270829,-0.32804325,-0.09822043,0.053175107,-0.20420884,0.10617428,0.14535767,0.32055482,-0.022745226,0.53298867,0.13054045
O00401	0.038619265,-0.38498905,-0.42853618,-0.356503,0.07225266,-0.14771761,-0.19795169,-0.3459143,-0.17282757,0.1873163,-0.4255813,-0.36034822,0.37686086,-0.14387423,-0.12892854,0.25882643,0.5506004,0.16132383,0.0863045,-0.031080173,-0.19170256,0.30185354,0.66233915,0.3196832,0.37480456,-0.36084232,0.46720088,0.054134816,0.4636457,-0.33194506,0.5335445,-0.11762938,0.61461914,0.2516302,0.0870823,-0.29442808,0.27152655,0.3395765,-0.7894387,-0.19254819,0.18844675,-0.0617117,-0.35018906,-0.007542917,0.45599803,-0.2579093,0.021862142,0.076263,-0.61750954,0.6359422,0.14737983,-0.24470848,-0.40732715,-0.2386489,0.12144189,0.2975301,0.13086663,-0.06386426,0.39899868,-0.4343552,0.08576133,0.54478836,-0.6015796,0.052229535,-0.19121605,-0.3798456,-0.16749604,0.3343358,-0.24147524,-0.07112262,-0.37664914,-0.21001533,0.28098482,-0.063312605,-0.7405382,-0.23123108,0.670211,-0.03633836,-0.46133512,-0.33586496,0.50287884,0.1420836,-0.3096793,0.13939503,0.19383253,0.16972128,-0.18971522,-0.05112538,-0.3216313,-0.14403631,-0.5544891,0.02178199,0.16931471,0.23723786,-0.012872074,0.2926536,0.06318535,0.36731425,-0.30070636,-0.39818117,0.27729386,-0.21793787,-0.5738938,-0.23861934,-0.12447909,0.2557232,0.24104293,0.06285862,-0.31457806,-0.13829093,0.16349772,0.36684877,0.38214117,0.6950971,-0.3416146,-0.24492836,0.1884031,-0.5419411,-0.5974279,0.27586687,0.08060285,-0.21215813,-0.16349287,-0.35084477,-0.20200095,0.32314998,0.67340547,0.18345296,-0.32762352,0.14560515,0.3522984,0.1589173,-0.04651598,0.47053966,0.031236477,0.16468574,0.48751736,-0.5264856,0.2658369,0.34826726,-0.12729593,-0.20674992,0.078322135,-0.022569902,0.49317104,1.0346981,0.31516364,-0.5225546,0.06707287,-0.2851048,0.28135654,0.8029506,0.15762307,0.12830661,0.2886308,-0.4705401,-0.57646054,-0.07964569,-0.42744672,-0.56019735,0.49698716,-0.5170214,0.14988375,-0.49072778,0.22580774,-0.22665666,0.16285166,-0.4119512,0.111787826,0.021896297,-0.035313983,-0.49147907,-0.09753996,0.46786588,0.3893033,-0.42914277,-0.36281174,0.21867158,-0.38207278,-0.12088492,0.36927414,-0.7140855,-0.41115463,-0.22120216,-0.06602082,-0.13492478,-0.46719238,0.15460436,0.37325376,-0.17265971,-0.11681258,0.060845602,0.084308416,0.953967,0.29373285,-0.9053925,0.35116646,0.29555684,0.0036410384,0.1726676
